{"learner":{"attributes":{"scikit_learn":"{\"_estimator_type\": \"regressor\"}"},"feature_names":[],"feature_types":[],"gradient_booster":{"model":{"gbtree_model_param":{"num_parallel_tree":"1","num_trees":"800"},"iteration_indptr":[0,1,2,3,4,5,6,7,8,9,10,11,12,13,14,15,16,17,18,19,20,21,22,23,24,25,26,27,28,29,30,31,32,33,34,35,36,37,38,39,40,41,42,43,44,45,46,47,48,49,50,51,52,53,54,55,56,57,58,59,60,61,62,63,64,65,66,67,68,69,70,71,72,73,74,75,76,77,78,79,80,81,82,83,84,85,86,87,88,89,90,91,92,93,94,95,96,97,98,99,100,101,102,103,104,105,106,107,108,109,110,111,112,113,114,115,116,117,118,119,120,121,122,123,124,125,126,127,128,129,130,131,132,133,134,135,136,137,138,139,140,141,142,143,144,145,146,147,148,149,150,151,152,153,154,155,156,157,158,159,160,161,162,163,164,165,166,167,168,169,170,171,172,173,174,175,176,177,178,179,180,181,182,183,184,185,186,187,188,189,190,191,192,193,194,195,196,197,198,199,200,201,202,203,204,205,206,207,208,209,210,211,212,213,214,215,216,217,218,219,220,221,222,223,224,225,226,227,228,229,230,231,232,233,234,235,236,237,238,239,240,241,242,243,244,245,246,247,248,249,250,251,252,253,254,255,256,257,258,259,260,261,262,263,264,265,266,267,268,269,270,271,272,273,274,275,276,277,278,279,280,281,282,283,284,285,286,287,288,289,290,291,292,293,294,295,296,297,298,299,300,301,302,303,304,305,306,307,308,309,310,311,312,313,314,315,316,317,318,319,320,321,322,323,324,325,326,327,328,329,330,331,332,333,334,335,336,337,338,339,340,341,342,343,344,345,346,347,348,349,350,351,352,353,354,355,356,357,358,359,360,361,362,363,364,365,366,367,368,369,370,371,372,373,374,375,376,377,378,379,380,381,382,383,384,385,386,387,388,389,390,391,392,393,394,395,396,397,398,399,400,401,402,403,404,405,406,407,408,409,410,411,412,413,414,415,416,417,418,419,420,421,422,423,424,425,426,427,428,429,430,431,432,433,434,435,436,437,438,439,440,441,442,443,444,445,446,447,448,449,450,451,452,453,454,455,456,457,458,459,460,461,462,463,464,465,466,467,468,469,470,471,472,473,474,475,476,477,478,479,480,481,482,483,484,485,486,487,488,489,490,491,492,493,494,495,496,497,498,499,500,501,502,503,504,505,506,507,508,509,510,511,512,513,514,515,516,517,518,519,520,521,522,523,524,525,526,527,528,529,530,531,532,533,534,535,536,537,538,539,540,541,542,543,544,545,546,547,548,549,550,551,552,553,554,555,556,557,558,559,560,561,562,563,564,565,566,567,568,569,570,571,572,573,574,575,576,577,578,579,580,581,582,583,584,585,586,587,588,589,590,591,592,593,594,595,596,597,598,599,600,601,602,603,604,605,606,607,608,609,610,611,612,613,614,615,616,617,618,619,620,621,622,623,624,625,626,627,628,629,630,631,632,633,634,635,636,637,638,639,640,641,642,643,644,645,646,647,648,649,650,651,652,653,654,655,656,657,658,659,660,661,662,663,664,665,666,667,668,669,670,671,672,673,674,675,676,677,678,679,680,681,682,683,684,685,686,687,688,689,690,691,692,693,694,695,696,697,698,699,700,701,702,703,704,705,706,707,708,709,710,711,712,713,714,715,716,717,718,719,720,721,722,723,724,725,726,727,728,729,730,731,732,733,734,735,736,737,738,739,740,741,742,743,744,745,746,747,748,749,750,751,752,753,754,755,756,757,758,759,760,761,762,763,764,765,766,767,768,769,770,771,772,773,774,775,776,777,778,779,780,781,782,783,784,785,786,787,788,789,790,791,792,793,794,795,796,797,798,799,800],"tree_info":[0,0,0,0,0,0,0,0,0,0,0,0,0,0,0,0,0,0,0,0,0,0,0,0,0,0,0,0,0,0,0,0,0,0,0,0,0,0,0,0,0,0,0,0,0,0,0,0,0,0,0,0,0,0,0,0,0,0,0,0,0,0,0,0,0,0,0,0,0,0,0,0,0,0,0,0,0,0,0,0,0,0,0,0,0,0,0,0,0,0,0,0,0,0,0,0,0,0,0,0,0,0,0,0,0,0,0,0,0,0,0,0,0,0,0,0,0,0,0,0,0,0,0,0,0,0,0,0,0,0,0,0,0,0,0,0,0,0,0,0,0,0,0,0,0,0,0,0,0,0,0,0,0,0,0,0,0,0,0,0,0,0,0,0,0,0,0,0,0,0,0,0,0,0,0,0,0,0,0,0,0,0,0,0,0,0,0,0,0,0,0,0,0,0,0,0,0,0,0,0,0,0,0,0,0,0,0,0,0,0,0,0,0,0,0,0,0,0,0,0,0,0,0,0,0,0,0,0,0,0,0,0,0,0,0,0,0,0,0,0,0,0,0,0,0,0,0,0,0,0,0,0,0,0,0,0,0,0,0,0,0,0,0,0,0,0,0,0,0,0,0,0,0,0,0,0,0,0,0,0,0,0,0,0,0,0,0,0,0,0,0,0,0,0,0,0,0,0,0,0,0,0,0,0,0,0,0,0,0,0,0,0,0,0,0,0,0,0,0,0,0,0,0,0,0,0,0,0,0,0,0,0,0,0,0,0,0,0,0,0,0,0,0,0,0,0,0,0,0,0,0,0,0,0,0,0,0,0,0,0,0,0,0,0,0,0,0,0,0,0,0,0,0,0,0,0,0,0,0,0,0,0,0,0,0,0,0,0,0,0,0,0,0,0,0,0,0,0,0,0,0,0,0,0,0,0,0,0,0,0,0,0,0,0,0,0,0,0,0,0,0,0,0,0,0,0,0,0,0,0,0,0,0,0,0,0,0,0,0,0,0,0,0,0,0,0,0,0,0,0,0,0,0,0,0,0,0,0,0,0,0,0,0,0,0,0,0,0,0,0,0,0,0,0,0,0,0,0,0,0,0,0,0,0,0,0,0,0,0,0,0,0,0,0,0,0,0,0,0,0,0,0,0,0,0,0,0,0,0,0,0,0,0,0,0,0,0,0,0,0,0,0,0,0,0,0,0,0,0,0,0,0,0,0,0,0,0,0,0,0,0,0,0,0,0,0,0,0,0,0,0,0,0,0,0,0,0,0,0,0,0,0,0,0,0,0,0,0,0,0,0,0,0,0,0,0,0,0,0,0,0,0,0,0,0,0,0,0,0,0,0,0,0,0,0,0,0,0,0,0,0,0,0,0,0,0,0,0,0,0,0,0,0,0,0,0,0,0,0,0,0,0,0,0,0,0,0,0,0,0,0,0,0,0,0,0,0,0,0,0,0,0,0,0,0,0,0,0,0,0,0,0,0,0,0,0,0,0,0,0,0,0,0,0,0,0,0,0,0,0,0,0,0,0,0,0,0,0,0,0,0,0,0,0,0,0,0,0,0,0,0,0,0,0,0,0,0,0,0,0,0,0,0,0,0,0,0,0,0,0,0,0,0,0,0,0,0,0,0,0,0,0,0,0,0,0,0,0,0,0,0,0,0,0,0,0,0,0,0,0,0,0,0,0,0,0,0,0,0,0,0,0,0,0,0,0,0,0,0,0,0,0,0,0,0,0,0,0,0,0,0,0,0,0,0,0,0,0,0,0,0,0,0,0,0,0,0,0,0,0,0,0,0,0,0,0,0,0,0,0],"trees":[{"base_weights":[1.7285348E-7,-1.0467781E-2,1.7562918E-1,-2.2262659E-2,1.7562918E-1,2.7886125E-1,1.3020706E-1,-3.5653837E-2,1.7562918E-1,2.7886125E-1,1.3020706E-1,2.4735788E-1,3.3399218E-1,9.121163E-2,2.8618878E-1,1.3352548E-1,-5.2816954E-2,2.7886125E-1,1.3020706E-1,2.4735788E-1,3.3399218E-1,9.121163E-2,2.8618878E-1,1.3184547E-1,3.3399218E-1,4.2324185E-1,3.0424228E-1,1.8472338E-1,6.406306E-2,5.110903E-2,3.1514513E-1,9.983542E-2,3.7497082E-1,-6.202081E-2,1.3126017E-1,2.4735788E-1,3.3399218E-1,9.121163E-2,2.8618878E-1,1.3184547E-1,3.3399218E-1,4.2324185E-1,3.0424228E-1,1.8472338E-1,6.406306E-2,5.110903E-2,3.1514513E-1,3.9990522E-2,3.8679887E-2,4.2324185E-1,3.0424228E-1,1.1768618E-1,1.3625894E-1,2.7248397E-1,3.360006E-1,1.2384462E-1,2.3342638E-1,1.8472338E-1,1.47020165E-2,1.21079214E-1,2.8566107E-1,2.0972168E-2,6.3869245E-2,1.3006802E-1,9.491449E-2,2.5139565E-2,-2.220884E-2,2.5655571E-2,8.877897E-2,3.9553642E-2,1.0019766E-1,1.2697256E-1,9.127269E-2,5.5417016E-2,1.9218918E-2,5.110903E-2,9.454355E-2,3.9990522E-2,3.8679887E-2,1.2697256E-1,9.127269E-2,1.3625894E-1,1.1768618E-1,8.174519E-2,1.0080018E-1,3.715339E-2,7.002792E-2,5.5417016E-2,4.410605E-3,1.21079214E-1,8.569832E-2,1.1768618E-1,1.3625894E-1,8.174519E-2,1.0080018E-1,8.887897E-2,7.817832E-2,1.0676079E-1,8.887897E-2,4.1678146E-2,2.3579122E-2,8.185974E-2,6.214004E-2,3.715339E-2,7.002792E-2,-8.317877E-3,1.9684782E-2,8.0163576E-2,9.676781E-2],"categories":[],"categories_nodes":[],"categories_segments":[],"categories_sizes":[],"default_left":[0,0,0,0,0,0,0,0,0,0,0,0,0,0,0,0,0,0,0,0,0,0,0,0,0,0,0,0,0,0,0,0,0,0,0,0,0,0,0,0,0,0,0,0,0,0,0,0,0,0,0,0,0,0,0,0,0,0,0,0,0,0,0,0,0,0,0,0,0,0,0,0,0,0,0,0,0,0,0,0,0,0,0,0,0,0,0,0,0,0,0,0,0,0,0,0,0,0,0,0,0,0,0,0,0,0,0,0,0],"id":0,"left_children":[1,3,5,7,9,11,13,15,17,19,21,23,25,27,29,31,33,35,37,39,41,43,45,47,49,51,53,55,57,-1,59,61,63,65,67,69,71,73,75,77,79,81,83,85,87,-1,89,-1,-1,91,93,-1,-1,95,97,99,101,103,105,-1,107,-1,-1,-1,-1,-1,-1,-1,-1,-1,-1,-1,-1,-1,-1,-1,-1,-1,-1,-1,-1,-1,-1,-1,-1,-1,-1,-1,-1,-1,-1,-1,-1,-1,-1,-1,-1,-1,-1,-1,-1,-1,-1,-1,-1,-1,-1,-1,-1],"loss_changes":[2.3532498E0,2.651549E0,3.376093E-1,3.0104055E0,3.376093E-1,3.8209796E-2,3.041289E-1,3.0894773E0,3.376093E-1,3.8209796E-2,3.041289E-1,1.4010274E-1,2.1241307E-2,1.015484E-1,3.353876E-2,7.971623E-1,1.6366158E0,3.8209796E-2,3.041289E-1,1.4010274E-1,2.1241307E-2,1.015484E-1,3.353876E-2,2.5451183E-5,2.1241307E-2,1.9163787E-3,6.0515404E-3,2.668482E-2,1.846335E-1,0E0,2.0863473E-2,2.9100204E-1,4.1192174E-2,1.6110065E0,3.4648377E-1,1.4010274E-1,2.1241307E-2,1.015484E-1,3.353876E-2,2.5451183E-5,2.1241307E-2,1.9163787E-3,6.0515404E-3,2.668482E-2,1.846335E-1,0E0,2.0863473E-2,0E0,0E0,1.9163787E-3,6.0515404E-3,0E0,0E0,8.48189E-4,2.3685992E-3,2.7297847E-3,5.184859E-3,2.668482E-2,4.752417E-2,0E0,4.084468E-3,0E0,0E0,0E0,0E0,0E0,0E0,0E0,0E0,0E0,0E0,0E0,0E0,0E0,0E0,0E0,0E0,0E0,0E0,0E0,0E0,0E0,0E0,0E0,0E0,0E0,0E0,0E0,0E0,0E0,0E0,0E0,0E0,0E0,0E0,0E0,0E0,0E0,0E0,0E0,0E0,0E0,0E0,0E0,0E0,0E0,0E0,0E0,0E0],"parents":[2147483647,0,0,1,1,2,2,3,3,4,4,5,5,6,6,7,7,8,8,9,9,10,10,11,11,12,12,13,13,14,14,15,15,16,16,17,17,18,18,19,19,20,20,21,21,22,22,23,23,24,24,25,25,26,26,27,27,28,28,30,30,31,31,32,32,33,33,34,34,35,35,36,36,37,37,38,38,39,39,40,40,41,41,42,42,43,43,44,44,46,46,49,49,50,50,53,53,54,54,55,55,56,56,57,57,58,58,60,60],"right_children":[2,4,6,8,10,12,14,16,18,20,22,24,26,28,30,32,34,36,38,40,42,44,46,48,50,52,54,56,58,-1,60,62,64,66,68,70,72,74,76,78,80,82,84,86,88,-1,90,-1,-1,92,94,-1,-1,96,98,100,102,104,106,-1,108,-1,-1,-1,-1,-1,-1,-1,-1,-1,-1,-1,-1,-1,-1,-1,-1,-1,-1,-1,-1,-1,-1,-1,-1,-1,-1,-1,-1,-1,-1,-1,-1,-1,-1,-1,-1,-1,-1,-1,-1,-1,-1,-1,-1,-1,-1,-1,-1],"split_conditions":[7.9413366E-1,7.9413366E-1,5.733034E-1,7.9413366E-1,5.733034E-1,6.603827E-1,8.72779E-1,2.2566974E-1,5.733034E-1,6.603827E-1,8.72779E-1,6.603827E-1,7.5296474E-1,3.1674942E-1,6.044259E-1,5.440882E-1,7.9534763E-1,6.603827E-1,8.72779E-1,6.603827E-1,7.5296474E-1,3.1674942E-1,6.044259E-1,8.852524E-1,7.5296474E-1,8.034051E-1,1.97212E-1,6.644676E-1,3.1674942E-1,5.110903E-2,7.3637867E-1,8.264706E-1,1.846853E-1,2.2566974E-1,8.852524E-1,6.603827E-1,7.5296474E-1,3.1674942E-1,6.044259E-1,8.852524E-1,7.5296474E-1,3.2571536E-1,1.97212E-1,6.644676E-1,3.1674942E-1,5.110903E-2,7.3637867E-1,3.9990522E-2,3.8679887E-2,8.034051E-1,1.97212E-1,1.1768618E-1,1.3625894E-1,8.058674E-1,4.01469E-1,6.409492E-1,7.321923E-1,6.644676E-1,8.264706E-1,1.21079214E-1,8.852524E-1,2.0972168E-2,6.3869245E-2,1.3006802E-1,9.491449E-2,2.5139565E-2,-2.220884E-2,2.5655571E-2,8.877897E-2,3.9553642E-2,1.0019766E-1,1.2697256E-1,9.127269E-2,5.5417016E-2,1.9218918E-2,5.110903E-2,9.454355E-2,3.9990522E-2,3.8679887E-2,1.2697256E-1,9.127269E-2,1.3625894E-1,1.1768618E-1,8.174519E-2,1.0080018E-1,3.715339E-2,7.002792E-2,5.5417016E-2,4.410605E-3,1.21079214E-1,8.569832E-2,1.1768618E-1,1.3625894E-1,8.174519E-2,1.0080018E-1,8.887897E-2,7.817832E-2,1.0676079E-1,8.887897E-2,4.1678146E-2,2.3579122E-2,8.185974E-2,6.214004E-2,3.715339E-2,7.002792E-2,-8.317877E-3,1.9684782E-2,8.0163576E-2,9.676781E-2],"split_indices":[0,1,4,2,5,3,0,1,6,4,1,5,3,3,4,5,5,5,2,6,4,4,5,0,5,0,5,4,5,0,4,3,1,5,5,7,5,5,6,1,6,0,6,5,6,0,5,0,0,0,2,0,0,0,1,4,4,4,0,0,0,0,0,0,0,0,0,0,0,0,0,0,0,0,0,0,0,0,0,0,0,0,0,0,0,0,0,0,0,0,0,0,0,0,0,0,0,0,0,0,0,0,0,0,0,0,0,0,0],"split_type":[0,0,0,0,0,0,0,0,0,0,0,0,0,0,0,0,0,0,0,0,0,0,0,0,0,0,0,0,0,0,0,0,0,0,0,0,0,0,0,0,0,0,0,0,0,0,0,0,0,0,0,0,0,0,0,0,0,0,0,0,0,0,0,0,0,0,0,0,0,0,0,0,0,0,0,0,0,0,0,0,0,0,0,0,0,0,0,0,0,0,0,0,0,0,0,0,0,0,0,0,0,0,0,0,0,0,0,0,0],"sum_hessian":[1.28E3,1.208E3,7.2E1,1.136E3,7.2E1,2.2E1,5E1,1.064E3,7.2E1,2.2E1,5E1,1.4E1,8E0,4E1,1E1,9.8E1,9.66E2,2.2E1,5E1,1.4E1,8E0,4E1,1E1,6E0,8E0,2E0,6E0,9E0,3.1E1,2E0,8E0,8.6E1,1.2E1,9.2E2,4.6E1,1.4E1,8E0,4E1,1E1,6E0,8E0,2E0,6E0,9E0,3.1E1,2E0,8E0,4E0,2E0,2E0,6E0,1E0,1E0,3E0,3E0,4E0,5E0,9E0,2.2E1,2E0,6E0,6.8E1,1.8E1,6E0,6E0,7E1,8.5E2,3.6E1,1E1,6E0,8E0,2E0,6E0,9E0,3.1E1,2E0,8E0,4E0,2E0,2E0,6E0,1E0,1E0,3E0,3E0,4E0,5E0,9E0,2.2E1,2E0,6E0,1E0,1E0,3E0,3E0,1E0,2E0,2E0,1E0,3E0,1E0,2E0,3E0,4E0,5E0,1.2E1,1E1,4E0,2E0],"tree_param":{"num_deleted":"0","num_feature":"8","num_nodes":"109","size_leaf_vector":"1"}},{"base_weights":[2.2351742E-8,-9.7361365E-3,1.6335113E-1,-2.058034E-2,1.6136129E-1,1.3642311E-1,2.9799125E-1,-3.041962E-2,1.24822356E-1,1.3459148E-1,2.952104E-1,2.74886E-1,1.15121126E-1,4.511056E-1,2.6736838E-1,-4.0834326E-2,1.3231018E-1,2.0593749E-1,8.91317E-2,2.6535255E-1,1.14474386E-1,4.511056E-1,2.6403135E-1,2.3337841E-1,3.4406534E-1,9.218755E-2,1.7736939E-1,1.4292155E-1,1.2774181E-1,2.2262022E-1,3.7178072E-1,-5.01336E-2,1.2207514E-1,1.0551952E-1,2.6139247E-1,1.0998946E-1,1.8986809E-1,3.1621255E-2,1.5143467E-1,2.4404635E-1,1.2434879E-1,1.7541486E-1,9.41609E-2,1.2774181E-1,1.4292155E-1,2.1785307E-1,3.7178072E-1,2.641932E-1,1.871562E-1,7.188664E-2,3.9628696E-1,1.6529137E-1,6.950016E-2,2.320975E-1,1.5547815E-1,3.2951283E-1,1.7986317E-1,1.2774181E-1,1.0343042E-1,-1.8004537E-2,1.705016E-2,2.717367E-2,7.3559046E-2,5.7805214E-2,2.226891E-2,1.2112728E-1,6.892674E-2,4.9710605E-2,7.042439E-2,6.6697955E-2,4.718745E-3,3.8058523E-2,8.2289815E-2,6.6512324E-2,1.134234E-1,6.885653E-2,4.9673174E-2,5.0066903E-2,1.7338956E-2,9.241927E-2,5.4530587E-2,1.2774181E-1,1.0343042E-1,8.2587294E-2,7.7593304E-2,5.8638956E-2,5.3654768E-2,1.2434879E-1,1.134234E-1,7.621594E-2,4.6258844E-2,4.6892006E-2,9.13117E-3,6.333156E-2,8.8522345E-2,4.032939E-2,5.6114532E-2,9.723859E-2,1.0046912E-1,3.8865354E-2,6.402135E-2],"categories":[],"categories_nodes":[],"categories_segments":[],"categories_sizes":[],"default_left":[0,0,0,0,0,0,0,0,0,0,0,0,0,0,0,0,0,0,0,0,0,0,0,0,0,0,0,0,0,0,0,0,0,0,0,0,0,0,0,0,0,0,0,0,0,0,0,0,0,0,0,0,0,0,0,0,0,0,0,0,0,0,0,0,0,0,0,0,0,0,0,0,0,0,0,0,0,0,0,0,0,0,0,0,0,0,0,0,0,0,0,0,0,0,0,0,0,0,0,0,0],"id":1,"left_children":[1,3,5,7,9,11,13,15,17,19,21,23,25,27,29,31,33,35,37,39,41,43,45,47,49,51,53,-1,-1,55,57,59,61,63,65,-1,67,69,71,73,-1,75,77,-1,-1,79,81,83,85,-1,87,89,91,93,95,97,99,-1,-1,-1,-1,-1,-1,-1,-1,-1,-1,-1,-1,-1,-1,-1,-1,-1,-1,-1,-1,-1,-1,-1,-1,-1,-1,-1,-1,-1,-1,-1,-1,-1,-1,-1,-1,-1,-1,-1,-1,-1,-1,-1,-1],"loss_changes":[2.0357277E0,2.241342E0,2.610426E-1,1.6252272E0,2.5798428E-1,1.7697203E-1,5.626571E-2,1.8032492E0,2.0844376E-1,1.578319E-1,5.8327913E-2,2.2971809E-2,7.423389E-2,1.280129E-3,4.672259E-2,1.5149394E0,2.2132468E-1,5.6809664E-2,1.7915365E-1,2.542144E-2,6.4371526E-2,1.280129E-3,4.9756765E-2,7.1216226E-3,1.6362548E-2,6.302431E-2,1.6772956E-2,0E0,0E0,3.1992912E-2,4.37811E-3,9.9992347E-1,2.0940506E-1,1.445502E-1,4.954362E-2,0E0,2.1691382E-2,7.879841E-2,7.245952E-2,2.0958543E-2,0E0,6.919652E-3,1.03144705E-1,0E0,0E0,2.2786587E-2,4.37811E-3,1.847297E-4,1.3801455E-4,0E0,6.631315E-4,8.863479E-3,9.833662E-2,5.288139E-3,6.644547E-3,5.7965517E-5,8.437648E-3,0E0,0E0,0E0,0E0,0E0,0E0,0E0,0E0,0E0,0E0,0E0,0E0,0E0,0E0,0E0,0E0,0E0,0E0,0E0,0E0,0E0,0E0,0E0,0E0,0E0,0E0,0E0,0E0,0E0,0E0,0E0,0E0,0E0,0E0,0E0,0E0,0E0,0E0,0E0,0E0,0E0,0E0,0E0,0E0],"parents":[2147483647,0,0,1,1,2,2,3,3,4,4,5,5,6,6,7,7,8,8,9,9,10,10,11,11,12,12,13,13,14,14,15,15,16,16,17,17,18,18,19,19,20,20,21,21,22,22,23,23,24,24,25,25,26,26,29,29,30,30,31,31,32,32,33,33,34,34,36,36,37,37,38,38,39,39,41,41,42,42,45,45,46,46,47,47,48,48,50,50,51,51,52,52,53,53,54,54,55,55,56,56],"right_children":[2,4,6,8,10,12,14,16,18,20,22,24,26,28,30,32,34,36,38,40,42,44,46,48,50,52,54,-1,-1,56,58,60,62,64,66,-1,68,70,72,74,-1,76,78,-1,-1,80,82,84,86,-1,88,90,92,94,96,98,100,-1,-1,-1,-1,-1,-1,-1,-1,-1,-1,-1,-1,-1,-1,-1,-1,-1,-1,-1,-1,-1,-1,-1,-1,-1,-1,-1,-1,-1,-1,-1,-1,-1,-1,-1,-1,-1,-1,-1,-1,-1,-1,-1,-1],"split_conditions":[7.9413366E-1,7.9413366E-1,8.852524E-1,7.9413366E-1,8.852524E-1,4.3994313E-1,1.6296943E-1,7.9413366E-1,5.733034E-1,4.3994313E-1,1.6296943E-1,5.1607996E-1,8.3912975E-1,5.358021E-1,6.044259E-1,7.9534763E-1,8.852524E-1,3.045927E-1,7.168897E-1,6.4945966E-1,3.1674942E-1,2.5664556E-1,6.044259E-1,3.7189004E-1,1.5755984E-1,3.1674942E-1,8.500259E-1,1.4292155E-1,1.2774181E-1,2.1121478E-1,7.3637867E-1,7.642924E-1,8.852524E-1,2.7864933E-1,1.6296943E-1,1.0998946E-1,6.603827E-1,8.058674E-1,8.852524E-1,8.500259E-1,1.2434879E-1,8.888041E-2,3.1674942E-1,1.2774181E-1,1.4292155E-1,2.1121478E-1,1.6296943E-1,8.888041E-2,3.860405E-1,7.188664E-2,3.045927E-1,3.1674942E-1,3.1674942E-1,6.4945966E-1,7.604858E-1,5.358021E-1,9.186149E-1,1.2774181E-1,1.0343042E-1,-1.8004537E-2,1.705016E-2,2.717367E-2,7.3559046E-2,5.7805214E-2,2.226891E-2,1.2112728E-1,6.892674E-2,4.9710605E-2,7.042439E-2,6.6697955E-2,4.718745E-3,3.8058523E-2,8.2289815E-2,6.6512324E-2,1.134234E-1,6.885653E-2,4.9673174E-2,5.0066903E-2,1.7338956E-2,9.241927E-2,5.4530587E-2,1.2774181E-1,1.0343042E-1,8.2587294E-2,7.7593304E-2,5.8638956E-2,5.3654768E-2,1.2434879E-1,1.134234E-1,7.621594E-2,4.6258844E-2,4.6892006E-2,9.13117E-3,6.333156E-2,8.8522345E-2,4.032939E-2,5.6114532E-2,9.723859E-2,1.0046912E-1,3.8865354E-2,6.402135E-2],"split_indices":[4,6,4,5,6,0,6,7,1,2,4,3,4,0,0,3,7,1,1,0,3,0,2,2,1,7,4,0,0,1,0,0,3,4,5,0,0,5,5,3,0,4,1,0,0,1,0,1,0,0,0,5,1,3,0,0,4,0,0,0,0,0,0,0,0,0,0,0,0,0,0,0,0,0,0,0,0,0,0,0,0,0,0,0,0,0,0,0,0,0,0,0,0,0,0,0,0,0,0,0,0],"split_type":[0,0,0,0,0,0,0,0,0,0,0,0,0,0,0,0,0,0,0,0,0,0,0,0,0,0,0,0,0,0,0,0,0,0,0,0,0,0,0,0,0,0,0,0,0,0,0,0,0,0,0,0,0,0,0,0,0,0,0,0,0,0,0,0,0,0,0,0,0,0,0,0,0,0,0,0,0,0,0,0,0,0,0,0,0,0,0,0,0,0,0,0,0,0,0,0,0,0,0,0,0],"sum_hessian":[1.28E3,1.208E3,7.2E1,1.136E3,7.2E1,6E1,1.2E1,1.064E3,7.2E1,6E1,1.2E1,8E0,5.2E1,2E0,1E1,1E3,6.4E1,2.2E1,5E1,8E0,5.2E1,2E0,1E1,5E0,3E0,3.8E1,1.4E1,1E0,1E0,7E0,3E0,9.46E2,5.4E1,5.3E1,1.1E1,2E0,2E1,2.6E1,2.4E1,7E0,1E0,1.3E1,3.9E1,1E0,1E0,7E0,3E0,3E0,2E0,1E0,2E0,9E0,2.9E1,4E0,1E1,2E0,5E0,1E0,2E0,8.66E2,8E1,4.3E1,1.1E1,1.4E1,3.9E1,2E0,9E0,1.3E1,7E0,2E0,2.4E1,2E1,4E0,6E0,1E0,2E0,1.1E1,1.3E1,2.6E1,2E0,5E0,1E0,2E0,1E0,2E0,1E0,1E0,1E0,1E0,1E0,8E0,9E0,2E1,3E0,1E0,6E0,4E0,1E0,1E0,2E0,3E0],"tree_param":{"num_deleted":"0","num_feature":"8","num_nodes":"101","size_leaf_vector":"1"}},{"base_weights":[-6.072223E-8,1.0224634E-1,-8.665009E-3,8.2571134E-2,2.793232E-1,9.885428E-2,-1.86205E-2,1.6320905E-1,6.51359E-2,3.1456167E-1,4.1510798E-2,7.917653E-2,2.75954E-1,8.973806E-2,-2.9677495E-2,1.5228577E-1,9.81175E-2,1.1851867E-1,4.7977157E-2,3.527434E-1,3.0183443E-1,1.495446E-1,6.396182E-2,3.0663425E-1,1.5323305E-1,7.337966E-2,2.369637E-1,-3.9523974E-2,9.832674E-2,1.4187302E-1,8.9419276E-2,1.6350555E-1,1.05665274E-1,1.2792873E-1,3.2667283E-2,1.00045115E-1,1.1160093E-1,2.9315567E-1,1.03568465E-1,2.2995722E-1,1.2274039E-1,1.1417527E-1,4.782178E-2,7.6992564E-2,3.1377602E-1,4.658389E-2,4.5355942E-2,5.375646E-2,1.4206085E-1,2.5648683E-1,1.5887117E-1,7.285434E-2,-4.816846E-2,1.687962E-1,6.6028245E-2,5.122814E-2,3.1006934E-2,5.694423E-2,4.115911E-2,3.5842553E-2,2.1342158E-2,7.240134E-2,3.4125783E-2,3.5217572E-2,3.7802772E-3,8.485055E-2,9.259093E-2,6.1930656E-2,9.0156704E-2,4.399662E-2,2.9647613E-2,4.909991E-2,3.0010486E-2,3.865843E-2,9.691064E-3,8.601995E-2,9.737795E-2,3.4735814E-2,1.1051791E-2,5.60066E-2,3.3692695E-2,8.201893E-2,6.172743E-2,5.781112E-2,3.7511587E-2,4.696873E-2,1.4322576E-2,1.8997993E-2,-1.7237917E-2,9.152606E-2,4.655014E-2,6.8352255E-3,4.5754973E-2],"categories":[],"categories_nodes":[],"categories_segments":[],"categories_sizes":[],"default_left":[0,0,0,0,0,0,0,0,0,0,0,0,0,0,0,0,0,0,0,0,0,0,0,0,0,0,0,0,0,0,0,0,0,0,0,0,0,0,0,0,0,0,0,0,0,0,0,0,0,0,0,0,0,0,0,0,0,0,0,0,0,0,0,0,0,0,0,0,0,0,0,0,0,0,0,0,0,0,0,0,0,0,0,0,0,0,0,0,0,0,0,0,0],"id":2,"left_children":[1,3,5,7,9,11,13,15,17,19,-1,21,23,25,27,29,-1,31,33,35,37,39,41,43,45,47,49,51,53,55,-1,57,59,61,63,-1,-1,65,-1,67,69,71,73,-1,75,-1,-1,77,79,81,83,85,87,89,91,-1,-1,-1,-1,-1,-1,-1,-1,-1,-1,-1,-1,-1,-1,-1,-1,-1,-1,-1,-1,-1,-1,-1,-1,-1,-1,-1,-1,-1,-1,-1,-1,-1,-1,-1,-1,-1,-1],"loss_changes":[1.1340286E0,3.4840226E-1,1.2630805E0,1.265347E-1,4.966992E-2,3.4849232E-1,1.2939698E0,2.8636336E-2,6.778264E-2,3.8875937E-3,0E0,9.635669E-2,3.7651062E-2,2.4083775E-1,1.2351832E0,2.2769362E-2,0E0,1.0408223E-2,6.854673E-2,7.418692E-4,2.259612E-3,3.4486353E-2,5.997309E-2,2.8562546E-3,8.378178E-6,1.2129706E-1,1.5246153E-2,8.840219E-1,1.5932405E-1,1.5577018E-2,0E0,2.7685538E-3,6.6749603E-3,1.4469326E-2,7.9905376E-2,0E0,0E0,7.9885125E-4,0E0,6.639242E-3,6.863132E-3,1.2596741E-2,7.042514E-2,0E0,2.0477176E-3,0E0,0E0,7.345551E-2,2.655521E-2,6.862402E-3,2.289284E-3,1.3663733E-1,8.7536085E-1,4.0865242E-2,1.7952552E-1,0E0,0E0,0E0,0E0,0E0,0E0,0E0,0E0,0E0,0E0,0E0,0E0,0E0,0E0,0E0,0E0,0E0,0E0,0E0,0E0,0E0,0E0,0E0,0E0,0E0,0E0,0E0,0E0,0E0,0E0,0E0,0E0,0E0,0E0,0E0,0E0,0E0,0E0],"parents":[2147483647,0,0,1,1,2,2,3,3,4,4,5,5,6,6,7,7,8,8,9,9,11,11,12,12,13,13,14,14,15,15,17,17,18,18,19,19,20,20,21,21,22,22,23,23,24,24,25,25,26,26,27,27,28,28,29,29,31,31,32,32,33,33,34,34,37,37,39,39,40,40,41,41,42,42,44,44,47,47,48,48,49,49,50,50,51,51,52,52,53,53,54,54],"right_children":[2,4,6,8,10,12,14,16,18,20,-1,22,24,26,28,30,-1,32,34,36,38,40,42,44,46,48,50,52,54,56,-1,58,60,62,64,-1,-1,66,-1,68,70,72,74,-1,76,-1,-1,78,80,82,84,86,88,90,92,-1,-1,-1,-1,-1,-1,-1,-1,-1,-1,-1,-1,-1,-1,-1,-1,-1,-1,-1,-1,-1,-1,-1,-1,-1,-1,-1,-1,-1,-1,-1,-1,-1,-1,-1,-1,-1,-1],"split_conditions":[2.2566974E-1,5.897367E-1,2.2566974E-1,2.5664556E-1,2.0361355E-1,5.897367E-1,2.2566974E-1,8.852524E-1,1.6296943E-1,8.888041E-2,4.1510798E-2,2.5664556E-1,2.0361355E-1,5.897367E-1,7.9413366E-1,8.852524E-1,9.81175E-2,8.888041E-2,4.01469E-1,6.9907856E-1,8.034051E-1,1.6296943E-1,1.6296943E-1,3.045927E-1,8.888041E-2,8.264706E-1,2.0361355E-1,2.2566974E-1,5.733034E-1,2.2150333E-1,8.9419276E-2,4.9058557E-1,4.6267927E-1,4.8367372E-1,4.01469E-1,1.00045115E-1,1.1160093E-1,7.7212197E-1,1.03568465E-1,8.500259E-1,2.1890087E-1,8.888041E-2,4.01469E-1,7.6992564E-2,5.9817827E-1,4.658389E-2,4.5355942E-2,1.6296943E-1,4.01469E-1,7.5296474E-1,3.860405E-1,1.6296943E-1,2.2566974E-1,3.045927E-1,8.3912975E-1,5.122814E-2,3.1006934E-2,5.694423E-2,4.115911E-2,3.5842553E-2,2.1342158E-2,7.240134E-2,3.4125783E-2,3.5217572E-2,3.7802772E-3,8.485055E-2,9.259093E-2,6.1930656E-2,9.0156704E-2,4.399662E-2,2.9647613E-2,4.909991E-2,3.0010486E-2,3.865843E-2,9.691064E-3,8.601995E-2,9.737795E-2,3.4735814E-2,1.1051791E-2,5.60066E-2,3.3692695E-2,8.201893E-2,6.172743E-2,5.781112E-2,3.7511587E-2,4.696873E-2,1.4322576E-2,1.8997993E-2,-1.7237917E-2,9.152606E-2,4.655014E-2,6.8352255E-3,4.5754973E-2],"split_indices":[4,0,7,0,4,3,2,2,4,4,0,3,7,6,3,6,0,4,7,1,1,7,7,1,0,4,2,0,7,0,0,0,0,1,1,0,0,7,0,1,3,7,2,0,3,0,0,2,5,4,0,0,6,7,3,0,0,0,0,0,0,0,0,0,0,0,0,0,0,0,0,0,0,0,0,0,0,0,0,0,0,0,0,0,0,0,0,0,0,0,0,0,0],"split_type":[0,0,0,0,0,0,0,0,0,0,0,0,0,0,0,0,0,0,0,0,0,0,0,0,0,0,0,0,0,0,0,0,0,0,0,0,0,0,0,0,0,0,0,0,0,0,0,0,0,0,0,0,0,0,0,0,0,0,0,0,0,0,0,0,0,0,0,0,0,0,0,0,0,0,0,0,0,0,0,0,0,0,0,0,0,0,0,0,0,0,0,0,0],"sum_hessian":[1.28E3,1E2,1.18E3,9E1,1E1,1E2,1.08E3,1.6E1,7.4E1,8E0,2E0,9E1,1E1,1E2,9.8E2,1.5E1,1E0,1.8E1,5.6E1,2E0,6E0,1.6E1,7.4E1,8E0,2E0,9E1,1E1,9.1E2,7E1,1.4E1,1E0,4E0,1.4E1,9E0,4.7E1,1E0,1E0,5E0,1E0,4E0,1.2E1,1.8E1,5.6E1,1E0,7E0,1E0,1E0,7E1,2E1,8E0,2E0,6.5E1,8.45E2,2.2E1,4.8E1,8E0,6E0,2E0,2E0,1E1,4E0,1E0,8E0,9E0,3.8E1,3E0,2E0,3E0,1E0,6E0,6E0,4E0,1.4E1,9E0,4.7E1,2E0,5E0,1.5E1,5.5E1,8E0,1.2E1,6E0,2E0,1E0,1E0,1.5E1,5E1,6.5E1,7.8E2,2E0,2E1,3.2E1,1.6E1],"tree_param":{"num_deleted":"0","num_feature":"8","num_nodes":"93","size_leaf_vector":"1"}},{"base_weights":[6.4074996E-8,8.9710996E-2,-7.602557E-3,7.895451E-2,1.8651934E-1,-1.5217814E-2,8.689585E-2,7.3121205E-2,2.4812047E-1,2.0760763E-1,1.02166176E-1,7.578397E-2,-2.3292748E-2,7.492859E-2,2.0656854E-1,1.196057E-1,5.833068E-2,2.9493213E-1,4.6349145E-2,2.1954641E-1,1.8770964E-1,2.8492356E-2,3.280735E-2,6.23711E-2,1.8174562E-1,6.761973E-2,-3.3137415E-2,1.3013527E-1,5.265221E-2,1.3785326E-1,2.752838E-1,1.13097645E-1,7.493005E-2,1.1996497E-1,4.1736834E-2,8.163114E-2,9.5328145E-2,2.140181E-1,7.24979E-2,6.389222E-2,5.2523233E-2,1.4149779E-1,4.9571197E-2,1.9899315E-1,1.1275554E-1,5.06078E-2,2.1732473E-1,5.1941697E-2,-3.9720915E-2,1.2461114E-1,7.5499825E-2,1.1308569E-1,1.1770739E-2,1.8008757E-1,9.561896E-2,9.928093E-2,2.5673294E-1,3.890252E-2,2.4693307E-2,3.351244E-2,6.81912E-2,3.1573575E-2,4.797054E-3,6.7846015E-2,6.0564853E-2,6.455137E-2,2.9819606E-2,3.5200126E-2,1.1366401E-2,5.7604063E-2,7.4355125E-2,3.579941E-2,3.1853914E-2,3.315198E-2,9.19246E-3,7.319486E-2,3.320768E-2,1.23521E-2,5.4347422E-2,1.281596E-2,-1.3852946E-2,3.192482E-2,4.9080174E-2,2.8851254E-2,4.8303317E-2,-9.103411E-3,2.1580696E-2,4.545808E-2,6.2594466E-2,2.9310752E-2,2.8060628E-2,7.434447E-2,8.237071E-2],"categories":[],"categories_nodes":[],"categories_segments":[],"categories_sizes":[],"default_left":[0,0,0,0,0,0,0,0,0,0,0,0,0,0,0,0,0,0,0,0,0,0,0,0,0,0,0,0,0,0,0,0,0,0,0,0,0,0,0,0,0,0,0,0,0,0,0,0,0,0,0,0,0,0,0,0,0,0,0,0,0,0,0,0,0,0,0,0,0,0,0,0,0,0,0,0,0,0,0,0,0,0,0,0,0,0,0,0,0,0,0,0,0],"id":3,"left_children":[1,3,5,7,9,11,13,15,17,19,21,23,25,27,29,31,33,35,-1,37,39,-1,-1,41,43,45,47,49,51,53,55,57,-1,59,61,-1,-1,63,-1,-1,-1,65,67,69,71,73,75,77,79,81,-1,83,85,87,89,-1,91,-1,-1,-1,-1,-1,-1,-1,-1,-1,-1,-1,-1,-1,-1,-1,-1,-1,-1,-1,-1,-1,-1,-1,-1,-1,-1,-1,-1,-1,-1,-1,-1,-1,-1,-1,-1],"loss_changes":[8.730089E-1,1.041317E-1,8.49163E-1,8.8811755E-2,1.7788649E-2,8.0243814E-1,1.2602967E-1,5.981508E-2,1.3147995E-2,1.9004345E-3,1.03440136E-4,1.2649119E-1,8.9768803E-1,9.838438E-2,3.7774324E-2,1.7789006E-2,6.750153E-2,1.0422617E-3,0E0,6.1124563E-4,9.5743686E-4,0E0,0E0,8.001232E-2,1.1899054E-2,2.4958357E-1,5.0690717E-1,1.544109E-2,1.4082474E-1,7.134944E-3,4.1296184E-3,1.0207266E-2,0E0,1.24079585E-2,8.50267E-2,0E0,0E0,5.890727E-4,0E0,0E0,0E0,3.4117445E-2,5.3834453E-2,2.728045E-3,8.6482614E-5,1.05244085E-1,2.84262E-2,9.0441406E-2,4.4704986E-1,1.5607119E-2,0E0,1.8644959E-2,8.6151645E-2,1.6314164E-3,8.681789E-6,0E0,4.7717988E-4,0E0,0E0,0E0,0E0,0E0,0E0,0E0,0E0,0E0,0E0,0E0,0E0,0E0,0E0,0E0,0E0,0E0,0E0,0E0,0E0,0E0,0E0,0E0,0E0,0E0,0E0,0E0,0E0,0E0,0E0,0E0,0E0,0E0,0E0,0E0,0E0],"parents":[2147483647,0,0,1,1,2,2,3,3,4,4,5,5,6,6,7,7,8,8,9,9,10,10,11,11,12,12,13,13,14,14,15,15,16,16,17,17,19,19,20,20,23,23,24,24,25,25,26,26,27,27,28,28,29,29,30,30,31,31,33,33,34,34,37,37,41,41,42,42,43,43,44,44,45,45,46,46,47,47,48,48,49,49,51,51,52,52,53,53,54,54,56,56],"right_children":[2,4,6,8,10,12,14,16,18,20,22,24,26,28,30,32,34,36,-1,38,40,-1,-1,42,44,46,48,50,52,54,56,58,-1,60,62,-1,-1,64,-1,-1,-1,66,68,70,72,74,76,78,80,82,-1,84,86,88,90,-1,92,-1,-1,-1,-1,-1,-1,-1,-1,-1,-1,-1,-1,-1,-1,-1,-1,-1,-1,-1,-1,-1,-1,-1,-1,-1,-1,-1,-1,-1,-1,-1,-1,-1,-1,-1,-1],"split_conditions":[2.2566974E-1,5.897367E-1,7.750071E-1,9.186149E-1,2.0361355E-1,2.2150333E-1,9.186149E-1,1.6296943E-1,3.999076E-1,6.9907856E-1,5.1607996E-1,5.897367E-1,2.2566974E-1,3.1674942E-1,6.044259E-1,8.72779E-1,4.0484306E-1,3.4530357E-1,4.6349145E-2,8.034051E-1,6.9907856E-1,2.8492356E-2,3.280735E-2,2.5664556E-1,2.0361355E-1,5.897367E-1,2.2566974E-1,8.500259E-1,3.1674942E-1,5.659557E-1,1.6296943E-1,8.1029403E-1,7.493005E-2,8.2713443E-1,4.0484306E-1,8.163114E-2,9.5328145E-2,6.9907856E-1,7.24979E-2,6.389222E-2,5.2523233E-2,1.6296943E-1,4.1009045E-1,8.034051E-1,8.888041E-2,1.6296943E-1,2.0361355E-1,8.852524E-1,2.2566974E-1,6.644676E-1,7.5499825E-2,5.897367E-1,8.264706E-1,3.7189004E-1,3.8042578E-1,9.928093E-2,4.8367372E-1,3.890252E-2,2.4693307E-2,3.351244E-2,6.81912E-2,3.1573575E-2,4.797054E-3,6.7846015E-2,6.0564853E-2,6.455137E-2,2.9819606E-2,3.5200126E-2,1.1366401E-2,5.7604063E-2,7.4355125E-2,3.579941E-2,3.1853914E-2,3.315198E-2,9.19246E-3,7.319486E-2,3.320768E-2,1.23521E-2,5.4347422E-2,1.281596E-2,-1.3852946E-2,3.192482E-2,4.9080174E-2,2.8851254E-2,4.8303317E-2,-9.103411E-3,2.1580696E-2,4.545808E-2,6.2594466E-2,2.9310752E-2,2.8060628E-2,7.434447E-2,8.237071E-2],"split_indices":[3,7,7,1,3,0,7,3,0,5,0,4,6,2,3,5,0,0,0,1,0,0,0,4,0,2,4,4,4,3,1,5,0,6,6,0,0,1,0,0,0,0,3,2,1,6,6,2,7,3,0,0,7,0,0,0,2,0,0,0,0,0,0,0,0,0,0,0,0,0,0,0,0,0,0,0,0,0,0,0,0,0,0,0,0,0,0,0,0,0,0,0,0],"split_type":[0,0,0,0,0,0,0,0,0,0,0,0,0,0,0,0,0,0,0,0,0,0,0,0,0,0,0,0,0,0,0,0,0,0,0,0,0,0,0,0,0,0,0,0,0,0,0,0,0,0,0,0,0,0,0,0,0,0,0,0,0,0,0,0,0,0,0,0,0,0,0,0,0,0,0,0,0,0,0,0,0,0,0,0,0,0,0,0,0,0,0,0,0],"sum_hessian":[1.28E3,1E2,1.18E3,9E1,1E1,1.092E3,8.8E1,8.7E1,3E0,8E0,2E0,8.9E1,1.003E3,8E1,8E0,2.1E1,6.6E1,2E0,1E0,5E0,3E0,1E0,1E0,7.9E1,1E1,9.8E1,9.05E2,2.3E1,5.7E1,4E0,4E0,2E1,1E0,1.4E1,5.2E1,1E0,1E0,4E0,1E0,1E0,2E0,1.1E1,6.8E1,8E0,2E0,8.8E1,1E1,6.5E1,8.4E2,2.2E1,1E0,2.3E1,3.4E1,2E0,2E0,1E0,3E0,1.3E1,7E0,1.3E1,1E0,1.5E1,3.7E1,2E0,2E0,4E0,7E0,1E1,5.8E1,7E0,1E0,1E0,1E0,2.2E1,6.6E1,8E0,2E0,6E1,5E0,6.1E1,7.79E2,1.5E1,7E0,1.7E1,6E0,2E1,1.4E1,1E0,1E0,1E0,1E0,2E0,1E0],"tree_param":{"num_deleted":"0","num_feature":"8","num_nodes":"93","size_leaf_vector":"1"}},{"base_weights":[1.2591481E-7,-6.12167E-3,6.6432945E-2,-1.4299284E-2,4.713766E-2,5.4932605E-2,1.584357E-1,6.147569E-2,-2.1934249E-2,3.875831E-2,1.4768982E-1,9.801294E-2,3.8931336E-2,1.23384E-1,2.2853911E-1,5.3151853E-2,1.3056354E-1,-3.1595822E-2,5.669757E-2,2.5217498E-2,8.256682E-2,1.9831021E-1,1.3081636E-1,1.5902495E-1,9.292861E-2,8.604549E-2,1.1091157E-2,1.7759085E-1,1.0531505E-1,2.5091243E-1,2.0616579E-1,4.8631888E-2,1.7368428E-1,1.4532536E-1,7.1516275E-2,-3.8949456E-2,2.747566E-2,4.395579E-2,1.2438828E-1,7.758577E-2,-2.421313E-3,7.334445E-2,1.7786472E-1,1.9443798E-1,6.181641E-2,1.4494109E-1,5.3455355E-3,5.5883504E-2,3.953147E-2,4.986441E-2,1.01541445E-1,1.3531375E-1,8.1939794E-2,-1.2951692E-2,6.261154E-2,5.3704694E-2,5.2849818E-2,8.082533E-3,1.209897E-1,7.677326E-2,7.3774196E-2,5.975533E-2,6.394415E-2,2.5117168E-2,1.0842456E-2,6.193571E-2,3.2444432E-2,4.6104755E-2,3.9419033E-2,1.9944621E-2,2.2965146E-2,-1.4192936E-2,1.025267E-2,5.6725084E-3,4.4653725E-2,3.0252643E-2,6.4722835E-3,7.631257E-2,3.1745616E-2,2.110437E-2,4.8608303E-2,-4.4407626E-3,1.987147E-2,2.0100623E-2,3.9761975E-2,4.7691826E-2,6.46946E-2,5.8949236E-2,5.7713557E-2,5.0895263E-2,2.1243526E-2,2.096076E-2,-3.0449869E-3,2.8387912E-2,4.2218067E-2,4.190855E-2,3.92797E-2,2.3703521E-2,4.4785596E-2,-6.709728E-3,3.565357E-2,2.263259E-2,4.67E-3,3.0246403E-2,4.537268E-2],"categories":[],"categories_nodes":[],"categories_segments":[],"categories_sizes":[],"default_left":[0,0,0,0,0,0,0,0,0,0,0,0,0,0,0,0,0,0,0,0,0,0,0,0,0,0,0,0,0,0,0,0,0,0,0,0,0,0,0,0,0,0,0,0,0,0,0,0,0,0,0,0,0,0,0,0,0,0,0,0,0,0,0,0,0,0,0,0,0,0,0,0,0,0,0,0,0,0,0,0,0,0,0,0,0,0,0,0,0,0,0,0,0,0,0,0,0,0,0,0,0,0,0,0,0],"id":4,"left_children":[1,3,5,7,9,11,13,15,17,19,21,23,25,27,29,31,33,35,37,39,41,43,45,47,49,51,53,55,57,59,61,63,65,67,69,71,73,75,77,79,81,83,85,87,-1,89,-1,-1,-1,91,93,95,97,99,101,-1,-1,-1,103,-1,-1,-1,-1,-1,-1,-1,-1,-1,-1,-1,-1,-1,-1,-1,-1,-1,-1,-1,-1,-1,-1,-1,-1,-1,-1,-1,-1,-1,-1,-1,-1,-1,-1,-1,-1,-1,-1,-1,-1,-1,-1,-1,-1,-1,-1],"loss_changes":[5.2056086E-1,5.104461E-1,1.14270866E-1,5.877959E-1,1.3143957E-1,6.617665E-2,2.9486924E-2,5.3482085E-2,7.0120966E-1,8.542122E-2,1.0249704E-2,8.065343E-3,9.181666E-2,7.835686E-3,2.002269E-3,4.5218587E-2,8.716449E-3,3.5706854E-1,8.7112516E-2,1.5921365E-1,2.9881686E-2,8.995831E-5,1.4364585E-2,1.4854968E-3,8.901715E-3,5.2592754E-3,5.4502666E-2,4.0605664E-6,7.3708445E-3,4.9963593E-5,9.74834E-5,3.506498E-2,6.4424872E-3,9.3123317E-4,5.06863E-5,4.4689643E-1,9.462308E-2,1.0822222E-1,3.86208E-2,2.3224846E-2,6.1206445E-2,1.1638612E-2,2.1414459E-3,8.486211E-6,0E0,1.4653742E-2,0E0,0E0,0E0,4.8022997E-3,5.4194033E-3,3.839284E-5,4.732609E-3,3.7222344E-2,8.450475E-3,0E0,0E0,0E0,3.0507222E-3,0E0,0E0,0E0,0E0,0E0,0E0,0E0,0E0,0E0,0E0,0E0,0E0,0E0,0E0,0E0,0E0,0E0,0E0,0E0,0E0,0E0,0E0,0E0,0E0,0E0,0E0,0E0,0E0,0E0,0E0,0E0,0E0,0E0,0E0,0E0,0E0,0E0,0E0,0E0,0E0,0E0,0E0,0E0,0E0,0E0,0E0],"parents":[2147483647,0,0,1,1,2,2,3,3,4,4,5,5,6,6,7,7,8,8,9,9,10,10,11,11,12,12,13,13,14,14,15,15,16,16,17,17,18,18,19,19,20,20,21,21,22,22,23,23,24,24,25,25,26,26,27,27,28,28,29,29,30,30,31,31,32,32,33,33,34,34,35,35,36,36,37,37,38,38,39,39,40,40,41,41,42,42,43,43,45,45,49,49,50,50,51,51,52,52,53,53,54,54,58,58],"right_children":[2,4,6,8,10,12,14,16,18,20,22,24,26,28,30,32,34,36,38,40,42,44,46,48,50,52,54,56,58,60,62,64,66,68,70,72,74,76,78,80,82,84,86,88,-1,90,-1,-1,-1,92,94,96,98,100,102,-1,-1,-1,104,-1,-1,-1,-1,-1,-1,-1,-1,-1,-1,-1,-1,-1,-1,-1,-1,-1,-1,-1,-1,-1,-1,-1,-1,-1,-1,-1,-1,-1,-1,-1,-1,-1,-1,-1,-1,-1,-1,-1,-1,-1,-1,-1,-1,-1,-1],"split_conditions":[7.642924E-1,7.4676883E-1,8.852524E-1,2.2566974E-1,8.852524E-1,3.2455498E-1,6.044259E-1,5.897367E-1,7.642924E-1,7.4676883E-1,3.7189004E-1,3.1674942E-1,3.2455498E-1,2.1121478E-1,7.3637867E-1,9.186149E-1,2.0361355E-1,7.462949E-1,8.72779E-1,6.146087E-1,3.2571536E-1,2.7775428E-1,4.01469E-1,7.851911E-1,1.5755984E-1,3.045927E-1,8.264706E-1,5.358021E-1,2.2566974E-1,3.429447E-1,4.2712852E-1,1.6296943E-1,3.999076E-1,6.9907856E-1,5.1607996E-1,7.642924E-1,8.852524E-1,3.1674942E-1,1.6296943E-1,6.4945966E-1,6.713786E-1,3.2571536E-1,8.888041E-2,2.1890087E-1,6.181641E-2,4.5229268E-1,5.3455355E-3,5.5883504E-2,3.953147E-2,6.299869E-1,8.2713443E-1,2.0361355E-1,8.500259E-1,7.323345E-1,2.7575174E-1,5.3704694E-2,5.2849818E-2,8.082533E-3,6.603827E-1,7.677326E-2,7.3774196E-2,5.975533E-2,6.394415E-2,2.5117168E-2,1.0842456E-2,6.193571E-2,3.2444432E-2,4.6104755E-2,3.9419033E-2,1.9944621E-2,2.2965146E-2,-1.4192936E-2,1.025267E-2,5.6725084E-3,4.4653725E-2,3.0252643E-2,6.4722835E-3,7.631257E-2,3.1745616E-2,2.110437E-2,4.8608303E-2,-4.4407626E-3,1.987147E-2,2.0100623E-2,3.9761975E-2,4.7691826E-2,6.46946E-2,5.8949236E-2,5.7713557E-2,5.0895263E-2,2.1243526E-2,2.096076E-2,-3.0449869E-3,2.8387912E-2,4.2218067E-2,4.190855E-2,3.92797E-2,2.3703521E-2,4.4785596E-2,-6.709728E-3,3.565357E-2,2.263259E-2,4.67E-3,3.0246403E-2,4.537268E-2],"split_indices":[4,2,4,3,2,1,0,7,3,6,3,3,7,1,0,1,3,1,3,6,4,0,0,0,2,0,4,0,1,1,1,3,0,5,0,7,1,6,5,0,1,0,0,0,0,1,0,0,0,0,7,0,1,0,2,0,0,0,1,0,0,0,0,0,0,0,0,0,0,0,0,0,0,0,0,0,0,0,0,0,0,0,0,0,0,0,0,0,0,0,0,0,0,0,0,0,0,0,0,0,0,0,0,0,0],"split_type":[0,0,0,0,0,0,0,0,0,0,0,0,0,0,0,0,0,0,0,0,0,0,0,0,0,0,0,0,0,0,0,0,0,0,0,0,0,0,0,0,0,0,0,0,0,0,0,0,0,0,0,0,0,0,0,0,0,0,0,0,0,0,0,0,0,0,0,0,0,0,0,0,0,0,0,0,0,0,0,0,0,0,0,0,0,0,0,0,0,0,0,0,0,0,0,0,0,0,0,0,0,0,0,0,0],"sum_hessian":[1.28E3,1.172E3,1.08E2,1.016E3,1.56E2,9.6E1,1.2E1,9.3E1,9.23E2,1.44E2,1.2E1,2.6E1,7E1,8E0,4E0,8.3E1,1E1,8.22E2,1.01E2,1.1E2,3.4E1,3E0,9E0,2E0,2.4E1,2.6E1,4.4E1,2E0,6E0,2E0,2E0,8E1,3E0,8E0,2E0,7.31E2,9.1E1,8.5E1,1.6E1,3.8E1,7.2E1,3.1E1,3E0,2E0,1E0,8E0,1E0,1E0,1E0,4E0,2E1,2E0,2.4E1,3E1,1.4E1,1E0,1E0,1E0,5E0,1E0,1E0,1E0,1E0,2.1E1,5.9E1,2E0,1E0,5E0,3E0,1E0,1E0,6.56E2,7.5E1,8.5E1,6E0,2.4E1,6.1E1,2E0,1.4E1,3.5E1,3E0,6.1E1,1.1E1,2.8E1,3E0,2E0,1E0,1E0,1E0,6E0,2E0,3E0,1E0,1.7E1,3E0,1E0,1E0,2.3E1,1E0,2.8E1,2E0,1.1E1,3E0,3E0,2E0],"tree_param":{"num_deleted":"0","num_feature":"8","num_nodes":"105","size_leaf_vector":"1"}},{"base_weights":[1.7881393E-7,-5.309935E-3,5.762475E-2,-1.32172E-2,3.6607064E-2,4.973144E-2,1.5629113E-1,-2.1473154E-2,3.6672354E-2,3.2429375E-2,2.2669196E-1,8.751832E-2,3.5036545E-2,6.314579E-2,1.48549E-1,2.7740492E-2,-3.1993717E-2,3.0832559E-2,1.3302898E-1,2.6889917E-2,1.1090505E-1,7.763343E-2,2.1599658E-1,8.427853E-2,5.249777E-2,6.7173764E-2,9.326768E-3,6.0221102E-2,1.3985102E-1,1.0468467E-1,1.5116837E-2,-3.7346244E-2,4.5558464E-2,6.555826E-2,1.5186912E-2,1.2322753E-1,6.0491756E-2,6.4199366E-2,1.5782524E-2,8.636892E-2,1.5997732E-1,5.842309E-2,2.2662306E-1,7.534933E-2,1.0548538E-1,6.362375E-2,1.2042403E-1,-1.2198166E-2,5.40324E-2,1.489346E-1,1.21683836E-1,6.358867E-2,2.801769E-2,-9.278326E-4,2.404535E-2,-1.3251181E-2,6.9737197E-3,5.0311214E-3,2.2696523E-2,3.9677348E-2,1.750425E-2,1.9437265E-2,-4.320426E-3,2.9127456E-2,4.2848863E-2,3.653705E-2,1.7285267E-2,1.2800849E-2,-3.9714994E-3,3.729408E-2,2.2116208E-2,5.2691605E-2,4.3294787E-2,6.825314E-2,6.7720704E-2,2.4470361E-2,-1.0975313E-2,3.4261633E-2,2.379756E-2,2.0120518E-2,4.6196226E-3,3.6408093E-2,3.584633E-2,-5.8175125E-3,2.3316337E-2,3.028586E-2,1.3650423E-2,4.083066E-2,4.5963623E-2,3.796363E-2,3.5046674E-2],"categories":[],"categories_nodes":[],"categories_segments":[],"categories_sizes":[],"default_left":[0,0,0,0,0,0,0,0,0,0,0,0,0,0,0,0,0,0,0,0,0,0,0,0,0,0,0,0,0,0,0,0,0,0,0,0,0,0,0,0,0,0,0,0,0,0,0,0,0,0,0,0,0,0,0,0,0,0,0,0,0,0,0,0,0,0,0,0,0,0,0,0,0,0,0,0,0,0,0,0,0,0,0,0,0,0,0,0,0,0,0],"id":5,"left_children":[1,3,5,7,9,11,13,15,17,19,21,23,25,-1,27,29,31,33,35,37,39,-1,41,43,-1,45,47,-1,49,51,53,55,57,59,61,63,-1,65,67,69,71,-1,73,75,77,79,81,83,85,87,89,-1,-1,-1,-1,-1,-1,-1,-1,-1,-1,-1,-1,-1,-1,-1,-1,-1,-1,-1,-1,-1,-1,-1,-1,-1,-1,-1,-1,-1,-1,-1,-1,-1,-1,-1,-1,-1,-1,-1,-1],"loss_changes":[3.9167112E-1,3.8845798E-1,8.4110856E-2,4.0611944E-1,1.4770553E-1,5.5527434E-2,3.3566654E-3,4.3802094E-1,7.8778416E-2,7.9117745E-2,1.372695E-3,7.935137E-3,5.9489332E-2,0E0,3.1775087E-3,1.447262E-1,2.8932482E-1,7.171638E-2,5.3798407E-3,7.04498E-2,1.44485235E-2,0E0,6.775409E-4,5.1127225E-3,0E0,6.0492605E-3,3.849143E-2,0E0,9.901449E-4,2.5439769E-2,1.5158398E-1,2.6960272E-1,3.8989037E-2,1.9719154E-2,1.3356058E-1,3.5862252E-3,0E0,1.478301E-2,1.0221705E-1,3.839463E-3,9.811148E-4,0E0,1.5720725E-6,1.322522E-2,1.8249527E-3,4.983537E-3,1.7508864E-6,1.746463E-2,5.203616E-3,2.1956116E-4,4.727021E-5,0E0,0E0,0E0,0E0,0E0,0E0,0E0,0E0,0E0,0E0,0E0,0E0,0E0,0E0,0E0,0E0,0E0,0E0,0E0,0E0,0E0,0E0,0E0,0E0,0E0,0E0,0E0,0E0,0E0,0E0,0E0,0E0,0E0,0E0,0E0,0E0,0E0,0E0,0E0,0E0],"parents":[2147483647,0,0,1,1,2,2,3,3,4,4,5,5,6,6,7,7,8,8,9,9,10,10,11,11,12,12,14,14,15,15,16,16,17,17,18,18,19,19,20,20,22,22,23,23,25,25,26,26,28,28,29,29,30,30,31,31,32,32,33,33,34,34,35,35,37,37,38,38,39,39,40,40,42,42,43,43,44,44,45,45,46,46,47,47,48,48,49,49,50,50],"right_children":[2,4,6,8,10,12,14,16,18,20,22,24,26,-1,28,30,32,34,36,38,40,-1,42,44,-1,46,48,-1,50,52,54,56,58,60,62,64,-1,66,68,70,72,-1,74,76,78,80,82,84,86,88,90,-1,-1,-1,-1,-1,-1,-1,-1,-1,-1,-1,-1,-1,-1,-1,-1,-1,-1,-1,-1,-1,-1,-1,-1,-1,-1,-1,-1,-1,-1,-1,-1,-1,-1,-1,-1,-1,-1,-1,-1],"split_conditions":[7.642924E-1,7.323345E-1,9.186149E-1,7.4676883E-1,8.852524E-1,3.2455498E-1,1.6296943E-1,2.5664556E-1,9.186149E-1,8.852524E-1,1.6296943E-1,8.500259E-1,3.429447E-1,6.314579E-2,1.6296943E-1,2.5664556E-1,7.859071E-1,3.4530357E-1,6.726025E-1,3.1674942E-1,6.044259E-1,7.763343E-2,3.4530357E-1,7.1381825E-1,5.249777E-2,6.4945966E-1,8.264706E-1,6.0221102E-2,4.3994313E-1,1.6296943E-1,6.943777E-1,7.642924E-1,8.264706E-1,3.2571536E-1,3.4530357E-1,6.044259E-1,6.0491756E-2,3.429447E-1,4.385828E-1,2.1121478E-1,7.3637867E-1,5.842309E-2,3.999076E-1,7.100504E-1,7.6151276E-1,3.2473457E-1,4.6267927E-1,3.8042578E-1,2.8834766E-1,1.9339906E-1,1.9339906E-1,6.358867E-2,2.801769E-2,-9.278326E-4,2.404535E-2,-1.3251181E-2,6.9737197E-3,5.0311214E-3,2.2696523E-2,3.9677348E-2,1.750425E-2,1.9437265E-2,-4.320426E-3,2.9127456E-2,4.2848863E-2,3.653705E-2,1.7285267E-2,1.2800849E-2,-3.9714994E-3,3.729408E-2,2.2116208E-2,5.2691605E-2,4.3294787E-2,6.825314E-2,6.7720704E-2,2.4470361E-2,-1.0975313E-2,3.4261633E-2,2.379756E-2,2.0120518E-2,4.6196226E-3,3.6408093E-2,3.584633E-2,-5.8175125E-3,2.3316337E-2,3.028586E-2,1.3650423E-2,4.083066E-2,4.5963623E-2,3.796363E-2,3.5046674E-2],"split_indices":[6,4,6,5,0,1,4,5,5,4,2,3,3,0,0,1,1,0,0,1,0,0,1,7,0,7,6,0,5,1,0,2,1,6,2,1,0,3,7,1,0,0,1,7,7,3,0,4,5,4,0,0,0,0,0,0,0,0,0,0,0,0,0,0,0,0,0,0,0,0,0,0,0,0,0,0,0,0,0,0,0,0,0,0,0,0,0,0,0,0,0],"split_type":[0,0,0,0,0,0,0,0,0,0,0,0,0,0,0,0,0,0,0,0,0,0,0,0,0,0,0,0,0,0,0,0,0,0,0,0,0,0,0,0,0,0,0,0,0,0,0,0,0,0,0,0,0,0,0,0,0,0,0,0,0,0,0,0,0,0,0,0,0,0,0,0,0,0,0,0,0,0,0,0,0,0,0,0,0,0,0,0,0,0,0],"sum_hessian":[1.28E3,1.172E3,1.08E2,9.86E2,1.86E2,1E2,8E0,8.46E2,1.4E2,1.82E2,4E0,2.8E1,7.2E1,1E0,7E0,1.49E2,6.97E2,1.32E2,8E0,1.7E2,1.2E1,1E0,3E0,2.7E1,1E0,3.2E1,4E1,1E0,6E0,2.1E1,1.28E2,6.52E2,4.5E1,4.1E1,9.1E1,7E0,1E0,3.9E1,1.31E2,8E0,4E0,1E0,2E0,1.9E1,8E0,3E1,2E0,2.7E1,1.3E1,4E0,2E0,2E0,1.9E1,1E2,2.8E1,5.86E2,6.6E1,2.3E1,2.2E1,4E0,3.7E1,3.4E1,5.7E1,3E0,4E0,4E0,3.5E1,6.8E1,6.3E1,2E0,6E0,2E0,2E0,1E0,1E0,1.8E1,1E0,6E0,2E0,2.8E1,2E0,1E0,1E0,2.5E1,2E0,2E0,1.1E1,1E0,3E0,1E0,1E0],"tree_param":{"num_deleted":"0","num_feature":"8","num_nodes":"91","size_leaf_vector":"1"}},{"base_weights":[2.0302832E-7,-2.6073821E-3,7.686188E-2,-8.476105E-3,3.3765048E-2,5.575504E-2,1.2962897E-1,-1.5226477E-2,3.060726E-2,6.0129967E-2,2.2959752E-2,5.281047E-2,4.2344287E-2,1.4022192E-1,7.666421E-2,-2.348487E-2,2.6561003E-2,1.5759047E-2,6.643664E-2,5.66498E-2,1.001519E-1,-3.1084483E-3,4.366097E-2,7.580371E-2,4.070877E-2,1.4916182E-1,1.7928887E-2,3.5450652E-2,1.0547876E-2,-3.137151E-2,1.7294833E-2,1.1571805E-2,5.940967E-2,5.0516203E-2,-1.3784536E-2,5.370935E-2,1.5128525E-1,6.931253E-2,4.5042295E-2,3.433428E-2,9.538666E-2,3.066962E-2,-1.4930773E-2,3.897381E-2,1.1865556E-1,9.833113E-2,6.61491E-2,6.155958E-2,1.7541196E-2,5.9652474E-2,1.4295185E-1,-1.0677096E-2,1.9135825E-2,5.315797E-4,1.6442554E-2,1.3272398E-2,-4.1325702E-3,1.5864579E-2,3.8874865E-2,2.2468014E-2,1.0812677E-2,2.6471652E-2,-6.3215764E-3,1.3577589E-2,4.7380496E-2,4.242139E-2,5.131395E-2,2.3570944E-2,8.29643E-3,5.7323175E-3,1.9070098E-2,2.7577974E-2,3.0692054E-2,8.315421E-3,2.0711947E-2,-6.7672716E-3,1.1537046E-2,1.0208806E-2,2.9195512E-2,4.3178417E-2,2.8014923E-2,3.3850983E-2,2.079606E-2,3.0393649E-2,1.8086577E-2,1.3753024E-2,2.3182727E-2,8.663693E-3,1.0106922E-3,3.8165797E-2,4.7605313E-2],"categories":[],"categories_nodes":[],"categories_segments":[],"categories_sizes":[],"default_left":[0,0,0,0,0,0,0,0,0,0,0,0,0,0,0,0,0,0,0,0,0,0,0,0,0,0,0,0,0,0,0,0,0,0,0,0,0,0,0,0,0,0,0,0,0,0,0,0,0,0,0,0,0,0,0,0,0,0,0,0,0,0,0,0,0,0,0,0,0,0,0,0,0,0,0,0,0,0,0,0,0,0,0,0,0,0,0,0,0,0,0],"id":6,"left_children":[1,3,5,7,9,11,13,15,17,19,21,23,-1,25,27,29,31,33,35,37,39,41,43,45,47,49,-1,-1,-1,51,53,55,57,59,61,63,65,67,69,-1,71,73,75,77,79,81,83,85,87,-1,89,-1,-1,-1,-1,-1,-1,-1,-1,-1,-1,-1,-1,-1,-1,-1,-1,-1,-1,-1,-1,-1,-1,-1,-1,-1,-1,-1,-1,-1,-1,-1,-1,-1,-1,-1,-1,-1,-1,-1,-1],"loss_changes":[2.565419E-1,2.642631E-1,4.6777368E-2,2.8123987E-1,4.899946E-2,7.5433403E-3,6.7326277E-3,3.1369367E-1,8.352435E-2,6.964162E-3,6.583652E-2,8.069463E-3,0E0,7.1929395E-3,3.4452667E-3,2.441057E-1,7.385628E-2,1.1398044E-1,4.9675092E-2,6.761208E-3,2.7249008E-4,2.1564107E-2,2.3902804E-2,2.1749325E-3,9.178191E-3,2.776593E-3,0E0,0E0,0E0,2.553233E-1,7.16255E-2,8.529177E-2,2.1529406E-2,1.7994538E-2,4.460901E-2,3.5231292E-2,1.1715144E-3,8.484028E-3,1.1530321E-2,0E0,7.183291E-5,1.5855236E-3,1.6287059E-2,1.8462837E-2,2.5547966E-3,1.2624525E-3,1.4425144E-3,2.4699792E-3,1.446134E-3,0E0,1.980096E-3,0E0,0E0,0E0,0E0,0E0,0E0,0E0,0E0,0E0,0E0,0E0,0E0,0E0,0E0,0E0,0E0,0E0,0E0,0E0,0E0,0E0,0E0,0E0,0E0,0E0,0E0,0E0,0E0,0E0,0E0,0E0,0E0,0E0,0E0,0E0,0E0,0E0,0E0,0E0,0E0],"parents":[2147483647,0,0,1,1,2,2,3,3,4,4,5,5,6,6,7,7,8,8,9,9,10,10,11,11,13,13,14,14,15,15,16,16,17,17,18,18,19,19,20,20,21,21,22,22,23,23,24,24,25,25,29,29,30,30,31,31,32,32,33,33,34,34,35,35,36,36,37,37,38,38,40,40,41,41,42,42,43,43,44,44,45,45,46,46,47,47,48,48,50,50],"right_children":[2,4,6,8,10,12,14,16,18,20,22,24,-1,26,28,30,32,34,36,38,40,42,44,46,48,50,-1,-1,-1,52,54,56,58,60,62,64,66,68,70,-1,72,74,76,78,80,82,84,86,88,-1,90,-1,-1,-1,-1,-1,-1,-1,-1,-1,-1,-1,-1,-1,-1,-1,-1,-1,-1,-1,-1,-1,-1,-1,-1,-1,-1,-1,-1,-1,-1,-1,-1,-1,-1,-1,-1,-1,-1,-1,-1],"split_conditions":[8.264706E-1,7.4261594E-1,8.852524E-1,7.4261594E-1,6.146087E-1,8.500259E-1,5.1607996E-1,7.4261594E-1,7.323345E-1,9.186149E-1,7.145241E-1,4.01469E-1,4.2344287E-2,4.01469E-1,3.2571536E-1,7.4261594E-1,7.323345E-1,6.4025325E-1,3.2571536E-1,5.358021E-1,2.1121478E-1,6.409492E-1,8.852524E-1,2.7575174E-1,4.0484306E-1,9.186149E-1,1.7928887E-2,3.5450652E-2,1.0547876E-2,8.264706E-1,7.323345E-1,6.350774E-1,8.852524E-1,5.358021E-1,3.216011E-1,8.852524E-1,7.851911E-1,8.034051E-1,7.741294E-1,3.433428E-2,3.2455498E-1,7.4676883E-1,6.592591E-1,3.2571536E-1,7.3637867E-1,8.72779E-1,8.2713443E-1,6.4945966E-1,4.494676E-1,5.9652474E-2,6.044259E-1,-1.0677096E-2,1.9135825E-2,5.315797E-4,1.6442554E-2,1.3272398E-2,-4.1325702E-3,1.5864579E-2,3.8874865E-2,2.2468014E-2,1.0812677E-2,2.6471652E-2,-6.3215764E-3,1.3577589E-2,4.7380496E-2,4.242139E-2,5.131395E-2,2.3570944E-2,8.29643E-3,5.7323175E-3,1.9070098E-2,2.7577974E-2,3.0692054E-2,8.315421E-3,2.0711947E-2,-6.7672716E-3,1.1537046E-2,1.0208806E-2,2.9195512E-2,4.3178417E-2,2.8014923E-2,3.3850983E-2,2.079606E-2,3.0393649E-2,1.8086577E-2,1.3753024E-2,2.3182727E-2,8.663693E-3,1.0106922E-3,3.8165797E-2,4.7605313E-2],"split_indices":[0,6,0,7,2,5,7,1,3,6,2,1,0,6,1,4,5,3,5,2,1,2,6,1,7,0,0,0,0,2,0,5,1,3,0,7,7,1,6,0,0,3,3,4,2,0,0,1,1,0,4,0,0,0,0,0,0,0,0,0,0,0,0,0,0,0,0,0,0,0,0,0,0,0,0,0,0,0,0,0,0,0,0,0,0,0,0,0,0,0,0],"split_type":[0,0,0,0,0,0,0,0,0,0,0,0,0,0,0,0,0,0,0,0,0,0,0,0,0,0,0,0,0,0,0,0,0,0,0,0,0,0,0,0,0,0,0,0,0,0,0,0,0,0,0,0,0,0,0,0,0,0,0,0,0,0,0,0,0,0,0,0,0,0,0,0,0,0,0,0,0,0,0,0,0,0,0,0,0,0,0,0,0,0,0],"sum_hessian":[1.28E3,1.238E3,4.2E1,1.066E3,1.72E2,3E1,1.2E1,9.09E2,1.57E2,5E1,1.22E2,2.9E1,1E0,1E1,2E0,7.59E2,1.5E2,1.11E2,4.6E1,4.6E1,4E0,5.4E1,6.8E1,1E1,1.9E1,9E0,1E0,1E0,1E0,6.36E2,1.23E2,1.03E2,4.7E1,5.1E1,6E1,4E1,6E0,2.2E1,2.4E1,1E0,3E0,1.4E1,4E1,6.4E1,4E0,3E0,7E0,1E1,9E0,1E0,8E0,6.09E2,2.7E1,8.7E1,3.6E1,4.5E1,5.8E1,4.3E1,4E0,1.9E1,3.2E1,4E0,5.6E1,3.7E1,3E0,4E0,2E0,1.8E1,4E0,1E1,1.4E1,2E0,1E0,1.3E1,1E0,3.5E1,5E0,5.9E1,5E0,2E0,2E0,2E0,1E0,1E0,6E0,5E0,5E0,5E0,4E0,4E0,4E0],"tree_param":{"num_deleted":"0","num_feature":"8","num_nodes":"91","size_leaf_vector":"1"}},{"base_weights":[3.3155082E-8,-4.43577E-3,3.1499855E-2,-1.0783008E-2,1.9393267E-2,2.6630774E-2,9.074032E-2,-1.657578E-2,2.2306008E-2,4.654573E-2,1.227845E-2,6.1040223E-2,1.9861702E-2,9.815536E-2,5.366516E-2,-2.5163503E-2,1.7718239E-2,1.2834136E-2,5.748725E-2,7.4785076E-2,4.0191878E-2,4.5160234E-2,6.030332E-4,7.507251E-2,3.7653074E-2,4.7193646E-2,1.0143678E-2,1.044133E-1,1.2550164E-2,2.4815513E-2,7.3835854E-3,-2.9021313E-2,4.1471396E-2,2.4586916E-3,5.148405E-2,3.5247795E-2,-9.579521E-3,4.911709E-2,1.2723859E-1,6.681657E-2,4.1559935E-2,6.578815E-2,3.379281E-2,4.05884E-2,7.792505E-2,3.4742866E-2,-8.880253E-3,5.298978E-2,1.00309916E-1,4.6581347E-2,1.979653E-2,5.4395676E-2,2.878846E-2,3.9170697E-2,-5.8712303E-3,4.1756775E-2,1.00066304E-1,-1.0331454E-2,4.6086097E-3,1.9367041E-2,8.483921E-3,1.014793E-2,-5.3865705E-3,1.2913387E-2,4.266236E-2,8.134661E-3,2.625798E-2,-5.609376E-3,1.4711625E-2,1.0191845E-2,1.9657016E-2,4.2858124E-2,2.8798485E-2,1.7579813E-2,2.4153568E-2,1.5665317E-2,2.3807574E-2,2.4399662E-2,8.662482E-3,2.0004377E-2,1.0654437E-2,2.7849842E-2,2.114135E-2,4.087587E-3,1.3590497E-2,-6.365379E-3,4.7385297E-3,1.9153323E-2,-6.8977834E-3,3.0972721E-2,2.481451E-2,1.2832547E-2,1.625812E-2,8.686781E-3,4.5650485E-3,1.3867202E-2,2.3264624E-2,9.3727116E-4,1.0836329E-2,7.231039E-3,1.627138E-2,-4.978118E-3,1.0569501E-2,3.159591E-2,1.8987752E-2],"categories":[],"categories_nodes":[],"categories_segments":[],"categories_sizes":[],"default_left":[0,0,0,0,0,0,0,0,0,0,0,0,0,0,0,0,0,0,0,0,0,0,0,0,0,0,0,0,0,0,0,0,0,0,0,0,0,0,0,0,0,0,0,0,0,0,0,0,0,0,0,0,0,0,0,0,0,0,0,0,0,0,0,0,0,0,0,0,0,0,0,0,0,0,0,0,0,0,0,0,0,0,0,0,0,0,0,0,0,0,0,0,0,0,0,0,0,0,0,0,0,0,0,0,0],"id":7,"left_children":[1,3,5,7,9,11,13,15,17,19,21,23,25,27,29,31,33,35,37,39,41,43,45,47,49,51,53,55,-1,-1,-1,57,59,61,63,65,67,69,71,73,-1,75,77,79,81,83,85,87,89,91,93,95,97,99,101,-1,103,-1,-1,-1,-1,-1,-1,-1,-1,-1,-1,-1,-1,-1,-1,-1,-1,-1,-1,-1,-1,-1,-1,-1,-1,-1,-1,-1,-1,-1,-1,-1,-1,-1,-1,-1,-1,-1,-1,-1,-1,-1,-1,-1,-1,-1,-1,-1,-1],"loss_changes":[1.7885058E-1,1.6970089E-1,4.557456E-2,1.6982594E-1,4.5591615E-2,3.400632E-2,3.298968E-3,2.2205873E-1,4.3986656E-2,8.791998E-3,7.1790904E-2,7.876202E-3,3.2404725E-2,3.5245642E-3,1.6881782E-3,1.5501001E-1,7.78029E-2,5.224669E-2,1.6347244E-2,4.571788E-3,6.551698E-3,7.3399693E-3,4.467858E-2,8.359663E-3,1.4348542E-3,4.2417496E-3,4.1837856E-2,1.3605431E-3,0E0,0E0,0E0,1.3703868E-1,1.0049645E-2,6.6595234E-2,3.5985857E-2,2.2107527E-2,2.7794246E-2,6.211538E-3,1.4642477E-3,9.0029463E-4,0E0,1.4732555E-3,7.4813627E-3,5.692549E-3,6.6671893E-4,6.6892765E-3,3.2879144E-2,6.5980833E-3,3.611818E-4,1.738444E-4,1.2584217E-4,4.3515787E-3,1.6936772E-3,7.2646886E-3,2.5562089E-2,0E0,1.5454963E-3,0E0,0E0,0E0,0E0,0E0,0E0,0E0,0E0,0E0,0E0,0E0,0E0,0E0,0E0,0E0,0E0,0E0,0E0,0E0,0E0,0E0,0E0,0E0,0E0,0E0,0E0,0E0,0E0,0E0,0E0,0E0,0E0,0E0,0E0,0E0,0E0,0E0,0E0,0E0,0E0,0E0,0E0,0E0,0E0,0E0,0E0,0E0,0E0],"parents":[2147483647,0,0,1,1,2,2,3,3,4,4,5,5,6,6,7,7,8,8,9,9,10,10,11,11,12,12,13,13,14,14,15,15,16,16,17,17,18,18,19,19,20,20,21,21,22,22,23,23,24,24,25,25,26,26,27,27,31,31,32,32,33,33,34,34,35,35,36,36,37,37,38,38,39,39,41,41,42,42,43,43,44,44,45,45,46,46,47,47,48,48,49,49,50,50,51,51,52,52,53,53,54,54,56,56],"right_children":[2,4,6,8,10,12,14,16,18,20,22,24,26,28,30,32,34,36,38,40,42,44,46,48,50,52,54,56,-1,-1,-1,58,60,62,64,66,68,70,72,74,-1,76,78,80,82,84,86,88,90,92,94,96,98,100,102,-1,104,-1,-1,-1,-1,-1,-1,-1,-1,-1,-1,-1,-1,-1,-1,-1,-1,-1,-1,-1,-1,-1,-1,-1,-1,-1,-1,-1,-1,-1,-1,-1,-1,-1,-1,-1,-1,-1,-1,-1,-1,-1,-1,-1,-1,-1,-1,-1,-1],"split_conditions":[7.4676883E-1,7.145241E-1,8.852524E-1,7.4261594E-1,3.4530357E-1,5.687432E-1,5.1607996E-1,7.323345E-1,6.713786E-1,4.848675E-1,3.4530357E-1,4.1009045E-1,3.4530357E-1,4.01469E-1,3.2571536E-1,8.164136E-1,7.323345E-1,4.385828E-1,8.500259E-1,8.264706E-1,2.3412305E-1,3.179234E-1,6.4025325E-1,2.2511016E-1,8.034051E-1,7.4676883E-1,3.4530357E-1,9.186149E-1,1.2550164E-2,2.4815513E-2,7.3835854E-3,7.642924E-1,4.01469E-1,6.4025325E-1,8.852524E-1,5.7823646E-1,7.604858E-1,2.373433E-1,6.9907856E-1,6.987862E-1,4.1559935E-2,2.4666113E-1,7.1982586E-1,2.323437E-1,3.999076E-1,2.373433E-1,7.321923E-1,5.1430786E-1,5.687432E-1,2.2511016E-1,8.058674E-1,7.100504E-1,5.733034E-1,2.2511016E-1,8.264706E-1,4.1756775E-2,4.8367372E-1,-1.0331454E-2,4.6086097E-3,1.9367041E-2,8.483921E-3,1.014793E-2,-5.3865705E-3,1.2913387E-2,4.266236E-2,8.134661E-3,2.625798E-2,-5.609376E-3,1.4711625E-2,1.0191845E-2,1.9657016E-2,4.2858124E-2,2.8798485E-2,1.7579813E-2,2.4153568E-2,1.5665317E-2,2.3807574E-2,2.4399662E-2,8.662482E-3,2.0004377E-2,1.0654437E-2,2.7849842E-2,2.114135E-2,4.087587E-3,1.3590497E-2,-6.365379E-3,4.7385297E-3,1.9153323E-2,-6.8977834E-3,3.0972721E-2,2.481451E-2,1.2832547E-2,1.625812E-2,8.686781E-3,4.5650485E-3,1.3867202E-2,2.3264624E-2,9.3727116E-4,1.0836329E-2,7.231039E-3,1.627138E-2,-4.978118E-3,1.0569501E-2,3.159591E-2,1.8987752E-2],"split_indices":[0,6,0,5,7,4,7,7,2,1,5,6,3,6,1,4,3,2,5,2,3,5,2,6,5,5,5,0,0,0,0,1,3,3,3,6,1,0,2,5,0,4,6,1,1,3,2,4,1,2,0,5,1,6,0,0,1,0,0,0,0,0,0,0,0,0,0,0,0,0,0,0,0,0,0,0,0,0,0,0,0,0,0,0,0,0,0,0,0,0,0,0,0,0,0,0,0,0,0,0,0,0,0,0,0],"split_type":[0,0,0,0,0,0,0,0,0,0,0,0,0,0,0,0,0,0,0,0,0,0,0,0,0,0,0,0,0,0,0,0,0,0,0,0,0,0,0,0,0,0,0,0,0,0,0,0,0,0,0,0,0,0,0,0,0,0,0,0,0,0,0,0,0,0,0,0,0,0,0,0,0,0,0,0,0,0,0,0,0,0,0,0,0,0,0,0,0,0,0,0,0,0,0,0,0,0,0,0,0,0,0,0,0],"sum_hessian":[1.28E3,1.122E3,1.58E2,8.86E2,2.36E2,1.46E2,1.2E1,7.54E2,1.32E2,4.9E1,1.87E2,2.4E1,1.22E2,1E1,2E0,6.03E2,1.51E2,1.04E2,2.8E1,9E0,4E1,4.9E1,1.38E2,1.5E1,9E0,3.2E1,9E1,9E0,1E0,1E0,1E0,5.7E2,3.3E1,1.04E2,4.7E1,5.2E1,5.2E1,2.5E1,3E0,8E0,1E0,8E0,3.2E1,4.3E1,6E0,3E1,1.08E2,8E0,7E0,6E0,3E0,2.3E1,9E0,3.2E1,5.8E1,1E0,8E0,5.08E2,6.2E1,1.2E1,2.1E1,4.1E1,6.3E1,4.3E1,4E0,4.5E1,7E0,4.5E1,7E0,1.3E1,1.2E1,2E0,1E0,5E0,3E0,4E0,4E0,3E0,2.9E1,7E0,3.6E1,2E0,4E0,1E1,2E1,7.2E1,3.6E1,7E0,1E0,6E0,1E0,4E0,2E0,1E0,2E0,1.7E1,6E0,2E0,7E0,1.6E1,1.6E1,4.6E1,1.2E1,7E0,1E0],"tree_param":{"num_deleted":"0","num_feature":"8","num_nodes":"105","size_leaf_vector":"1"}},{"base_weights":[7.227063E-8,-4.068291E-3,2.62079E-2,-9.515436E-3,1.605845E-2,4.6737786E-2,1.576287E-2,-1.2483772E-2,3.214362E-2,4.2596232E-2,9.104701E-3,8.831477E-2,4.365801E-2,-1.0968312E-2,3.3845726E-2,-1.939481E-2,1.1685766E-2,2.241298E-2,7.371998E-2,6.974983E-2,3.5633773E-2,2.9948652E-2,-6.142263E-3,6.5618515E-2,4.6921063E-2,1.3778687E-3,4.797231E-2,-2.0533394E-2,2.8354803E-2,2.8602246E-2,8.802835E-2,-2.6370287E-2,1.1049012E-2,3.9573707E-2,4.2749853E-3,1.1995857E-2,6.0956337E-2,1.21592045E-1,6.308174E-2,6.2226295E-2,8.730475E-2,2.5200062E-2,5.42654E-2,2.152499E-2,4.5291748E-2,-1.539945E-2,3.458936E-2,7.958865E-2,1.1303473E-2,1.895833E-2,-1.0342439E-2,2.9456107E-2,5.6141224E-2,-3.364895E-2,1.0467009E-2,6.5817833E-3,5.557108E-2,2.414928E-2,1.1617724E-1,9.5703796E-2,1.4895344E-2,-9.62345E-3,2.2936764E-3,2.2991968E-3,1.9417744E-2,2.0417914E-2,9.219968E-3,-1.1251302E-3,1.0351219E-2,-8.494721E-4,1.2865901E-2,3.0487444E-2,1.3058097E-2,3.2046605E-2,4.0908623E-2,4.5101168E-3,2.3042925E-2,2.3372222E-2,1.513964E-2,3.0917931E-2,2.3828173E-2,-1.3867236E-2,8.4528215E-3,1.48713775E-2,3.4586765E-2,2.7825464E-3,1.0591817E-2,1.2102467E-2,2.249787E-2,-6.1549665E-3,1.3143826E-2,2.1759868E-2,7.531044E-3,2.2484923E-2,2.526827E-2,8.986331E-3,2.3886682E-3,-1.0595083E-2,6.434441E-4,2.5501397E-2,4.6706917E-3,2.9840698E-2,1.4601276E-2,-6.2927846E-3,-1.3353458E-2,1.8987608E-3,1.5553523E-2,-3.985262E-3,5.9477333E-3,1.2011147E-2,1.8224716E-2,5.594752E-3,2.5065137E-2,3.1777456E-2,4.1004613E-2,2.7314508E-2,3.429766E-2],"categories":[],"categories_nodes":[],"categories_segments":[],"categories_sizes":[],"default_left":[0,0,0,0,0,0,0,0,0,0,0,0,0,0,0,0,0,0,0,0,0,0,0,0,0,0,0,0,0,0,0,0,0,0,0,0,0,0,0,0,0,0,0,0,0,0,0,0,0,0,0,0,0,0,0,0,0,0,0,0,0,0,0,0,0,0,0,0,0,0,0,0,0,0,0,0,0,0,0,0,0,0,0,0,0,0,0,0,0,0,0,0,0,0,0,0,0,0,0,0,0,0,0,0,0,0,0,0,0,0,0,0,0,0,0,0,0],"id":8,"left_children":[1,3,5,7,9,11,13,15,17,19,21,23,25,27,29,31,33,35,37,39,41,43,45,47,-1,49,51,53,55,57,59,61,63,65,67,69,71,73,75,77,79,81,83,85,87,89,91,93,-1,95,97,99,101,103,105,107,109,111,113,115,-1,-1,-1,-1,-1,-1,-1,-1,-1,-1,-1,-1,-1,-1,-1,-1,-1,-1,-1,-1,-1,-1,-1,-1,-1,-1,-1,-1,-1,-1,-1,-1,-1,-1,-1,-1,-1,-1,-1,-1,-1,-1,-1,-1,-1,-1,-1,-1,-1,-1,-1,-1,-1,-1,-1,-1,-1],"loss_changes":[1.3647738E-1,1.2147369E-1,3.6882862E-2,1.0782982E-1,4.3550756E-2,7.4267834E-3,5.510488E-2,1.3596778E-1,2.3464743E-2,9.263732E-3,5.9429895E-2,6.1814412E-3,9.8501E-3,1.7301926E-2,1.931917E-2,1.3442399E-1,3.740753E-2,1.8871013E-2,5.602021E-3,1.3207495E-3,7.5814836E-3,1.0210365E-2,4.072251E-2,1.1709882E-3,0E0,1.0302421E-3,7.4116066E-3,1.5043736E-2,5.333225E-3,2.4178043E-2,1.7673708E-3,9.999159E-2,2.1440268E-2,9.569541E-3,3.469195E-2,1.6946979E-2,7.0882477E-3,4.36306E-4,5.936429E-3,1.2909602E-3,3.7232973E-4,5.313974E-3,4.010357E-3,8.609606E-3,4.11674E-3,2.6663557E-2,7.1985554E-3,4.303921E-5,0E0,2.4182856E-4,9.3558885E-4,1.157115E-2,1.1004835E-2,3.5791975E-3,1.8833588E-3,1.3155252E-3,3.217375E-4,1.927606E-2,6.306693E-4,4.334636E-4,0E0,0E0,0E0,0E0,0E0,0E0,0E0,0E0,0E0,0E0,0E0,0E0,0E0,0E0,0E0,0E0,0E0,0E0,0E0,0E0,0E0,0E0,0E0,0E0,0E0,0E0,0E0,0E0,0E0,0E0,0E0,0E0,0E0,0E0,0E0,0E0,0E0,0E0,0E0,0E0,0E0,0E0,0E0,0E0,0E0,0E0,0E0,0E0,0E0,0E0,0E0,0E0,0E0,0E0,0E0,0E0,0E0],"parents":[2147483647,0,0,1,1,2,2,3,3,4,4,5,5,6,6,7,7,8,8,9,9,10,10,11,11,12,12,13,13,14,14,15,15,16,16,17,17,18,18,19,19,20,20,21,21,22,22,23,23,25,25,26,26,27,27,28,28,29,29,30,30,31,31,32,32,33,33,34,34,35,35,36,36,37,37,38,38,39,39,40,40,41,41,42,42,43,43,44,44,45,45,46,46,47,47,49,49,50,50,51,51,52,52,53,53,54,54,55,55,56,56,57,57,58,58,59,59],"right_children":[2,4,6,8,10,12,14,16,18,20,22,24,26,28,30,32,34,36,38,40,42,44,46,48,-1,50,52,54,56,58,60,62,64,66,68,70,72,74,76,78,80,82,84,86,88,90,92,94,-1,96,98,100,102,104,106,108,110,112,114,116,-1,-1,-1,-1,-1,-1,-1,-1,-1,-1,-1,-1,-1,-1,-1,-1,-1,-1,-1,-1,-1,-1,-1,-1,-1,-1,-1,-1,-1,-1,-1,-1,-1,-1,-1,-1,-1,-1,-1,-1,-1,-1,-1,-1,-1,-1,-1,-1,-1,-1,-1,-1,-1,-1,-1,-1,-1],"split_conditions":[7.4261594E-1,7.145241E-1,6.350774E-1,7.9413366E-1,3.4530357E-1,1.1127636E-1,7.145241E-1,7.145241E-1,8.852524E-1,4.9659893E-1,4.0484306E-1,5.9817827E-1,1.97212E-1,6.044259E-1,3.2571536E-1,7.4261594E-1,3.4530357E-1,5.7823646E-1,5.358021E-1,6.4025325E-1,7.7212197E-1,7.750071E-1,6.713786E-1,8.034051E-1,4.6921063E-2,3.7579566E-1,2.2511016E-1,5.903271E-1,7.6272285E-1,8.852524E-1,4.2712852E-1,7.462949E-1,9.186149E-1,1.7870222E-1,8.164136E-1,5.7823646E-1,1.7870222E-1,8.888041E-2,9.186149E-1,7.7337736E-1,1.846853E-1,5.3829026E-1,4.6267927E-1,7.168897E-1,9.186149E-1,7.9534763E-1,2.7575174E-1,5.903271E-1,1.1303473E-2,5.6042105E-1,6.603827E-1,3.568829E-1,2.323437E-1,2.6392215E-1,8.034051E-1,3.4772733E-1,1.5755984E-1,3.2571536E-1,4.8367372E-1,3.429447E-1,1.4895344E-2,-9.62345E-3,2.2936764E-3,2.2991968E-3,1.9417744E-2,2.0417914E-2,9.219968E-3,-1.1251302E-3,1.0351219E-2,-8.494721E-4,1.2865901E-2,3.0487444E-2,1.3058097E-2,3.2046605E-2,4.0908623E-2,4.5101168E-3,2.3042925E-2,2.3372222E-2,1.513964E-2,3.0917931E-2,2.3828173E-2,-1.3867236E-2,8.4528215E-3,1.48713775E-2,3.4586765E-2,2.7825464E-3,1.0591817E-2,1.2102467E-2,2.249787E-2,-6.1549665E-3,1.3143826E-2,2.1759868E-2,7.531044E-3,2.2484923E-2,2.526827E-2,8.986331E-3,2.3886682E-3,-1.0595083E-2,6.434441E-4,2.5501397E-2,4.6706917E-3,2.9840698E-2,1.4601276E-2,-6.2927846E-3,-1.3353458E-2,1.8987608E-3,1.5553523E-2,-3.985262E-3,5.9477333E-3,1.2011147E-2,1.8224716E-2,5.594752E-3,2.5065137E-2,3.1777456E-2,4.1004613E-2,2.7314508E-2,3.429766E-2],"split_indices":[3,5,7,2,6,5,7,0,2,0,4,1,5,2,5,6,1,3,6,2,5,5,0,0,0,1,1,4,3,3,2,4,6,2,0,1,5,0,2,5,0,0,7,1,5,1,7,0,0,0,0,2,0,1,0,4,1,1,0,0,0,0,0,0,0,0,0,0,0,0,0,0,0,0,0,0,0,0,0,0,0,0,0,0,0,0,0,0,0,0,0,0,0,0,0,0,0,0,0,0,0,0,0,0,0,0,0,0,0,0,0,0,0,0,0,0,0],"split_type":[0,0,0,0,0,0,0,0,0,0,0,0,0,0,0,0,0,0,0,0,0,0,0,0,0,0,0,0,0,0,0,0,0,0,0,0,0,0,0,0,0,0,0,0,0,0,0,0,0,0,0,0,0,0,0,0,0,0,0,0,0,0,0,0,0,0,0,0,0,0,0,0,0,0,0,0,0,0,0,0,0,0,0,0,0,0,0,0,0,0,0,0,0,0,0,0,0,0,0,0,0,0,0,0,0,0,0,0,0,0,0,0,0,0,0,0,0],"sum_hessian":[1.28E3,1.108E3,1.72E2,8.72E2,2.36E2,5.8E1,1.14E2,8.14E2,5.8E1,4.9E1,1.87E2,4E0,5.4E1,4.6E1,6.8E1,6.33E2,1.81E2,4.7E1,1.1E1,1E1,3.9E1,7.9E1,1.08E2,3E0,1E0,5E0,4.9E1,3.7E1,9E0,6.2E1,6E0,5.15E2,1.18E2,3.8E1,1.43E2,3.7E1,1E1,2E0,9E0,7E0,3E0,2.5E1,1.4E1,5.1E1,2.8E1,8.8E1,2E1,2E0,1E0,2E0,3E0,1.5E1,3.4E1,2.6E1,1.1E1,5E0,4E0,5.9E1,3E0,5E0,1E0,4.41E2,7.4E1,1.11E2,7E0,9E0,2.9E1,1.13E2,3E1,2.5E1,1.2E1,3E0,7E0,1E0,1E0,2E0,7E0,3E0,4E0,1E0,2E0,1E0,2.4E1,1.3E1,1E0,2.7E1,2.4E1,2.4E1,4E0,8.1E1,7E0,4E0,1.6E1,1E0,1E0,1E0,1E0,1E0,2E0,3E0,1.2E1,5E0,2.9E1,1.2E1,1.4E1,1E1,1E0,2E0,3E0,1E0,3E0,5.4E1,5E0,2E0,1E0,4E0,1E0],"tree_param":{"num_deleted":"0","num_feature":"8","num_nodes":"117","size_leaf_vector":"1"}},{"base_weights":[8.307397E-8,-3.8645093E-3,1.6919853E-2,-9.1177E-3,1.4076471E-2,4.092592E-2,1.0696058E-2,2.3475014E-2,-1.280914E-2,3.2487612E-2,7.3718363E-3,7.566228E-2,3.2019164E-2,4.0358055E-2,3.143583E-4,4.9167257E-2,1.8185433E-2,-1.8798634E-2,1.1739355E-2,3.7583973E-2,3.0990962E-2,-2.0393059E-3,3.4141306E-2,8.3151445E-2,2.477932E-3,2.8509073E-2,7.414023E-2,7.47901E-2,3.152933E-2,2.5346786E-2,-7.102657E-3,2.6179949E-2,6.640774E-2,1.594014E-2,9.228015E-2,-2.304172E-2,3.8004078E-3,7.946777E-3,5.282561E-2,2.7450059E-2,6.403939E-2,3.2962322E-2,-7.766845E-3,8.168936E-2,3.192977E-2,1.1510706E-1,7.402127E-2,3.3311106E-2,-1.2635231E-3,2.1937467E-2,2.2394372E-2,4.457299E-2,8.774029E-2,-2.8083324E-2,3.649705E-2,3.984509E-2,1.40703255E-2,-8.848438E-3,8.542371E-2,1.4124584E-2,6.599865E-3,1.7176066E-2,2.4499416E-2,2.6177503E-3,9.419809E-3,3.6379337E-2,1.8988753E-2,-7.9177655E-3,5.0446577E-3,1.0890771E-2,-9.1264566E-4,9.384535E-3,6.339078E-4,2.6412034E-2,1.3734813E-2,9.184009E-3,2.5410713E-3,1.0815955E-2,2.3409748E-2,1.4307053E-2,2.9455663E-3,5.220466E-3,-5.1614987E-3,2.2085238E-2,2.6928378E-2,1.1318384E-2,3.0076664E-3,3.214331E-2,3.692093E-2,3.7028506E-2,1.9736027E-2,1.7846419E-2,8.829912E-3,-8.652306E-3,1.6892554E-3,1.2070156E-2,1.597538E-2,3.0192483E-2,2.1161556E-2,6.742001E-3,-1.6008496E-2,1.3374543E-2,6.6579753E-3,1.3901294E-2,2.6693346E-4,1.6193677E-2,2.7245255E-3,-3.5466745E-3,1.2214518E-2,2.2551013E-2,2.8703215E-2],"categories":[],"categories_nodes":[],"categories_segments":[],"categories_sizes":[],"default_left":[0,0,0,0,0,0,0,0,0,0,0,0,0,0,0,0,0,0,0,0,0,0,0,0,0,0,0,0,0,0,0,0,0,0,0,0,0,0,0,0,0,0,0,0,0,0,0,0,0,0,0,0,0,0,0,0,0,0,0,0,0,0,0,0,0,0,0,0,0,0,0,0,0,0,0,0,0,0,0,0,0,0,0,0,0,0,0,0,0,0,0,0,0,0,0,0,0,0,0,0,0,0,0,0,0,0,0,0,0,0,0],"id":9,"left_children":[1,3,5,7,9,11,13,15,17,19,21,23,25,27,29,31,33,35,37,-1,39,41,43,45,-1,47,49,51,53,55,57,59,61,63,65,67,69,71,73,75,77,79,81,83,85,87,89,91,93,-1,-1,95,97,99,101,103,105,107,109,-1,-1,-1,-1,-1,-1,-1,-1,-1,-1,-1,-1,-1,-1,-1,-1,-1,-1,-1,-1,-1,-1,-1,-1,-1,-1,-1,-1,-1,-1,-1,-1,-1,-1,-1,-1,-1,-1,-1,-1,-1,-1,-1,-1,-1,-1,-1,-1,-1,-1,-1,-1],"loss_changes":[8.3696656E-2,9.820578E-2,3.5559304E-2,9.697312E-2,2.9131833E-2,1.5160032E-2,5.8201037E-2,1.1143897E-2,1.0645195E-1,8.749291E-3,4.3584116E-2,5.0478876E-3,5.766101E-3,1.4895566E-2,2.5993226E-2,5.548369E-3,1.1312785E-2,5.580777E-2,2.2126837E-2,0E0,7.2553195E-3,2.5660569E-2,4.731942E-3,2.6258416E-3,0E0,5.1468834E-3,1.5459955E-6,3.9131716E-3,1.1549421E-2,5.2316654E-3,1.7445318E-2,5.242722E-4,1.1173226E-3,7.360818E-3,1.6801804E-3,6.544191E-2,2.0460615E-2,1.769698E-2,2.9761456E-3,3.3621825E-3,2.349684E-3,6.135445E-3,2.612974E-2,1.3031065E-4,5.46119E-3,1.2681074E-4,2.8479025E-3,3.1469949E-3,9.5064787E-4,0E0,0E0,1.1296896E-4,1.5534796E-3,3.8339638E-3,4.1631386E-3,3.5408717E-3,3.5835656E-3,1.5623596E-2,2.1027494E-4,0E0,0E0,0E0,0E0,0E0,0E0,0E0,0E0,0E0,0E0,0E0,0E0,0E0,0E0,0E0,0E0,0E0,0E0,0E0,0E0,0E0,0E0,0E0,0E0,0E0,0E0,0E0,0E0,0E0,0E0,0E0,0E0,0E0,0E0,0E0,0E0,0E0,0E0,0E0,0E0,0E0,0E0,0E0,0E0,0E0,0E0,0E0,0E0,0E0,0E0,0E0,0E0],"parents":[2147483647,0,0,1,1,2,2,3,3,4,4,5,5,6,6,7,7,8,8,9,9,10,10,11,11,12,12,13,13,14,14,15,15,16,16,17,17,18,18,20,20,21,21,22,22,23,23,25,25,26,26,27,27,28,28,29,29,30,30,31,31,32,32,33,33,34,34,35,35,36,36,37,37,38,38,39,39,40,40,41,41,42,42,43,43,44,44,45,45,46,46,47,47,48,48,51,51,52,52,53,53,54,54,55,55,56,56,57,57,58,58],"right_children":[2,4,6,8,10,12,14,16,18,20,22,24,26,28,30,32,34,36,38,-1,40,42,44,46,-1,48,50,52,54,56,58,60,62,64,66,68,70,72,74,76,78,80,82,84,86,88,90,92,94,-1,-1,96,98,100,102,104,106,108,110,-1,-1,-1,-1,-1,-1,-1,-1,-1,-1,-1,-1,-1,-1,-1,-1,-1,-1,-1,-1,-1,-1,-1,-1,-1,-1,-1,-1,-1,-1,-1,-1,-1,-1,-1,-1,-1,-1,-1,-1,-1,-1,-1,-1,-1,-1,-1,-1,-1,-1,-1,-1],"split_conditions":[7.145241E-1,7.145241E-1,3.4530357E-1,2.1890087E-1,3.4530357E-1,1.7870222E-1,3.4530357E-1,2.7575174E-1,7.323345E-1,2.0361355E-1,6.713786E-1,6.9907856E-1,3.179234E-1,1.7870222E-1,6.4025325E-1,2.2150333E-1,8.500259E-1,7.323345E-1,8.852524E-1,3.7583973E-2,8.500259E-1,3.4530357E-1,3.2571536E-1,2.5664556E-1,2.477932E-3,4.0484306E-1,4.8367372E-1,6.4025325E-1,2.0770554E-1,4.9058557E-1,8.852524E-1,7.321923E-1,4.3041995E-1,6.943777E-1,3.2571536E-1,7.859071E-1,6.146087E-1,3.1674942E-1,2.1121478E-1,8.034051E-1,6.603827E-1,2.7575174E-1,3.8042578E-1,3.045927E-1,4.1009045E-1,4.5229268E-1,1.846853E-1,1.7870222E-1,1.846853E-1,2.1937467E-2,2.2394372E-2,6.4025325E-1,7.296934E-1,3.105168E-1,7.5565964E-1,8.2713443E-1,3.7189004E-1,8.72779E-1,3.429447E-1,1.4124584E-2,6.599865E-3,1.7176066E-2,2.4499416E-2,2.6177503E-3,9.419809E-3,3.6379337E-2,1.8988753E-2,-7.9177655E-3,5.0446577E-3,1.0890771E-2,-9.1264566E-4,9.384535E-3,6.339078E-4,2.6412034E-2,1.3734813E-2,9.184009E-3,2.5410713E-3,1.0815955E-2,2.3409748E-2,1.4307053E-2,2.9455663E-3,5.220466E-3,-5.1614987E-3,2.2085238E-2,2.6928378E-2,1.1318384E-2,3.0076664E-3,3.214331E-2,3.692093E-2,3.7028506E-2,1.9736027E-2,1.7846419E-2,8.829912E-3,-8.652306E-3,1.6892554E-3,1.2070156E-2,1.597538E-2,3.0192483E-2,2.1161556E-2,6.742001E-3,-1.6008496E-2,1.3374543E-2,6.6579753E-3,1.3901294E-2,2.6693346E-4,1.6193677E-2,2.7245255E-3,-3.5466745E-3,1.2214518E-2,2.2551013E-2,2.8703215E-2],"split_indices":[3,1,2,2,4,1,4,6,2,5,4,6,2,5,7,6,7,0,2,0,1,0,0,5,0,6,0,2,5,7,3,0,1,5,0,6,4,7,5,6,6,3,2,0,3,0,0,6,1,0,0,0,2,0,2,3,4,7,0,0,0,0,0,0,0,0,0,0,0,0,0,0,0,0,0,0,0,0,0,0,0,0,0,0,0,0,0,0,0,0,0,0,0,0,0,0,0,0,0,0,0,0,0,0,0,0,0,0,0,0,0],"split_type":[0,0,0,0,0,0,0,0,0,0,0,0,0,0,0,0,0,0,0,0,0,0,0,0,0,0,0,0,0,0,0,0,0,0,0,0,0,0,0,0,0,0,0,0,0,0,0,0,0,0,0,0,0,0,0,0,0,0,0,0,0,0,0,0,0,0,0,0,0,0,0,0,0,0,0,0,0,0,0,0,0,0,0,0,0,0,0,0,0,0,0,0,0,0,0,0,0,0,0,0,0,0,0,0,0,0,0,0,0,0,0],"sum_hessian":[1.28E3,1.042E3,2.38E2,8.06E2,2.36E2,4.9E1,1.89E2,8.2E1,7.24E2,6.3E1,1.73E2,1E1,3.9E1,4.9E1,1.4E2,1.4E1,6.8E1,5.82E2,1.42E2,1E0,6.2E1,1.28E2,4.5E1,9E0,1E0,3.6E1,3E0,1E1,3.9E1,3.2E1,1.08E2,6E0,8E0,6.6E1,2E0,4.9E2,9.2E1,1.3E2,1.2E1,5.6E1,6E0,1.8E1,1.1E2,2E0,4.3E1,2E0,7E0,3.1E1,5E0,1E0,2E0,3E0,7E0,3E0,3.6E1,1.4E1,1.8E1,1.06E2,2E0,1E0,5E0,5E0,3E0,4.5E1,2.1E1,1E0,1E0,4.52E2,3.8E1,1.6E1,7.6E1,2.6E1,1.04E2,2E0,1E1,4.8E1,8E0,2E0,4E0,1.1E1,7E0,3E1,8E1,1E0,1E0,3.4E1,9E0,1E0,1E0,1E0,6E0,4E0,2.7E1,1E0,4E0,2E0,1E0,4E0,3E0,1E0,2E0,2.3E1,1.3E1,1.2E1,2E0,2E0,1.6E1,1E2,6E0,1E0,1E0],"tree_param":{"num_deleted":"0","num_feature":"8","num_nodes":"111","size_leaf_vector":"1"}},{"base_weights":[1.0952353E-7,-3.0467478E-3,1.3339712E-2,-7.232232E-3,1.0212866E-2,1.0993584E-2,5.7525117E-2,-9.756157E-3,1.5230703E-2,2.6407106E-2,5.098895E-3,2.855417E-2,5.6137517E-3,1.0127425E-1,4.8775293E-2,-1.4630522E-2,5.784464E-3,9.700078E-3,4.9922813E-2,6.470544E-3,3.2474756E-2,1.9703838E-3,3.1691242E-2,2.479655E-2,4.9690783E-2,2.04336E-2,-6.2730014E-3,2.5465537E-2,3.5299018E-2,-7.4357986E-3,6.2828064E-2,-1.8616362E-2,8.729524E-3,2.8597109E-2,6.967517E-4,3.6524653E-2,4.052798E-3,8.88536E-2,4.1271526E-2,-3.2099087E-2,1.6989535E-2,4.3338876E-2,2.4829635E-2,2.1316152E-2,-2.689546E-3,2.6097775E-2,5.406511E-2,2.5829684E-2,-6.1984067E-3,5.9887886E-2,3.949368E-2,3.0902829E-2,1.4108439E-2,1.2998332E-2,-2.4002628E-2,-3.1525614E-3,-1.308918E-3,7.0962906E-2,5.4693222E-2,-7.418274E-3,1.6072819E-4,7.0062894E-3,-2.1149511E-3,6.4791613E-3,1.9498987E-2,7.2248774E-3,-2.430602E-3,6.038165E-3,1.5876627E-2,1.0572402E-2,-5.385161E-4,2.7609302E-2,2.5702858E-2,1.4573533E-2,-5.1551345E-3,-1.9754076E-2,-4.567552E-3,2.757327E-3,1.56247625E-2,7.1373587E-3,1.7266612E-2,2.6084208E-3,1.07767135E-2,9.513815E-3,4.3675164E-3,4.516346E-3,-3.3253718E-3,1.5268315E-2,5.3496724E-3,8.9983465E-3,1.8626595E-2,1.2207723E-2,7.0448816E-3,2.0335365E-2,1.5597368E-2,9.388829E-3,1.9225933E-2,2.2174073E-2,8.315055E-3,6.8425993E-3,-1.175801E-4,1.9434562E-3,1.0123275E-2,1.6029455E-2,-8.168715E-3,2.221005E-2,2.0367695E-2,1.8260194E-2,1.4555741E-2],"categories":[],"categories_nodes":[],"categories_segments":[],"categories_sizes":[],"default_left":[0,0,0,0,0,0,0,0,0,0,0,0,0,0,0,0,0,0,0,0,0,0,0,0,0,0,0,0,0,0,0,0,0,0,0,0,0,0,0,0,0,0,0,0,0,0,0,0,0,0,0,0,0,0,0,0,0,0,0,0,0,0,0,0,0,0,0,0,0,0,0,0,0,0,0,0,0,0,0,0,0,0,0,0,0,0,0,0,0,0,0,0,0,0,0,0,0,0,0,0,0,0,0,0,0,0,0,0,0],"id":10,"left_children":[1,3,5,7,9,11,13,15,17,19,21,23,25,27,29,31,33,35,37,39,41,43,45,47,49,51,53,-1,-1,55,57,59,61,63,65,67,69,71,73,75,77,79,81,83,85,87,89,91,-1,93,95,97,99,101,103,-1,-1,105,107,-1,-1,-1,-1,-1,-1,-1,-1,-1,-1,-1,-1,-1,-1,-1,-1,-1,-1,-1,-1,-1,-1,-1,-1,-1,-1,-1,-1,-1,-1,-1,-1,-1,-1,-1,-1,-1,-1,-1,-1,-1,-1,-1,-1,-1,-1,-1,-1,-1,-1],"loss_changes":[5.202415E-2,5.7828814E-2,2.4672173E-2,4.4902254E-2,2.0704217E-2,2.13509E-2,4.59357E-3,5.393447E-2,1.5349526E-2,7.2580837E-3,1.5806945E-2,4.20944E-3,3.0475657E-2,5.3720735E-4,7.899215E-3,5.0465293E-2,1.973091E-2,1.0452526E-2,3.704818E-3,5.67999E-3,3.8206428E-3,1.53254885E-2,2.5029518E-3,2.113387E-3,8.31848E-4,5.0989054E-3,3.280066E-2,0E0,0E0,1.8883453E-5,5.2940473E-4,5.41908E-2,1.8230796E-2,7.89859E-3,2.860193E-2,3.2265093E-3,1.0396E-2,2.0191073E-5,3.8441503E-3,1.7083746E-3,3.0103796E-3,5.2800924E-3,4.832469E-3,2.3184987E-3,2.0407738E-2,3.2793153E-3,7.725265E-4,1.534678E-3,0E0,2.494296E-4,8.064052E-4,3.973907E-3,6.0555115E-3,6.2222546E-3,1.2491763E-2,0E0,0E0,3.771484E-5,1.52478E-4,0E0,0E0,0E0,0E0,0E0,0E0,0E0,0E0,0E0,0E0,0E0,0E0,0E0,0E0,0E0,0E0,0E0,0E0,0E0,0E0,0E0,0E0,0E0,0E0,0E0,0E0,0E0,0E0,0E0,0E0,0E0,0E0,0E0,0E0,0E0,0E0,0E0,0E0,0E0,0E0,0E0,0E0,0E0,0E0,0E0,0E0,0E0,0E0,0E0,0E0],"parents":[2147483647,0,0,1,1,2,2,3,3,4,4,5,5,6,6,7,7,8,8,9,9,10,10,11,11,12,12,13,13,14,14,15,15,16,16,17,17,18,18,19,19,20,20,21,21,22,22,23,23,24,24,25,25,26,26,29,29,30,30,31,31,32,32,33,33,34,34,35,35,36,36,37,37,38,38,39,39,40,40,41,41,42,42,43,43,44,44,45,45,46,46,47,47,49,49,50,50,51,51,52,52,53,53,54,54,57,57,58,58],"right_children":[2,4,6,8,10,12,14,16,18,20,22,24,26,28,30,32,34,36,38,40,42,44,46,48,50,52,54,-1,-1,56,58,60,62,64,66,68,70,72,74,76,78,80,82,84,86,88,90,92,-1,94,96,98,100,102,104,-1,-1,106,108,-1,-1,-1,-1,-1,-1,-1,-1,-1,-1,-1,-1,-1,-1,-1,-1,-1,-1,-1,-1,-1,-1,-1,-1,-1,-1,-1,-1,-1,-1,-1,-1,-1,-1,-1,-1,-1,-1,-1,-1,-1,-1,-1,-1,-1,-1,-1,-1,-1,-1],"split_conditions":[7.145241E-1,7.100504E-1,8.852524E-1,7.642924E-1,6.299869E-1,3.568829E-1,5.358021E-1,7.145241E-1,8.852524E-1,2.2150333E-1,8.034051E-1,8.058674E-1,4.1009045E-1,3.2571536E-1,9.186149E-1,7.462949E-1,3.4530357E-1,3.1674942E-1,1.6296943E-1,3.8787982E-1,3.891188E-1,3.4530357E-1,8.852524E-1,4.1700003E-1,2.2150333E-1,2.8622165E-1,4.3041995E-1,2.5465537E-2,3.5299018E-2,3.8787982E-1,2.5664556E-1,6.9219595E-1,6.4025325E-1,3.179234E-1,3.568829E-1,3.4975433E-1,3.216011E-1,5.358021E-1,5.1607996E-1,6.603827E-1,8.500259E-1,7.741294E-1,2.2911452E-1,7.462949E-1,3.8787982E-1,7.1982586E-1,3.4530357E-1,1.6296943E-1,-6.1984067E-3,7.1982586E-1,4.6267927E-1,1.6296943E-1,3.1139824E-1,5.7823646E-1,7.1982586E-1,-3.1525614E-3,-1.308918E-3,2.5664556E-1,3.7189004E-1,-7.418274E-3,1.6072819E-4,7.0062894E-3,-2.1149511E-3,6.4791613E-3,1.9498987E-2,7.2248774E-3,-2.430602E-3,6.038165E-3,1.5876627E-2,1.0572402E-2,-5.385161E-4,2.7609302E-2,2.5702858E-2,1.4573533E-2,-5.1551345E-3,-1.9754076E-2,-4.567552E-3,2.757327E-3,1.56247625E-2,7.1373587E-3,1.7266612E-2,2.6084208E-3,1.07767135E-2,9.513815E-3,4.3675164E-3,4.516346E-3,-3.3253718E-3,1.5268315E-2,5.3496724E-3,8.9983465E-3,1.8626595E-2,1.2207723E-2,7.0448816E-3,2.0335365E-2,1.5597368E-2,9.388829E-3,1.9225933E-2,2.2174073E-2,8.315055E-3,6.8425993E-3,-1.175801E-4,1.9434562E-3,1.0123275E-2,1.6029455E-2,-8.168715E-3,2.221005E-2,2.0367695E-2,1.8260194E-2,1.4555741E-2],"split_indices":[7,5,7,4,1,0,3,2,4,3,1,7,2,0,7,3,3,5,6,6,6,6,1,1,1,5,4,0,0,0,1,1,7,3,1,1,3,0,3,0,5,5,7,5,4,5,0,1,0,3,1,1,2,0,7,0,0,5,0,0,0,0,0,0,0,0,0,0,0,0,0,0,0,0,0,0,0,0,0,0,0,0,0,0,0,0,0,0,0,0,0,0,0,0,0,0,0,0,0,0,0,0,0,0,0,0,0,0,0],"split_type":[0,0,0,0,0,0,0,0,0,0,0,0,0,0,0,0,0,0,0,0,0,0,0,0,0,0,0,0,0,0,0,0,0,0,0,0,0,0,0,0,0,0,0,0,0,0,0,0,0,0,0,0,0,0,0,0,0,0,0,0,0,0,0,0,0,0,0,0,0,0,0,0,0,0,0,0,0,0,0,0,0,0,0,0,0,0,0,0,0,0,0,0,0,0,0,0,0,0,0,0,0,0,0,0,0,0,0,0,0],"sum_hessian":[1.28E3,1.042E3,2.38E2,7.92E2,2.5E2,2.26E2,1.2E1,7.12E2,8E1,6E1,1.9E2,5.3E1,1.73E2,2E0,1E1,5.42E2,1.7E2,6.9E1,1.1E1,1.4E1,4.6E1,1.7E2,2E1,4.5E1,8E0,7.7E1,9.6E1,1E0,1E0,2E0,8E0,4.63E2,7.9E1,3.1E1,1.39E2,1.2E1,5.7E1,2E0,9E0,3E0,1.1E1,1.9E1,2.7E1,3.3E1,1.37E2,1.6E1,4E0,4.4E1,1E0,4E0,4E0,2.9E1,4.8E1,4.6E1,5E1,1E0,1E0,4E0,4E0,3.51E2,1.12E2,4.1E1,3.8E1,2.6E1,5E0,3.8E1,1.01E2,6E0,6E0,9E0,4.8E1,1E0,1E0,8E0,1E0,1E0,2E0,9E0,2E0,8E0,1.1E1,1.1E1,1.6E1,1.3E1,2E1,4.4E1,9.3E1,4E0,1.2E1,1E0,3E0,6E0,3.8E1,2E0,2E0,3E0,1E0,2E0,2.7E1,3E1,1.8E1,3.5E1,1.1E1,2E0,4.8E1,2E0,2E0,2E0,2E0],"tree_param":{"num_deleted":"0","num_feature":"8","num_nodes":"109","size_leaf_vector":"1"}},{"base_weights":[3.799796E-8,-2.3706055E-3,1.0379074E-2,-6.297717E-3,8.36913E-3,9.351197E-3,7.050991E-2,-9.964669E-3,1.0457846E-2,4.5159403E-3,3.0736424E-2,2.3695797E-2,5.649364E-3,1.6869022E-2,7.5269856E-2,-1.4315629E-2,1.7061402E-3,2.1692824E-2,1.4402992E-3,1.9069592E-2,-1.0686003E-3,2.553102E-2,6.1101276E-2,2.0431312E-2,5.960512E-2,1.7650424E-2,-3.81301E-3,2.341075E-2,2.2166062E-2,1.9492378E-3,-1.842653E-2,1.8184409E-2,-8.751223E-3,1.9627834E-2,6.1615944E-2,-3.9802515E-3,1.3184826E-2,5.7923317E-2,1.7219415E-2,-8.0380095E-3,1.6935706E-2,5.0132327E-2,1.7015181E-2,7.651647E-2,4.5686085E-2,2.7729468E-2,1.3133157E-2,1.4265919E-2,7.165718E-2,1.1639944E-2,2.4960466E-2,1.2453603E-2,-1.4399218E-2,-6.602136E-5,1.4902211E-2,-7.0707537E-3,1.0680469E-3,2.1662451E-2,4.9488503E-3,-3.5989282E-3,6.5261084E-3,5.522178E-3,1.6141176E-2,2.381816E-2,1.5818097E-2,-4.4023455E-3,3.9391564E-3,3.0893784E-3,1.3482214E-2,1.4491511E-2,1.8819738E-2,4.3364526E-3,1.3044858E-2,2.9160935E-3,-4.5064855E-3,7.224364E-3,2.079599E-3,1.3125516E-2,2.1739341E-2,1.2924266E-2,2.7586415E-3,2.4709368E-2,2.2077728E-2,1.8765736E-2,1.1175871E-2,6.52341E-3,1.3106656E-2,2.875622E-3,1.0680676E-2,1.9326497E-2,2.3667814E-2,7.16486E-3,1.0433992E-3,1.0103658E-2,4.727316E-3,1.0537983E-2,2.5700405E-3,3.1630518E-3,-6.658146E-3],"categories":[],"categories_nodes":[],"categories_segments":[],"categories_sizes":[],"default_left":[0,0,0,0,0,0,0,0,0,0,0,0,0,0,0,0,0,0,0,0,0,0,0,0,0,0,0,0,0,0,0,0,0,0,0,0,0,0,0,0,0,0,0,0,0,0,0,0,0,0,0,0,0,0,0,0,0,0,0,0,0,0,0,0,0,0,0,0,0,0,0,0,0,0,0,0,0,0,0,0,0,0,0,0,0,0,0,0,0,0,0,0,0,0,0,0,0,0,0],"id":11,"left_children":[1,3,5,7,9,11,13,15,17,19,21,23,25,-1,27,29,31,33,35,37,39,41,43,45,47,49,51,-1,-1,53,55,57,59,61,63,65,67,69,71,73,75,77,79,81,83,85,87,-1,89,91,93,95,97,-1,-1,-1,-1,-1,-1,-1,-1,-1,-1,-1,-1,-1,-1,-1,-1,-1,-1,-1,-1,-1,-1,-1,-1,-1,-1,-1,-1,-1,-1,-1,-1,-1,-1,-1,-1,-1,-1,-1,-1,-1,-1,-1,-1,-1,-1],"loss_changes":[3.1494394E-2,4.3947536E-2,1.4710102E-2,4.6880133E-2,2.4045732E-2,1.2425704E-2,2.7188286E-4,3.178779E-2,1.3879736E-2,1.9343559E-2,6.480515E-3,5.626822E-3,2.1121882E-2,0E0,1.1477619E-5,3.0489646E-2,2.929427E-2,5.0288867E-3,4.838297E-3,4.744496E-3,2.1582453E-2,7.332528E-3,1.4257673E-3,2.3435745E-3,5.810084E-4,3.602825E-3,1.7908983E-2,0E0,0E0,9.524744E-3,4.1157395E-2,6.0195457E-3,1.0295446E-2,2.4194382E-3,4.7408137E-4,9.515303E-3,2.2002244E-3,1.3876706E-4,4.574256E-3,1.53781315E-2,3.4311162E-3,1.282433E-3,5.2994834E-3,5.1300973E-5,4.2671105E-4,2.1012928E-3,1.7537251E-3,0E0,1.047058E-4,4.4966736E-3,2.968626E-3,3.6131428E-3,1.2248371E-2,0E0,0E0,0E0,0E0,0E0,0E0,0E0,0E0,0E0,0E0,0E0,0E0,0E0,0E0,0E0,0E0,0E0,0E0,0E0,0E0,0E0,0E0,0E0,0E0,0E0,0E0,0E0,0E0,0E0,0E0,0E0,0E0,0E0,0E0,0E0,0E0,0E0,0E0,0E0,0E0,0E0,0E0,0E0,0E0,0E0,0E0],"parents":[2147483647,0,0,1,1,2,2,3,3,4,4,5,5,6,6,7,7,8,8,9,9,10,10,11,11,12,12,14,14,15,15,16,16,17,17,18,18,19,19,20,20,21,21,22,22,23,23,24,24,25,25,26,26,29,29,30,30,31,31,32,32,33,33,34,34,35,35,36,36,37,37,38,38,39,39,40,40,41,41,42,42,43,43,44,44,45,45,46,46,48,48,49,49,50,50,51,51,52,52],"right_children":[2,4,6,8,10,12,14,16,18,20,22,24,26,-1,28,30,32,34,36,38,40,42,44,46,48,50,52,-1,-1,54,56,58,60,62,64,66,68,70,72,74,76,78,80,82,84,86,88,-1,90,92,94,96,98,-1,-1,-1,-1,-1,-1,-1,-1,-1,-1,-1,-1,-1,-1,-1,-1,-1,-1,-1,-1,-1,-1,-1,-1,-1,-1,-1,-1,-1,-1,-1,-1,-1,-1,-1,-1,-1,-1,-1,-1,-1,-1,-1,-1,-1,-1],"split_conditions":[7.145241E-1,6.9331336E-1,8.852524E-1,6.9219595E-1,3.8042578E-1,3.4530357E-1,3.4530357E-1,6.713786E-1,6.146087E-1,3.429447E-1,6.4945966E-1,3.216011E-1,4.1009045E-1,1.6869022E-2,3.999076E-1,2.6392215E-1,6.299869E-1,6.4945966E-1,5.903271E-1,3.429447E-1,6.25713E-1,4.1009045E-1,7.041788E-1,7.321923E-1,5.859255E-1,7.145241E-1,4.1009045E-1,2.341075E-2,2.2166062E-2,9.186149E-1,7.5208527E-1,6.726025E-1,3.8042578E-1,8.500259E-1,1.846853E-1,6.129137E-1,8.164136E-1,6.987862E-1,8.500259E-1,3.967835E-1,7.5043684E-1,7.3637867E-1,3.429447E-1,5.358021E-1,6.987862E-1,8.034051E-1,8.1029403E-1,1.4265919E-2,5.358021E-1,6.146087E-1,7.591375E-1,2.5856522E-1,3.2571536E-1,-6.602136E-5,1.4902211E-2,-7.0707537E-3,1.0680469E-3,2.1662451E-2,4.9488503E-3,-3.5989282E-3,6.5261084E-3,5.522178E-3,1.6141176E-2,2.381816E-2,1.5818097E-2,-4.4023455E-3,3.9391564E-3,3.0893784E-3,1.3482214E-2,1.4491511E-2,1.8819738E-2,4.3364526E-3,1.3044858E-2,2.9160935E-3,-4.5064855E-3,7.224364E-3,2.079599E-3,1.3125516E-2,2.1739341E-2,1.2924266E-2,2.7586415E-3,2.4709368E-2,2.2077728E-2,1.8765736E-2,1.1175871E-2,6.52341E-3,1.3106656E-2,2.875622E-3,1.0680676E-2,1.9326497E-2,2.3667814E-2,7.16486E-3,1.0433992E-3,1.0103658E-2,4.727316E-3,1.0537983E-2,2.5700405E-3,3.1630518E-3,-6.658146E-3],"split_indices":[4,2,0,6,0,5,1,0,2,7,0,5,3,0,1,1,4,4,7,6,3,0,2,3,3,0,1,0,0,7,5,0,6,1,0,5,7,2,2,3,2,3,3,3,0,4,3,0,0,0,0,6,7,0,0,0,0,0,0,0,0,0,0,0,0,0,0,0,0,0,0,0,0,0,0,0,0,0,0,0,0,0,0,0,0,0,0,0,0,0,0,0,0,0,0,0,0,0,0],"split_type":[0,0,0,0,0,0,0,0,0,0,0,0,0,0,0,0,0,0,0,0,0,0,0,0,0,0,0,0,0,0,0,0,0,0,0,0,0,0,0,0,0,0,0,0,0,0,0,0,0,0,0,0,0,0,0,0,0,0,0,0,0,0,0,0,0,0,0,0,0,0,0,0,0,0,0,0,0,0,0,0,0,0,0,0,0,0,0,0,0,0,0,0,0,0,0,0,0,0,0],"sum_hessian":[1.28E3,1.042E3,2.38E2,7.63E2,2.79E2,2.34E2,4E0,6.26E2,1.37E2,2.38E2,4.1E1,4.8E1,1.86E2,1E0,3E0,4.56E2,1.7E2,6.1E1,7.6E1,6.6E1,1.72E2,3.5E1,6E0,4.4E1,4E0,8.2E1,1.04E2,1E0,2E0,9.2E1,3.64E2,6.6E1,1.04E2,5.8E1,3E0,5.2E1,2.4E1,3E0,6.3E1,1.24E2,4.8E1,9E0,2.6E1,3E0,3E0,2.2E1,2.2E1,2E0,2E0,4.5E1,3.7E1,4.1E1,6.3E1,8.8E1,4E0,2.95E2,6.9E1,2E0,6.4E1,9.4E1,1E1,5.6E1,2E0,1E0,2E0,3.2E1,2E1,2.2E1,2E0,1E0,2E0,5.7E1,6E0,3.5E1,8.9E1,2.8E1,2E1,7E0,2E0,6E0,2E1,1E0,2E0,1E0,2E0,1.6E1,6E0,1.9E1,3E0,1E0,1E0,1.8E1,2.7E1,1.9E1,1.8E1,6E0,3.5E1,1.5E1,4.8E1],"tree_param":{"num_deleted":"0","num_feature":"8","num_nodes":"99","size_leaf_vector":"1"}},{"base_weights":[-4.7311186E-8,-1.9282183E-3,8.441777E-3,-4.709077E-3,7.569121E-3,7.0922733E-3,3.3857424E-2,-7.5292233E-3,5.534213E-3,6.0050935E-3,3.6764305E-2,1.6804406E-2,3.8929826E-3,5.0628424E-2,3.0503225E-2,5.7781413E-3,-1.1890461E-2,3.0869613E-3,3.8572114E-2,5.189347E-3,5.0871134E-2,4.7970653E-2,3.116113E-2,3.0904293E-2,1.4104427E-2,1.2162745E-2,-3.4579171E-3,1.3080454E-2,1.7296601E-2,-1.636982E-3,3.8538277E-2,3.7822037E-3,3.4918834E-2,9.166111E-5,-1.5491645E-2,1.2498908E-2,-1.750955E-3,6.28531E-2,3.3715915E-2,1.580475E-2,1.736144E-3,6.324625E-2,3.8496017E-2,5.331111E-2,4.2630196E-2,3.6059923E-2,-9.3913084E-4,2.309246E-2,4.0669084E-2,-9.069716E-3,1.8159902E-2,4.756848E-2,1.0783301E-2,1.2243366E-2,-1.1308559E-2,-8.568764E-5,-8.965016E-4,3.3253767E-2,4.73458E-2,-1.2340065E-4,4.8408434E-3,1.2641109E-2,1.8138171E-3,-1.7229081E-3,5.1536886E-3,-6.0419305E-3,-7.256404E-4,2.6403903E-3,8.741441E-3,3.2026167E-3,-4.775096E-3,2.132435E-2,1.6387511E-2,1.1290121E-2,-4.6334267E-4,4.132342E-3,1.071044E-2,-1.915136E-3,2.4802177E-3,1.8719245E-2,1.9228507E-2,9.882403E-3,1.3215208E-2,1.626935E-2,1.5717316E-2,1.1646367E-2,1.3931752E-2,1.3822139E-2,6.8124295E-3,9.46169E-3,6.294251E-3,1.1273289E-2,1.4983035E-2,4.585934E-3,-5.643654E-3,8.204909E-3,3.4102339E-3,1.2628413E-2,1.7554808E-2,3.0804127E-3,1.4982891E-2,1.4264489E-2,2.0435518E-3,7.5677875E-3,-3.9694286E-3,1.04315765E-2,8.154345E-3,1.5989829E-2,1.3310695E-2],"categories":[],"categories_nodes":[],"categories_segments":[],"categories_sizes":[],"default_left":[0,0,0,0,0,0,0,0,0,0,0,0,0,0,0,0,0,0,0,0,0,0,0,0,0,0,0,0,0,0,0,0,0,0,0,0,0,0,0,0,0,0,0,0,0,0,0,0,0,0,0,0,0,0,0,0,0,0,0,0,0,0,0,0,0,0,0,0,0,0,0,0,0,0,0,0,0,0,0,0,0,0,0,0,0,0,0,0,0,0,0,0,0,0,0,0,0,0,0,0,0,0,0,0,0,0,0,0,0],"id":12,"left_children":[1,3,5,7,9,11,13,15,17,19,21,23,25,27,29,31,33,35,37,39,41,43,45,47,49,51,53,-1,-1,55,57,59,61,63,65,67,69,71,73,75,77,79,81,83,85,87,-1,89,91,93,95,97,99,101,103,-1,-1,105,107,-1,-1,-1,-1,-1,-1,-1,-1,-1,-1,-1,-1,-1,-1,-1,-1,-1,-1,-1,-1,-1,-1,-1,-1,-1,-1,-1,-1,-1,-1,-1,-1,-1,-1,-1,-1,-1,-1,-1,-1,-1,-1,-1,-1,-1,-1,-1,-1,-1,-1],"loss_changes":[2.0834917E-2,2.7520008E-2,8.163044E-3,2.3283388E-2,1.077625E-2,7.022257E-3,6.7503937E-4,3.667911E-2,1.4068257E-2,8.198244E-3,7.53494E-4,2.1318868E-3,1.0334333E-2,9.875512E-5,2.582483E-3,9.07343E-3,2.0539321E-2,7.376542E-3,1.4149603E-3,8.064573E-3,6.125737E-4,1.1408236E-4,1.3438985E-3,6.8652816E-4,4.4171605E-3,3.9072186E-3,1.1093864E-2,0E0,0E0,3.6523284E-6,3.7234742E-4,7.563783E-3,2.0840922E-3,1.0966897E-2,2.2239678E-2,3.3838926E-3,1.8835422E-2,1.354022E-4,1.3814392E-3,2.1813754E-3,8.803524E-3,1.440756E-6,6.1708735E-5,1.6926788E-6,2.9016519E-5,9.3592424E-4,0E0,8.9179026E-5,1.14684924E-4,1.6610234E-3,2.4968516E-3,1.7977273E-4,1.5536556E-3,5.7527903E-3,4.2150654E-3,0E0,0E0,4.6096276E-5,5.3168274E-5,0E0,0E0,0E0,0E0,0E0,0E0,0E0,0E0,0E0,0E0,0E0,0E0,0E0,0E0,0E0,0E0,0E0,0E0,0E0,0E0,0E0,0E0,0E0,0E0,0E0,0E0,0E0,0E0,0E0,0E0,0E0,0E0,0E0,0E0,0E0,0E0,0E0,0E0,0E0,0E0,0E0,0E0,0E0,0E0,0E0,0E0,0E0,0E0,0E0,0E0],"parents":[2147483647,0,0,1,1,2,2,3,3,4,4,5,5,6,6,7,7,8,8,9,9,10,10,11,11,12,12,13,13,14,14,15,15,16,16,17,17,18,18,19,19,20,20,21,21,22,22,23,23,24,24,25,25,26,26,29,29,30,30,31,31,32,32,33,33,34,34,35,35,36,36,37,37,38,38,39,39,40,40,41,41,42,42,43,43,44,44,45,45,47,47,48,48,49,49,50,50,51,51,52,52,53,53,54,54,57,57,58,58],"right_children":[2,4,6,8,10,12,14,16,18,20,22,24,26,28,30,32,34,36,38,40,42,44,46,48,50,52,54,-1,-1,56,58,60,62,64,66,68,70,72,74,76,78,80,82,84,86,88,-1,90,92,94,96,98,100,102,104,-1,-1,106,108,-1,-1,-1,-1,-1,-1,-1,-1,-1,-1,-1,-1,-1,-1,-1,-1,-1,-1,-1,-1,-1,-1,-1,-1,-1,-1,-1,-1,-1,-1,-1,-1,-1,-1,-1,-1,-1,-1,-1,-1,-1,-1,-1,-1,-1,-1,-1,-1,-1,-1],"split_conditions":[7.145241E-1,7.145241E-1,8.852524E-1,7.145241E-1,8.852524E-1,3.6523962E-1,5.358021E-1,2.6392215E-1,8.852524E-1,8.852524E-1,3.8042578E-1,1.6296943E-1,4.3041995E-1,3.2571536E-1,9.186149E-1,8.72779E-1,2.744413E-1,4.1009045E-1,1.6296943E-1,6.409492E-1,7.3637867E-1,3.4530357E-1,4.5229268E-1,3.045927E-1,2.1121478E-1,1.6296943E-1,3.4530357E-1,1.3080454E-2,1.7296601E-2,3.8787982E-1,2.7775428E-1,6.713786E-1,5.1079786E-1,3.8042578E-1,7.100504E-1,2.5895393E-1,4.3041995E-1,9.186149E-1,4.01469E-1,5.897367E-1,7.145241E-1,3.429447E-1,4.2712852E-1,4.8367372E-1,4.3994313E-1,2.5664556E-1,-9.3913084E-4,2.2911452E-1,3.429447E-1,2.323437E-1,7.1982586E-1,2.5664556E-1,8.852524E-1,2.7575174E-1,7.1982586E-1,-8.568764E-5,-8.965016E-4,2.5664556E-1,3.4530357E-1,-1.2340065E-4,4.8408434E-3,1.2641109E-2,1.8138171E-3,-1.7229081E-3,5.1536886E-3,-6.0419305E-3,-7.256404E-4,2.6403903E-3,8.741441E-3,3.2026167E-3,-4.775096E-3,2.132435E-2,1.6387511E-2,1.1290121E-2,-4.6334267E-4,4.132342E-3,1.071044E-2,-1.915136E-3,2.4802177E-3,1.8719245E-2,1.9228507E-2,9.882403E-3,1.3215208E-2,1.626935E-2,1.5717316E-2,1.1646367E-2,1.3931752E-2,1.3822139E-2,6.8124295E-3,9.46169E-3,6.294251E-3,1.1273289E-2,1.4983035E-2,4.585934E-3,-5.643654E-3,8.204909E-3,3.4102339E-3,1.2628413E-2,1.7554808E-2,3.0804127E-3,1.4982891E-2,1.4264489E-2,2.0435518E-3,7.5677875E-3,-3.9694286E-3,1.04315765E-2,8.154345E-3,1.5989829E-2,1.3310695E-2],"split_indices":[7,1,7,0,1,0,3,0,0,5,2,1,2,0,7,6,4,3,6,5,1,2,0,0,1,5,4,0,0,0,1,5,7,0,4,2,5,0,2,3,5,0,0,0,0,7,0,0,0,0,6,1,3,1,7,0,0,1,0,0,0,0,0,0,0,0,0,0,0,0,0,0,0,0,0,0,0,0,0,0,0,0,0,0,0,0,0,0,0,0,0,0,0,0,0,0,0,0,0,0,0,0,0,0,0,0,0,0,0],"split_type":[0,0,0,0,0,0,0,0,0,0,0,0,0,0,0,0,0,0,0,0,0,0,0,0,0,0,0,0,0,0,0,0,0,0,0,0,0,0,0,0,0,0,0,0,0,0,0,0,0,0,0,0,0,0,0,0,0,0,0,0,0,0,0,0,0,0,0,0,0,0,0,0,0,0,0,0,0,0,0,0,0,0,0,0,0,0,0,0,0,0,0,0,0,0,0,0,0,0,0,0,0,0,0,0,0,0,0,0,0],"sum_hessian":[1.28E3,1.042E3,2.38E2,8.06E2,2.36E2,2.26E2,1.2E1,6.32E2,1.74E2,2.24E2,1.2E1,5.6E1,1.7E2,2E0,1E1,1.56E2,4.76E2,1.62E2,1.2E1,2.2E2,4E0,4E0,8E0,9E0,4.7E1,8E1,9E1,1E0,1E0,2E0,8E0,1.46E2,1E1,1.1E2,3.66E2,5.5E1,1.07E2,2E0,1E1,5.4E1,1.66E2,2E0,2E0,2E0,2E0,7E0,1E0,5E0,4E0,7E0,4E1,3E0,7.7E1,3E1,6E1,1E0,1E0,5E0,3E0,1.09E2,3.7E1,8E0,2E0,8.2E1,2.8E1,2.7E2,9.6E1,4.5E1,1E1,5.7E1,5E1,1E0,1E0,9E0,1E0,4.9E1,5E0,7.4E1,9.2E1,1E0,1E0,1E0,1E0,1E0,1E0,1E0,1E0,4E0,3E0,1E0,4E0,3E0,1E0,2E0,5E0,1.7E1,2.3E1,2E0,1E0,7.6E1,1E0,4E0,2.6E1,3E0,5.7E1,4E0,1E0,1E0,2E0],"tree_param":{"num_deleted":"0","num_feature":"8","num_nodes":"109","size_leaf_vector":"1"}},{"base_weights":[-3.7252904E-10,-1.9691812E-3,6.968945E-3,-4.28807E-3,5.559806E-3,4.6668826E-3,2.0123584E-2,5.623463E-3,-6.7537865E-3,4.5147487E-3,3.521329E-2,1.3196285E-2,1.1547762E-3,1.0701526E-2,3.0487847E-2,1.931044E-3,1.670072E-2,4.411939E-3,-1.0582035E-2,1.5656191E-3,1.272316E-2,4.0547848E-2,1.9209623E-2,9.539079E-3,3.2812204E-2,-3.6961108E-3,1.0281022E-2,2.4635792E-2,-6.0195923E-3,4.623585E-2,2.5238514E-2,1.7608954E-2,-2.0315044E-3,6.115156E-3,2.5269985E-2,1.7541E-2,1.5399568E-3,-1.2715876E-2,6.70208E-3,8.072044E-3,-5.3424365E-3,3.5631973E-2,1.0177736E-2,2.8429747E-2,4.66069E-2,4.608107E-3,6.9176676E-3,1.2572625E-2,-9.799778E-3,2.2878647E-2,3.8488526E-2,-7.854396E-3,1.1377673E-2,1.6043322E-2,-3.955252E-3,5.337262E-2,1.8888425E-2,4.629612E-3,-3.0867735E-2,1.6117573E-2,4.43635E-2,-5.3731445E-3,2.8320584E-2,-3.6728384E-3,6.626015E-3,9.880507E-3,-1.0917484E-3,-1.2749005E-2,2.7460188E-3,1.0814404E-2,3.269784E-3,4.2085E-3,9.126235E-3,3.931526E-3,-5.0948386E-4,-4.9653146E-3,-2.1048517E-4,4.9141953E-3,-1.6848305E-3,6.1919284E-3,1.6884963E-3,1.01367E-3,-3.1417904E-3,2.1034528E-2,8.620606E-3,2.6866575E-3,1.258657E-2,9.250689E-3,7.80716E-3,1.2893724E-2,1.7247105E-2,2.5057807E-3,7.117663E-3,-7.6690796E-3,1.7892123E-3,8.302164E-3,2.5478841E-3,3.6011697E-3,1.28707895E-2,-3.1743166E-3,2.7561665E-3,6.640444E-3,-1.9652685E-3,5.9172343E-3,2.0524026E-3,2.8431239E-3,-4.768531E-3,1.5313769E-2,1.6709805E-2,7.101864E-3,-7.4815754E-5,5.94101E-3,-2.025211E-3,-1.5867233E-2,-5.9568645E-3,1.2529659E-2,1.5647221E-2,1.8308975E-2,7.741345E-3],"categories":[],"categories_nodes":[],"categories_segments":[],"categories_sizes":[],"default_left":[0,0,0,0,0,0,0,0,0,0,0,0,0,0,0,0,0,0,0,0,0,0,0,0,0,0,0,0,0,0,0,0,0,0,0,0,0,0,0,0,0,0,0,0,0,0,0,0,0,0,0,0,0,0,0,0,0,0,0,0,0,0,0,0,0,0,0,0,0,0,0,0,0,0,0,0,0,0,0,0,0,0,0,0,0,0,0,0,0,0,0,0,0,0,0,0,0,0,0,0,0,0,0,0,0,0,0,0,0,0,0,0,0,0,0,0,0,0,0],"id":13,"left_children":[1,3,5,7,9,11,13,15,17,19,21,23,25,27,29,31,33,35,37,39,41,43,45,47,49,51,53,55,57,59,61,63,65,67,69,71,73,75,77,79,81,83,85,87,89,-1,-1,91,93,95,97,99,101,103,105,107,109,111,113,-1,115,-1,117,-1,-1,-1,-1,-1,-1,-1,-1,-1,-1,-1,-1,-1,-1,-1,-1,-1,-1,-1,-1,-1,-1,-1,-1,-1,-1,-1,-1,-1,-1,-1,-1,-1,-1,-1,-1,-1,-1,-1,-1,-1,-1,-1,-1,-1,-1,-1,-1,-1,-1,-1,-1,-1,-1,-1,-1],"loss_changes":[1.7565586E-2,1.7423963E-2,8.5397465E-3,1.8646982E-2,7.282551E-3,7.1894806E-3,4.1014124E-3,6.2170844E-3,2.6117306E-2,5.495141E-3,6.829798E-4,5.021761E-3,7.5259656E-3,5.125923E-3,1.6533304E-3,7.082191E-3,3.446999E-3,5.8822036E-3,1.6781107E-2,7.506106E-3,3.4987591E-3,4.4054538E-4,2.9633753E-5,3.4612534E-3,6.2024686E-4,6.957601E-3,4.839988E-3,1.9819331E-3,2.6461296E-3,7.011276E-5,1.994824E-3,3.0743876E-3,5.1154885E-3,2.510805E-3,3.252646E-3,1.2667868E-3,4.7936793E-3,1.8661082E-2,5.96112E-3,2.6412331E-3,3.624116E-3,1.4269026E-3,2.0972965E-3,1.1576572E-5,1.5793275E-4,0E0,0E0,2.4003442E-3,1.987984E-3,2.759311E-4,8.183401E-4,4.042601E-3,4.628643E-3,1.4225636E-3,2.7264603E-3,1.0827091E-5,9.156398E-4,1.2087746E-3,7.275215E-4,0E0,8.09934E-5,0E0,1.1522006E-3,0E0,0E0,0E0,0E0,0E0,0E0,0E0,0E0,0E0,0E0,0E0,0E0,0E0,0E0,0E0,0E0,0E0,0E0,0E0,0E0,0E0,0E0,0E0,0E0,0E0,0E0,0E0,0E0,0E0,0E0,0E0,0E0,0E0,0E0,0E0,0E0,0E0,0E0,0E0,0E0,0E0,0E0,0E0,0E0,0E0,0E0,0E0,0E0,0E0,0E0,0E0,0E0,0E0,0E0,0E0,0E0],"parents":[2147483647,0,0,1,1,2,2,3,3,4,4,5,5,6,6,7,7,8,8,9,9,10,10,11,11,12,12,13,13,14,14,15,15,16,16,17,17,18,18,19,19,20,20,21,21,22,22,23,23,24,24,25,25,26,26,27,27,28,28,29,29,30,30,31,31,32,32,33,33,34,34,35,35,36,36,37,37,38,38,39,39,40,40,41,41,42,42,43,43,44,44,47,47,48,48,49,49,50,50,51,51,52,52,53,53,54,54,55,55,56,56,57,57,58,58,60,60,62,62],"right_children":[2,4,6,8,10,12,14,16,18,20,22,24,26,28,30,32,34,36,38,40,42,44,46,48,50,52,54,56,58,60,62,64,66,68,70,72,74,76,78,80,82,84,86,88,90,-1,-1,92,94,96,98,100,102,104,106,108,110,112,114,-1,116,-1,118,-1,-1,-1,-1,-1,-1,-1,-1,-1,-1,-1,-1,-1,-1,-1,-1,-1,-1,-1,-1,-1,-1,-1,-1,-1,-1,-1,-1,-1,-1,-1,-1,-1,-1,-1,-1,-1,-1,-1,-1,-1,-1,-1,-1,-1,-1,-1,-1,-1,-1,-1,-1,-1,-1,-1,-1],"split_conditions":[6.9331336E-1,7.145241E-1,3.8042578E-1,2.6392215E-1,9.186149E-1,3.4530357E-1,2.2911452E-1,6.713786E-1,2.7575174E-1,6.25713E-1,3.2455498E-1,5.897367E-1,6.011018E-1,1.846853E-1,2.3412305E-1,4.1009045E-1,2.2911452E-1,3.429447E-1,7.462949E-1,4.3497008E-1,3.429447E-1,3.7189004E-1,2.1121478E-1,4.767645E-1,5.1607996E-1,6.25713E-1,3.0844587E-1,1.846853E-1,8.058674E-1,2.323437E-1,2.373433E-1,2.2566974E-1,3.6523962E-1,3.7579566E-1,6.112795E-1,6.943777E-1,2.622316E-1,7.100504E-1,6.409492E-1,1.649524E-1,4.1009045E-1,6.3600063E-1,4.6352303E-1,4.8367372E-1,2.5664556E-1,4.608107E-3,6.9176676E-3,2.622316E-1,5.518469E-1,6.4025325E-1,4.9513713E-1,7.851911E-1,2.7575174E-1,7.5565964E-1,2.987399E-1,8.888041E-2,7.1884286E-1,7.4676883E-1,1.9339906E-1,1.6117573E-2,3.19352E-1,-5.3731445E-3,2.6933643E-1,-3.6728384E-3,6.626015E-3,9.880507E-3,-1.0917484E-3,-1.2749005E-2,2.7460188E-3,1.0814404E-2,3.269784E-3,4.2085E-3,9.126235E-3,3.931526E-3,-5.0948386E-4,-4.9653146E-3,-2.1048517E-4,4.9141953E-3,-1.6848305E-3,6.1919284E-3,1.6884963E-3,1.01367E-3,-3.1417904E-3,2.1034528E-2,8.620606E-3,2.6866575E-3,1.258657E-2,9.250689E-3,7.80716E-3,1.2893724E-2,1.7247105E-2,2.5057807E-3,7.117663E-3,-7.6690796E-3,1.7892123E-3,8.302164E-3,2.5478841E-3,3.6011697E-3,1.28707895E-2,-3.1743166E-3,2.7561665E-3,6.640444E-3,-1.9652685E-3,5.9172343E-3,2.0524026E-3,2.8431239E-3,-4.768531E-3,1.5313769E-2,1.6709805E-2,7.101864E-3,-7.4815754E-5,5.94101E-3,-2.025211E-3,-1.5867233E-2,-5.9568645E-3,1.2529659E-2,1.5647221E-2,1.8308975E-2,7.741345E-3],"split_indices":[3,5,5,4,5,6,1,1,2,4,3,2,6,1,1,1,3,3,7,4,0,6,0,1,1,4,5,0,3,1,1,5,7,7,5,5,6,1,3,3,2,4,7,0,3,0,0,5,4,0,0,7,5,7,0,0,6,6,1,0,0,0,1,0,0,0,0,0,0,0,0,0,0,0,0,0,0,0,0,0,0,0,0,0,0,0,0,0,0,0,0,0,0,0,0,0,0,0,0,0,0,0,0,0,0,0,0,0,0,0,0,0,0,0,0,0,0,0,0],"split_type":[0,0,0,0,0,0,0,0,0,0,0,0,0,0,0,0,0,0,0,0,0,0,0,0,0,0,0,0,0,0,0,0,0,0,0,0,0,0,0,0,0,0,0,0,0,0,0,0,0,0,0,0,0,0,0,0,0,0,0,0,0,0,0,0,0,0,0,0,0,0,0,0,0,0,0,0,0,0,0,0,0,0,0,0,0,0,0,0,0,0,0,0,0,0,0,0,0,0,0,0,0,0,0,0,0,0,0,0,0,0,0,0,0,0,0,0,0,0,0],"sum_hessian":[1.28E3,9.98E2,2.82E2,7.63E2,2.35E2,2.4E2,4.2E1,1.52E2,6.11E2,2.27E2,8E0,7E1,1.7E2,2.2E1,2E1,1.14E2,3.8E1,1.56E2,4.55E2,1.67E2,6E1,6E0,2E0,5.9E1,1.1E1,1.11E2,5.9E1,1.2E1,1E1,5E0,1.5E1,2.3E1,9.1E1,1.7E1,2.1E1,2.8E1,1.28E2,4.05E2,5E1,8.6E1,8.1E1,6E0,5.4E1,2E0,4E0,1E0,1E0,5.1E1,8E0,4E0,7E0,8.7E1,2.4E1,4.2E1,1.7E1,2E0,1E1,7E0,3E0,1E0,4E0,1E0,1.4E1,3E0,2E1,4E0,8.7E1,1E0,1.6E1,1.2E1,9E0,2.2E1,6E0,2.8E1,1E2,3.07E2,9.8E1,2.8E1,2.2E1,1.4E1,7.2E1,3E1,5.1E1,1E0,5E0,5.2E1,2E0,1E0,1E0,3E0,1E0,3.7E1,1.4E1,4E0,4E0,3E0,1E0,1E0,6E0,7.5E1,1.2E1,1.5E1,9E0,3E1,1.2E1,8E0,9E0,1E0,1E0,8E0,2E0,3E0,4E0,1E0,2E0,3E0,1E0,1E0,1.3E1],"tree_param":{"num_deleted":"0","num_feature":"8","num_nodes":"119","size_leaf_vector":"1"}},{"base_weights":[-1.6018749E-8,-3.463767E-4,1.9805519E-2,-1.821495E-3,4.7589974E-3,1.3176168E-2,3.140688E-2,-3.6303443E-3,3.7564214E-3,2.280576E-2,2.7695904E-3,9.657462E-3,3.4288406E-2,3.4799166E-2,2.2982599E-3,1.7618196E-2,-4.469497E-3,2.8112172E-3,3.1049192E-2,2.8201906E-2,3.0198891E-3,1.8443402E-3,3.1221032E-2,2.910471E-2,5.768013E-3,8.456469E-3,1.2116576E-2,3.724162E-2,6.043339E-3,1.4728375E-2,4.1700047E-2,-5.353855E-3,1.703935E-2,4.199701E-4,9.4753485E-3,3.6052305E-2,1.6039848E-2,7.7400208E-3,3.0248094E-2,-1.8531799E-3,8.215571E-3,-1.4016032E-3,1.0005569E-2,3.5656452E-2,5.1927567E-5,1.12677105E-2,6.1951163E-3,-2.506574E-3,1.8179893E-2,1.2565113E-2,3.4920573E-2,3.0223096E-3,8.839822E-3,1.0577059E-2,1.6375924E-2,7.4519037E-4,-2.1715078E-3,5.981582E-4,6.6163545E-3,2.349768E-3,-1.5881703E-3,-1.3978779E-3,3.4826775E-3,1.1617899E-2,1.0414589E-2,5.1514152E-3,4.472494E-3,4.4025425E-3,2.4147035E-4,1.0058857E-2,5.1367166E-3,-2.160144E-3,5.860806E-3,2.1104836E-3,-2.8389583E-3,6.5086414E-3,2.4171758E-3,1.1928011E-2,3.3104897E-3,-1.8985176E-3,4.980755E-3,6.8226815E-3,4.085255E-3,1.1771822E-2,1.0044289E-2],"categories":[],"categories_nodes":[],"categories_segments":[],"categories_sizes":[],"default_left":[0,0,0,0,0,0,0,0,0,0,0,0,0,0,0,0,0,0,0,0,0,0,0,0,0,0,0,0,0,0,0,0,0,0,0,0,0,0,0,0,0,0,0,0,0,0,0,0,0,0,0,0,0,0,0,0,0,0,0,0,0,0,0,0,0,0,0,0,0,0,0,0,0,0,0,0,0,0,0,0,0,0,0,0,0],"id":14,"left_children":[1,3,5,7,9,11,13,15,17,19,21,23,25,27,-1,29,31,33,35,37,39,41,43,45,47,-1,-1,49,-1,51,53,55,57,59,61,63,65,67,69,71,-1,73,75,77,-1,-1,-1,79,81,-1,83,-1,-1,-1,-1,-1,-1,-1,-1,-1,-1,-1,-1,-1,-1,-1,-1,-1,-1,-1,-1,-1,-1,-1,-1,-1,-1,-1,-1,-1,-1,-1,-1,-1,-1],"loss_changes":[8.780619E-3,9.474036E-3,1.6920082E-3,9.84746E-3,1.0124464E-2,1.0400289E-3,6.444268E-4,1.31412735E-2,6.165541E-3,2.9894887E-3,6.6864737E-3,9.076691E-4,7.4424315E-5,2.5055464E-4,0E0,1.9485839E-3,1.3486257E-2,3.6811202E-3,6.007473E-4,9.211153E-4,7.124041E-4,6.516759E-3,1.1016857E-3,1.4295126E-4,1.0270319E-3,0E0,0E0,6.4646825E-5,0E0,1.7147344E-3,2.4908828E-4,1.0058647E-2,2.1127556E-3,7.2002783E-3,1.8396364E-3,2.1451619E-5,2.5607296E-6,9.619177E-5,8.614212E-4,5.718723E-4,0E0,1.1970111E-2,1.5942943E-3,7.072538E-4,0E0,0E0,0E0,4.3818878E-4,8.326117E-5,0E0,2.4870038E-5,0E0,0E0,0E0,0E0,0E0,0E0,0E0,0E0,0E0,0E0,0E0,0E0,0E0,0E0,0E0,0E0,0E0,0E0,0E0,0E0,0E0,0E0,0E0,0E0,0E0,0E0,0E0,0E0,0E0,0E0,0E0,0E0,0E0,0E0],"parents":[2147483647,0,0,1,1,2,2,3,3,4,4,5,5,6,6,7,7,8,8,9,9,10,10,11,11,12,12,13,13,15,15,16,16,17,17,18,18,19,19,20,20,21,21,22,22,23,23,24,24,27,27,29,29,30,30,31,31,32,32,33,33,34,34,35,35,36,36,37,37,38,38,39,39,41,41,42,42,43,43,47,47,48,48,50,50],"right_children":[2,4,6,8,10,12,14,16,18,20,22,24,26,28,-1,30,32,34,36,38,40,42,44,46,48,-1,-1,50,-1,52,54,56,58,60,62,64,66,68,70,72,-1,74,76,78,-1,-1,-1,80,82,-1,84,-1,-1,-1,-1,-1,-1,-1,-1,-1,-1,-1,-1,-1,-1,-1,-1,-1,-1,-1,-1,-1,-1,-1,-1,-1,-1,-1,-1,-1,-1,-1,-1,-1,-1],"split_conditions":[8.500259E-1,6.9331336E-1,9.186149E-1,7.100504E-1,4.9513713E-1,6.603827E-1,4.8367372E-1,1.649524E-1,9.186149E-1,8.034051E-1,9.186149E-1,1.846853E-1,8.888041E-2,4.8367372E-1,2.2982599E-3,4.5229268E-1,8.264706E-1,6.25713E-1,4.5229268E-1,6.943777E-1,8.500259E-1,6.112795E-1,6.726025E-1,4.767645E-1,7.604858E-1,8.456469E-3,1.2116576E-2,3.7189004E-1,6.043339E-3,5.1607996E-1,2.7575174E-1,2.7575174E-1,3.8359493E-1,4.0484306E-1,2.2566974E-1,3.429447E-1,1.9339906E-1,1.649524E-1,7.168897E-1,8.500259E-1,8.215571E-3,4.2712852E-1,1.649524E-1,4.8367372E-1,5.1927567E-5,1.12677105E-2,6.1951163E-3,5.518469E-1,1.7140272E-1,1.2565113E-2,3.4530357E-1,3.0223096E-3,8.839822E-3,1.0577059E-2,1.6375924E-2,7.4519037E-4,-2.1715078E-3,5.981582E-4,6.6163545E-3,2.349768E-3,-1.5881703E-3,-1.3978779E-3,3.4826775E-3,1.1617899E-2,1.0414589E-2,5.1514152E-3,4.472494E-3,4.4025425E-3,2.4147035E-4,1.0058857E-2,5.1367166E-3,-2.160144E-3,5.860806E-3,2.1104836E-3,-2.8389583E-3,6.5086414E-3,2.4171758E-3,1.1928011E-2,3.3104897E-3,-1.8985176E-3,4.980755E-3,6.8226815E-3,4.085255E-3,1.1771822E-2,1.0044289E-2],"split_indices":[2,4,2,6,0,5,1,5,6,4,4,5,0,3,0,4,1,7,5,4,1,3,1,0,6,0,0,3,0,1,1,1,6,7,5,1,0,1,3,7,0,3,6,5,0,0,0,1,0,0,1,0,0,0,0,0,0,0,0,0,0,0,0,0,0,0,0,0,0,0,0,0,0,0,0,0,0,0,0,0,0,0,0,0,0],"split_type":[0,0,0,0,0,0,0,0,0,0,0,0,0,0,0,0,0,0,0,0,0,0,0,0,0,0,0,0,0,0,0,0,0,0,0,0,0,0,0,0,0,0,0,0,0,0,0,0,0,0,0,0,0,0,0,0,0,0,0,0,0,0,0,0,0,0,0,0,0,0,0,0,0,0,0,0,0,0,0,0,0,0,0,0,0],"sum_hessian":[1.28E3,1.258E3,2.2E1,9.76E2,2.82E2,1.4E1,8E0,7.37E2,2.39E2,2.8E1,2.54E2,1.2E1,2E0,7E0,1E0,2.8E1,7.09E2,2.31E2,8E0,2.2E1,6E0,2.46E2,8E0,2E0,1E1,1E0,1E0,6E0,1E0,2.5E1,3E0,6.81E2,2.8E1,1.7E2,6.1E1,6E0,2E0,2E0,2E1,5E0,1E0,1.76E2,7E1,7E0,1E0,1E0,1E0,6E0,4E0,2E0,4E0,1.9E1,6E0,2E0,1E0,1.32E2,5.49E2,7E0,2.1E1,7.4E1,9.6E1,8E0,5.3E1,2E0,4E0,1E0,1E0,1E0,1E0,1.6E1,4E0,4E0,1E0,8.6E1,9E1,1E1,6E1,6E0,1E0,5E0,1E0,2E0,2E0,1E0,3E0],"tree_param":{"num_deleted":"0","num_feature":"8","num_nodes":"85","size_leaf_vector":"1"}},{"base_weights":[-3.3527612E-9,-2.4569524E-4,2.5961438E-2,4.3515665E-3,-1.3746887E-3,2.9379034E-2,8.873463E-3,1.3655372E-3,1.2676254E-2,-3.3958405E-3,3.7732623E-3,3.728075E-2,2.1477317E-2,3.6870004E-3,1.6370774E-3,1.0593605E-2,-3.099657E-3,8.042313E-3,2.078565E-2,-5.051229E-3,3.846484E-3,1.9581025E-3,1.4073239E-2,3.5705924E-2,1.3074017E-2,3.3427477E-2,1.3510545E-2,4.0160496E-2,9.037453E-3,-5.8825365E-3,1.0549705E-2,2.1545103E-2,1.2909174E-3,3.319664E-2,1.7519599E-2,1.0500404E-3,-7.4917367E-3,9.32258E-3,-1.6296121E-3,8.399148E-3,-5.815097E-4,7.3468033E-3,2.111998E-2,3.487285E-2,1.1461545E-2,1.17173195E-2,8.339167E-3,9.576321E-3,6.4136987E-3,1.14251375E-2,1.32941725E-2,-6.314564E-3,3.2126694E-3,-3.4937847E-3,1.5944849E-3,-3.4556151E-3,3.861809E-3,3.1957866E-3,8.91434E-3,5.409861E-3,-9.825209E-4,5.7509425E-3,1.1011004E-2,8.320897E-3,3.4679533E-3,-1.2174698E-3,2.504272E-3,-2.8191316E-3,9.183224E-4,3.1755178E-3,-5.409336E-3,-7.944524E-3,-2.2906066E-5,2.318302E-3,9.26807E-3,-6.932688E-4,2.9384422E-3,1.5381064E-3,1.618867E-2,4.745117E-3,8.921171E-3,1.07625965E-2,1.0311484E-2,1.8167497E-3,3.929043E-3],"categories":[],"categories_nodes":[],"categories_segments":[],"categories_sizes":[],"default_left":[0,0,0,0,0,0,0,0,0,0,0,0,0,0,0,0,0,0,0,0,0,0,0,0,0,0,0,0,0,0,0,0,0,0,0,0,0,0,0,0,0,0,0,0,0,0,0,0,0,0,0,0,0,0,0,0,0,0,0,0,0,0,0,0,0,0,0,0,0,0,0,0,0,0,0,0,0,0,0,0,0,0,0,0,0],"id":15,"left_children":[1,3,5,7,9,11,13,15,17,19,21,23,25,-1,-1,27,29,31,33,35,37,39,41,43,-1,45,47,49,51,53,55,57,59,61,63,65,67,69,71,73,75,77,79,81,-1,-1,-1,83,-1,-1,-1,-1,-1,-1,-1,-1,-1,-1,-1,-1,-1,-1,-1,-1,-1,-1,-1,-1,-1,-1,-1,-1,-1,-1,-1,-1,-1,-1,-1,-1,-1,-1,-1,-1,-1],"loss_changes":[8.1645E-3,6.581273E-3,7.0079695E-4,6.2144394E-3,1.0592077E-2,6.243717E-4,2.3345463E-5,7.581741E-3,2.4801781E-3,8.763857E-3,5.365781E-3,4.960131E-5,4.7602085E-4,0E0,0E0,2.7606352E-3,4.7100815E-3,3.8288326E-3,9.7283814E-4,8.859665E-3,4.0783174E-3,3.9912923E-3,2.0381762E-3,8.328352E-6,0E0,6.339955E-5,9.286875E-5,2.5876332E-5,2.8663636E-3,6.64718E-3,1.07656E-3,1.2457846E-3,2.1404186E-3,2.4593994E-4,1.1568945E-3,6.337223E-3,8.545477E-3,2.348275E-3,2.6249217E-3,1.0422072E-3,3.1403156E-3,2.2764741E-3,9.596292E-4,1.5073456E-6,0E0,0E0,0E0,2.4787689E-5,0E0,0E0,0E0,0E0,0E0,0E0,0E0,0E0,0E0,0E0,0E0,0E0,0E0,0E0,0E0,0E0,0E0,0E0,0E0,0E0,0E0,0E0,0E0,0E0,0E0,0E0,0E0,0E0,0E0,0E0,0E0,0E0,0E0,0E0,0E0,0E0,0E0],"parents":[2147483647,0,0,1,1,2,2,3,3,4,4,5,5,6,6,7,7,8,8,9,9,10,10,11,11,12,12,15,15,16,16,17,17,18,18,19,19,20,20,21,21,22,22,23,23,25,25,26,26,27,27,28,28,29,29,30,30,31,31,32,32,33,33,34,34,35,35,36,36,37,37,38,38,39,39,40,40,41,41,42,42,43,43,47,47],"right_children":[2,4,6,8,10,12,14,16,18,20,22,24,26,-1,-1,28,30,32,34,36,38,40,42,44,-1,46,48,50,52,54,56,58,60,62,64,66,68,70,72,74,76,78,80,82,-1,-1,-1,84,-1,-1,-1,-1,-1,-1,-1,-1,-1,-1,-1,-1,-1,-1,-1,-1,-1,-1,-1,-1,-1,-1,-1,-1,-1,-1,-1,-1,-1,-1,-1,-1,-1,-1,-1,-1,-1],"split_conditions":[8.852524E-1,2.890618E-1,4.01469E-1,3.8787982E-1,6.9219595E-1,4.8367372E-1,3.2571536E-1,2.622316E-1,2.2911452E-1,6.821628E-1,3.8042578E-1,4.8367372E-1,1.6296943E-1,3.6870004E-3,1.6370774E-3,6.670228E-1,6.146087E-1,1.541735E-1,5.733034E-1,3.1674942E-1,6.299869E-1,3.4530357E-1,2.2911452E-1,4.5229268E-1,1.3074017E-2,9.186149E-1,3.8787982E-1,4.767645E-1,6.8841153E-1,6.112795E-1,6.821628E-1,8.888041E-2,1.7870222E-1,4.3994313E-1,2.3412305E-1,3.8787982E-1,7.4676883E-1,8.2713443E-1,6.336376E-1,8.3558744E-1,6.943777E-1,7.041788E-1,6.821628E-1,3.4530357E-1,1.1461545E-2,1.17173195E-2,8.339167E-3,9.186149E-1,6.4136987E-3,1.14251375E-2,1.32941725E-2,-6.314564E-3,3.2126694E-3,-3.4937847E-3,1.5944849E-3,-3.4556151E-3,3.861809E-3,3.1957866E-3,8.91434E-3,5.409861E-3,-9.825209E-4,5.7509425E-3,1.1011004E-2,8.320897E-3,3.4679533E-3,-1.2174698E-3,2.504272E-3,-2.8191316E-3,9.183224E-4,3.1755178E-3,-5.409336E-3,-7.944524E-3,-2.2906066E-5,2.318302E-3,9.26807E-3,-6.932688E-4,2.9384422E-3,1.5381064E-3,1.618867E-2,4.745117E-3,8.921171E-3,1.07625965E-2,1.0311484E-2,1.8167497E-3,3.929043E-3],"split_indices":[0,7,6,3,7,3,1,3,7,3,1,7,6,0,0,1,0,7,5,3,7,2,5,1,0,0,1,0,1,2,1,7,0,0,7,7,6,0,7,3,2,1,2,1,0,0,0,0,0,0,0,0,0,0,0,0,0,0,0,0,0,0,0,0,0,0,0,0,0,0,0,0,0,0,0,0,0,0,0,0,0,0,0,0,0],"split_type":[0,0,0,0,0,0,0,0,0,0,0,0,0,0,0,0,0,0,0,0,0,0,0,0,0,0,0,0,0,0,0,0,0,0,0,0,0,0,0,0,0,0,0,0,0,0,0,0,0,0,0,0,0,0,0,0,0,0,0,0,0,0,0,0,0,0,0,0,0,0,0,0,0,0,0,0,0,0,0,0,0,0,0,0,0],"sum_hessian":[1.28E3,1.268E3,1.2E1,2.5E2,1.018E3,1E1,2E0,1.84E2,6.6E1,7.31E2,2.87E2,5E0,5E0,1E0,1E0,6E1,1.24E2,4.2E1,2.4E1,5.95E2,1.36E2,2.44E2,4.3E1,4E0,1E0,2E0,3E0,3E0,5.7E1,1.03E2,2.1E1,1.4E1,2.8E1,5E0,1.9E1,1.7E2,4.25E2,6.8E1,6.8E1,6.9E1,1.75E2,2.2E1,2.1E1,3E0,1E0,1E0,1E0,2E0,1E0,2E0,1E0,3E0,5.4E1,6.8E1,3.5E1,2E0,1.9E1,6E0,8E0,6E0,2.2E1,1E0,4E0,7E0,1.2E1,1E2,7E1,3.6E2,6.5E1,6.5E1,3E0,4E0,6.4E1,6.7E1,2E0,1.5E2,2.5E1,2.1E1,1E0,1.3E1,8E0,1E0,2E0,1E0,1E0],"tree_param":{"num_deleted":"0","num_feature":"8","num_nodes":"85","size_leaf_vector":"1"}},{"base_weights":[-4.5076014E-8,-1.022823E-3,4.4778315E-3,-2.5878458E-3,3.2571498E-3,3.4641235E-3,1.5527248E-2,-2.8517551E-3,3.070871E-2,1.466134E-3,1.36537785E-2,2.2321772E-3,1.7152416E-2,4.288888E-2,1.2487067E-2,-4.3243845E-3,3.2591561E-3,2.7668763E-2,1.3772536E-2,6.8819067E-3,-2.7371522E-3,3.0129062E-2,9.020105E-3,-5.953106E-3,4.5408467E-3,1.2186241E-2,1.5771922E-2,1.1251116E-2,1.4482212E-2,7.617746E-3,2.952969E-2,1.879554E-3,-6.258946E-3,8.533603E-3,-9.2180766E-4,9.156323E-3,2.3390293E-2,5.869649E-4,1.1498197E-2,4.1924054E-3,-1.078438E-2,1.9600153E-2,3.8552187E-2,1.3526007E-2,-8.928776E-4,8.752823E-3,-1.4356494E-2,3.3682089E-3,1.8612504E-2,1.04499925E-2,2.1759093E-2,2.0702362E-2,5.436977E-3,6.5784934E-3,3.713107E-2,7.6421145E-3,1.5053785E-4,4.890521E-4,-2.655326E-3,-1.4472867E-3,3.762291E-3,-9.23078E-4,3.1550704E-3,6.5420154E-3,7.492161E-3,1.1428724E-3,-7.364817E-3,1.6168806E-3,4.948842E-3,-2.3160058E-3,2.5388692E-3,-3.6054018E-3,7.867313E-3,8.876324E-3,2.8837682E-3,7.920671E-3,1.3995647E-2,-3.2683613E-3,4.7904183E-3,4.8953537E-3,-2.4806703E-3,5.250138E-3,1.5556813E-6,-1.1920063E-3,-6.322499E-3,-1.3465829E-4,2.9766138E-3,1.0598136E-2,3.91229E-3,2.056115E-3,6.9110873E-3,7.828932E-3,4.359055E-3,5.579567E-3,6.8418505E-3,3.300667E-3,-3.848076E-5,1.0256625E-2,1.2022019E-2],"categories":[],"categories_nodes":[],"categories_segments":[],"categories_sizes":[],"default_left":[0,0,0,0,0,0,0,0,0,0,0,0,0,0,0,0,0,0,0,0,0,0,0,0,0,0,0,0,0,0,0,0,0,0,0,0,0,0,0,0,0,0,0,0,0,0,0,0,0,0,0,0,0,0,0,0,0,0,0,0,0,0,0,0,0,0,0,0,0,0,0,0,0,0,0,0,0,0,0,0,0,0,0,0,0,0,0,0,0,0,0,0,0,0,0,0,0,0,0],"id":16,"left_children":[1,3,5,7,9,11,13,15,17,19,21,23,25,27,29,31,33,35,-1,37,39,41,43,45,47,-1,49,-1,-1,51,53,55,57,59,61,-1,63,65,67,69,71,73,75,77,79,81,83,85,87,89,91,93,95,-1,97,-1,-1,-1,-1,-1,-1,-1,-1,-1,-1,-1,-1,-1,-1,-1,-1,-1,-1,-1,-1,-1,-1,-1,-1,-1,-1,-1,-1,-1,-1,-1,-1,-1,-1,-1,-1,-1,-1,-1,-1,-1,-1,-1,-1],"loss_changes":[5.8622384E-3,6.9795824E-3,2.6658094E-3,6.704688E-3,5.195127E-3,3.676186E-3,1.6636867E-3,6.812324E-3,2.7723843E-4,5.4178415E-3,3.1299838E-3,3.779423E-3,5.8316346E-4,5.7999976E-5,1.4937483E-3,7.3211575E-3,3.2416838E-3,6.1017694E-5,0E0,3.022165E-3,7.4723396E-3,7.981779E-4,1.429341E-3,5.4375036E-3,2.57415E-3,0E0,5.416763E-4,0E0,0E0,3.9948337E-4,2.31124E-4,4.7135325E-3,9.509111E-3,3.4794481E-3,2.0214457E-3,0E0,5.015405E-6,3.564205E-3,1.831824E-3,3.6627776E-3,2.8306064E-3,3.9900804E-4,4.9207127E-4,1.3119983E-3,1.269467E-3,1.2243385E-3,1.9532559E-3,3.6023692E-3,1.117513E-3,