{"learner":{"attributes":{"scikit_learn":"{\"_estimator_type\": \"regressor\"}"},"feature_names":[],"feature_types":[],"gradient_booster":{"model":{"gbtree_model_param":{"num_parallel_tree":"1","num_trees":"800"},"iteration_indptr":[0,1,2,3,4,5,6,7,8,9,10,11,12,13,14,15,16,17,18,19,20,21,22,23,24,25,26,27,28,29,30,31,32,33,34,35,36,37,38,39,40,41,42,43,44,45,46,47,48,49,50,51,52,53,54,55,56,57,58,59,60,61,62,63,64,65,66,67,68,69,70,71,72,73,74,75,76,77,78,79,80,81,82,83,84,85,86,87,88,89,90,91,92,93,94,95,96,97,98,99,100,101,102,103,104,105,106,107,108,109,110,111,112,113,114,115,116,117,118,119,120,121,122,123,124,125,126,127,128,129,130,131,132,133,134,135,136,137,138,139,140,141,142,143,144,145,146,147,148,149,150,151,152,153,154,155,156,157,158,159,160,161,162,163,164,165,166,167,168,169,170,171,172,173,174,175,176,177,178,179,180,181,182,183,184,185,186,187,188,189,190,191,192,193,194,195,196,197,198,199,200,201,202,203,204,205,206,207,208,209,210,211,212,213,214,215,216,217,218,219,220,221,222,223,224,225,226,227,228,229,230,231,232,233,234,235,236,237,238,239,240,241,242,243,244,245,246,247,248,249,250,251,252,253,254,255,256,257,258,259,260,261,262,263,264,265,266,267,268,269,270,271,272,273,274,275,276,277,278,279,280,281,282,283,284,285,286,287,288,289,290,291,292,293,294,295,296,297,298,299,300,301,302,303,304,305,306,307,308,309,310,311,312,313,314,315,316,317,318,319,320,321,322,323,324,325,326,327,328,329,330,331,332,333,334,335,336,337,338,339,340,341,342,343,344,345,346,347,348,349,350,351,352,353,354,355,356,357,358,359,360,361,362,363,364,365,366,367,368,369,370,371,372,373,374,375,376,377,378,379,380,381,382,383,384,385,386,387,388,389,390,391,392,393,394,395,396,397,398,399,400,401,402,403,404,405,406,407,408,409,410,411,412,413,414,415,416,417,418,419,420,421,422,423,424,425,426,427,428,429,430,431,432,433,434,435,436,437,438,439,440,441,442,443,444,445,446,447,448,449,450,451,452,453,454,455,456,457,458,459,460,461,462,463,464,465,466,467,468,469,470,471,472,473,474,475,476,477,478,479,480,481,482,483,484,485,486,487,488,489,490,491,492,493,494,495,496,497,498,499,500,501,502,503,504,505,506,507,508,509,510,511,512,513,514,515,516,517,518,519,520,521,522,523,524,525,526,527,528,529,530,531,532,533,534,535,536,537,538,539,540,541,542,543,544,545,546,547,548,549,550,551,552,553,554,555,556,557,558,559,560,561,562,563,564,565,566,567,568,569,570,571,572,573,574,575,576,577,578,579,580,581,582,583,584,585,586,587,588,589,590,591,592,593,594,595,596,597,598,599,600,601,602,603,604,605,606,607,608,609,610,611,612,613,614,615,616,617,618,619,620,621,622,623,624,625,626,627,628,629,630,631,632,633,634,635,636,637,638,639,640,641,642,643,644,645,646,647,648,649,650,651,652,653,654,655,656,657,658,659,660,661,662,663,664,665,666,667,668,669,670,671,672,673,674,675,676,677,678,679,680,681,682,683,684,685,686,687,688,689,690,691,692,693,694,695,696,697,698,699,700,701,702,703,704,705,706,707,708,709,710,711,712,713,714,715,716,717,718,719,720,721,722,723,724,725,726,727,728,729,730,731,732,733,734,735,736,737,738,739,740,741,742,743,744,745,746,747,748,749,750,751,752,753,754,755,756,757,758,759,760,761,762,763,764,765,766,767,768,769,770,771,772,773,774,775,776,777,778,779,780,781,782,783,784,785,786,787,788,789,790,791,792,793,794,795,796,797,798,799,800],"tree_info":[0,0,0,0,0,0,0,0,0,0,0,0,0,0,0,0,0,0,0,0,0,0,0,0,0,0,0,0,0,0,0,0,0,0,0,0,0,0,0,0,0,0,0,0,0,0,0,0,0,0,0,0,0,0,0,0,0,0,0,0,0,0,0,0,0,0,0,0,0,0,0,0,0,0,0,0,0,0,0,0,0,0,0,0,0,0,0,0,0,0,0,0,0,0,0,0,0,0,0,0,0,0,0,0,0,0,0,0,0,0,0,0,0,0,0,0,0,0,0,0,0,0,0,0,0,0,0,0,0,0,0,0,0,0,0,0,0,0,0,0,0,0,0,0,0,0,0,0,0,0,0,0,0,0,0,0,0,0,0,0,0,0,0,0,0,0,0,0,0,0,0,0,0,0,0,0,0,0,0,0,0,0,0,0,0,0,0,0,0,0,0,0,0,0,0,0,0,0,0,0,0,0,0,0,0,0,0,0,0,0,0,0,0,0,0,0,0,0,0,0,0,0,0,0,0,0,0,0,0,0,0,0,0,0,0,0,0,0,0,0,0,0,0,0,0,0,0,0,0,0,0,0,0,0,0,0,0,0,0,0,0,0,0,0,0,0,0,0,0,0,0,0,0,0,0,0,0,0,0,0,0,0,0,0,0,0,0,0,0,0,0,0,0,0,0,0,0,0,0,0,0,0,0,0,0,0,0,0,0,0,0,0,0,0,0,0,0,0,0,0,0,0,0,0,0,0,0,0,0,0,0,0,0,0,0,0,0,0,0,0,0,0,0,0,0,0,0,0,0,0,0,0,0,0,0,0,0,0,0,0,0,0,0,0,0,0,0,0,0,0,0,0,0,0,0,0,0,0,0,0,0,0,0,0,0,0,0,0,0,0,0,0,0,0,0,0,0,0,0,0,0,0,0,0,0,0,0,0,0,0,0,0,0,0,0,0,0,0,0,0,0,0,0,0,0,0,0,0,0,0,0,0,0,0,0,0,0,0,0,0,0,0,0,0,0,0,0,0,0,0,0,0,0,0,0,0,0,0,0,0,0,0,0,0,0,0,0,0,0,0,0,0,0,0,0,0,0,0,0,0,0,0,0,0,0,0,0,0,0,0,0,0,0,0,0,0,0,0,0,0,0,0,0,0,0,0,0,0,0,0,0,0,0,0,0,0,0,0,0,0,0,0,0,0,0,0,0,0,0,0,0,0,0,0,0,0,0,0,0,0,0,0,0,0,0,0,0,0,0,0,0,0,0,0,0,0,0,0,0,0,0,0,0,0,0,0,0,0,0,0,0,0,0,0,0,0,0,0,0,0,0,0,0,0,0,0,0,0,0,0,0,0,0,0,0,0,0,0,0,0,0,0,0,0,0,0,0,0,0,0,0,0,0,0,0,0,0,0,0,0,0,0,0,0,0,0,0,0,0,0,0,0,0,0,0,0,0,0,0,0,0,0,0,0,0,0,0,0,0,0,0,0,0,0,0,0,0,0,0,0,0,0,0,0,0,0,0,0,0,0,0,0,0,0,0,0,0,0,0,0,0,0,0,0,0,0,0,0,0,0,0,0,0,0,0,0,0,0,0,0,0,0,0,0,0,0,0,0,0,0,0,0,0,0,0,0,0,0,0,0,0,0,0,0,0,0,0,0,0,0,0,0,0,0,0,0,0,0,0,0,0,0,0,0,0,0,0,0,0,0,0,0,0,0,0,0,0,0,0,0,0,0,0,0,0,0,0,0,0,0,0,0,0,0,0,0,0,0,0,0,0,0,0,0,0,0,0,0,0,0,0,0,0,0,0,0,0,0,0,0],"trees":[{"base_weights":[7.152558E-8,-6.3435026E-3,7.6511346E-2,-1.3191908E-2,8.552535E-2,1.6730078E-1,4.0195573E-2,-2.0340795E-2,6.902029E-2,1.6730078E-1,4.312328E-2,9.86907E-2,1.4035606E-1,3.3102922E-2,1.1585053E-1,-2.7844295E-2,7.7621564E-2,2.5326592E-1,5.059573E-2,9.86907E-2,1.4035606E-1,3.7626687E-2,5.5810407E-2,4.7843933E-2,1.588585E-1,2.4542825E-2,1.1585053E-1,1.5381448E-1,7.788658E-2,-3.6134984E-2,5.6641784E-2,2.5326592E-1,5.5666022E-2,9.86907E-2,1.7756283E-1,3.6658395E-2,1.2242662E-1,4.7843933E-2,1.588585E-1,2.0909734E-2,7.523984E-2,7.314205E-4,2.797494E-2,1.7531244E-1,1.2046591E-1,4.1629374E-3,4.962576E-2,1.5381448E-1,7.788658E-2,1.3770437E-1,5.5810407E-2,1.73162E-2,8.796954E-2,-1.3966386E-2,1.5117982E-2,4.0016893E-2,1.1150534E-2,9.86907E-2,5.3268854E-2,1.1594585E-2,3.6727987E-2,7.029491E-2,4.75935E-2,8.046618E-3,3.6290955E-2,4.5212764E-2,1.7637242E-2,7.314205E-4,2.797494E-2,5.2593734E-2,3.6139775E-2,1.8512512E-2,3.8250017E-3,2.112078E-2,4.4339564E-2,4.460893E-2,5.8582343E-2,3.1681325E-2,4.505668E-2,9.983111E-3,1.1341913E-6,8.822644E-3,1.7583324E-2,5.5810407E-2,4.1311312E-2,1.73162E-2,2.6390864E-2,3.8283065E-2,4.4339564E-2,2.4526406E-2,2.8255321E-2],"categories":[],"categories_nodes":[],"categories_segments":[],"categories_sizes":[],"default_left":[0,0,0,0,0,0,0,0,0,0,0,0,0,0,0,0,0,0,0,0,0,0,0,0,0,0,0,0,0,0,0,0,0,0,0,0,0,0,0,0,0,0,0,0,0,0,0,0,0,0,0,0,0,0,0,0,0,0,0,0,0,0,0,0,0,0,0,0,0,0,0,0,0,0,0,0,0,0,0,0,0,0,0,0,0,0,0,0,0,0,0],"id":0,"left_children":[1,3,5,7,9,11,13,15,17,19,21,-1,23,25,27,29,31,33,35,-1,37,39,-1,41,43,45,47,49,51,53,55,57,59,-1,61,63,65,67,69,71,73,-1,-1,75,77,79,81,83,85,87,-1,-1,89,-1,-1,-1,-1,-1,-1,-1,-1,-1,-1,-1,-1,-1,-1,-1,-1,-1,-1,-1,-1,-1,-1,-1,-1,-1,-1,-1,-1,-1,-1,-1,-1,-1,-1,-1,-1,-1,-1],"loss_changes":[6.212543E-1,7.4366134E-1,3.2311463E-1,6.464983E-1,2.8433067E-1,1.2197095E-1,3.756161E-2,7.438812E-1,2.987288E-1,1.2197095E-1,4.2418383E-2,0E0,4.1080743E-2,4.533297E-2,8.6475685E-3,6.5842104E-1,2.7765846E-1,4.5847654E-2,8.009048E-2,0E0,4.1080743E-2,3.2696426E-2,0E0,8.246772E-3,1.2634218E-2,2.9648874E-2,8.6475685E-3,1.5572086E-3,6.0999766E-4,7.717633E-1,1.2554109E-1,4.5847654E-2,7.27099E-2,0E0,4.294619E-3,5.5564143E-2,2.3397207E-2,8.246772E-3,1.2634218E-2,1.1984609E-2,5.6157485E-3,0E0,0E0,7.438332E-3,2.6503652E-3,3.874883E-3,4.7230497E-3,1.5572086E-3,6.0999766E-4,2.0378083E-4,0E0,0E0,7.724948E-5,0E0,0E0,0E0,0E0,0E0,0E0,0E0,0E0,0E0,0E0,0E0,0E0,0E0,0E0,0E0,0E0,0E0,0E0,0E0,0E0,0E0,0E0,0E0,0E0,0E0,0E0,0E0,0E0,0E0,0E0,0E0,0E0,0E0,0E0,0E0,0E0,0E0,0E0],"parents":[2147483647,0,0,1,1,2,2,3,3,4,4,5,5,6,6,7,7,8,8,9,9,10,10,12,12,13,13,14,14,15,15,16,16,17,17,18,18,20,20,21,21,23,23,24,24,25,25,26,26,27,27,28,28,29,29,30,30,31,31,32,32,34,34,35,35,36,36,37,37,38,38,39,39,40,40,43,43,44,44,45,45,46,46,47,47,48,48,49,49,52,52],"right_children":[2,4,6,8,10,12,14,16,18,20,22,-1,24,26,28,30,32,34,36,-1,38,40,-1,42,44,46,48,50,52,54,56,58,60,-1,62,64,66,68,70,72,74,-1,-1,76,78,80,82,84,86,88,-1,-1,90,-1,-1,-1,-1,-1,-1,-1,-1,-1,-1,-1,-1,-1,-1,-1,-1,-1,-1,-1,-1,-1,-1,-1,-1,-1,-1,-1,-1,-1,-1,-1,-1,-1,-1,-1,-1,-1,-1],"split_conditions":[7.193246E-1,7.193246E-1,5.618172E-1,7.193246E-1,5.618172E-1,3.932719E-1,4.1689265E-1,7.193246E-1,4.5728192E-1,3.932719E-1,6.989583E-1,9.86907E-2,7.2897506E-1,4.1689265E-1,4.70888E-1,7.193246E-1,4.5728192E-1,7.393988E-1,4.1689265E-1,9.86907E-2,7.2897506E-1,7.727931E-1,5.5810407E-2,5.355048E-1,7.8534484E-1,7.5125945E-1,4.70888E-1,4.9638698E-1,7.364459E-1,7.078791E-1,5.618172E-1,3.932719E-1,4.1689265E-1,9.86907E-2,7.5125945E-1,4.665697E-1,6.224708E-1,5.355048E-1,7.8534484E-1,2.190686E-1,6.147637E-1,7.314205E-4,2.797494E-2,7.393988E-1,8.2110435E-1,2.190686E-1,6.179647E-1,1.3976774E-1,7.364459E-1,7.250239E-1,5.5810407E-2,1.73162E-2,7.8942484E-1,-1.3966386E-2,1.5117982E-2,4.0016893E-2,1.1150534E-2,9.86907E-2,5.3268854E-2,1.1594585E-2,3.6727987E-2,7.029491E-2,4.75935E-2,8.046618E-3,3.6290955E-2,4.5212764E-2,1.7637242E-2,7.314205E-4,2.797494E-2,5.2593734E-2,3.6139775E-2,1.8512512E-2,3.8250017E-3,2.112078E-2,4.4339564E-2,4.460893E-2,5.8582343E-2,3.1681325E-2,4.505668E-2,9.983111E-3,1.1341913E-6,8.822644E-3,1.7583324E-2,5.5810407E-2,4.1311312E-2,1.73162E-2,2.6390864E-2,3.8283065E-2,4.4339564E-2,2.4526406E-2,2.8255321E-2],"split_indices":[0,4,4,1,0,4,2,5,5,0,0,0,0,6,7,2,1,1,7,0,4,4,0,4,0,0,1,2,0,3,6,1,3,0,1,3,2,0,4,2,1,0,0,0,0,2,4,2,0,0,0,0,0,0,0,0,0,0,0,0,0,0,0,0,0,0,0,0,0,0,0,0,0,0,0,0,0,0,0,0,0,0,0,0,0,0,0,0,0,0,0],"split_type":[0,0,0,0,0,0,0,0,0,0,0,0,0,0,0,0,0,0,0,0,0,0,0,0,0,0,0,0,0,0,0,0,0,0,0,0,0,0,0,0,0,0,0,0,0,0,0,0,0,0,0,0,0,0,0,0,0,0,0,0,0,0,0,0,0,0,0,0,0,0,0,0,0,0,0,0,0,0,0,0,0,0,0,0,0,0,0,0,0,0,0],"sum_hessian":[1.28E3,1.182E3,9.8E1,1.1E3,8.2E1,2.8E1,7E1,1.012E3,8.8E1,2.8E1,5.4E1,4E0,2.4E1,6.4E1,6E0,9.4E2,7.2E1,8E0,8E1,4E0,2.4E1,5.2E1,2E0,4E0,2E1,5.8E1,6E0,3E0,3E0,8.56E2,8.4E1,8E0,6.4E1,4E0,4E0,6.7E1,1.3E1,4E0,2E1,3.6E1,1.6E1,2E0,2E0,1.4E1,6E0,3.2E1,2.6E1,3E0,3E0,2E0,1E0,1E0,2E0,7.64E2,9.2E1,1.7E1,6.7E1,4E0,4E0,5.1E1,1.3E1,1E0,3E0,6E1,7E0,9E0,4E0,2E0,2E0,1.4E1,6E0,6E0,3E1,1.5E1,1E0,6E0,8E0,4E0,2E0,4E0,2.8E1,8E0,1.8E1,1E0,2E0,1E0,2E0,1E0,1E0,1E0,1E0],"tree_param":{"num_deleted":"0","num_feature":"8","num_nodes":"91","size_leaf_vector":"1"}},{"base_weights":[1.4305115E-7,-6.189357E-3,7.46531E-2,-1.3023067E-2,7.111699E-2,1.457078E-1,4.6231214E-2,-1.8983359E-2,4.987702E-2,1.5276115E-1,4.5393486E-2,2.1266444E-1,1.2744689E-1,3.8738996E-2,1.2614822E-1,6.270787E-2,-2.4805844E-2,1.17725156E-1,2.6614802E-2,2.1266444E-1,1.3161881E-1,3.801382E-2,1.149732E-1,6.908355E-2,5.3230908E-2,4.9136877E-2,1.4484912E-1,2.9818583E-2,1.2496964E-1,1.604433E-1,9.185314E-2,2.2871234E-2,1.3242199E-1,-2.9061386E-2,5.303513E-2,2.1386814E-1,1.0399044E-1,1.9851811E-2,9.875337E-2,6.908355E-2,5.3230908E-2,4.921389E-3,1.469807E-1,2.930937E-2,1.113799E-1,9.846382E-2,1.5624666E-1,3.216491E-2,2.977705E-2,1.313533E-1,1.7993823E-1,1.2615495E-2,5.7969093E-2,6.0000375E-2,1.0996332E-1,1.4066434E-1,6.0000375E-2,2.1506168E-2,1.019361E-1,3.1918024E-3,2.5209209E-2,3.1659286E-2,6.392854E-2,-1.0127706E-2,1.0156831E-2,3.8543943E-2,9.95438E-3,6.908355E-2,5.4314233E-2,1.3663291E-3,3.6168937E-2,9.7608933E-4,1.3723492E-2,2.508482E-2,5.2331973E-2,5.0321016E-2,3.6977865E-2,3.8071633E-3,1.7177764E-2,4.6874E-2,2.8029958E-2,2.1506168E-2,3.1547394E-2,5.127497E-2,4.2473033E-2,4.921389E-3,1.6956568E-2,3.4622546E-2,4.705951E-2,4.612947E-2,6.575947E-2,2.6482767E-3,2.3102976E-2,1.4896668E-2,2.404156E-2,4.113858E-2,2.7555944E-2,4.1925576E-2,4.2473033E-2,2.8716374E-2,3.244529E-2],"categories":[],"categories_nodes":[],"categories_segments":[],"categories_sizes":[],"default_left":[0,0,0,0,0,0,0,0,0,0,0,0,0,0,0,0,0,0,0,0,0,0,0,0,0,0,0,0,0,0,0,0,0,0,0,0,0,0,0,0,0,0,0,0,0,0,0,0,0,0,0,0,0,0,0,0,0,0,0,0,0,0,0,0,0,0,0,0,0,0,0,0,0,0,0,0,0,0,0,0,0,0,0,0,0,0,0,0,0,0,0,0,0,0,0,0,0,0,0,0,0],"id":1,"left_children":[1,3,5,7,9,11,13,15,17,19,21,23,25,27,29,31,33,35,37,39,41,43,45,-1,-1,47,49,51,53,55,57,59,61,63,65,67,69,71,73,-1,-1,-1,75,77,79,81,83,-1,85,87,89,91,93,-1,95,97,-1,-1,99,-1,-1,-1,-1,-1,-1,-1,-1,-1,-1,-1,-1,-1,-1,-1,-1,-1,-1,-1,-1,-1,-1,-1,-1,-1,-1,-1,-1,-1,-1,-1,-1,-1,-1,-1,-1,-1,-1,-1,-1,-1,-1],"loss_changes":[5.9144247E-1,6.244378E-1,1.9791186E-1,4.0714443E-1,2.0161667E-1,3.42353E-2,4.19129E-2,4.718408E-1,1.4835998E-1,2.9129386E-2,3.7483677E-2,3.7230551E-3,2.9980898E-2,4.922963E-2,7.0569217E-3,1.8329361E-1,3.0674267E-1,3.169194E-2,3.4151077E-2,3.7230551E-3,3.0088454E-2,4.2148337E-2,4.7697946E-3,0E0,0E0,4.497635E-3,8.524001E-3,2.8087996E-2,6.7556873E-3,2.3472458E-3,6.099958E-4,3.1420033E-2,5.2065223E-2,2.5950468E-1,7.1897686E-2,1.6157925E-3,3.4606323E-2,2.750588E-2,6.874144E-3,0E0,0E0,0E0,7.3853433E-3,2.7405124E-2,5.636476E-3,8.9623407E-4,4.304126E-4,0E0,1.0729299E-3,5.288139E-3,5.137831E-3,8.781122E-3,4.05474E-3,0E0,2.4598353E-3,1.6652048E-6,0E0,0E0,7.724762E-5,0E0,0E0,0E0,0E0,0E0,0E0,0E0,0E0,0E0,0E0,0E0,0E0,0E0,0E0,0E0,0E0,0E0,0E0,0E0,0E0,0E0,0E0,0E0,0E0,0E0,0E0,0E0,0E0,0E0,0E0,0E0,0E0,0E0,0E0,0E0,0E0,0E0,0E0,0E0,0E0,0E0,0E0],"parents":[2147483647,0,0,1,1,2,2,3,3,4,4,5,5,6,6,7,7,8,8,9,9,10,10,11,11,12,12,13,13,14,14,15,15,16,16,17,17,18,18,19,19,20,20,21,21,22,22,25,25,26,26,27,27,28,28,29,29,30,30,31,31,32,32,33,33,34,34,35,35,36,36,37,37,38,38,42,42,43,43,44,44,45,45,46,46,48,48,49,49,50,50,51,51,52,52,54,54,55,55,58,58],"right_children":[2,4,6,8,10,12,14,16,18,20,22,24,26,28,30,32,34,36,38,40,42,44,46,-1,-1,48,50,52,54,56,58,60,62,64,66,68,70,72,74,-1,-1,-1,76,78,80,82,84,-1,86,88,90,92,94,-1,96,98,-1,-1,100,-1,-1,-1,-1,-1,-1,-1,-1,-1,-1,-1,-1,-1,-1,-1,-1,-1,-1,-1,-1,-1,-1,-1,-1,-1,-1,-1,-1,-1,-1,-1,-1,-1,-1,-1,-1,-1,-1,-1,-1,-1,-1],"split_conditions":[7.193246E-1,7.193246E-1,5.618172E-1,7.193246E-1,5.584684E-1,4.0699407E-1,4.1689265E-1,2.4532568E-1,5.618172E-1,4.0699407E-1,4.1689265E-1,3.932719E-1,7.2897506E-1,4.1689265E-1,4.70888E-1,4.1188714E-1,7.352838E-1,1.3976774E-1,4.1689265E-1,3.932719E-1,7.2897506E-1,4.1689265E-1,6.256002E-1,6.908355E-2,5.3230908E-2,3.1793892E-1,4.9744084E-1,7.551785E-1,1.3976774E-1,4.9638698E-1,5.1134413E-1,6.4383036E-1,5.5571157E-1,7.193246E-1,5.5165124E-1,3.932719E-1,7.2897506E-1,7.551785E-1,6.759623E-1,6.908355E-2,5.3230908E-2,4.921389E-3,7.5125945E-1,7.551785E-1,3.361697E-1,5.7452536E-1,6.281932E-1,3.216491E-2,5.355048E-1,4.9744084E-1,7.298272E-1,6.773268E-1,7.9806006E-1,6.0000375E-2,4.9638698E-1,4.3276215E-1,6.0000375E-2,2.1506168E-2,5.296721E-1,3.1918024E-3,2.5209209E-2,3.1659286E-2,6.392854E-2,-1.0127706E-2,1.0156831E-2,3.8543943E-2,9.95438E-3,6.908355E-2,5.4314233E-2,1.3663291E-3,3.6168937E-2,9.7608933E-4,1.3723492E-2,2.508482E-2,5.2331973E-2,5.0321016E-2,3.6977865E-2,3.8071633E-3,1.7177764E-2,4.6874E-2,2.8029958E-2,2.1506168E-2,3.1547394E-2,5.127497E-2,4.2473033E-2,4.921389E-3,1.6956568E-2,3.4622546E-2,4.705951E-2,4.612947E-2,6.575947E-2,2.6482767E-3,2.3102976E-2,1.4896668E-2,2.404156E-2,4.113858E-2,2.7555944E-2,4.1925576E-2,4.2473033E-2,2.8716374E-2,3.244529E-2],"split_indices":[6,7,2,5,3,2,0,6,1,3,1,2,6,4,5,2,2,0,7,3,7,5,0,0,0,0,4,6,0,0,0,3,2,1,6,1,5,5,1,0,0,0,7,7,0,2,0,0,2,0,3,1,6,0,4,0,0,0,0,0,0,0,0,0,0,0,0,0,0,0,0,0,0,0,0,0,0,0,0,0,0,0,0,0,0,0,0,0,0,0,0,0,0,0,0,0,0,0,0,0,0],"split_type":[0,0,0,0,0,0,0,0,0,0,0,0,0,0,0,0,0,0,0,0,0,0,0,0,0,0,0,0,0,0,0,0,0,0,0,0,0,0,0,0,0,0,0,0,0,0,0,0,0,0,0,0,0,0,0,0,0,0,0,0,0,0,0,0,0,0,0,0,0,0,0,0,0,0,0,0,0,0,0,0,0,0,0,0,0,0,0,0,0,0,0,0,0,0,0,0,0,0,0,0,0],"sum_hessian":[1.28E3,1.182E3,9.8E1,1.086E3,9.6E1,2.8E1,7E1,9.92E2,9.4E1,2.3E1,7.3E1,6E0,2.2E1,6.4E1,6E0,6.6E1,9.26E2,2.4E1,7E1,6E0,1.7E1,6.6E1,7E0,4E0,2E0,4E0,1.8E1,5.8E1,6E0,3E0,3E0,4.2E1,2.4E1,8.78E2,4.8E1,3E0,2.1E1,6.4E1,6E0,4E0,2E0,2E0,1.5E1,5.9E1,7E0,5E0,2E0,1E0,3E0,1.3E1,5E0,3.6E1,2.2E1,1E0,5E0,2E0,1E0,1E0,2E0,3.5E1,7E0,1.8E1,6E0,8.17E2,6.1E1,1E1,3.8E1,2E0,1E0,3E0,1.8E1,3.9E1,2.5E1,5E0,1E0,8E0,7E0,3.7E1,2.2E1,2E0,5E0,1E0,4E0,1E0,1E0,2E0,1E0,8E0,5E0,3E0,2E0,3.4E1,2E0,1.6E1,6E0,2E0,3E0,1E0,1E0,1E0,1E0],"tree_param":{"num_deleted":"0","num_feature":"8","num_nodes":"101","size_leaf_vector":"1"}},{"base_weights":[-1.8626451E-9,-4.332653E-3,5.2257076E-2,-9.431047E-3,4.7420856E-2,1.01995364E-1,3.236176E-2,-1.4853972E-2,4.722121E-2,1.0242376E-1,2.9544914E-2,1.4886506E-1,8.921272E-2,2.71172E-2,8.830372E-2,-1.980596E-2,4.7733665E-2,9.477166E-2,3.0918196E-2,1.4886506E-1,8.8491365E-2,1.3326328E-1,2.5503939E-2,4.8358444E-2,3.726168E-2,3.4395814E-2,1.0139426E-1,2.0872906E-2,8.747872E-2,1.1231041E-1,6.429704E-2,-2.4576781E-2,4.5446556E-2,9.751042E-2,3.1141413E-2,1.3490486E-1,7.824623E-2,2.0611629E-2,5.6684613E-2,4.8358444E-2,3.726168E-2,2.6909193E-2,9.935881E-2,5.431323E-2,1.09372854E-1,1.3326311E-1,2.1135325E-2,2.2515394E-2,2.0843983E-2,7.2203636E-2,1.0973443E-1,8.830786E-3,4.057819E-2,4.200025E-2,7.6974295E-2,2.9539563E-2,4.200025E-2,1.5054274E-2,7.1355104E-2,-9.4458265E-3,6.533513E-3,3.516245E-2,6.763175E-3,4.0286556E-2,2.2231853E-2,7.461863E-3,2.7771922E-2,3.316312E-2,5.021591E-2,1.7774275E-2,3.3923127E-2,3.551674E-2,4.9612704E-3,1.1279542E-2,2.0088531E-2,3.4449578E-3,1.732836E-2,3.1140054E-2,8.489084E-3,3.5892535E-2,2.9731179E-2,3.2811787E-2,5.431323E-2,2.5379208E-3,1.6607825E-2,3.4449578E-3,1.186967E-2,1.717186E-2,3.5128787E-2,2.8177235E-2,3.766343E-2,1.5552059E-3,2.1247745E-2,1.0427606E-2,1.6829062E-2,2.7257493E-2,1.6844489E-2,2.0101406E-2,2.2711659E-2],"categories":[],"categories_nodes":[],"categories_segments":[],"categories_sizes":[],"default_left":[0,0,0,0,0,0,0,0,0,0,0,0,0,0,0,0,0,0,0,0,0,0,0,0,0,0,0,0,0,0,0,0,0,0,0,0,0,0,0,0,0,0,0,0,0,0,0,0,0,0,0,0,0,0,0,0,0,0,0,0,0,0,0,0,0,0,0,0,0,0,0,0,0,0,0,0,0,0,0,0,0,0,0,0,0,0,0,0,0,0,0,0,0,0,0,0,0,0,0],"id":2,"left_children":[1,3,5,7,9,11,13,15,17,19,21,23,25,27,29,31,33,35,37,39,41,43,45,-1,-1,47,49,51,53,55,57,59,61,63,65,67,69,71,73,-1,-1,75,77,-1,79,81,83,-1,85,87,89,91,93,-1,95,-1,-1,-1,97,-1,-1,-1,-1,-1,-1,-1,-1,-1,-1,-1,-1,-1,-1,-1,-1,-1,-1,-1,-1,-1,-1,-1,-1,-1,-1,-1,-1,-1,-1,-1,-1,-1,-1,-1,-1,-1,-1,-1,-1],"loss_changes":[2.8980696E-1,3.118823E-1,9.697676E-2,3.305697E-1,1.0422222E-1,1.677534E-2,2.0537362E-2,3.0435443E-1,7.287027E-2,1.6822994E-2,3.3529863E-2,1.8242747E-3,1.4690578E-2,2.4122562E-2,3.45793E-3,2.8329036E-1,5.946541E-2,1.5917256E-2,1.8589437E-2,1.8242747E-3,1.3384819E-2,3.4245104E-3,3.6248393E-2,0E0,0E0,2.2038259E-3,4.382178E-3,1.3763018E-2,3.3102855E-3,1.1501387E-3,2.988968E-4,2.7159905E-1,1.0189888E-1,1.5493751E-2,2.0794682E-2,5.539E-3,1.1249565E-2,1.9917581E-2,3.9230213E-3,0E0,0E0,1.427769E-3,5.3653866E-3,0E0,2.1090172E-4,3.4245364E-3,3.2101974E-2,0E0,5.257464E-4,2.6870929E-3,3.4995377E-3,8.13893E-3,1.9868426E-3,0E0,1.4457405E-3,0E0,0E0,0E0,3.7852675E-5,0E0,0E0,0E0,0E0,0E0,0E0,0E0,0E0,0E0,0E0,0E0,0E0,0E0,0E0,0E0,0E0,0E0,0E0,0E0,0E0,0E0,0E0,0E0,0E0,0E0,0E0,0E0,0E0,0E0,0E0,0E0,0E0,0E0,0E0,0E0,0E0,0E0,0E0,0E0,0E0],"parents":[2147483647,0,0,1,1,2,2,3,3,4,4,5,5,6,6,7,7,8,8,9,9,10,10,11,11,12,12,13,13,14,14,15,15,16,16,17,17,18,18,19,19,20,20,21,21,22,22,25,25,26,26,27,27,28,28,29,29,30,30,31,31,32,32,33,33,34,34,35,35,36,36,37,37,38,38,41,41,42,42,44,44,45,45,46,46,48,48,49,49,50,50,51,51,52,52,54,54,58,58],"right_children":[2,4,6,8,10,12,14,16,18,20,22,24,26,28,30,32,34,36,38,40,42,44,46,-1,-1,48,50,52,54,56,58,60,62,64,66,68,70,72,74,-1,-1,76,78,-1,80,82,84,-1,86,88,90,92,94,-1,96,-1,-1,-1,98,-1,-1,-1,-1,-1,-1,-1,-1,-1,-1,-1,-1,-1,-1,-1,-1,-1,-1,-1,-1,-1,-1,-1,-1,-1,-1,-1,-1,-1,-1,-1,-1,-1,-1,-1,-1,-1,-1,-1,-1],"split_conditions":[7.193246E-1,7.078791E-1,5.618172E-1,7.193246E-1,5.618172E-1,4.0699407E-1,4.1689265E-1,7.193246E-1,5.618172E-1,4.0699407E-1,1.4870332E-1,3.932719E-1,7.2897506E-1,4.1689265E-1,4.70888E-1,7.193246E-1,5.584684E-1,2.4532568E-1,7.727931E-1,3.932719E-1,7.2897506E-1,6.0579133E-1,1.4870332E-1,4.8358444E-2,3.726168E-2,3.1793892E-1,4.3661946E-1,7.551785E-1,1.3976774E-1,4.9638698E-1,5.1134413E-1,6.904466E-1,5.584684E-1,2.4532568E-1,4.1689265E-1,5.2821183E-1,4.9744084E-1,1.4870332E-1,2.3881374E-1,4.8358444E-2,3.726168E-2,6.724122E-1,6.373828E-1,5.431323E-2,6.281932E-1,3.361697E-1,7.727931E-1,2.2515394E-2,5.355048E-1,4.805414E-1,4.665697E-1,6.773268E-1,7.9806006E-1,4.200025E-2,5.857895E-1,2.9539563E-2,4.200025E-2,1.5054274E-2,5.296721E-1,-9.4458265E-3,6.533513E-3,3.516245E-2,6.763175E-3,4.0286556E-2,2.2231853E-2,7.461863E-3,2.7771922E-2,3.316312E-2,5.021591E-2,1.7774275E-2,3.3923127E-2,3.551674E-2,4.9612704E-3,1.1279542E-2,2.0088531E-2,3.4449578E-3,1.732836E-2,3.1140054E-2,8.489084E-3,3.5892535E-2,2.9731179E-2,3.2811787E-2,5.431323E-2,2.5379208E-3,1.6607825E-2,3.4449578E-3,1.186967E-2,1.717186E-2,3.5128787E-2,2.8177235E-2,3.766343E-2,1.5552059E-3,2.1247745E-2,1.0427606E-2,1.6829062E-2,2.7257493E-2,1.6844489E-2,2.0101406E-2,2.2711659E-2],"split_indices":[6,7,2,0,3,2,0,4,4,3,5,2,6,4,5,3,0,5,0,3,7,0,1,0,0,0,7,6,0,0,0,5,7,7,6,1,6,2,6,0,0,0,0,0,0,0,7,0,2,2,5,3,6,0,7,0,0,0,0,0,0,0,0,0,0,0,0,0,0,0,0,0,0,0,0,0,0,0,0,0,0,0,0,0,0,0,0,0,0,0,0,0,0,0,0,0,0,0,0],"split_type":[0,0,0,0,0,0,0,0,0,0,0,0,0,0,0,0,0,0,0,0,0,0,0,0,0,0,0,0,0,0,0,0,0,0,0,0,0,0,0,0,0,0,0,0,0,0,0,0,0,0,0,0,0,0,0,0,0,0,0,0,0,0,0,0,0,0,0,0,0,0,0,0,0,0,0,0,0,0,0,0,0,0,0,0,0,0,0,0,0,0,0,0,0,0,0,0,0,0,0],"sum_hessian":[1.28E3,1.182E3,9.8E1,1.076E3,1.06E2,2.8E1,7E1,9.82E2,9.4E1,2.6E1,8E1,6E0,2.2E1,6.4E1,6E0,9.1E2,7.2E1,2.4E1,7E1,6E0,2E1,3E0,7.7E1,4E0,2E0,4E0,1.8E1,5.8E1,6E0,3E0,3E0,8.48E2,6.2E1,1.8E1,5.4E1,7E0,1.7E1,5E1,2E1,4E0,2E0,3E0,1.7E1,1E0,2E0,3E0,7.4E1,1E0,3E0,4E0,1.4E1,3.6E1,2.2E1,1E0,5E0,2E0,1E0,1E0,2E0,7.38E2,1.1E2,1.5E1,4.7E1,7E0,1.1E1,4.9E1,5E0,4E0,3E0,1.1E1,6E0,2E0,4.8E1,7E0,1.3E1,2E0,1E0,1.6E1,1E0,1E0,1E0,2E0,1E0,5.4E1,2E1,2E0,1E0,3E0,1E0,7E0,7E0,3.4E1,2E0,1.6E1,6E0,3E0,2E0,1E0,1E0],"tree_param":{"num_deleted":"0","num_feature":"8","num_nodes":"99","size_leaf_vector":"1"}},{"base_weights":[-1.039356E-7,-3.786293E-3,3.7284233E-2,-6.8872133E-3,4.7707774E-2,2.7753154E-2,1.02730975E-1,-1.0414148E-2,4.4807576E-2,9.0523995E-2,3.039909E-2,1.6571939E-2,9.334961E-2,7.2494864E-2,1.3728653E-1,3.9733842E-2,-1.4425987E-2,9.300087E-2,2.6853215E-2,1.1482537E-1,8.404363E-2,1.673799E-2,4.8841573E-2,6.0860496E-3,4.157675E-2,6.356323E-2,1.273912E-1,7.9632126E-2,5.1083088E-2,2.9400159E-2,1.4383419E-1,2.0333908E-2,8.7351866E-2,-1.7800644E-2,3.2291904E-2,1.1856663E-1,8.6183324E-2,1.5173544E-2,5.2402496E-2,1.0937134E-1,3.935623E-2,4.7941208E-2,8.959785E-2,1.2264325E-2,3.9915994E-2,4.394318E-2,6.353674E-2,9.875639E-4,5.3671915E-2,2.8689964E-2,5.661134E-2,2.6993513E-2,7.575313E-2,1.552043E-1,1.1626597E-1,7.6687716E-2,2.8306248E-2,1.3818455E-2,1.6831398E-2,1.3772592E-1,5.231266E-2,4.001414E-3,1.5334711E-2,1.951645E-2,2.9327145E-2,-6.576431E-3,6.7809667E-3,1.9642953E-2,6.369111E-3,3.740237E-2,3.3737615E-2,2.4890626E-2,3.935623E-2,3.8019277E-2,3.5677338E-3,1.3423205E-2,2.2613384E-2,3.420024E-2,3.0033732E-2,1.1580563E-2,1.7184163E-2,2.8185701E-2,1.1203194E-2,3.7239507E-2,2.3368893E-3,1.0730582E-2,1.8087704E-2,1.657076E-2,2.2796417E-2,-1.4420558E-3,1.478231E-2,1.3873071E-2,2.7244093E-2,2.109232E-2,7.6465793E-3,1.4836249E-2,2.3424866E-2,2.3776533E-3,1.3818455E-2,1.3887263E-2,2.4493678E-2,4.080992E-2,5.231266E-2,3.236771E-2,3.8647916E-2,2.4539782E-2,2.1984005E-2,3.6059905E-2,4.263225E-2],"categories":[],"categories_nodes":[],"categories_segments":[],"categories_sizes":[],"default_left":[0,0,0,0,0,0,0,0,0,0,0,0,0,0,0,0,0,0,0,0,0,0,0,0,0,0,0,0,0,0,0,0,0,0,0,0,0,0,0,0,0,0,0,0,0,0,0,0,0,0,0,0,0,0,0,0,0,0,0,0,0,0,0,0,0,0,0,0,0,0,0,0,0,0,0,0,0,0,0,0,0,0,0,0,0,0,0,0,0,0,0,0,0,0,0,0,0,0,0,0,0,0,0,0,0,0,0,0,0],"id":3,"left_children":[1,3,5,7,9,11,13,15,17,19,21,23,25,27,29,31,33,35,37,39,41,43,45,47,49,51,53,55,57,-1,59,61,63,65,67,69,71,73,75,77,-1,79,81,83,-1,85,87,89,91,93,95,97,99,101,103,105,-1,-1,-1,107,-1,-1,-1,-1,-1,-1,-1,-1,-1,-1,-1,-1,-1,-1,-1,-1,-1,-1,-1,-1,-1,-1,-1,-1,-1,-1,-1,-1,-1,-1,-1,-1,-1,-1,-1,-1,-1,-1,-1,-1,-1,-1,-1,-1,-1,-1,-1,-1,-1],"loss_changes":[1.8069191E-1,1.85547E-1,7.360579E-2,1.9982728E-1,4.8912108E-2,7.5545155E-2,1.56724E-2,2.0641652E-1,6.056957E-2,2.9921532E-3,1.1841398E-2,2.3073401E-2,1.520966E-2,1.2225732E-3,1.8006116E-3,7.020777E-2,1.4977396E-1,3.3116192E-3,1.5218768E-2,3.5695732E-4,3.0078068E-3,1.4049607E-2,1.4396571E-3,1.5042186E-2,5.0374344E-3,3.5662502E-3,2.1659806E-3,2.6008487E-4,5.0432514E-5,0E0,1.1193305E-3,1.1628645E-2,5.1041394E-3,1.4751539E-1,2.349265E-2,1.4922768E-4,2.1700338E-3,1.2811081E-2,2.8153136E-3,1.2858957E-4,0E0,1.7444603E-4,2.9579997E-3,1.3014877E-2,0E0,2.004711E-3,5.1678345E-4,1.5668454E-2,1.6554091E-3,1.8652724E-3,1.8441081E-3,7.271775E-4,1.0416321E-3,7.3507056E-4,5.258769E-4,8.70917E-5,0E0,0E0,0E0,3.8396567E-4,0E0,0E0,0E0,0E0,0E0,0E0,0E0,0E0,0E0,0E0,0E0,0E0,0E0,0E0,0E0,0E0,0E0,0E0,0E0,0E0,0E0,0E0,0E0,0E0,0E0,0E0,0E0,0E0,0E0,0E0,0E0,0E0,0E0,0E0,0E0,0E0,0E0,0E0,0E0,0E0,0E0,0E0,0E0,0E0,0E0,0E0,0E0,0E0,0E0],"parents":[2147483647,0,0,1,1,2,2,3,3,4,4,5,5,6,6,7,7,8,8,9,9,10,10,11,11,12,12,13,13,14,14,15,15,16,16,17,17,18,18,19,19,20,20,21,21,22,22,23,23,24,24,25,25,26,26,27,27,28,28,30,30,31,31,32,32,33,33,34,34,35,35,36,36,37,37,38,38,39,39,41,41,42,42,43,43,45,45,46,46,47,47,48,48,49,49,50,50,51,51,52,52,53,53,54,54,55,55,59,59],"right_children":[2,4,6,8,10,12,14,16,18,20,22,24,26,28,30,32,34,36,38,40,42,44,46,48,50,52,54,56,58,-1,60,62,64,66,68,70,72,74,76,78,-1,80,82,84,-1,86,88,90,92,94,96,98,100,102,104,106,-1,-1,-1,108,-1,-1,-1,-1,-1,-1,-1,-1,-1,-1,-1,-1,-1,-1,-1,-1,-1,-1,-1,-1,-1,-1,-1,-1,-1,-1,-1,-1,-1,-1,-1,-1,-1,-1,-1,-1,-1,-1,-1,-1,-1,-1,-1,-1,-1,-1,-1,-1,-1],"split_conditions":[6.989583E-1,7.364459E-1,4.665697E-1,7.352838E-1,5.584684E-1,4.665697E-1,4.7551426E-1,2.5388834E-1,5.584684E-1,4.0699407E-1,7.727931E-1,7.551785E-1,4.7551426E-1,6.586891E-1,7.159733E-1,4.3661946E-1,7.193246E-1,1.7539316E-1,7.8534484E-1,6.68378E-1,4.4852382E-1,4.1689265E-1,3.4872872E-1,6.773268E-1,7.8942484E-1,5.1134413E-1,3.361697E-1,3.0458957E-1,2.1331692E-1,2.9400159E-2,6.759623E-1,6.6554946E-1,5.7452536E-1,6.989583E-1,5.584684E-1,4.0699407E-1,6.68378E-1,1.3976774E-1,3.77175E-1,5.904917E-1,3.935623E-2,4.3661946E-1,6.373828E-1,1.3976774E-1,3.9915994E-2,3.4872872E-1,5.806694E-1,6.773268E-1,7.6131725E-1,3.266034E-1,3.77175E-1,4.9744084E-1,5.618172E-1,4.9638698E-1,6.373828E-1,2.2581035E-1,2.8306248E-2,1.3818455E-2,1.6831398E-2,1.3976774E-1,5.231266E-2,4.001414E-3,1.5334711E-2,1.951645E-2,2.9327145E-2,-6.576431E-3,6.7809667E-3,1.9642953E-2,6.369111E-3,3.740237E-2,3.3737615E-2,2.4890626E-2,3.935623E-2,3.8019277E-2,3.5677338E-3,1.3423205E-2,2.2613384E-2,3.420024E-2,3.0033732E-2,1.1580563E-2,1.7184163E-2,2.8185701E-2,1.1203194E-2,3.7239507E-2,2.3368893E-3,1.0730582E-2,1.8087704E-2,1.657076E-2,2.2796417E-2,-1.4420558E-3,1.478231E-2,1.3873071E-2,2.7244093E-2,2.109232E-2,7.6465793E-3,1.4836249E-2,2.3424866E-2,2.3776533E-3,1.3818455E-2,1.3887263E-2,2.4493678E-2,4.080992E-2,5.231266E-2,3.236771E-2,3.8647916E-2,2.4539782E-2,2.1984005E-2,3.6059905E-2,4.263225E-2],"split_indices":[2,1,4,3,5,0,3,2,7,5,1,2,1,1,2,6,6,0,3,3,5,3,3,5,2,0,3,0,0,0,6,5,5,7,2,7,1,1,5,0,0,0,0,3,0,7,5,7,5,5,4,0,3,0,0,0,0,0,0,0,0,0,0,0,0,0,0,0,0,0,0,0,0,0,0,0,0,0,0,0,0,0,0,0,0,0,0,0,0,0,0,0,0,0,0,0,0,0,0,0,0,0,0,0,0,0,0,0,0],"split_type":[0,0,0,0,0,0,0,0,0,0,0,0,0,0,0,0,0,0,0,0,0,0,0,0,0,0,0,0,0,0,0,0,0,0,0,0,0,0,0,0,0,0,0,0,0,0,0,0,0,0,0,0,0,0,0,0,0,0,0,0,0,0,0,0,0,0,0,0,0,0,0,0,0,0,0,0,0,0,0,0,0,0,0,0,0,0,0,0,0,0,0,0,0,0,0,0,0,0,0,0,0,0,0,0,0,0,0,0,0],"sum_hessian":[1.28E3,1.162E3,1.18E2,1.096E3,6.6E1,1.03E2,1.5E1,1.026E3,7E1,1.9E1,4.7E1,8.8E1,1.5E1,8E0,7E0,7.6E1,9.5E2,1.9E1,5.1E1,4E0,1.5E1,2.7E1,2E1,6.2E1,2.6E1,8E0,7E0,6E0,2E0,1E0,6E0,5.4E1,2.2E1,8.86E2,6.4E1,4E0,1.5E1,3.5E1,1.6E1,3E0,1E0,2E0,1.3E1,2.6E1,1E0,1.5E1,5E0,5.6E1,6E0,1.4E1,1.2E1,2E0,6E0,2E0,5E0,5E0,1E0,1E0,1E0,5E0,1E0,4.4E1,1E1,7E0,1.5E1,8.04E2,8.2E1,1.6E1,4.8E1,2E0,2E0,1.4E1,1E0,1E0,3.4E1,1.2E1,4E0,2E0,1E0,1E0,1E0,1.2E1,1E0,1E0,2.5E1,1E1,5E0,3E0,2E0,5E1,6E0,5E0,1E0,1E0,1.3E1,9E0,3E0,1E0,1E0,1E0,5E0,1E0,1E0,3E0,2E0,2E0,3E0,1E0,4E0],"tree_param":{"num_deleted":"0","num_feature":"8","num_nodes":"109","size_leaf_vector":"1"}},{"base_weights":[-2.644956E-8,-3.3992666E-3,2.9563062E-2,-7.739555E-3,1.994184E-2,7.012219E-2,2.315899E-2,3.2179452E-2,-1.0995519E-2,5.0345648E-2,1.0688509E-2,9.3598604E-2,5.8383983E-2,9.2672825E-2,2.0631213E-2,1.491585E-2,7.219963E-2,-1.452707E-2,3.1954374E-2,8.085909E-2,4.0810198E-2,-1.284155E-4,2.9726295E-2,9.055519E-2,3.2644704E-2,8.5959435E-2,5.286889E-2,2.447734E-2,9.6366726E-2,1.1171515E-2,3.7852716E-2,8.2835015E-3,4.5866806E-2,8.686689E-2,5.4598905E-2,-1.7040346E-2,2.4529237E-2,6.632582E-2,1.9580651E-2,9.87831E-2,5.397308E-2,1.0837436E-1,3.630592E-2,-7.583512E-3,3.341952E-2,2.4027983E-2,8.10111E-2,3.1604435E-2,8.685696E-2,2.4223568E-2,2.7352097E-2,4.5449574E-2,6.3997865E-2,2.7372124E-2,9.892988E-2,-7.9436926E-4,3.3188745E-2,7.336569E-2,3.48933E-2,1.0296982E-3,1.1217165E-2,1.9311965E-2,6.8201427E-3,2.7707752E-2,2.111702E-2,1.2346483E-2,2.2429455E-2,-6.0275374E-3,6.4512636E-3,5.1528057E-3,2.0909704E-2,1.770401E-2,2.334505E-2,4.917887E-3,2.8825594E-2,3.318715E-2,2.6082708E-2,1.1997629E-2,2.0386219E-2,3.978267E-2,2.5241949E-2,8.800313E-3,2.1349097E-2,-3.9185253E-3,9.2292465E-3,1.7791845E-2,7.4371938E-3,4.194228E-3,1.9265065E-2,1.877699E-2,3.2592848E-2,2.795806E-2,2.5423434E-2,9.135246E-3,1.4534798E-2,1.5278507E-2,2.3120213E-2,2.9303886E-2,3.0054046E-2,4.806116E-3,-2.928672E-3,6.714686E-3,1.8293034E-2,2.0650364E-2,2.4728395E-2,9.105082E-3,1.7282534E-2],"categories":[],"categories_nodes":[],"categories_segments":[],"categories_sizes":[],"default_left":[0,0,0,0,0,0,0,0,0,0,0,0,0,0,0,0,0,0,0,0,0,0,0,0,0,0,0,0,0,0,0,0,0,0,0,0,0,0,0,0,0,0,0,0,0,0,0,0,0,0,0,0,0,0,0,0,0,0,0,0,0,0,0,0,0,0,0,0,0,0,0,0,0,0,0,0,0,0,0,0,0,0,0,0,0,0,0,0,0,0,0,0,0,0,0,0,0,0,0,0,0,0,0,0,0,0,0],"id":4,"left_children":[1,3,5,7,9,11,13,15,17,19,21,23,25,27,29,31,33,35,37,39,41,43,45,47,-1,49,51,-1,53,55,57,59,61,63,65,67,69,71,73,75,77,79,81,83,85,87,89,-1,91,-1,-1,93,95,-1,97,99,101,103,105,-1,-1,-1,-1,-1,-1,-1,-1,-1,-1,-1,-1,-1,-1,-1,-1,-1,-1,-1,-1,-1,-1,-1,-1,-1,-1,-1,-1,-1,-1,-1,-1,-1,-1,-1,-1,-1,-1,-1,-1,-1,-1,-1,-1,-1,-1,-1,-1],"loss_changes":[1.286298E-1,1.16300605E-1,3.428614E-2,1.2581566E-1,5.0640568E-2,4.9602836E-3,2.003156E-2,5.0435156E-2,1.3575335E-1,1.2220301E-2,2.8418386E-2,2.778694E-4,1.8249713E-3,1.6373768E-4,1.7920122E-2,1.0469153E-2,5.679406E-3,8.117771E-2,2.892059E-2,4.8190504E-3,9.738486E-3,2.2009073E-2,1.461184E-2,2.7354062E-4,0E0,5.43762E-5,8.256957E-4,0E0,3.941916E-5,1.870535E-2,4.098803E-3,5.9305415E-3,3.8529765E-3,1.0859296E-3,2.7111024E-3,9.138808E-2,1.6607163E-2,1.5124902E-3,1.2193672E-2,8.412227E-4,7.818723E-4,1.174625E-3,7.2903708E-3,1.5125591E-2,3.5739597E-3,1.8170409E-2,2.54504E-3,0E0,5.3534284E-5,0E0,0E0,2.699541E-4,6.8324804E-4,0E0,3.1255186E-6,6.9364575E-3,7.5072553E-3,1.231879E-4,3.7150383E-3,0E0,0E0,0E0,0E0,0E0,0E0,0E0,0E0,0E0,0E0,0E0,0E0,0E0,0E0,0E0,0E0,0E0,0E0,0E0,0E0,0E0,0E0,0E0,0E0,0E0,0E0,0E0,0E0,0E0,0E0,0E0,0E0,0E0,0E0,0E0,0E0,0E0,0E0,0E0,0E0,0E0,0E0,0E0,0E0,0E0,0E0,0E0,0E0],"parents":[2147483647,0,0,1,1,2,2,3,3,4,4,5,5,6,6,7,7,8,8,9,9,10,10,11,11,12,12,13,13,14,14,15,15,16,16,17,17,18,18,19,19,20,20,21,21,22,22,23,23,25,25,26,26,28,28,29,29,30,30,31,31,32,32,33,33,34,34,35,35,36,36,37,37,38,38,39,39,40,40,41,41,42,42,43,43,44,44,45,45,46,46,48,48,51,51,52,52,54,54,55,55,56,56,57,57,58,58],"right_children":[2,4,6,8,10,12,14,16,18,20,22,24,26,28,30,32,34,36,38,40,42,44,46,48,-1,50,52,-1,54,56,58,60,62,64,66,68,70,72,74,76,78,80,82,84,86,88,90,-1,92,-1,-1,94,96,-1,98,100,102,104,106,-1,-1,-1,-1,-1,-1,-1,-1,-1,-1,-1,-1,-1,-1,-1,-1,-1,-1,-1,-1,-1,-1,-1,-1,-1,-1,-1,-1,-1,-1,-1,-1,-1,-1,-1,-1,-1,-1,-1,-1,-1,-1,-1,-1,-1,-1,-1,-1],"split_conditions":[6.904466E-1,6.773268E-1,5.151177E-1,2.5388834E-1,5.6813234E-1,4.0699407E-1,1.4870332E-1,4.3661946E-1,7.352838E-1,4.5728192E-1,6.6554946E-1,7.2218454E-1,1.4870332E-1,5.413634E-1,7.444105E-1,6.6554946E-1,1.8982787E-1,7.352838E-1,5.584684E-1,7.5125945E-1,1.3976774E-1,7.551785E-1,3.77175E-1,3.8750815E-1,3.2644704E-2,4.5728192E-1,4.9744084E-1,2.447734E-2,6.759623E-1,6.6554946E-1,5.5165124E-1,6.724122E-1,3.9421934E-1,3.932719E-1,2.2581035E-1,7.193246E-1,5.1134413E-1,4.665697E-1,5.296721E-1,5.704179E-1,7.6131725E-1,3.932719E-1,5.0556934E-1,6.4712584E-1,3.266034E-1,3.7431172E-1,6.0579133E-1,3.1604435E-2,2.3247486E-1,2.4223568E-2,2.7352097E-2,4.4852382E-1,4.5728192E-1,2.7372124E-2,7.159733E-1,5.8848226E-1,3.7431172E-1,4.5728192E-1,3.77175E-1,1.0296982E-3,1.1217165E-2,1.9311965E-2,6.8201427E-3,2.7707752E-2,2.111702E-2,1.2346483E-2,2.2429455E-2,-6.0275374E-3,6.4512636E-3,5.1528057E-3,2.0909704E-2,1.770401E-2,2.334505E-2,4.917887E-3,2.8825594E-2,3.318715E-2,2.6082708E-2,1.1997629E-2,2.0386219E-2,3.978267E-2,2.5241949E-2,8.800313E-3,2.1349097E-2,-3.9185253E-3,9.2292465E-3,1.7791845E-2,7.4371938E-3,4.194228E-3,1.9265065E-2,1.877699E-2,3.2592848E-2,2.795806E-2,2.5423434E-2,9.135246E-3,1.4534798E-2,1.5278507E-2,2.3120213E-2,2.9303886E-2,3.0054046E-2,4.806116E-3,-2.928672E-3,6.714686E-3,1.8293034E-2,2.0650364E-2,2.4728395E-2,9.105082E-3,1.7282534E-2],"split_indices":[4,2,0,3,6,0,6,7,3,6,6,2,1,0,4,0,3,7,7,2,0,2,0,5,0,0,2,0,0,0,0,6,7,2,3,0,5,5,1,0,2,1,0,7,7,4,1,0,0,0,0,0,0,0,0,0,6,3,2,0,0,0,0,0,0,0,0,0,0,0,0,0,0,0,0,0,0,0,0,0,0,0,0,0,0,0,0,0,0,0,0,0,0,0,0,0,0,0,0,0,0,0,0,0,0,0,0],"split_type":[0,0,0,0,0,0,0,0,0,0,0,0,0,0,0,0,0,0,0,0,0,0,0,0,0,0,0,0,0,0,0,0,0,0,0,0,0,0,0,0,0,0,0,0,0,0,0,0,0,0,0,0,0,0,0,0,0,0,0,0,0,0,0,0,0,0,0,0,0,0,0,0,0,0,0,0,0,0,0,0,0,0,0,0,0,0,0,0,0,0,0,0,0,0,0,0,0,0,0,0,0,0,0,0,0,0,0],"sum_hessian":[1.28E3,1.148E3,1.32E2,9.68E2,1.8E2,1.8E1,1.14E2,7.3E1,8.95E2,4.2E1,1.38E2,6E0,1.2E1,4E0,1.1E2,5.1E1,2.2E1,8.27E2,6.8E1,1E1,3.2E1,8.8E1,5E1,5E0,1E0,2E0,1E1,1E0,3E0,7.1E1,3.9E1,4.2E1,9E0,1.2E1,1E1,7.77E2,5E1,1.8E1,5E1,6E0,4E0,2E0,3E1,7.2E1,1.6E1,4.5E1,5E0,1E0,4E0,1E0,1E0,6E0,4E0,1E0,2E0,4.6E1,2.5E1,3E0,3.6E1,3.6E1,6E0,5E0,4E0,9E0,3E0,6E0,4E0,7.2E2,5.7E1,4.3E1,7E0,1.1E1,7E0,4.8E1,2E0,3E0,3E0,2E0,2E0,1E0,1E0,2.5E1,5E0,6.3E1,9E0,4E0,1.2E1,3.6E1,9E0,3E0,2E0,1E0,3E0,1E0,5E0,2E0,2E0,1E0,1E0,1.6E1,3E1,1.8E1,7E0,2E0,1E0,3E1,6E0],"tree_param":{"num_deleted":"0","num_feature":"8","num_nodes":"107","size_leaf_vector":"1"}},{"base_weights":[8.046627E-8,-2.86767E-3,2.4940819E-2,3.0510997E-2,-5.200755E-3,2.0451263E-2,7.432595E-2,1.837655E-2,6.388073E-2,-9.366585E-3,1.6621413E-2,1.4706789E-2,5.8149368E-2,6.6318415E-2,4.6320394E-2,1.1787263E-2,4.47337E-2,6.785449E-2,4.1362762E-2,-1.4414835E-2,1.2499209E-2,4.6094082E-2,1.1133398E-2,8.402645E-3,3.2043185E-2,5.1772553E-2,7.7279806E-2,7.907976E-2,3.654194E-2,6.578716E-3,3.931815E-2,7.0281506E-2,3.9056405E-2,5.5536337E-2,7.647719E-2,1.4319849E-2,3.817773E-2,-1.7702762E-2,1.3965167E-2,7.806164E-3,5.7376444E-2,6.691892E-2,3.8805388E-2,2.5541186E-3,2.7941782E-2,4.1730753E-3,4.0359393E-2,4.1196562E-2,2.612041E-2,4.2443037E-2,7.043159E-2,1.6862012E-2,8.4304176E-2,2.9553581E-2,7.13069E-2,1.7134095E-2,2.6256084E-2,8.772035E-4,7.638407E-3,1.0239258E-2,1.5685916E-2,1.8770887E-2,2.339802E-2,1.2680698E-2,4.0067197E-3,1.809044E-2,8.083678E-3,2.3970135E-2,1.883526E-2,1.0848571E-2,1.2058068E-2,6.8985666E-3,-6.0197613E-3,2.9620447E-3,1.462335E-2,7.1119604E-4,1.6304318E-2,2.3633452E-2,1.4294516E-2,1.807859E-2,2.2738457E-2,-1.7443658E-3,1.2346143E-2,-1.7561737E-3,7.5573376E-3,6.582946E-3,1.6380709E-2,-2.1178723E-5,1.0800183E-2,1.6420484E-2,1.0875627E-2,2.0334221E-2,1.0586692E-2,3.3789636E-3,8.79123E-3,1.5029956E-2,8.9045055E-3,2.8332997E-2,1.8728305E-2,2.4364043E-2,2.5754858E-2,1.3991834E-2,2.3242129E-2,5.1665786E-3,1.0587073E-2],"categories":[],"categories_nodes":[],"categories_segments":[],"categories_sizes":[],"default_left":[0,0,0,0,0,0,0,0,0,0,0,0,0,0,0,0,0,0,0,0,0,0,0,0,0,0,0,0,0,0,0,0,0,0,0,0,0,0,0,0,0,0,0,0,0,0,0,0,0,0,0,0,0,0,0,0,0,0,0,0,0,0,0,0,0,0,0,0,0,0,0,0,0,0,0,0,0,0,0,0,0,0,0,0,0,0,0,0,0,0,0,0,0,0,0,0,0,0,0,0,0,0,0,0,0],"id":5,"left_children":[1,3,5,7,9,11,13,15,17,19,21,23,25,27,-1,29,31,33,35,37,39,41,43,45,47,49,51,53,55,57,59,61,63,65,67,-1,69,71,73,75,77,79,81,83,85,87,89,91,93,95,97,-1,99,-1,101,-1,103,-1,-1,-1,-1,-1,-1,-1,-1,-1,-1,-1,-1,-1,-1,-1,-1,-1,-1,-1,-1,-1,-1,-1,-1,-1,-1,-1,-1,-1,-1,-1,-1,-1,-1,-1,-1,-1,-1,-1,-1,-1,-1,-1,-1,-1,-1,-1,-1],"loss_changes":[9.1550484E-2,8.9400806E-2,2.92667E-2,3.0369245E-2,9.754368E-2,2.6203249E-2,7.053267E-3,9.552116E-3,1.7896146E-3,9.945598E-2,2.7820386E-2,1.1475567E-2,1.9518621E-3,3.7998818E-3,0E0,6.309421E-3,1.5954655E-3,1.8056706E-3,6.086612E-5,6.830393E-2,3.5593234E-2,4.098218E-3,2.0909553E-2,1.0407573E-2,1.5179757E-3,2.0889528E-3,5.9210137E-4,1.0573044E-3,6.347927E-4,2.5533875E-3,4.7089066E-4,1.1894666E-4,7.430902E-4,9.536706E-4,4.687421E-4,0E0,8.127186E-6,6.309E-2,1.0815265E-2,3.8705505E-2,3.3311583E-3,4.136078E-4,2.095729E-3,1.8271932E-2,7.83642E-3,9.18446E-3,5.314024E-4,1.7275345E-3,8.0411136E-4,7.8168977E-4,7.687509E-4,0E0,1.4329329E-5,0E0,7.6060556E-4,0E0,1.6323198E-4,0E0,0E0,0E0,0E0,0E0,0E0,0E0,0E0,0E0,0E0,0E0,0E0,0E0,0E0,0E0,0E0,0E0,0E0,0E0,0E0,0E0,0E0,0E0,0E0,0E0,0E0,0E0,0E0,0E0,0E0,0E0,0E0,0E0,0E0,0E0,0E0,0E0,0E0,0E0,0E0,0E0,0E0,0E0,0E0,0E0,0E0,0E0,0E0],"parents":[2147483647,0,0,1,1,2,2,3,3,4,4,5,5,6,6,7,7,8,8,9,9,10,10,11,11,12,12,13,13,15,15,16,16,17,17,18,18,19,19,20,20,21,21,22,22,23,23,24,24,25,25,26,26,27,27,28,28,29,29,30,30,31,31,32,32,33,33,34,34,36,36,37,37,38,38,39,39,40,40,41,41,42,42,43,43,44,44,45,45,46,46,47,47,48,48,49,49,50,50,52,52,54,54,56,56],"right_children":[2,4,6,8,10,12,14,16,18,20,22,24,26,28,-1,30,32,34,36,38,40,42,44,46,48,50,52,54,56,58,60,62,64,66,68,-1,70,72,74,76,78,80,82,84,86,88,90,92,94,96,98,-1,100,-1,102,-1,104,-1,-1,-1,-1,-1,-1,-1,-1,-1,-1,-1,-1,-1,-1,-1,-1,-1,-1,-1,-1,-1,-1,-1,-1,-1,-1,-1,-1,-1,-1,-1,-1,-1,-1,-1,-1,-1,-1,-1,-1,-1,-1,-1,-1,-1,-1,-1,-1],"split_conditions":[6.904466E-1,2.5388834E-1,5.296721E-1,4.665697E-1,6.773268E-1,4.665697E-1,7.159733E-1,6.6554946E-1,5.415515E-1,6.724122E-1,5.415515E-1,7.551785E-1,6.373828E-1,6.904466E-1,4.6320394E-2,6.724122E-1,1.7539316E-1,2.6853704E-1,1.8982787E-1,6.904466E-1,4.886555E-1,4.0699407E-1,6.6554946E-1,6.773268E-1,4.833755E-1,2.8234625E-1,5.415515E-1,5.415515E-1,5.413634E-1,7.727931E-1,7.8942484E-1,3.0676383E-1,5.5571157E-1,5.9762275E-1,7.250239E-1,1.4319849E-2,2.1331692E-1,2.5388834E-1,4.9744084E-1,4.886555E-1,1.8982787E-1,5.904917E-1,3.1252795E-1,7.444105E-1,3.7431172E-1,6.773268E-1,2.190686E-1,4.833755E-1,3.7863156E-1,5.3317547E-1,7.159733E-1,1.6862012E-2,5.9762275E-1,2.9553581E-2,5.857895E-1,1.7134095E-2,5.584684E-1,8.772035E-4,7.638407E-3,1.0239258E-2,1.5685916E-2,1.8770887E-2,2.339802E-2,1.2680698E-2,4.0067197E-3,1.809044E-2,8.083678E-3,2.3970135E-2,1.883526E-2,1.0848571E-2,1.2058068E-2,6.8985666E-3,-6.0197613E-3,2.9620447E-3,1.462335E-2,7.1119604E-4,1.6304318E-2,2.3633452E-2,1.4294516E-2,1.807859E-2,2.2738457E-2,-1.7443658E-3,1.2346143E-2,-1.7561737E-3,7.5573376E-3,6.582946E-3,1.6380709E-2,-2.1178723E-5,1.0800183E-2,1.6420484E-2,1.0875627E-2,2.0334221E-2,1.0586692E-2,3.3789636E-3,8.79123E-3,1.5029956E-2,8.9045055E-3,2.8332997E-2,1.8728305E-2,2.4364043E-2,2.5754858E-2,1.3991834E-2,2.3242129E-2,5.1665786E-3,1.0587073E-2],"split_indices":[1,0,3,4,0,7,5,3,1,7,4,1,7,4,0,5,0,1,0,6,1,4,4,4,6,4,2,0,0,6,5,1,5,2,6,0,0,7,0,5,5,7,1,0,2,6,6,4,2,7,1,0,2,0,0,0,0,0,0,0,0,0,0,0,0,0,0,0,0,0,0,0,0,0,0,0,0,0,0,0,0,0,0,0,0,0,0,0,0,0,0,0,0,0,0,0,0,0,0,0,0,0,0,0,0],"split_type":[0,0,0,0,0,0,0,0,0,0,0,0,0,0,0,0,0,0,0,0,0,0,0,0,0,0,0,0,0,0,0,0,0,0,0,0,0,0,0,0,0,0,0,0,0,0,0,0,0,0,0,0,0,0,0,0,0,0,0,0,0,0,0,0,0,0,0,0,0,0,0,0,0,0,0,0,0,0,0,0,0,0,0,0,0,0,0,0,0,0,0,0,0,0,0,0,0,0,0,0,0,0,0,0,0],"sum_hessian":[1.28E3,1.148E3,1.32E2,7.5E1,1.073E3,1.21E2,1.1E1,5.5E1,2E1,9.01E2,1.72E2,1.05E2,1.6E1,1E1,1E0,4.4E1,1.1E1,1.7E1,3E0,7.32E2,1.69E2,2.7E1,1.45E2,7.7E1,2.8E1,1.2E1,4E0,7E0,3E0,3.7E1,7E0,2E0,9E0,7E0,1E1,1E0,2E0,6.56E2,7.6E1,1.53E2,1.6E1,7E0,2E1,9.6E1,4.9E1,6.8E1,9E0,1.1E1,1.7E1,8E0,4E0,1E0,3E0,2E0,5E0,1E0,2E0,3.1E1,6E0,5E0,2E0,1E0,1E0,8E0,1E0,6E0,1E0,8E0,2E0,1E0,1E0,3.6E1,6.2E2,6.8E1,8E0,1.37E2,1.6E1,5E0,1.1E1,4E0,3E0,1E0,1.9E1,7E1,2.6E1,4E1,9E0,6E1,8E0,2E0,7E0,2E0,9E0,3E0,1.4E1,5E0,3E0,1E0,3E0,1E0,2E0,1E0,4E0,1E0,1E0],"tree_param":{"num_deleted":"0","num_feature":"8","num_nodes":"105","size_leaf_vector":"1"}},{"base_weights":[-1.3038516E-8,-2.7399024E-3,1.652965E-2,-4.765674E-3,2.7009998E-2,3.659102E-2,1.013327E-2,-8.779322E-3,1.3167645E-2,4.7776677E-2,1.8109992E-2,6.518453E-2,3.0236907E-2,5.4796804E-3,2.6886193E-2,1.80813E-2,-1.232695E-2,9.572977E-3,4.514127E-2,4.292752E-2,6.83856E-2,3.242426E-2,1.62356E-2,1.0061741E-1,5.3373575E-2,2.5778452E-2,4.3612268E-2,-9.164345E-4,2.5652042E-2,5.7123065E-2,2.2234367E-2,-1.0303656E-4,3.5538264E-2,-1.4945193E-2,1.1307994E-2,2.1711863E-3,2.6227007E-2,4.326982E-2,2.3648215E-2,2.2939254E-2,4.0831476E-2,7.924914E-2,5.752206E-2,7.783524E-3,3.0322393E-2,3.364692E-2,2.6723528E-2,2.1909857E-2,4.9441718E-2,3.25109E-2,6.542887E-3,5.887556E-2,3.5980623E-2,-6.362863E-3,1.8448643E-2,1.6799899E-2,4.2372756E-2,2.0966291E-2,5.2868206E-2,-5.5127144E-3,2.4546623E-2,3.506678E-3,-3.0242554E-3,1.5512783E-2,8.774861E-3,-5.040815E-3,4.0384005E-3,2.2013753E-3,1.3218338E-2,-7.563556E-4,3.8187068E-3,1.5533782E-2,6.4743427E-3,1.210497E-2,1.9988753E-2,1.0877378E-2,1.8195057E-2,2.3315478E-2,2.423401E-2,1.6528988E-2,1.7984249E-2,1.9833041E-2,1.7316786E-3,7.5597735E-3,1.44760255E-2,1.3339019E-2,1.5828181E-2,1.6038848E-2,8.644051E-3,-3.7748339E-3,9.613132E-3,1.2919951E-2,2.0034028E-2,6.1813835E-3,1.1716748E-2,-4.480219E-3,1.8492828E-3,1.4738274E-2,4.9932003E-3,9.7422665E-3,8.6015067E-4,1.6752005E-2,7.6616053E-3,1.5728904E-2,1.6123582E-2,-3.7806989E-3,4.7307016E-4,9.9294465E-3,6.3076215E-3],"categories":[],"categories_nodes":[],"categories_segments":[],"categories_sizes":[],"default_left":[0,0,0,0,0,0,0,0,0,0,0,0,0,0,0,0,0,0,0,0,0,0,0,0,0,0,0,0,0,0,0,0,0,0,0,0,0,0,0,0,0,0,0,0,0,0,0,0,0,0,0,0,0,0,0,0,0,0,0,0,0,0,0,0,0,0,0,0,0,0,0,0,0,0,0,0,0,0,0,0,0,0,0,0,0,0,0,0,0,0,0,0,0,0,0,0,0,0,0,0,0,0,0,0,0,0,0,0,0],"id":6,"left_children":[1,3,5,7,9,11,13,15,17,19,21,23,25,27,29,31,33,35,37,39,41,-1,43,45,47,49,51,53,55,57,59,61,63,65,67,69,71,73,-1,-1,75,77,79,81,83,-1,-1,-1,85,87,89,91,93,95,97,99,101,-1,103,105,107,-1,-1,-1,-1,-1,-1,-1,-1,-1,-1,-1,-1,-1,-1,-1,-1,-1,-1,-1,-1,-1,-1,-1,-1,-1,-1,-1,-1,-1,-1,-1,-1,-1,-1,-1,-1,-1,-1,-1,-1,-1,-1,-1,-1,-1,-1,-1,-1],"loss_changes":[5.797049E-2,6.6172615E-2,2.3354266E-2,7.3993415E-2,1.293765E-2,7.994197E-3,1.075865E-2,8.004488E-2,2.1607693E-2,2.0986535E-3,8.2634E-3,3.3479705E-3,2.1468028E-3,1.3934672E-2,4.2196997E-3,3.1109441E-2,4.5916453E-2,2.083257E-2,1.1977963E-3,1.1949986E-3,4.7206692E-4,0E0,5.715009E-3,2.662968E-4,4.637856E-4,3.4965668E-3,1.0483563E-3,8.648583E-3,3.8483664E-3,2.1724589E-4,1.6681179E-3,5.647585E-3,5.084753E-3,3.5247564E-2,9.622401E-3,5.796331E-3,6.1730444E-3,1.2277327E-3,0E0,0E0,1.4502704E-3,4.686415E-6,1.1765398E-5,3.5193032E-3,1.653539E-3,0E0,0E0,0E0,8.261204E-5,1.549352E-3,3.4140502E-3,3.74889E-4,2.83706E-4,6.871847E-3,9.965613E-4,3.7125638E-3,2.0403806E-3,0E0,1.1539087E-6,1.0052528E-4,7.2268303E-4,0E0,0E0,0E0,0E0,0E0,0E0,0E0,0E0,0E0,0E0,0E0,0E0,0E0,0E0,0E0,0E0,0E0,0E0,0E0,0E0,0E0,0E0,0E0,0E0,0E0,0E0,0E0,0E0,0E0,0E0,0E0,0E0,0E0,0E0,0E0,0E0,0E0,0E0,0E0,0E0,0E0,0E0,0E0,0E0,0E0,0E0,0E0,0E0],"parents":[2147483647,0,0,1,1,2,2,3,3,4,4,5,5,6,6,7,7,8,8,9,9,10,10,11,11,12,12,13,13,14,14,15,15,16,16,17,17,18,18,19,19,20,20,22,22,23,23,24,24,25,25,26,26,27,27,28,28,29,29,30,30,31,31,32,32,33,33,34,34,35,35,36,36,37,37,40,40,41,41,42,42,43,43,44,44,48,48,49,49,50,50,51,51,52,52,53,53,54,54,55,55,56,56,58,58,59,59,60,60],"right_children":[2,4,6,8,10,12,14,16,18,20,22,24,26,28,30,32,34,36,38,40,42,-1,44,46,48,50,52,54,56,58,60,62,64,66,68,70,72,74,-1,-1,76,78,80,82,84,-1,-1,-1,86,88,90,92,94,96,98,100,102,-1,104,106,108,-1,-1,-1,-1,-1,-1,-1,-1,-1,-1,-1,-1,-1,-1,-1,-1,-1,-1,-1,-1,-1,-1,-1,-1,-1,-1,-1,-1,-1,-1,-1,-1,-1,-1,-1,-1,-1,-1,-1,-1,-1,-1,-1,-1,-1,-1,-1,-1],"split_conditions":[6.773268E-1,7.352838E-1,5.6813234E-1,6.724122E-1,5.6813234E-1,4.0699407E-1,3.7431172E-1,2.7034009E-1,4.665697E-1,5.904917E-1,1.3976774E-1,6.88156E-1,4.665697E-1,3.7431172E-1,1.7539316E-1,3.7757185E-1,6.989583E-1,3.7431172E-1,7.250239E-1,1.8982787E-1,2.6853704E-1,3.242426E-2,7.727931E-1,1.4870332E-1,3.8750815E-1,3.465892E-1,6.109195E-1,7.551785E-1,6.611935E-1,5.704179E-1,5.751907E-1,2.2114348E-1,1.8982787E-1,7.2897506E-1,4.665697E-1,3.5627195E-1,1.8982787E-1,6.373828E-1,2.3648215E-2,2.2939254E-2,6.373828E-1,6.087564E-1,2.4532568E-1,1.3976774E-1,8.2110435E-1,3.364692E-2,2.6723528E-2,2.1909857E-2,1.3976774E-1,1.8982787E-1,7.298272E-1,4.805414E-1,4.4852382E-1,6.611935E-1,3.266034E-1,3.0676383E-1,2.7034009E-1,2.0966291E-2,7.159733E-1,6.0260046E-1,3.806846E-1,3.506678E-3,-3.0242554E-3,1.5512783E-2,8.774861E-3,-5.040815E-3,4.0384005E-3,2.2013753E-3,1.3218338E-2,-7.563556E-4,3.8187068E-3,1.5533782E-2,6.4743427E-3,1.210497E-2,1.9988753E-2,1.0877378E-2,1.8195057E-2,2.3315478E-2,2.423401E-2,1.6528988E-2,1.7984249E-2,1.9833041E-2,1.7316786E-3,7.5597735E-3,1.44760255E-2,1.3339019E-2,1.5828181E-2,1.6038848E-2,8.644051E-3,-3.7748339E-3,9.613132E-3,1.2919951E-2,2.0034028E-2,6.1813835E-3,1.1716748E-2,-4.480219E-3,1.8492828E-3,1.4738274E-2,4.9932003E-3,9.7422665E-3,8.6015067E-4,1.6752005E-2,7.6616053E-3,1.5728904E-2,1.6123582E-2,-3.7806989E-3,4.7307016E-4,9.9294465E-3,6.3076215E-3],"split_indices":[4,5,0,6,1,0,2,5,4,4,7,4,6,6,6,1,1,0,2,7,3,0,5,1,5,6,7,4,0,1,0,5,5,2,3,4,4,4,0,0,3,0,0,3,5,0,0,0,1,6,4,0,0,0,1,1,2,0,0,1,2,0,0,0,0,0,0,0,0,0,0,0,0,0,0,0,0,0,0,0,0,0,0,0,0,0,0,0,0,0,0,0,0,0,0,0,0,0,0,0,0,0,0,0,0,0,0,0,0],"split_type":[0,0,0,0,0,0,0,0,0,0,0,0,0,0,0,0,0,0,0,0,0,0,0,0,0,0,0,0,0,0,0,0,0,0,0,0,0,0,0,0,0,0,0,0,0,0,0,0,0,0,0,0,0,0,0,0,0,0,0,0,0,0,0,0,0,0,0,0,0,0,0,0,0,0,0,0,0,0,0,0,0,0,0,0,0,0,0,0,0,0,0,0,0,0,0,0,0,0,0,0,0,0,0,0,0,0,0,0,0],"sum_hessian":[1.28E3,1.098E3,1.82E2,1.028E3,7E1,4.4E1,1.38E2,8.4E2,1.88E2,2.1E1,4.9E1,8E0,3.6E1,1.08E2,3E1,9.8E1,7.42E2,1.69E2,1.9E1,1.7E1,4E0,1E0,4.8E1,2E0,6E0,2.7E1,9E0,8.2E1,2.6E1,4E0,2.6E1,4.8E1,5E1,6.68E2,7.4E1,1.17E2,5.2E1,1.8E1,1E0,1E0,1.6E1,2E0,2E0,3E1,1.8E1,1E0,1E0,1E0,5E0,2E1,7E0,3E0,6E0,6.4E1,1.8E1,1.7E1,9E0,1E0,3E0,2E0,2.4E1,2.2E1,2.6E1,1.4E1,3.6E1,6.27E2,4.1E1,6.6E1,8E0,8.1E1,3.6E1,8E0,4.4E1,1.6E1,2E0,1.3E1,3E0,1E0,1E0,1E0,1E0,1E0,2.9E1,1.4E1,4E0,2E0,3E0,3E0,1.7E1,4E0,3E0,1E0,2E0,1E0,5E0,3.8E1,2.6E1,1E0,1.7E1,8E0,9E0,5E0,4E0,2E0,1E0,1E0,1E0,7E0,1.7E1],"tree_param":{"num_deleted":"0","num_feature":"8","num_nodes":"109","size_leaf_vector":"1"}},{"base_weights":[-1.0952353E-7,2.2338716E-2,-1.4102015E-3,1.5168973E-2,4.2414E-2,-4.143153E-3,1.1676431E-2,1.1296982E-2,3.1008936E-2,2.6507298E-2,4.9231153E-2,-6.5300176E-3,1.361674E-2,8.23455E-3,3.6870994E-2,7.823673E-3,2.7361035E-2,1.52252205E-2,2.662187E-2,2.2507668E-2,3.050693E-2,6.59049E-2,3.996796E-2,-1.0037368E-2,8.625987E-3,2.5692029E-2,6.436838E-3,1.2146868E-3,2.4571687E-2,3.381854E-2,5.289638E-2,5.735776E-3,3.148651E-2,3.4169316E-2,2.0552754E-2,2.3562226E-2,1.1199188E-2,8.201409E-3,2.0092487E-2,8.54137E-3,1.0373497E-2,1.4562464E-2,7.024574E-2,4.9780846E-2,3.506152E-2,-1.30985165E-2,3.3119998E-3,4.5450283E-3,2.3783833E-2,1.4283657E-2,2.9047433E-2,-1.7711844E-2,8.959834E-3,-3.668001E-3,1.2778947E-2,2.1446845E-2,6.441343E-2,3.1636916E-2,5.4543972E-2,1.8503953E-2,4.996856E-2,7.733959E-4,6.1416393E-3,1.3959218E-2,7.189322E-3,9.661532E-3,1.0840058E-2,6.730175E-3,4.4727805E-3,8.141971E-3,5.637598E-3,6.678915E-3,5.3765774E-3,2.2389984E-2,1.712494E-2,1.41778E-2,1.5312482E-2,1.28708845E-2,1.004797E-2,-4.5338944E-3,3.8117443E-3,-6.679654E-5,1.0781875E-2,-6.5016747E-4,5.7346593E-3,8.12635E-3,1.1879541E-3,3.1237921E-3,1.4736843E-2,9.260227E-3,3.0722618E-3,-9.2728045E-3,4.584575E-3,1.8173868E-3,6.678033E-3,3.4946464E-3,-2.6778043E-3,2.458267E-3,1.1169243E-2,1.3511211E-2,5.6647975E-3,1.781223E-2,2.083583E-2,8.602819E-3,1.2822033E-2,1.884327E-2,1.3883115E-2,1.3983966E-2,1.5493871E-2],"categories":[],"categories_nodes":[],"categories_segments":[],"categories_sizes":[],"default_left":[0,0,0,0,0,0,0,0,0,0,0,0,0,0,0,0,0,0,0,0,0,0,0,0,0,0,0,0,0,0,0,0,0,0,0,0,0,0,0,0,0,0,0,0,0,0,0,0,0,0,0,0,0,0,0,0,0,0,0,0,0,0,0,0,0,0,0,0,0,0,0,0,0,0,0,0,0,0,0,0,0,0,0,0,0,0,0,0,0,0,0,0,0,0,0,0,0,0,0,0,0,0,0,0,0,0,0,0,0],"id":7,"left_children":[1,3,5,7,9,11,13,15,17,19,21,23,25,27,29,31,33,-1,35,37,39,41,43,45,47,49,51,53,55,57,59,61,63,65,67,69,-1,-1,71,-1,-1,-1,73,75,77,79,81,83,85,87,89,91,93,95,97,99,101,103,105,-1,107,-1,-1,-1,-1,-1,-1,-1,-1,-1,-1,-1,-1,-1,-1,-1,-1,-1,-1,-1,-1,-1,-1,-1,-1,-1,-1,-1,-1,-1,-1,-1,-1,-1,-1,-1,-1,-1,-1,-1,-1,-1,-1,-1,-1,-1,-1,-1,-1],"loss_changes":[4.0319744E-2,1.0939028E-2,4.3061215E-2,3.434604E-3,2.1687709E-3,4.2220898E-2,1.803707E-2,2.5107944E-3,9.5269363E-4,9.598257E-5,2.1623336E-3,4.6672214E-2,1.023053E-2,2.0987261E-2,1.222916E-3,1.8280065E-3,3.7082145E-4,0E0,2.9488467E-4,3.4998637E-5,2.4864217E-5,3.7685782E-4,4.3331645E-4,2.9136308E-2,1.020666E-2,1.6843043E-3,4.508601E-3,7.2274785E-3,6.847456E-3,9.495169E-4,1.0286551E-4,1.5821664E-3,3.3949246E-4,1.543248E-5,4.2465283E-5,1.19464705E-4,0E0,0E0,9.422714E-6,0E0,0E0,0E0,2.3100525E-4,9.536743E-6,7.378543E-5,3.0149505E-2,1.5338523E-2,1.2714116E-2,2.292445E-3,1.3486296E-3,1.1637453E-3,3.048047E-3,2.5859177E-3,7.2482447E-3,4.259992E-3,3.0850153E-3,1.0157935E-4,6.2462315E-4,1.3668463E-4,0E0,1.6887207E-5,0E0,0E0,0E0,0E0,0E0,0E0,0E0,0E0,0E0,0E0,0E0,0E0,0E0,0E0,0E0,0E0,0E0,0E0,0E0,0E0,0E0,0E0,0E0,0E0,0E0,0E0,0E0,0E0,0E0,0E0,0E0,0E0,0E0,0E0,0E0,0E0,0E0,0E0,0E0,0E0,0E0,0E0,0E0,0E0,0E0,0E0,0E0,0E0],"parents":[2147483647,0,0,1,1,2,2,3,3,4,4,5,5,6,6,7,7,8,8,9,9,10,10,11,11,12,12,13,13,14,14,15,15,16,16,18,18,19,19,20,20,21,21,22,22,23,23,24,24,25,25,26,26,27,27,28,28,29,29,30,30,31,31,32,32,33,33,34,34,35,35,38,38,42,42,43,43,44,44,45,45,46,46,47,47,48,48,49,49,50,50,51,51,52,52,53,53,54,54,55,55,56,56,57,57,58,58,60,60],"right_children":[2,4,6,8,10,12,14,16,18,20,22,24,26,28,30,32,34,-1,36,38,40,42,44,46,48,50,52,54,56,58,60,62,64,66,68,70,-1,-1,72,-1,-1,-1,74,76,78,80,82,84,86,88,90,92,94,96,98,100,102,104,106,-1,108,-1,-1,-1,-1,-1,-1,-1,-1,-1,-1,-1,-1,-1,-1,-1,-1,-1,-1,-1,-1,-1,-1,-1,-1,-1,-1,-1,-1,-1,-1,-1,-1,-1,-1,-1,-1,-1,-1,-1,-1,-1,-1,-1,-1,-1,-1,-1,-1],"split_conditions":[2.5388834E-1,4.665697E-1,6.6554946E-1,6.6554946E-1,2.6464754E-1,6.904466E-1,4.665697E-1,6.724122E-1,4.0699407E-1,5.2821183E-1,6.109195E-1,6.724122E-1,5.904917E-1,3.7431172E-1,6.802081E-1,7.8942484E-1,2.190686E-1,1.52252205E-2,6.4712584E-1,4.0606532E-1,4.5728192E-1,2.6464754E-1,6.68378E-1,6.6005725E-1,3.7757185E-1,3.7863156E-1,6.179647E-1,6.773268E-1,7.078791E-1,7.159733E-1,6.68378E-1,2.4532568E-1,3.97089E-1,2.1441253E-1,2.755394E-1,6.95467E-1,1.1199188E-2,8.201409E-3,5.413634E-1,8.54137E-3,1.0373497E-2,1.4562464E-2,3.932719E-1,2.5388834E-1,6.087564E-1,7.250239E-1,4.665697E-1,3.7431172E-1,3.2962447E-1,3.7223893E-1,6.373828E-1,7.551785E-1,3.7431172E-1,5.904917E-1,3.7431172E-1,4.0699407E-1,7.250239E-1,6.373828E-1,5.704179E-1,1.8503953E-2,3.1793892E-1,7.733959E-4,6.1416393E-3,1.3959218E-2,7.189322E-3,9.661532E-3,1.0840058E-2,6.730175E-3,4.4727805E-3,8.141971E-3,5.637598E-3,6.678915E-3,5.3765774E-3,2.2389984E-2,1.712494E-2,1.41778E-2,1.5312482E-2,1.28708845E-2,1.004797E-2,-4.5338944E-3,3.8117443E-3,-6.679654E-5,1.0781875E-2,-6.5016747E-4,5.7346593E-3,8.12635E-3,1.1879541E-3,3.1237921E-3,1.4736843E-2,9.260227E-3,3.0722618E-3,-9.2728045E-3,4.584575E-3,1.8173868E-3,6.678033E-3,3.4946464E-3,-2.6778043E-3,2.458267E-3,1.1169243E-2,1.3511211E-2,5.6647975E-3,1.781223E-2,2.083583E-2,8.602819E-3,1.2822033E-2,1.884327E-2,1.3883115E-2,1.3983966E-2,1.5493871E-2],"split_indices":[1,5,1,4,2,0,7,6,0,6,6,2,4,3,2,3,1,0,3,6,0,0,6,3,4,1,4,5,5,5,1,1,2,1,0,4,0,0,0,0,0,0,0,0,3,4,1,0,0,6,1,0,6,5,7,5,5,7,0,0,0,0,0,0,0,0,0,0,0,0,0,0,0,0,0,0,0,0,0,0,0,0,0,0,0,0,0,0,0,0,0,0,0,0,0,0,0,0,0,0,0,0,0,0,0,0,0,0,0],"split_type":[0,0,0,0,0,0,0,0,0,0,0,0,0,0,0,0,0,0,0,0,0,0,0,0,0,0,0,0,0,0,0,0,0,0,0,0,0,0,0,0,0,0,0,0,0,0,0,0,0,0,0,0,0,0,0,0,0,0,0,0,0,0,0,0,0,0,0,0,0,0,0,0,0,0,0,0,0,0,0,0,0,0,0,0,0,0,0,0,0,0,0,0,0,0,0,0,0,0,0,0,0,0,0,0,0,0,0,0,0],"sum_hessian":[1.28E3,7.6E1,1.204E3,5.6E1,2E1,9.96E2,2.08E2,4.5E1,1.1E1,6E0,1.4E1,8.78E2,1.18E2,1.83E2,2.5E1,3.7E1,8E0,2E0,9E0,3E0,3E0,5E0,9E0,7.13E2,1.65E2,4.4E1,7.4E1,1.28E2,5.5E1,2.1E1,4E0,3.4E1,3E0,4E0,4E0,7E0,2E0,1E0,2E0,2E0,1E0,1E0,4E0,3E0,6E0,5.8E2,1.33E2,1.3E2,3.5E1,1E1,3.4E1,7E0,6.7E1,9E1,3.8E1,5.1E1,4E0,1.9E1,2E0,1E0,3E0,2.8E1,6E0,1E0,2E0,2E0,2E0,3E0,1E0,4E0,3E0,1E0,1E0,3E0,1E0,1E0,2E0,1E0,5E0,5.38E2,4.2E1,1.2E2,1.3E1,8.9E1,4.1E1,3E1,5E0,9E0,1E0,3.1E1,3E0,5E0,2E0,5.5E1,1.2E1,2.3E1,6.7E1,3.2E1,6E0,5E0,4.6E1,2E0,2E0,1.5E1,4E0,1E0,1E0,1E0,2E0],"tree_param":{"num_deleted":"0","num_feature":"8","num_nodes":"109","size_leaf_vector":"1"}},{"base_weights":[-1.1622906E-7,1.809151E-2,-1.1421125E-3,1.3887891E-2,2.8409481E-2,-3.2067844E-3,1.0603576E-2,1.1113211E-2,2.6096487E-2,1.8413782E-2,3.215787E-2,-5.852052E-3,9.3656685E-3,8.025187E-3,3.1230688E-2,2.883307E-2,8.315337E-3,3.5927296E-3,3.1722426E-2,8.058548E-3,2.35914E-2,3.3667915E-2,2.852154E-3,-9.1474345E-3,6.514887E-3,4.5013353E-3,2.332419E-2,2.8386621E-3,2.0494917E-2,2.9659674E-2,1.8323995E-2,3.21213E-2,2.2256613E-2,4.353431E-3,2.5860922E-2,-5.646229E-4,2.7202608E-3,1.5226937E-2,2.900328E-2,1.5385152E-3,3.296614E-3,5.5597546E-3,2.8650284E-2,4.0231705E-2,3.038602E-2,-1.0603014E-2,1.1495341E-2,2.9766543E-3,1.8337762E-2,-2.896103E-3,1.9296212E-2,1.8799832E-2,4.4814885E-2,6.453495E-4,2.1299044E-2,4.018416E-2,1.7049301E-2,2.610038E-2,4.3007016E-2,9.065724E-3,1.0207057E-2,5.466128E-3,7.88784E-3,6.503821E-3,7.491231E-4,1.1743212E-2,6.1643035E-3,1.0081444E-2,5.249834E-3,7.4911597E-3,9.699011E-3,7.6210503E-3,1.3181628E-2,3.2893182E-3,9.763193E-3,-3.9694197E-3,3.0913227E-4,7.4822465E-3,1.7570743E-3,5.5649593E-3,-6.4920506E-4,4.0264283E-3,7.209108E-3,-2.1782154E-3,4.22322E-3,4.2445855E-3,1.1794393E-2,3.4754279E-3,8.958884E-3,1.577302E-2,9.563542E-3,-3.4047393E-4,7.36552E-3,1.3817454E-2,5.7144645E-3,1.5742207E-2,9.290028E-3,9.391022E-3,4.3601613E-3,7.447243E-3,1.3190318E-2,7.2614197E-3,1.4782334E-2],"categories":[],"categories_nodes":[],"categories_segments":[],"categories_sizes":[],"default_left":[0,0,0,0,0,0,0,0,0,0,0,0,0,0,0,0,0,0,0,0,0,0,0,0,0,0,0,0,0,0,0,0,0,0,0,0,0,0,0,0,0,0,0,0,0,0,0,0,0,0,0,0,0,0,0,0,0,0,0,0,0,0,0,0,0,0,0,0,0,0,0,0,0,0,0,0,0,0,0,0,0,0,0,0,0,0,0,0,0,0,0,0,0,0,0,0,0,0,0,0,0,0,0],"id":8,"left_children":[1,3,5,7,9,11,13,15,17,19,21,23,25,27,29,31,33,35,37,39,41,43,-1,45,47,49,51,53,55,57,-1,59,61,63,65,-1,-1,-1,67,-1,-1,-1,69,71,73,75,77,79,81,83,85,87,89,91,93,95,97,99,101,-1,-1,-1,-1,-1,-1,-1,-1,-1,-1,-1,-1,-1,-1,-1,-1,-1,-1,-1,-1,-1,-1,-1,-1,-1,-1,-1,-1,-1,-1,-1,-1,-1,-1,-1,-1,-1,-1,-1,-1,-1,-1,-1,-1],"loss_changes":[2.6445528E-2,3.2963343E-3,2.9198196E-2,1.8292479E-3,8.242894E-4,3.4055687E-2,9.573249E-3,2.181429E-3,1.2660474E-3,3.216928E-4,5.472582E-4,3.4477703E-2,1.2086002E-2,1.0347932E-2,9.3787536E-4,1.2974907E-4,2.641531E-3,5.9947E-5,4.1405112E-4,1.717174E-5,1.0236935E-4,3.2312423E-4,0E0,2.0071536E-2,7.4461107E-3,1.4446633E-2,4.4726525E-3,4.575301E-3,3.1885523E-3,9.026341E-4,0E0,1.4473684E-5,3.258162E-5,9.970571E-4,4.940354E-4,0E0,0E0,0E0,3.7054718E-4,0E0,0E0,0E0,2.7081114E-5,2.7484447E-4,4.1911006E-4,1.9080162E-2,3.3356994E-3,1.0967772E-2,1.1474555E-3,6.5192855E-3,4.5340583E-3,3.033205E-3,8.0328435E-4,4.2985235E-3,6.687436E-4,7.929653E-4,1.4342079E-3,3.420459E-4,4.7136797E-4,0E0,0E0,0E0,0E0,0E0,0E0,0E0,0E0,0E0,0E0,0E0,0E0,0E0,0E0,0E0,0E0,0E0,0E0,0E0,0E0,0E0,0E0,0E0,0E0,0E0,0E0,0E0,0E0,0E0,0E0,0E0,0E0,0E0,0E0,0E0,0E0,0E0,0E0,0E0,0E0,0E0,0E0,0E0,0E0],"parents":[2147483647,0,0,1,1,2,2,3,3,4,4,5,5,6,6,7,7,8,8,9,9,10,10,11,11,12,12,13,13,14,14,15,15,16,16,17,17,18,18,19,19,20,20,21,21,23,23,24,24,25,25,26,26,27,27,28,28,29,29,31,31,32,32,33,33,34,34,38,38,42,42,43,43,44,44,45,45,46,46,47,47,48,48,49,49,50,50,51,51,52,52,53,53,54,54,55,55,56,56,57,57,58,58],"right_children":[2,4,6,8,10,12,14,16,18,20,22,24,26,28,30,32,34,36,38,40,42,44,-1,46,48,50,52,54,56,58,-1,60,62,64,66,-1,-1,-1,68,-1,-1,-1,70,72,74,76,78,80,82,84,86,88,90,92,94,96,98,100,102,-1,-1,-1,-1,-1,-1,-1,-1,-1,-1,-1,-1,-1,-1,-1,-1,-1,-1,-1,-1,-1,-1,-1,-1,-1,-1,-1,-1,-1,-1,-1,-1,-1,-1,-1,-1,-1,-1,-1,-1,-1,-1,-1,-1],"split_conditions":[2.5388834E-1,4.3661946E-1,6.773268E-1,6.6554946E-1,2.6464754E-1,6.773268E-1,4.665697E-1,6.176077E-1,2.6262578E-1,1.3976774E-1,2.3247486E-1,6.6005725E-1,3.7431172E-1,3.7431172E-1,8.2110435E-1,5.5571157E-1,5.806694E-1,4.0606532E-1,2.7034009E-1,5.2821183E-1,5.5571157E-1,3.361697E-1,2.852154E-3,7.250239E-1,3.7757185E-1,3.7431172E-1,6.611935E-1,6.773268E-1,1.8982787E-1,6.373828E-1,1.8323995E-2,3.0458957E-1,3.276037E-1,4.673271E-1,2.190686E-1,-5.646229E-4,2.7202608E-3,1.5226937E-2,7.298272E-1,1.5385152E-3,3.296614E-3,5.5597546E-3,6.373828E-1,4.665697E-1,3.4563583E-1,6.625379E-1,5.6813234E-1,3.4563583E-1,4.665697E-1,7.551785E-1,6.611935E-1,4.665697E-1,2.7034009E-1,6.785712E-1,1.7539316E-1,6.109195E-1,3.7863156E-1,3.465892E-1,5.415515E-1,9.065724E-3,1.0207057E-2,5.466128E-3,7.88784E-3,6.503821E-3,7.491231E-4,1.1743212E-2,6.1643035E-3,1.0081444E-2,5.249834E-3,7.4911597E-3,9.699011E-3,7.6210503E-3,1.3181628E-2,3.2893182E-3,9.763193E-3,-3.9694197E-3,3.0913227E-4,7.4822465E-3,1.7570743E-3,5.5649593E-3,-6.4920506E-4,4.0264283E-3,7.209108E-3,-2.1782154E-3,4.22322E-3,4.2445855E-3,1.1794393E-2,3.4754279E-3,8.958884E-3,1.577302E-2,9.563542E-3,-3.4047393E-4,7.36552E-3,1.3817454E-2,5.7144645E-3,1.5742207E-2,9.290028E-3,9.391022E-3,4.3601613E-3,7.447243E-3,1.3190318E-2,7.2614197E-3,1.4782334E-2],"split_indices":[4,0,5,1,3,3,7,2,3,4,4,4,5,3,5,1,3,0,0,0,0,3,0,7,2,1,7,0,7,7,0,5,0,7,4,0,0,0,6,0,0,0,0,0,3,6,3,1,2,3,7,5,1,2,3,2,3,2,0,0,0,0,0,0,0,0,0,0,0,0,0,0,0,0,0,0,0,0,0,0,0,0,0,0,0,0,0,0,0,0,0,0,0,0,0,0,0,0,0,0,0,0,0],"split_type":[0,0,0,0,0,0,0,0,0,0,0,0,0,0,0,0,0,0,0,0,0,0,0,0,0,0,0,0,0,0,0,0,0,0,0,0,0,0,0,0,0,0,0,0,0,0,0,0,0,0,0,0,0,0,0,0,0,0,0,0,0,0,0,0,0,0,0,0,0,0,0,0,0,0,0,0,0,0,0,0,0,0,0,0,0,0,0,0,0,0,0,0,0,0,0,0,0,0,0,0,0,0,0],"sum_hessian":[1.28E3,7.6E1,1.204E3,5.4E1,2.2E1,1.024E3,1.8E2,4.4E1,1E1,6E0,1.6E1,8.46E2,1.78E2,1.6E2,2E1,6E0,3.8E1,2E0,8E0,2E0,4E0,1.5E1,1E0,6.68E2,1.78E2,1.32E2,4.6E1,1.13E2,4.7E1,1.9E1,1E0,4E0,2E0,3.1E1,7E0,1E0,1E0,1E0,7E0,1E0,1E0,2E0,2E0,5E0,1E1,6.24E2,4.4E1,1.37E2,4.1E1,8.8E1,4.4E1,3.8E1,8E0,1.01E2,1.2E1,7E0,4E1,1.5E1,4E0,2E0,2E0,1E0,1E0,3E0,2.8E1,2E0,5E0,5E0,2E0,1E0,1E0,1E0,4E0,1E0,9E0,5.09E2,1.15E2,1.3E1,3.1E1,3.4E1,1.03E2,2.2E1,1.9E1,7E1,1.8E1,3.5E1,9E0,2.3E1,1.5E1,5E0,3E0,9.4E1,7E0,1E0,1.1E1,3E0,4E0,6E0,3.4E1,1.4E1,1E0,1E0,3E0],"tree_param":{"num_deleted":"0","num_feature":"8","num_nodes":"103","size_leaf_vector":"1"}},{"base_weights":[-2.0004809E-7,-1.6627738E-3,8.099128E-3,1.1335513E-2,-3.1040064E-3,4.1536703E-3,1.8026406E-2,4.5573884E-3,1.8927012E-2,-5.5192765E-3,6.6976445E-3,-1.3994721E-3,1.5926333E-2,1.4046616E-2,2.3536883E-2,1.2565573E-2,-1.4487505E-3,2.6206085E-2,1.609626E-2,-8.546458E-3,4.424761E-3,3.4511317E-3,1.7720688E-2,-3.1605922E-3,1.3810202E-2,1.2294061E-2,2.880439E-2,1.1012188E-2,2.9218754E-2,2.716998E-2,1.3675622E-2,2.471752E-2,9.367692E-3,-5.2571297E-3,2.5209904E-2,3.907919E-2,2.2695238E-2,1.0714599E-2,1.9520955E-2,-9.401735E-3,1.8537309E-2,5.6966144E-4,1.6252907E-2,-1.1955743E-3,1.4581614E-2,3.1184018E-2,1.4643356E-2,-5.0711296E-3,1.30789755E-2,1.5327692E-2,-4.094124E-4,2.6560035E-2,9.173378E-3,1.4938545E-2,2.6705313E-2,9.892891E-3,1.3041545E-2,3.4713745E-2,2.372376E-2,2.2934139E-2,3.0250592E-2,1.6322056E-2,-6.608963E-4,6.2855245E-3,9.109855E-3,6.495452E-3,1.8276024E-3,1.9492008E-3,-3.5362167E-3,6.5310006E-3,1.0658884E-2,1.4439297E-2,6.292677E-3,7.673248E-3,2.9175282E-3,1.3444186E-3,4.616851E-3,1.5453816E-3,6.061568E-3,-3.0868934E-3,5.3482456E-3,8.394618E-3,3.2944537E-3,-1.3897493E-3,4.0124934E-3,3.9131916E-3,9.96433E-3,-1.4909148E-3,4.647032E-3,4.104209E-3,1.5726043E-2,1.2775934E-2,5.9344773E-3,7.3131328E-3,3.788843E-3,-2.282258E-3,2.692982E-3,5.900574E-3,2.605772E-3,2.2919655E-3,5.5867406E-3,1.0248184E-2,7.055941E-3,3.355832E-3,-1.4747144E-3,6.5600397E-3,1.1398554E-2,2.4911352E-3,9.403754E-3,1.01365335E-2,1.0969305E-2,5.9529305E-3,9.445525E-3,6.4892704E-3,9.617043E-3,1.2095333E-2,8.404033E-3,8.282233E-3,4.2194943E-3],"categories":[],"categories_nodes":[],"categories_segments":[],"categories_sizes":[],"default_left":[0,0,0,0,0,0,0,0,0,0,0,0,0,0,0,0,0,0,0,0,0,0,0,0,0,0,0,0,0,0,0,0,0,0,0,0,0,0,0,0,0,0,0,0,0,0,0,0,0,0,0,0,0,0,0,0,0,0,0,0,0,0,0,0,0,0,0,0,0,0,0,0,0,0,0,0,0,0,0,0,0,0,0,0,0,0,0,0,0,0,0,0,0,0,0,0,0,0,0,0,0,0,0,0,0,0,0,0,0,0,0,0,0,0,0,0,0,0,0],"id":9,"left_children":[1,3,5,7,9,11,13,15,17,19,21,23,25,27,29,31,33,35,37,39,41,43,45,47,49,51,53,55,57,59,61,63,65,67,69,71,73,75,77,79,81,83,85,87,89,91,93,95,97,99,-1,101,103,-1,105,107,-1,109,111,113,115,117,-1,-1,-1,-1,-1,-1,-1,-1,-1,-1,-1,-1,-1,-1,-1,-1,-1,-1,-1,-1,-1,-1,-1,-1,-1,-1,-1,-1,-1,-1,-1,-1,-1,-1,-1,-1,-1,-1,-1,-1,-1,-1,-1,-1,-1,-1,-1,-1,-1,-1,-1,-1,-1,-1,-1,-1,-1],"loss_changes":[1.7236134E-2,1.9895034E-2,8.538547E-3,5.4543493E-3,2.2631995E-2,1.0198542E-2,1.3596937E-3,2.6935032E-3,1.0302607E-3,2.308854E-2,6.76364E-3,2.8393222E-3,2.3388313E-3,1.6573952E-3,9.314995E-4,9.326518E-4,3.2488403E-3,6.3273683E-4,6.6349935E-4,1.3620507E-2,8.162165E-3,7.5511313E-3,1.7815391E-3,2.9474986E-3,2.5330577E-4,1.7362628E-3,4.846733E-4,1.0899592E-3,1.8116971E-4,2.479311E-4,2.9415195E-4,1.0635797E-4,7.645199E-4,2.1492713E-3,1.4199526E-4,4.9161026E-4,4.112157E-4,4.079548E-4,2.1632016E-4,1.3780937E-2,1.2845267E-3,8.993064E-3,2.3948522E-3,6.4863344E-3,1.465844E-3,1.0401229E-3,6.860909E-4,3.0286037E-3,2.8948567E-4,2.5329576E-4,0E0,1.6175257E-4,9.074402E-4,0E0,5.4626167E-4,9.886406E-4,0E0,5.1371753E-6,9.035715E-5,9.511225E-5,2.477402E-4,1.5283178E-4,0E0,0E0,0E0,0E0,0E0,0E0,0E0,0E0,0E0,0E0,0E0,0E0,0E0,0E0,0E0,0E0,0E0,0E0,0E0,0E0,0E0,0E0,0E0,0E0,0E0,0E0,0E0,0E0,0E0,0E0,0E0,0E0,0E0,0E0,0E0,0E0,0E0,0E0,0E0,0E0,0E0,0E0,0E0,0E0,0E0,0E0,0E0,0E0,0E0,0E0,0E0,0E0,0E0,0E0,0E0,0E0,0E0],"parents":[2147483647,0,0,1,1,2,2,3,3,4,4,5,5,6,6,7,7,8,8,9,9,10,10,11,11,12,12,13,13,14,14,15,15,16,16,17,17,18,18,19,19,20,20,21,21,22,22,23,23,24,24,25,25,26,26,27,27,28,28,29,29,30,30,31,31,32,32,33,33,34,34,35,35,36,36,37,37,38,38,39,39,40,40,41,41,42,42,43,43,44,44,45,45,46,46,47,47,48,48,49,49,51,51,52,52,54,54,55,55,57,57,58,58,59,59,60,60,61,61],"right_children":[2,4,6,8,10,12,14,16,18,20,22,24,26,28,30,32,34,36,38,40,42,44,46,48,50,52,54,56,58,60,62,64,66,68,70,72,74,76,78,80,82,84,86,88,90,92,94,96,98,100,-1,102,104,-1,106,108,-1,110,112,114,116,118,-1,-1,-1,-1,-1,-1,-1,-1,-1,-1,-1,-1,-1,-1,-1,-1,-1,-1,-1,-1,-1,-1,-1,-1,-1,-1,-1,-1,-1,-1,-1,-1,-1,-1,-1,-1,-1,-1,-1,-1,-1,-1,-1,-1,-1,-1,-1,-1,-1,-1,-1,-1,-1,-1,-1,-1,-1],"split_conditions":[6.611935E-1,2.7034009E-1,3.7431172E-1,3.7757185E-1,6.6005725E-1,3.7431172E-1,4.665697E-1,2.2114348E-1,1.8982787E-1,6.611935E-1,3.7757185E-1,6.4383036E-1,7.5125945E-1,3.806846E-1,6.88156E-1,6.176077E-1,2.6853704E-1,6.0579133E-1,2.3247486E-1,7.551785E-1,3.7431172E-1,3.7431172E-1,1.8982787E-1,7.727931E-1,7.078791E-1,1.7539316E-1,7.551785E-1,7.078791E-1,4.5365444E-1,6.0579133E-1,7.5125945E-1,7.8942484E-1,6.1437255E-1,3.276037E-1,5.296721E-1,6.281932E-1,7.250239E-1,4.3661946E-1,4.1347104E-1,7.551785E-1,5.7695806E-1,3.7431172E-1,6.773268E-1,7.551785E-1,7.4339634E-1,6.281932E-1,4.0699407E-1,6.2008464E-1,7.8534484E-1,6.773268E-1,-4.094124E-4,6.855235E-1,3.4000158E-1,1.4938545E-2,8.2110435E-1,8.2110435E-1,1.3041545E-2,4.0699407E-1,7.393988E-1,7.4339634E-1,6.109195E-1,3.932719E-1,-6.608963E-4,6.2855245E-3,9.109855E-3,6.495452E-3,1.8276024E-3,1.9492008E-3,-3.5362167E-3,6.5310006E-3,1.0658884E-2,1.4439297E-2,6.292677E-3,7.673248E-3,2.9175282E-3,1.3444186E-3,4.616851E-3,1.5453816E-3,6.061568E-3,-3.0868934E-3,5.3482456E-3,8.394618E-3,3.2944537E-3,-1.3897493E-3,4.0124934E-3,3.9131916E-3,9.96433E-3,-1.4909148E-3,4.647032E-3,4.104209E-3,1.5726043E-2,1.2775934E-2,5.9344773E-3,7.3131328E-3,3.788843E-3,-2.282258E-3,2.692982E-3,5.900574E-3,2.605772E-3,2.2919655E-3,5.5867406E-3,1.0248184E-2,7.055941E-3,3.355832E-3,-1.4747144E-3,6.5600397E-3,1.1398554E-2,2.4911352E-3,9.403754E-3,1.01365335E-2,1.0969305E-2,5.9529305E-3,9.445525E-3,6.4892704E-3,9.617043E-3,1.2095333E-2,8.404033E-3,8.282233E-3,4.2194943E-3],"split_indices":[0,0,6,4,1,2,6,0,0,7,3,5,0,2,5,2,0,5,0,3,5,7,7,0,1,6,0,4,2,5,0,6,6,4,1,3,6,4,5,5,7,1,3,1,5,4,5,7,0,5,0,0,6,0,0,0,0,6,2,0,5,1,0,0,0,0,0,0,0,0,0,0,0,0,0,0,0,0,0,0,0,0,0,0,0,0,0,0,0,0,0,0,0,0,0,0,0,0,0,0,0,0,0,0,0,0,0,0,0,0,0,0,0,0,0,0,0,0,0],"split_type":[0,0,0,0,0,0,0,0,0,0,0,0,0,0,0,0,0,0,0,0,0,0,0,0,0,0,0,0,0,0,0,0,0,0,0,0,0,0,0,0,0,0,0,0,0,0,0,0,0,0,0,0,0,0,0,0,0,0,0,0,0,0,0,0,0,0,0,0,0,0,0,0,0,0,0,0,0,0,0,0,0,0,0,0,0,0,0,0,0,0,0,0,0,0,0,0,0,0,0,0,0,0,0,0,0,0,0,0,0,0,0,0,0,0,0,0,0,0,0],"sum_hessian":[1.28E3,1.062E3,2.18E2,1.06E2,9.56E2,1.56E2,6.2E1,5.6E1,5E1,7.67E2,1.89E2,1.06E2,5E1,3.6E1,2.6E1,2.4E1,3.2E1,1.4E1,3.6E1,5.88E2,1.79E2,1.46E2,4.3E1,9.5E1,1.1E1,3.9E1,1.1E1,3E1,6E0,1.9E1,7E0,5E0,1.9E1,2.8E1,4E0,3E0,1.1E1,1.4E1,2.2E1,5.7E2,1.8E1,1.35E2,4.4E1,1.03E2,4.3E1,8E0,3.5E1,8.5E1,1E1,1E1,1E0,7E0,3.2E1,1E0,1E1,2.9E1,1E0,3E0,3E0,8E0,1.1E1,6E0,1E0,3E0,2E0,4E0,1.5E1,1E1,1.8E1,3E0,1E0,2E0,1E0,9E0,2E0,6E0,8E0,1E0,2.1E1,5.52E2,1.8E1,8E0,1E1,9.6E1,3.9E1,3.7E1,7E0,8.4E1,1.9E1,4.2E1,1E0,4E0,4E0,6E0,2.9E1,7.2E1,1.3E1,4E0,6E0,3E0,7E0,2E0,5E0,2.8E1,4E0,7E0,3E0,2.7E1,2E0,2E0,1E0,2E0,1E0,7E0,1E0,2E0,9E0,1E0,5E0],"tree_param":{"num_deleted":"0","num_feature":"8","num_nodes":"119","size_leaf_vector":"1"}},{"base_weights":[-7.0407985E-8,1.2116112E-2,-7.648793E-4,9.747541E-3,1.792988E-2,-2.30156E-3,6.0325097E-3,8.865665E-3,7.4218274E-3,2.2999503E-2,1.2860254E-2,-4.0561096E-3,4.9646636E-3,3.3042985E-3,1.2917995E-2,7.7273897E-3,2.22404E-2,1.5062904E-2,2.9613337E-2,1.5366077E-3,1.5376621E-2,-6.146101E-3,3.9961264E-3,1.7408624E-3,1.4568905E-2,1.1943008E-3,1.7169997E-2,1.1927891E-2,3.272009E-2,6.6916663E-3,1.8861413E-2,4.0988447E-3,2.5099596E-2,4.826117E-3,4.0580034E-3,6.199837E-3,3.4086943E-2,-1.543522E-4,1.0763169E-3,7.927895E-4,1.696837E-2,-8.125066E-3,2.0617384E-3,2.63573E-3,2.2794334E-2,-2.9365697E-3,9.683672E-3,1.3139481E-2,3.6010265E-2,-6.001612E-4,1.065601E-2,1.9755336E-2,6.182313E-3,1.8225726E-2,9.438049E-3,1.1218644E-2,9.114719E-3,1.5662826E-3,4.7283415E-3,4.96645E-3,7.7343467E-3,8.071017E-3,6.4476016E-3,1.3045121E-2,9.286405E-3,4.7660144E-3,7.3619843E-3,-2.6871813E-3,4.743921E-3,-1.07295054E-4,5.796013E-3,2.2042326E-4,4.348278E-3,6.159306E-3,9.893775E-3,1.3694168E-3,-1.6992937E-3,4.2232755E-3,1.1857448E-3,3.5784037E-3,7.6671126E-3,1.1115289E-2,1.0178662E-2,-6.7518244E-4,2.5156816E-3,2.8966973E-3,9.4990255E-3,7.97576E-3,5.0727846E-3,2.7279856E-4,6.6003804E-3,7.1652243E-3,2.3556233E-3,4.583749E-4,3.6471472E-3],"categories":[],"categories_nodes":[],"categories_segments":[],"categories_sizes":[],"default_left":[0,0,0,0,0,0,0,0,0,0,0,0,0,0,0,0,0,0,0,0,0,0,0,0,0,0,0,0,0,0,0,0,0,0,0,0,0,0,0,0,0,0,0,0,0,0,0,0,0,0,0,0,0,0,0,0,0,0,0,0,0,0,0,0,0,0,0,0,0,0,0,0,0,0,0,0,0,0,0,0,0,0,0,0,0,0,0,0,0,0,0,0,0,0,0],"id":10,"left_children":[1,3,5,7,9,11,13,15,-1,17,19,21,23,25,27,29,31,33,35,37,39,41,43,45,47,49,51,53,55,57,59,-1,61,-1,-1,-1,63,-1,-1,-1,65,67,69,71,73,75,77,79,81,83,85,87,89,91,93,-1,-1,-1,-1,-1,-1,-1,-1,-1,-1,-1,-1,-1,-1,-1,-1,-1,-1,-1,-1,-1,-1,-1,-1,-1,-1,-1,-1,-1,-1,-1,-1,-1,-1,-1,-1,-1,-1,-1,-1],"loss_changes":[1.1861201E-2,1.0465449E-3,1.2576281E-2,7.139328E-4,5.654241E-4,1.251947E-2,4.1702846E-3,7.764306E-4,0E0,5.774051E-4,3.1343882E-4,1.3311819E-2,5.9137736E-3,4.6517984E-3,1.235187E-3,5.4199295E-4,9.809993E-5,7.866649E-6,2.4015782E-4,8.414146E-6,1.8242374E-4,1.0200622E-2,4.1684015E-3,5.312729E-3,1.4711423E-3,2.3430577E-3,5.9654424E-4,9.4083697E-4,3.278884E-5,5.7356386E-4,6.3843676E-5,0E0,1.9522035E-5,0E0,0E0,0E0,1.1773314E-4,0E0,0E0,0E0,6.5518776E-5,1.0080248E-2,5.094054E-3,3.4265206E-3,2.535684E-4,1.8415436E-3,1.3346649E-3,6.769574E-4,6.4983033E-6,1.7203416E-3,4.62326E-4,3.3048075E-4,3.3365237E-4,9.978618E-4,9.2486595E-4,0E0,0E0,0E0,0E0,0E0,0E0,0E0,0E0,0E0,0E0,0E0,0E0,0E0,0E0,0E0,0E0,0E0,0E0,0E0,0E0,0E0,0E0,0E0,0E0,0E0,0E0,0E0,0E0,0E0,0E0,0E0,0E0,0E0,0E0,0E0,0E0,0E0,0E0,0E0,0E0],"parents":[2147483647,0,0,1,1,2,2,3,3,4,4,5,5,6,6,7,7,9,9,10,10,11,11,12,12,13,13,14,14,15,15,16,16,17,17,18,18,19,19,20,20,21,21,22,22,23,23,24,24,25,25,26,26,27,27,28,28,29,29,30,30,32,32,36,36,40,40,41,41,42,42,43,43,44,44,45,45,46,46,47,47,48,48,49,49,50,50,51,51,52,52,53,53,54,54],"right_children":[2,4,6,8,10,12,14,16,-1,18,20,22,24,26,28,30,32,34,36,38,40,42,44,46,48,50,52,54,56,58,60,-1,62,-1,-1,-1,64,-1,-1,-1,66,68,70,72,74,76,78,80,82,84,86,88,90,92,94,-1,-1,-1,-1,-1,-1,-1,-1,-1,-1,-1,-1,-1,-1,-1,-1,-1,-1,-1,-1,-1,-1,-1,-1,-1,-1,-1,-1,-1,-1,-1,-1,-1,-1,-1,-1,-1,-1,-1,-1],"split_conditions":[2.5388834E-1,4.3661946E-1,6.6005725E-1,6.2674594E-1,6.147637E-1,6.6005725E-1,3.7431172E-1,7.8534484E-1,7.4218274E-3,2.755394E-1,5.415515E-1,6.724122E-1,3.7431172E-1,4.665697E-1,8.2110435E-1,7.6131725E-1,4.9638698E-1,6.904466E-1,5.1134413E-1,5.2821183E-1,5.2821183E-1,6.6005725E-1,7.9806006E-1,3.5627195E-1,8.2110435E-1,7.551785E-1,7.393988E-1,5.296721E-1,5.5165124E-1,7.727931E-1,5.5571157E-1,4.0988447E-3,5.5090946E-1,4.826117E-3,4.0580034E-3,6.199837E-3,5.311318E-1,-1.543522E-4,1.0763169E-3,7.927895E-4,7.2218454E-1,7.551785E-1,7.727931E-1,6.773268E-1,6.510415E-1,4.254107E-1,3.4563583E-1,6.373828E-1,4.6393925E-1,6.4383036E-1,7.393988E-1,4.0081388E-1,7.5125945E-1,6.855235E-1,5.751907E-1,1.1218644E-2,9.114719E-3,1.5662826E-3,4.7283415E-3,4.96645E-3,7.7343467E-3,8.071017E-3,6.4476016E-3,1.3045121E-2,9.286405E-3,4.7660144E-3,7.3619843E-3,-2.6871813E-3,4.743921E-3,-1.07295054E-4,5.796013E-3,2.2042326E-4,4.348278E-3,6.159306E-3,9.893775E-3,1.3694168E-3,-1.6992937E-3,4.2232755E-3,1.1857448E-3,3.5784037E-3,7.6671126E-3,1.1115289E-2,1.0178662E-2,-6.7518244E-4,2.5156816E-3,2.8966973E-3,9.4990255E-3,7.97576E-3,5.0727846E-3,2.7279856E-4,6.6003804E-3,7.1652243E-3,2.3556233E-3,4.583749E-4,3.6471472E-3],"split_indices":[4,0,4,5,7,5,6,6,0,3,2,3,7,2,4,7,1,1,0,0,1,2,3,3,5,4,1,0,0,2,1,0,1,0,0,0,0,0,0,0,1,1,2,6,7,4,0,7,2,1,1,3,1,7,0,0,0,0,0,0,0,0,0,0,0,0,0,0,0,0,0,0,0,0,0,0,0,0,0,0,0,0,0,0,0,0,0,0,0,0,0,0,0,0,0],"split_type":[0,0,0,0,0,0,0,0,0,0,0,0,0,0,0,0,0,0,0,0,0,0,0,0,0,0,0,0,0,0,0,0,0,0,0,0,0,0,0,0,0,0,0,0,0,0,0,0,0,0,0,0,0,0,0,0,0,0,0,0,0,0,0,0,0,0,0,0,0,0,0,0,0,0,0,0,0,0,0,0,0,0,0,0,0,0,0,0,0,0,0,0,0,0,0],"sum_hessian":[1.28E3,7.6E1,1.204E3,5.4E1,2.2E1,9.82E2,2.22E2,5.1E1,3E0,1.1E1,1.1E1,7.91E2,1.91E2,1.59E2,6.3E1,4.7E1,4E0,5E0,6E0,2E0,9E0,6.28E2,1.63E2,1.43E2,4.8E1,1.38E2,2.1E1,6E1,3E0,4.3E1,4E0,1E0,3E0,3E0,2E0,2E0,4E0,1E0,1E0,1E0,8E0,5.06E2,1.22E2,1.52E2,1.1E1,9E1,5.3E1,4.5E1,3E0,1.16E2,2.2E1,1.7E1,4E0,1.7E1,4.3E1,1E0,2E0,3.7E1,6E0,3E0,1E0,2E0,1E0,1E0,3E0,7E0,1E0,4.89E2,1.7E1,1.07E2,1.5E1,1.31E2,2.1E1,9E0,2E0,2.4E1,6.6E1,3E1,2.3E1,4.1E1,4E0,2E0,1E0,9.8E1,1.8E1,2.1E1,1E0,5E0,1.2E1,3E0,1E0,1.1E1,6E0,1.1E1,3.2E1],"tree_param":{"num_deleted":"0","num_feature":"8","num_nodes":"95","size_leaf_vector":"1"}},{"base_weights":[-1.13248824E-7,-1.2404842E-3,5.911204E-3,-2.6952825E-3,5.951777E-3,3.2976249E-3,1.36586E-2,-3.353013E-3,1.5940411E-2,4.0479368E-3,1.6599178E-2,1.1243534E-2,7.7511393E-4,1.2085987E-2,2.089262E-2,6.239601E-3,-4.588715E-3,1.1153243E-2,2.9105127E-2,1.6447802E-3,1.1194167E-2,1.4485276E-2,2.8754115E-2,1.7508062E-2,7.4848174E-3,-5.9491134E-4,1.2683795E-2,1.376904E-2,2.70898E-3,2.9368758E-2,1.5241861E-2,9.0452033E-4,1.1465803E-2,-5.952174E-3,1.8257408E-3,1.0352586E-2,4.86722E-3,2.6400566E-2,3.721881E-2,-2.864549E-3,1.0907186E-2,9.400087E-3,2.644384E-2,1.2198716E-2,1.97117E-2,3.196748E-2,5.7342052E-3,2.342856E-2,1.0741779E-2,9.675302E-3,5.482833E-4,-2.2025616E-3,7.3587266E-3,2.3841381E-2,1.0655143E-2,8.047283E-3,1.5245622E-2,1.7748117E-2,-3.306675E-3,1.0190606E-2,2.476883E-2,1.179142E-2,1.0429287E-2,2.4037277E-3,-1.5329582E-3,3.1980758E-3,9.118867E-3,-2.4299948E-3,3.106679E-4,2.602192E-3,-7.0500316E-4,2.0360758E-3,3.4878121E-3,6.0853963E-3,9.754945E-3,1.2205125E-2,1.0126162E-2,-3.3043444E-3,2.6908747E-4,3.0858517E-3,9.979106E-3,3.4764674E-3,-2.1032812E-3,7.1902275E-3,1.0161925E-2,6.139541E-3,3.30534E-3,7.462979E-3,4.7514085E-3,1.1329794E-2,8.72047E-3,2.4480345E-3,7.6829297E-3,4.3004397E-3,1.785326E-3,1.9165636E-3,4.592923E-3,1.3313295E-3,-1.0023594E-3,-1.0509096E-3,2.0051957E-3,3.934349E-3,-1.6663672E-4,6.541443E-3,7.7633862E-3,2.8826238E-3,6.335736E-3,-5.8536534E-5,6.5353876E-3,2.670749E-3,5.352161E-3,7.187319E-3,3.4615519E-3,-1.9422055E-3,2.8088093E-3,7.829047E-3,7.0322515E-3,4.911042E-3,4.5540335E-4],"categories":[],"categories_nodes":[],"categories_segments":[],"categories_sizes":[],"default_left":[0,0,0,0,0,0,0,0,0,0,0,0,0,0,0,0,0,0,0,0,0,0,0,0,0,0,0,0,0,0,0,0,0,0,0,0,0,0,0,0,0,0,0,0,0,0,0,0,0,0,0,0,0,0,0,0,0,0,0,0,0,0,0,0,0,0,0,0,0,0,0,0,0,0,0,0,0,0,0,0,0,0,0,0,0,0,0,0,0,0,0,0,0,0,0,0,0,0,0,0,0,0,0,0,0,0,0,0,0,0,0,0,0,0,0,0,0,0,0],"id":11,"left_children":[1,3,5,7,9,11,13,15,17,19,21,23,25,27,29,31,33,35,37,39,41,43,45,47,49,51,53,55,57,59,61,63,65,67,69,71,-1,73,75,77,79,81,83,85,87,89,-1,91,93,95,97,99,101,103,105,107,109,111,113,-1,115,-1,117,-1,-1,-1,-1,-1,-1,-1,-1,-1,-1,-1,-1,-1,-1,-1,-1,-1,-1,-1,-1,-1,-1,-1,-1,-1,-1,-1,-1,-1,-1,-1,-1,-1,-1,-1,-1,-1,-1,-1,-1,-1,-1,-1,-1,-1,-1,-1,-1,-1,-1,-1,-1,-1,-1,-1,-1],"loss_changes":[9.38525E-3,1.1070159E-2,4.495153E-3,1.0786393E-2,3.608229E-3,3.3272444E-3,6.3707307E-4,1.0075569E-2,1.890651E-3,2.5932002E-3,6.937478E-4,9.4186375E-4,2.0557144E-3,7.25972E-4,4.7896616E-4,2.7045736E-3,6.585624E-3,8.931989E-5,1.7555151E-4,4.719698E-3,1.0396461E-3,2.7486216E-4,1.2390874E-4,6.008963E-4,3.7985924E-4,1.4448937E-3,2.9425323E-4,3.294968E-4,6.3329184E-4,8.46372E-5,6.948261E-4,2.0519828E-3,7.4722106E-4,9.320162E-3,3.7747398E-3,8.62733E-5,0E0,2.2442592E-4,2.4011591E-5,2.3298583E-3,5.136966E-4,1.2209252E-3,7.359148E-5,1.5619118E-4,1.4004973E-4,5.043368E-5,0E0,2.664295E-4,1.2049137E-4,3.518617E-4,9.076838E-5,1.0863289E-3,8.654919E-4,8.29529E-6,1.2044422E-4,9.058297E-4,5.102563E-4,7.711857E-5,2.0064125E-4,0E0,3.5271514E-6,0E0,2.6470277E-4,0E0,0E0,0E0,0E0,0E0,0E0,0E0,0E0,0E0,0E0,0E0,0E0,0E0,0E0,0E0,0E0,0E0,0E0,0E0,0E0,0E0,0E0,0E0,0E0,0E0,0E0,0E0,0E0,0E0,0E0,0E0,0E0,0E0,0E0,0E0,0E0,0E0,0E0,0E0,0E0,0E0,0E0,0E0,0E0,0E0,0E0,0E0,0E0,0E0,0E0,0E0,0E0,0E0,0E0,0E0,0E0],"parents":[2147483647,0,0,1,1,2,2,3,3,4,4,5,5,6,6,7,7,8,8,9,9,10,10,11,11,12,12,13,13,14,14,15,15,16,16,17,17,18,18,19,19,20,20,21,21,22,22,23,23,24,24,25,25,26,26,27,27,28,28,29,29,30,30,31,31,32,32,33,33,34,34,35,35,37,37,38,38,39,39,40,40,41,41,42,42,43,43,44,44,45,45,47,47,48,48,49,49,50,50,51,51,52,52,53,53,54,54,55,55,56,56,57,57,58,58,60,60,62,62],"right_children":[2,4,6,8,10,12,14,16,18,20,22,24,26,28,30,32,34,36,38,40,42,44,46,48,50,52,54,56,58,60,62,64,66,68,70,72,-1,74,76,78,80,82,84,86,88,90,-1,92,94,96,98,100,102,104,106,108,110,112,114,-1,116,-1,118,-1,-1,-1,-1,-1,-1,-1,-1,-1,-1,-1,-1,-1,-1,-1,-1,-1,-1,-1,-1,-1,-1,-1,-1,-1,-1,-1,-1,-1,-1,-1,-1,-1,-1,-1,-1,-1,-1,-1,-1,-1,-1,-1,-1,-1,-1,-1,-1,-1,-1,-1,-1,-1,-1,-1,-1],"split_conditions":[6.6005725E-1,6.773268E-1,3.7757185E-1,7.6131725E-1,7.727931E-1,3.465892E-1,7.5125945E-1,2.7034009E-1,8.2110435E-1,6.087564E-1,5.857895E-1,6.759623E-1,7.727931E-1,7.393988E-1,7.8942484E-1,3.7757185E-1,6.554709E-1,4.665697E-1,3.77175E-1,6.087564E-1,3.465892E-1,8.2110435E-1,2.8234625E-1,6.281932E-1,3.266034E-1,6.193307E-1,5.6813234E-1,3.344023E-1,3.9421934E-1,3.1997606E-1,1.8982787E-1,2.2114348E-1,7.9806006E-1,6.554709E-1,5.8848226E-1,4.1477382E-1,4.86722E-3,3.4563583E-1,4.0081388E-1,6.2674594E-1,3.806846E-1,3.3300257E-1,3.806846E-1,2.190686E-1,4.1477382E-1,1.8982787E-1,5.7342052E-3,5.857895E-1,2.9919642E-1,5.93209E-1,7.0580065E-1,6.176077E-1,3.255578E-1,3.97089E-1,3.4872872E-1,3.7223893E-1,2.3247486E-1,6.855235E-1,6.256002E-1,1.0190606E-2,7.6131725E-1,1.179142E-2,4.665697E-1,2.4037277E-3,-1.5329582E-3,3.1980758E-3,9.118867E-3,-2.4299948E-3,3.106679E-4,2.602192E-3,-7.0500316E-4,2.0360758E-3,3.4878121E-3,6.0853963E-3,9.754945E-3,1.2205125E-2,1.0126162E-2,-3.3043444E-3,2.6908747E-4,3.0858517E-3,9.979106E-3,3.4764674E-3,-2.1032812E-3,7.1902275E-3,1.0161925E-2,6.139541E-3,3.30534E-3,7.462979E-3,4.7514085E-3,1.1329794E-2,8.72047E-3,2.4480345E-3,7.6829297E-3,4.3004397E-3,1.785326E-3,1.9165636E-3,4.592923E-3,1.3313295E-3,-1.0023594E-3,-1.0509096E-3,2.0051957E-3,3.934349E-3,-1.6663672E-4,6.541443E-3,7.7633862E-3,2.8826238E-3,6.335736E-3,-5.8536534E-5,6.5353876E-3,2.670749E-3,5.352161E-3,7.187319E-3,3.4615519E-3,-1.9422055E-3,2.8088093E-3,7.829047E-3,7.0322515E-3,4.911042E-3,4.5540335E-4],"split_indices":[0,6,2,7,6,3,0,7,7,3,7,5,0,3,0,3,4,5,1,1,0,6,1,4,2,7,4,1,2,1,6,7,5,2,0,6,0,5,0,2,4,0,0,0,7,0,0,1,2,4,0,5,2,1,6,6,6,0,1,0,0,0,2,0,0,0,0,0,0,0,0,0,0,0,0,0,0,0,0,0,0,0,0,0,0,0,0,0,0,0,0,0,0,0,0,0,0,0,0,0,0,0,0,0,0,0,0,0,0,0,0,0,0,0,0,0,0,0,0],"split_type":[0,0,0,0,0,0,0,0,0,0,0,0,0,0,0,0,0,0,0,0,0,0,0,0,0,0,0,0,0,0,0,0,0,0,0,0,0,0,0,0,0,0,0,0,0,0,0,0,0,0,0,0,0,0,0,0,0,0,0,0,0,0,0,0,0,0,0,0,0,0,0,0,0,0,0,0,0,0,0,0,0,0,0,0,0,0,0,0,0,0,0,0,0,0,0,0,0,0,0,0,0,0,0,0,0,0,0,0,0,0,0,0,0,0,0,0,0,0,0],"sum_hessian":[1.28E3,1.058E3,2.22E2,8.8E2,1.78E2,1.66E2,5.6E1,8.5E2,3E1,1.51E2,2.7E1,4E1,1.26E2,4.6E1,1E1,9.7E1,7.53E2,2.2E1,8E0,1.13E2,3.8E1,2.3E1,4E0,1.5E1,2.5E1,1.13E2,1.3E1,3.9E1,7E0,4E0,6E0,4.8E1,4.9E1,6.21E2,1.32E2,1.9E1,3E0,6E0,2E0,7.6E1,3.7E1,3.4E1,4E0,1.6E1,7E0,3E0,1E0,8E0,7E0,1.9E1,6E0,9.4E1,1.9E1,2E0,1.1E1,8E0,3.1E1,2E0,5E0,2E0,2E0,1E0,5E0,2.2E1,2.6E1,4.7E1,2E0,4.75E2,1.46E2,5E1,8.2E1,5E0,1.4E1,3E0,3E0,1E0,1E0,2.4E1,5.2E1,3.6E1,1E0,3E1,4E0,3E0,1E0,2E0,1.4E1,3E0,4E0,1E0,2E0,1E0,7E0,4E0,3E0,1.2E1,7E0,3E0,3E0,8.2E1,1.2E1,1.1E1,8E0,1E0,1E0,1E1,1E0,5E0,3E0,9E0,2.2E1,1E0,1E0,4E0,1E0,1E0,1E0,3E0,2E0],"tree_param":{"num_deleted":"0","num_feature":"8","num_nodes":"119","size_leaf_vector":"1"}},{"base_weights":[-1.15484E-7,8.811637E-3,-5.5633904E-4,2.5963068E-2,7.858779E-3,-1.6616321E-3,4.3873354E-3,1.8954515E-2,3.297162E-2,1.4392972E-2,5.3456286E-3,8.394354E-3,-2.5033227E-3,3.71677E-3,2.2157311E-2,4.6518804E-3,6.7208293E-3,1.1239386E-2,8.543587E-3,1.8470765E-3,1.8574936E-2,1.7544031E-2,3.1277374E-3,1.8734774E-2,7.5080325E-3,-3.6088377E-3,3.4107962E-3,1.979351E-3,9.062676E-3,2.94168E-2,1.9737482E-2,-3.908793E-3,1.0480881E-2,2.276435E-2,1.0196114E-2,1.3104756E-2,3.0861855E-2,1.5163035E-3,1.1645317E-2,8.816386E-3,1.6604137E-2,1.2603032E-2,5.6098956E-3,6.4322627E-3,-4.572668E-3,1.9818426E-3,1.0866207E-2,7.6180696E-3,3.423037E-4,6.634648E-3,1.505181E-2,8.003712E-3,9.646368E-3,1.7381381E-2,9.455395E-3,-7.1640016E-4,-2.0851137E-3,4.3222904E-3,1.966238E-3,1.2007571E-2,6.2539424E-3,5.6479457E-3,1.33276E-3,2.8768303E-3,6.040621E-3,1.0767747E-2,7.749367E-3,2.1690966E-3,-3.6792757E-4,6.682134E-3,2.2181799E-3,2.5553228E-3,5.5877212E-3,5.3363596E-3,2.8735637E-3,3.0778619E-3,1.0453034E-3,3.0014662E-3,1.0606624E-3,1.8698721E-3,-1.6273265E-3,1.7888474E-4,2.5541305E-3,4.8657777E-3,2.4033738E-3,2.7526713E-3,-5.0830844E-5,1.8675696E-3,-4.8560175E-4,1.2880967E-3,4.5362236E-3,4.9303127E-3,1.8195391E-3,3.0517103E-3,5.755091E-3],"categories":[],"categories_nodes":[],"categories_segments":[],"categories_sizes":[],"default_left":[0,0,0,0,0,0,0,0,0,0,0,0,0,0,0,0,0,0,0,0,0,0,0,0,0,0,0,0,0,0,0,0,0,0,0,0,0,0,0,0,0,0,0,0,0,0,0,0,0,0,0,0,0,0,0,0,0,0,0,0,0,0,0,0,0,0,0,0,0,0,0,0,0,0,0,0,0,0,0,0,0,0,0,0,0,0,0,0,0,0,0,0,0,0,0],"id":12,"left_children":[1,3,5,7,9,11,13,15,17,19,21,23,25,27,29,-1,-1,-1,-1,31,33,35,37,39,41,43,45,47,49,51,53,55,57,59,61,63,65,67,69,-1,71,73,75,77,79,81,83,85,87,89,91,-1,-1,93,-1,-1,-1,-1,-1,-1,-1,-1,-1,-1,-1,-1,-1,-1,-1,-1,-1,-1,-1,-1,-1,-1,-1,-1,-1,-1,-1,-1,-1,-1,-1,-1,-1,-1,-1,-1,-1,-1,-1,-1,-1],"loss_changes":[6.2736697E-3,1.2420584E-3,6.578908E-3,1.9647903E-4,1.182341E-3,8.328604E-3,2.6215035E-3,2.3780798E-5,4.037423E-5,1.0493305E-3,1.4068459E-3,6.965352E-4,5.936637E-3,1.9690725E-3,1.4053378E-4,0E0,0E0,0E0,0E0,2.4847526E-4,5.2653486E-4,4.729717E-4,6.0392276E-4,1.3618823E-4,6.7697046E-4,7.4036075E-3,1.5234414E-3,1.4769359E-3,7.561729E-4,1.4990685E-5,1.6653631E-4,1.3876863E-5,3.0838797E-5,3.310428E-4,2.4827768E-4,1.4828995E-4,5.0614588E-5,5.79864E-4,3.1629985E-4,0E0,8.173718E-5,2.9794755E-4,5.0403574E-4,6.933762E-4,6.424172E-3,1.0860452E-3,3.5150326E-4,4.366457E-4,1.430499E-3,7.3503784E-4,1.8637022E-4,0E0,0E0,6.496243E-5,0E0,0E0,0E0,0E0,0E0,0E0,0E0,0E0,0E0,0E0,0E0,0E0,0E0,0E0,0E0,0E0,0E0,0E0,0E0,0E0,0E0,0E0,0E0,0E0,0E0,0E0,0E0,0E0,0E0,0E0,0E0,0E0,0E0,0E0,0E0,0E0,0E0,0E0,0E0,0E0,0E0],"parents":[2147483647,0,0,1,1,2,2,3,3,4,4,5,5,6,6,7,7,8,8,9,9,10,10,11,11,12,12,13,13,14,14,19,19,20,20,21,21,22,22,23,23,24,24,25,25,26,26,27,27,28,28,29,29,30,30,31,31,32,32,33,33,34,34,35,35,36,36,37,37,38,38,40,40,41,41,42,42,43,43,44,44,45,45,46,46,47,47,48,48,49,49,50,50,53,53],"right_children":[2,4,6,8,10,12,14,16,18,20,22,24,26,28,30,-1,-1,-1,-1,32,34,36,38,40,42,44,46,48,50,52,54,56,58,60,62,64,66,68,70,-1,72,74,76,78,80,82,84,86,88,90,92,-1,-1,94,-1,-1,-1,-1,-1,-1,-1,-1,-1,-1,-1,-1,-1,-1,-1,-1,-1,-1,-1,-1,-1,-1,-1,-1,-1,-1,-1,-1,-1,-1,-1,-1,-1,-1,-1,-1,-1,-1,-1,-1,-1],"split_conditions":[2.5388834E-1,4.0081388E-1,6.6005725E-1,3.1518906E-1,3.4563583E-1,2.5388834E-1,8.2110435E-1,3.806846E-1,3.4000158E-1,2.4532568E-1,6.176077E-1,4.1689265E-1,6.773268E-1,3.7757185E-1,5.5165124E-1,4.6518804E-3,6.7208293E-3,1.1239386E-2,8.543587E-3,5.904917E-1,2.190686E-1,7.393988E-1,4.665697E-1,1.8982787E-1,1.8982787E-1,2.5388834E-1,7.727931E-1,3.361697E-1,6.224708E-1,4.0081388E-1,3.77175E-1,6.904466E-1,6.904466E-1,6.087564E-1,2.6514152E-1,2.190686E-1,5.296721E-1,3.4563583E-1,5.1134413E-1,8.816386E-3,2.7034009E-1,3.361697E-1,3.4563583E-1,6.6554946E-1,2.5388834E-1,6.2674594E-1,5.6813234E-1,3.2836965E-1,4.1477382E-1,3.97089E-1,4.839852E-1,8.003712E-3,9.646368E-3,4.3962425E-1,9.455395E-3,-7.1640016E-4,-2.0851137E-3,4.3222904E-3,1.966238E-3,1.2007571E-2,6.2539424E-3,5.6479457E-3,1.33276E-3,2.8768303E-3,6.040621E-3,1.0767747E-2,7.749367E-3,2.1690966E-3,-3.6792757E-4,6.682134E-3,2.2181799E-3,2.5553228E-3,5.5877212E-3,5.3363596E-3,2.8735637E-3,3.0778619E-3,1.0453034E-3,3.0014662E-3,1.0606624E-3,1.8698721E-3,-1.6273265E-3,1.7888474E-4,2.5541305E-3,4.8657777E-3,2.4033738E-3,2.7526713E-3,-5.0830844E-5,1.8675696E-3,-4.8560175E-4,1.2880967E-3,4.5362236E-3,4.9303127E-3,1.8195391E-3,3.0517103E-3,5.755091E-3],"split_indices":[5,0,1,1,6,1,1,0,0,6,7,4,0,7,5,0,0,0,0,1,5,2,1,1,1,0,0,6,5,0,7,3,0,3,6,5,0,1,1,0,5,2,5,2,4,3,4,7,0,3,4,0,0,4,0,0,0,0,0,0,0,0,0,0,0,0,0,0,0,0,0,0,0,0,0,0,0,0,0,0,0,0,0,0,0,0,0,0,0,0,0,0,0,0,0],"split_type":[0,0,0,0,0,0,0,0,0,0,0,0,0,0,0,0,0,0,0,0,0,0,0,0,0,0,0,0,0,0,0,0,0,0,0,0,0,0,0,0,0,0,0,0,0,0,0,0,0,0,0,0,0,0,0,0,0,0,0,0,0,0,0,0,0,0,0,0,0,0,0,0,0,0,0,0,0,0,0,0,0,0,0,0,0,0,0,0,0,0,0,0,0,0,0],"sum_hessian":[1.28E3,7.6E1,1.204E3,4E0,7.2E1,9.84E2,2.2E2,2E0,2E0,2E1,5.2E1,7.6E1,9.08E2,2.12E2,8E0,1E0,1E0,1E0,1E0,5E0,1.5E1,8E0,4.4E1,6E0,7E1,7.65E2,1.43E2,1.6E2,5.2E1,2E0,6E0,3E0,2E0,1E1,5E0,6E0,2E0,3.7E1,7E0,1E0,5E0,1.9E1,5.1E1,6.7E1,6.98E2,1.2E2,2.3E1,3.6E1,1.24E2,3.7E1,1.5E1,1E0,1E0,5E0,1E0,2E0,1E0,1E0,1E0,1E0,9E0,2E0,3E0,4E0,2E0,1E0,1E0,1.2E1,2.5E1,2E0,5E0,1E0,4E0,7E0,1.2E1,1.6E1,3.5E1,3E1,3.7E1,5.1E1,6.47E2,9.9E1,2.1E1,8E0,1.5E1,3E1,6E0,3.1E1,9.3E1,2.9E1,8E0,1.3E1,2E0,1E0,4E0],"tree_param":{"num_deleted":"0","num_feature":"8","num_nodes":"95","size_leaf_vector":"1"}},{"base_weights":[-1.3038516E-8,-4.5896167E-4,7.700125E-3,-1.2794409E-3,4.1964645E-3,6.153904E-3,2.0069897E-2,-2.1269605E-3,3.2458953E-3,3.3741393E-3,1.5777549E-2,5.4241163E-3,2.0992914E-2,1.5864562E-2,2.7078787E-2,-2.5125286E-3,1.2647304E-2,2.6087884E-3,1.5510201E-2,8.23028E-3,1.0938644E-3,8.2035065E-3,1.9564569E-2,4.77619E-3,1.7950693E-2,1.0989333E-2,1.3173819E-2,9.1404915E-3,2.0347277E-2,6.9235326E-3,2.907896E-2,-3.1632981E-3,5.980015E-3,2.1708488E-2,9.249359E-3,6.7149037E-3,8.598875E-4,2.0591736E-2,1.3816357E-2,3.051281E-3,1.081978E-2,6.607192E-3,-4.1391244E-3,4.8474316E-3,5.551974E-3,2.1636758E-2,1.5177728E-3,2.9171307E-3,8.592154E-3,5.920744E-3,4.3141367E-3,5.0354004E-3,2.8688908E-3,1.7284871E-3,3.755808E-3,7.5759892E-3,1.7894268E-2,8.3423145E-3,9.105063E-3,-1.3569249E-3,6.270092E-4,2.4569207E-3,-1.5205765E-3,5.3019524E-3,7.723141E-3,1.4140428E-3,4.1355733E-3,6.5639736E-3,1.8076757E-3,-5.639615E-4,1.7121463E-3,5.602598E-3,6.7524435E-3,5.7133916E-3,3.360665E-3,-7.1952346E-4,1.7328382E-3,6.348968E-3,2.8580548E-3,8.0733554E-4,2.5854448E-3,3.0896368E-3,-1.9211686E-3,1.8914223E-3,1.2139321E-3,5.069637E-3,7.5570703E-3,1.2574196E-4,2.3739338E-3,2.7958555E-3,-1.3501168E-3,5.8241845E-3,4.9123764E-3],"categories":[],"categories_nodes":[],"categories_segments":[],"categories_sizes":[],"default_left":[0,0,0,0,0,0,0,0,0,0,0,0,0,0,0,0,0,0,0,0,0,0,0,0,0,0,0,0,0,0,0,0,0,0,0,0,0,0,0,0,0,0,0,0,0,0,0,0,0,0,0,0,0,0,0,0,0,0,0,0,0,0,0,0,0,0,0,0,0,0,0,0,0,0,0,0,0,0,0,0,0,0,0,0,0,0,0,0,0,0,0,0,0],"id":13,"left_children":[1,3,5,7,9,11,13,15,17,19,21,23,25,27,29,31,33,35,37,39,41,43,45,47,49,-1,51,53,55,-1,57,59,61,63,65,67,69,71,73,75,77,79,81,-1,83,85,-1,87,89,-1,-1,-1,-1,-1,-1,-1,91,-1,-1,-1,-1,-1,-1,-1,-1,-1,-1,-1,-1,-1,-1,-1,-1,-1,-1,-1,-1,-1,-1,-1,-1,-1,-1,-1,-1,-1,-1,-1,-1,-1,-1,-1,-1],"loss_changes":[4.5234794E-3,4.6141744E-3,1.377101E-3,3.938865E-3,1.7237391E-3,6.930765E-4,2.3579807E-4,4.9274573E-3,1.265815E-3,1.8713936E-3,3.4419633E-4,4.9509446E-4,3.6682968E-4,1.5071046E-4,2.400414E-5,4.659E-3,6.7736744E-4,1.1059032E-3,6.88585E-5,7.2419434E-4,3.3178858E-3,8.436752E-5,2.4046237E-4,4.1145796E-4,1.9119878E-5,0E0,2.607645E-5,2.2833512E-5,3.6103535E-5,0E0,3.232155E-6,5.5932775E-3,1.4648596E-3,9.770226E-5,3.2918784E-4,4.8086187E-4,1.4342772E-3,7.3452247E-6,8.2004815E-5,2.6729231E-4,4.8144115E-4,4.410029E-4,1.9292152E-3,0E0,3.3999386E-6,1.1785375E-4,0E0,4.8671674E-4,1.809377E-4,0E0,0E0,0E0,0E0,0E0,0E0,0E0,4.6188943E-6,0E0,0E0,0E0,0E0,0E0,0E0,0E0,0E0,0E0,0E0,0E0,0E0,0E0,0E0,0E0,0E0,0E0,0E0,0E0,0E0,0E0,0E0,0E0,0E0,0E0,0E0,0E0,0E0,0E0,0E0,0E0,0E0,0E0,0E0,0E0,0E0],"parents":[2147483647,0,0,1,1,2,2,3,3,4,4,5,5,6,6,7,7,8,8,9,9,10,10,11,11,12,12,13,13,14,14,15,15,16,16,17,17,18,18,19,19,20,20,21,21,22,22,23,23,24,24,26,26,27,27,28,28,30,30,31,31,32,32,33,33,34,34,35,35,36,36,37,37,38,38,39,39,40,40,41,41,42,42,44,44,45,45,47,47,48,48,56,56],"right_children":[2,4,6,8,10,12,14,16,18,20,22,24,26,28,30,32,34,36,38,40,42,44,46,48,50,-1,52,54,56,-1,58,60,62,64,66,68,70,72,74,76,78,80,82,-1,84,86,-1,88,90,-1,-1,-1,-1,-1,-1,-1,92,-1,-1,-1,-1,-1,-1,-1,-1,-1,-1,-1,-1,-1,-1,-1,-1,-1,-1,-1,-1,-1,-1,-1,-1,-1,-1,-1,-1,-1,-1,-1,-1,-1,-1,-1,-1],"split_conditions":[7.352838E-1,6.773268E-1,8.2110435E-1,6.773268E-1,7.9806006E-1,6.373828E-1,3.4563583E-1,7.727931E-1,8.2110435E-1,4.1477382E-1,4.3962425E-1,7.5125945E-1,6.087564E-1,3.4563583E-1,4.833755E-1,7.352838E-1,5.6813234E-1,3.97089E-1,5.5165124E-1,5.751907E-1,4.1689265E-1,1.8982787E-1,6.109195E-1,7.727931E-1,6.3276184E-1,1.0989333E-2,6.855235E-1,4.3962425E-1,2.8234625E-1,6.9235326E-3,5.5090946E-1,6.6005725E-1,7.159733E-1,4.0081388E-1,2.6514152E-1,5.593611E-1,5.77988E-1,4.0081388E-1,4.1477382E-1,4.6044707E-1,5.647864E-1,5.751907E-1,5.904917E-1,4.8474316E-3,5.5571157E-1,2.3881374E-1,1.5177728E-3,5.857116E-1,6.95467E-1,5.920744E-3,4.3141367E-3,5.0354004E-3,2.8688908E-3,1.7284871E-3,3.755808E-3,7.5759892E-3,4.6393925E-1,8.3423145E-3,9.105063E-3,-1.3569249E-3,6.270092E-4,2.4569207E-3,-1.5205765E-3,5.3019524E-3,7.723141E-3,1.4140428E-3,4.1355733E-3,6.5639736E-3,1.8076757E-3,-5.639615E-4,1.7121463E-3,5.602598E-3,6.7524435E-3,5.7133916E-3,3.360665E-3,-7.1952346E-4,1.7328382E-3,6.348968E-3,2.8580548E-3,8.0733554E-4,2.5854448E-3,3.0896368E-3,-1.9211686E-3,1.8914223E-3,1.2139321E-3,5.069637E-3,7.5570703E-3,1.2574196E-4,2.3739338E-3,2.7958555E-3,-1.3501168E-3,5.8241845E-3,4.9123764E-3],"split_indices":[5,7,5,1,7,7,7,4,1,2,2,2,0,3,0,6,0,4,5,3,4,1,2,5,1,0,0,0,0,0,0,0,2,3,6,6,0,0,0,5,4,3,3,0,0,5,0,4,0,0,0,0,0,0,0,0,0,0,0,0,0,0,0,0,0,0,0,0,0,0,0,0,0,0,0,0,0,0,0,0,0,0,0,0,0,0,0,0,0,0,0,0,0],"split_type":[0,0,0,0,0,0,0,0,0,0,0,0,0,0,0,0,0,0,0,0,0,0,0,0,0,0,0,0,0,0,0,0,0,0,0,0,0,0,0,0,0,0,0,0,0,0,0,0,0,0,0,0,0,0,0,0,0,0,0,0,0,0,0,0,0,0,0,0,0,0,0,0,0,0,0,0,0,0,0,0,0,0,0,0,0,0,0,0,0,0,0,0,0],"sum_hessian":[1.28E3,1.208E3,7.2E1,1.027E3,1.81E2,6.4E1,8E0,8.65E2,1.62E2,1.69E2,1.2E1,6.1E1,3E0,5E0,3E0,8.43E2,2.2E1,1.54E2,8E0,5.4E1,1.15E2,4E0,8E0,5.8E1,3E0,1E0,2E0,2E0,3E0,1E0,2E0,7.83E2,6E1,6E0,1.6E1,4.6E1,1.08E2,2E0,6E0,1.8E1,3.6E1,5.6E1,5.9E1,1E0,3E0,7E0,1E0,3.9E1,1.9E1,2E0,1E0,1E0,1E0,1E0,1E0,1E0,2E0,1E0,1E0,6.22E2,1.61E2,5E1,1E1,3E0,3E0,8E0,8E0,2E0,4.4E1,6.9E1,3.9E1,1E0,1E0,2E0,4E0,6E0,1.2E1,4E0,3.2E1,1.9E1,3.7E1,8E0,5.1E1,2E0,1E0,3E0,4E0,2.6E1,1.3E1,1.8E1,1E0,1E0,1E0],"tree_param":{"num_deleted":"0","num_feature":"8","num_nodes":"93","size_leaf_vector":"1"}},{"base_weights":[5.4761767E-8,-7.357345E-4,3.506654E-3,-9.947283E-4,1.2706041E-2,1.8437164E-3,7.703592E-3,-1.9862428E-3,2.8006975E-3,1.0761367E-2,3.020811E-2,-2.1864669E-4,5.2466155E-3,9.159813E-3,8.196397E-4,-2.7974062E-3,3.5005875E-3,6.271187E-4,7.4994634E-3,1.4981703E-2,4.12941E-3,6.368208E-3,1.17566595E-2,2.3109198E-2,-6.9963315E-4,1.4072974E-2,4.2659086E-3,6.210785E-3,1.1890394E-2,-1.4664861E-3,1.1107206E-2,-3.7541182E-3,3.2454997E-3,2.7006743E-3,1.3299525E-2,-3.2989576E-3,6.6516153E-3,8.225888E-3,-8.239746E-3,2.1386148E-4,1.6408587E-2,-6.3149136E-4,7.7000856E-3,7.999564E-3,5.8659557E-3,3.4399563E-3,-3.1426696E-3,1.6481018E-2,6.0982705E-4,1.9425768E-3,7.916859E-3,8.867055E-3,1.4885267E-3,1.4432271E-2,8.713047E-3,-6.1252117E-3,2.2604943E-3,2.8095245E-3,3.8547993E-3,-1.4789569E-3,2.9612053E-4,3.7042532E-4,3.0575169E-3,4.0747835E-3,6.3468725E-4,5.249834E-3,3.2338717E-3,4.8953537E-3,-1.3399874E-3,1.7424488E-3,6.634474E-3,2.2914466E-3,6.1117173E-3,-1.5815735E-3,-4.2526247E-3,5.684076E-3,3.1457427E-3,-1.1043549E-3,2.6800635E-4,1.6482354E-3,2.5306228E-3,6.970041E-4,6.7266943E-3,1.87521E-3,-1.2502202E-3,5.8191777E-3,1.4448166E-3,8.970876E-4,-4.2891027E-3,3.5873416E-3,-6.5565115E-4,3.9993287E-3,1.8565893E-3,2.6641847E-3,-6.6225533E-4,5.1007466E-3,2.787552E-3,1.1487294E-3,3.6604747E-3,-9.45139E-4,-2.1350384E-3,8.64029E-5,3.0451298E-3],"categories":[],"categories_nodes":[],"categories_segments":[],"categories_sizes":[],"default_left":[0,0,0,0,0,0,0,0,0,0,0,0,0,0,0,0,0,0,0,0,0,0,0,0,0,0,0,0,0,0,0,0,0,0,0,0,0,0,0,0,0,0,0,0,0,0,0,0,0,0,0,0,0,0,0,0,0,0,0,0,0,0,0,0,0,0,0,0,0,0,0,0,0,0,0,0,0,0,0,0,0,0,0,0,0,0,0,0,0,0,0,0,0,0,0,0,0,0,0,0,0,0,0],"id":14,"left_children":[1,3,5,7,9,11,13,15,17,19,21,23,25,27,29,31,33,35,37,39,41,-1,-1,43,45,47,49,51,53,55,57,59,61,63,65,67,69,71,73,-1,75,77,79,-1,-1,81,83,85,-1,87,89,91,93,95,97,99,101,-1,-1,-1,-1,-1,-1,-1,-1,-1,-1,-1,-1,-1,-1,-1,-1,-1,-1,-1,-1,-1,-1,-1,-1,-1,-1,-1,-1,-1,-1,-1,-1,-1,-1,-1,-1,-1,-1,-1,-1,-1,-1,-1,-1,-1,-1],"loss_changes":[3.302551E-3,3.6832537E-3,1.5493927E-3,3.9062225E-3,6.8071624E-4,1.1158641E-3,6.3154707E-4,3.6629385E-3,2.1958244E-3,5.038036E-4,1.6130775E-4,1.1108174E-3,5.1936414E-4,4.1873287E-4,2.587054E-4,4.1452073E-3,8.3085964E-4,3.476937E-3,7.774683E-4,2.2395956E-4,1.1899744E-4,0E0,0E0,2.5290414E-5,9.809772E-4,1.7396011E-4,4.5804796E-4,3.1358982E-4,2.180636E-4,1.562668E-4,6.0700113E-6,3.4505492E-3,1.3687767E-3,6.2391517E-4,8.466886E-5,2.0386241E-3,7.564684E-4,4.6402914E-4,5.284825E-5,0E0,1.5033991E-4,1.39509275E-5,6.488379E-6,0E0,0E0,7.630516E-4,5.871663E-4,1.7008919E-4,0E0,5.614772E-4,8.572851E-4,1.9130553E-4,2.458934E-4,1.9818055E-4,2.04454E-4,1.1798853E-5,7.7813915E-5,0E0,0E0,0E0,0E0,0E0,0E0,0E0,0E0,0E0,0E0,0E0,0E0,0E0,0E0,0E0,0E0,0E0,0E0,0E0,0E0,0E0,0E0,0E0,0E0,0E0,0E0,0E0,0E0,0E0,0E0,0E0,0E0,0E0,0E0,0E0,0E0,0E0,0E0,0E0,0E0,0E0,0E0,0E0,0E0,0E0,0E0],"parents":[2147483647,0,0,1,1,2,2,3,3,4,4,5,5,6,6,7,7,8,8,9,9,10,10,11,11,12,12,13,13,14,14,15,15,16,16,17,17,18,18,19,19,20,20,23,23,24,24,25,25,26,26,27,27,28,28,29,29,30,30,31,31,32,32,33,33,34,34,35,35,36,36,37,37,38,38,40,40,41,41,42,42,45,45,46,46,47,47,49,49,50,50,51,51,52,52,53,53,54,54,55,55,56,56],"right_children":[2,4,6,8,10,12,14,16,18,20,22,24,26,28,30,32,34,36,38,40,42,-1,-1,44,46,48,50,52,54,56,58,60,62,64,66,68,70,72,74,-1,76,78,80,-1,-1,82,84,86,-1,88,90,92,94,96,98,100,102,-1,-1,-1,-1,-1,-1,-1,-1,-1,-1,-1,-1,-1,-1,-1,-1,-1,-1,-1,-1,-1,-1,-1,-1,-1,-1,-1,-1,-1,-1,-1,-1,-1,-1,-1,-1,-1,-1,-1,-1,-1,-1,-1,-1,-1,-1],"split_conditions":[6.6005725E-1,7.8534484E-1,3.7431172E-1,6.6005725E-1,6.510415E-1,3.5627195E-1,6.95467E-1,6.904466E-1,3.5627195E-1,5.806694E-1,2.7034009E-1,4.9993968E-1,3.6810976E-1,4.1689265E-1,5.904917E-1,6.904466E-1,8.2110435E-1,3.5627195E-1,5.704179E-1,3.1793892E-1,4.254107E-1,6.368208E-3,1.17566595E-2,4.5365444E-1,2.7176017E-1,7.2218454E-1,4.665697E-1,4.9993968E-1,6.2674594E-1,5.0556934E-1,7.6131725E-1,6.554709E-1,3.7431172E-1,3.2220182E-1,4.1477382E-1,5.647864E-1,8.2110435E-1,8.2110435E-1,2.4532568E-1,2.1386148E-4,4.9744084E-1,3.7863156E-1,2.3881374E-1,7.999564E-3,5.8659557E-3,6.4383036E-1,5.686297E-1,2.7034009E-1,6.0982705E-4,4.6044707E-1,6.904466E-1,4.9888635E-1,2.6853704E-1,6.3000077E-1,4.9744084E-1,7.393988E-1,7.5125945E-1,2.8095245E-3,3.8547993E-3,-1.4789569E-3,2.9612053E-4,3.7042532E-4,3.0575169E-3,4.0747835E-3,6.3468725E-4,5.249834E-3,3.2338717E-3,4.8953537E-3,-1.3399874E-3,1.7424488E-3,6.634474E-3,2.2914466E-3,6.1117173E-3,-1.5815735E-3,-4.2526247E-3,5.684076E-3,3.1457427E-3,-1.1043549E-3,2.6800635E-4,1.6482354E-3,2.5306228E-3,6.970041E-4,6.7266943E-3,1.87521E-3,-1.2502202E-3,5.8191777E-3,1.4448166E-3,8.970876E-4,-4.2891027E-3,3.5873416E-3,-6.5565115E-4,3.9993287E-3,1.8565893E-3,2.6641847E-3,-6.6225533E-4,5.1007466E-3,2.787552E-3,1.1487294E-3,3.6604747E-3,-9.45139E-4,-2.1350384E-3,8.64029E-5,3.0451298E-3],"split_indices":[5,2,7,3,6,3,0,4,5,6,0,1,3,7,1,6,4,1,5,1,1,0,0,0,3,1,3,4,4,7,0,7,4,3,5,7,3,3,1,0,4,1,0,0,0,6,1,7,0,3,2,2,6,0,7,0,0,0,0,0,0,0,0,0,0,0,0,0,0,0,0,0,0,0,0,0,0,0,0,0,0,0,0,0,0,0,0,0,0,0,0,0,0,0,0,0,0,0,0,0,0,0,0],"split_type":[0,0,0,0,0,0,0,0,0,0,0,0,0,0,0,0,0,0,0,0,0,0,0,0,0,0,0,0,0,0,0,0,0,0,0,0,0,0,0,0,0,0,0,0,0,0,0,0,0,0,0,0,0,0,0,0,0,0,0,0,0,0,0,0,0,0,0,0,0,0,0,0,0,0,0,0,0,0,0,0,0,0,0,0,0,0,0,0,0,0,0,0,0,0,0,0,0,0,0,0,0,0,0],"sum_hessian":[1.28E3,1.058E3,2.22E2,1.038E3,2E1,1.59E2,6.3E1,8.23E2,2.15E2,1.8E1,2E0,9.9E1,6E1,5.2E1,1.1E1,7.17E2,1.06E2,1.47E2,6.8E1,1.1E1,7E0,1E0,1E0,2E0,9.7E1,6E0,5.4E1,2.5E1,2.7E1,9E0,2E0,6.19E2,9.8E1,9.8E1,8E0,8.9E1,5.8E1,6.5E1,3E0,1E0,1E1,3E0,4E0,1E0,1E0,3.6E1,6.1E1,5E0,1E0,3.3E1,2.1E1,1.6E1,9E0,1.5E1,1.2E1,4E0,5E0,1E0,1E0,4.96E2,1.23E2,7.6E1,2.2E1,5E0,9.3E1,3E0,5E0,5E0,8.4E1,5.5E1,3E0,6.2E1,3E0,2E0,1E0,7E0,3E0,1E0,2E0,1E0,3E0,3.4E1,2E0,6E0,5.5E1,4E0,1E0,3.1E1,2E0,1.5E1,6E0,6E0,1E1,3E0,6E0,1E1,5E0,5E0,7E0,1E0,3E0,4E0,1E0],"tree_param":{"num_deleted":"0","num_feature":"8","num_nodes":"103","size_leaf_vector":"1"}},{"base_weights":[1.0058284E-7,-6.010059E-4,2.8648335E-3,4.03832E-3,-1.0906317E-3,1.2099829E-3,7.7702827E-3,2.7126002E-3,1.015136E-2,-2.0246366E-3,2.2115842E-3,-1.3796834E-3,5.78506E-3,1.1541346E-2,5.141966E-3,4.8700552E-3,-1.3036823E-2,9.122938E-3,1.8378735E-2,-2.394645E-3,8.221755E-3,1.1804419E-3,6.015354E-3,8.928251E-3,-2.4534266E-3,4.119608E-3,1.0781416E-2,2.473545E-2,1.0284765E-2,1.235909E-3,9.829235E-3,-3.9433753E-3,5.8048135E-3,8.014043E-4,-1.8967493E-2,4.59013E-3,1.1183306E-2,4.8648836E-3,6.1623575E-3,-2.751345E-3,8.922469E-3,9.29306E-3,-4.6339035E-3,6.569432E-4,8.557016E-3,8.428224E-3,1.1896134E-3,7.0405537E-3,7.775259E-3,4.655957E-3,-3.8753033E-3,5.63624E-3,-5.738497E-3,3.5920143E-3,1.4376116E-2,6.180382E-3,8.660889E-3,9.598208E-3,7.2047715E-3,-5.5082184E-3,5.5276263E-3,8.392884E-3,1.9165516E-2,-3.6234857E-4,-6.106997E-3,2.5254744E-3,1.2318243E-3,-8.8777544E-4,2.4968148E-3,-7.804785E-3,-4.0390494E-4,1.6402961E-3,3.2401085E-4,5.713892E-3,2.8307915E-3,-1.0895025E-3,3.5066195E-4,1.9385577E-3,3.56256E-3,3.0631411E-3,-2.3953915E-4,-3.0212404E-4,-2.4782182E-3,1.1493927E-3,-2.4313567E-4,3.860128E-3,1.8282346E-3,2.8779139E-3,2.5706293E-4,-9.3727116E-4,2.9451945E-3,-1.4873028E-3,2.5620998E-3,1.0382542E-3,2.9504301E-3,-2.6658194E-3,-6.275436E-4,6.136009E-4,2.9476883E-3,-4.911518E-3,-1.2656451E-4,-1.2274504E-3,2.6143077E-3,3.369731E-3,8.085251E-3,2.6831264E-3,3.992033E-3,-2.1122694E-3,1.1063577E-3,3.1967164E-4,3.2646277E-3,3.2097024E-3,9.6123223E-4,7.852364E-3,3.646946E-3],"categories":[],"categories_nodes":[],"categories_segments":[],"categories_sizes":[],"default_left":[0,0,0,0,0,0,0,0,0,0,0,0,0,0,0,0,0,0,0,0,0,0,0,0,0,0,0,0,0,0,0,0,0,0,0,0,0,0,0,0,0,0,0,0,0,0,0,0,0,0,0,0,0,0,0,0,0,0,0,0,0,0,0,0,0,0,0,0,0,0,0,0,0,0,0,0,0,0,0,0,0,0,0,0,0,0,0,0,0,0,0,0,0,0,0,0,0,0,0,0,0,0,0,0,0,0,0,0,0,0,0,0,0,0,0],"id":15,"left_children":[1,3,5,7,9,11,13,15,17,19,21,23,25,27,29,31,33,35,37,39,41,43,45,47,49,51,53,55,57,59,61,63,65,67,69,71,73,-1,-1,75,77,79,81,83,85,87,89,91,-1,93,95,97,99,101,103,-1,-1,105,-1,107,109,111,113,-1,-1,-1,-1,-1,-1,-1,-1,-1,-1,-1,-1,-1,-1,-1,-1,-1,-1,-1,-1,-1,-1,-1,-1,-1,-1,-1,-1,-1,-1,-1,-1,-1,-1,-1,-1,-1,-1,-1,-1,-1,-1,-1,-1,-1,-1,-1,-1,-1,-1,-1,-1],"loss_changes":[2.204172E-3,2.4032823E-3,1.8021484E-3,8.1852183E-4,2.9516616E-3,1.9667551E-3,5.550466E-4,2.82023E-3,1.5230174E-4,2.8282746E-3,8.275899E-4,1.1732159E-3,4.992713E-4,3.8132793E-4,6.0418854E-4,6.014049E-4,8.2069926E-4,1.4942791E-4,9.3523995E-6,2.9065055E-3,3.5808038E-4,6.410302E-4,5.239749E-4,3.2070628E-4,9.7043207E-4,6.7280006E-4,3.8765627E-4,3.4182798E-5,1.9797147E-4,5.2099E-4,2.0115264E-4,3.1429506E-4,2.9300898E-4,8.4855186E-5,8.6941314E-4,1.5400954E-5,1.5113223E-4,0E0,0E0,2.4088565E-3,1.5984126E-4,2.2219378E-4,2.6307694E-5,7.219977E-4,1.1676818E-4,2.6457827E-4,5.5827916E-4,1.6195216E-4,0E0,9.902794E-5,7.149321E-4,5.8670365E-4,3.3919676E-4,1.9678805E-4,3.9530895E-4,0E0,0E0,4.854158E-5,0E0,9.8662495E-5,2.628111E-4,1.5555747E-4,9.825302E-5,0E0,0E0,0E0,0E0,0E0,0E0,0E0,0E0,0E0,0E0,0E0,0E0,0E0,0E0,0E0,0E0,0E0,0E0,0E0,0E0,0E0,0E0,0E0,0E0,0E0,0E0,0E0,0E0,0E0,0E0,0E0,0E0,0E0,0E0,0E0,0E0,0E0,0E0,0E0,0E0,0E0,0E0,0E0,0E0,0E0,0E0,0E0,0E0,0E0,0E0,0E0,0E0],"parents":[2147483647,0,0,1,1,2,2,3,3,4,4,5,5,6,6,7,7,8,8,9,9,10,10,11,11,12,12,13,13,14,14,15,15,16,16,17,17,18,18,19,19,20,20,21,21,22,22,23,23,24,24,25,25,26,26,27,27,28,28,29,29,30,30,31,31,32,32,33,33,34,34,35,35,36,36,39,39,40,40,41,41,42,42,43,43,44,44,45,45,46,46,47,47,49,49,50,50,51,51,52,52,53,53,54,54,57,57,59,59,60,60,61,61,62,62],"right_children":[2,4,6,8,10,12,14,16,18,20,22,24,26,28,30,32,34,36,38,40,42,44,46,48,50,52,54,56,58,60,62,64,66,68,70,72,74,-1,-1,76,78,80,82,84,86,88,90,92,-1,94,96,98,100,102,104,-1,-1,106,-1,108,110,112,114,-1,-1,-1,-1,-1,-1,-1,-1,-1,-1,-1,-1,-1,-1,-1,-1,-1,-1,-1,-1,-1,-1,-1,-1,-1,-1,-1,-1,-1,-1,-1,-1,-1,-1,-1,-1,-1,-1,-1,-1,-1,-1,-1,-1,-1,-1,-1,-1,-1,-1,-1,-1],"split_conditions":[6.6005725E-1,2.7034009E-1,3.7757185E-1,2.6262578E-1,6.6005725E-1,3.5627195E-1,6.9434905E-1,2.5388834E-1,4.886555E-1,7.727931E-1,6.2008464E-1,5.8848226E-1,6.802081E-1,2.6853704E-1,5.7695806E-1,2.6262578E-1,4.9123442E-1,6.6005725E-1,4.7551426E-1,7.6131725E-1,6.855235E-1,7.9806006E-1,7.159733E-1,7.078791E-1,2.5388834E-1,3.2836965E-1,3.7431172E-1,5.151177E-1,6.855235E-1,4.665697E-1,6.0579133E-1,2.5388834E-1,6.625379E-1,5.618172E-1,5.7452536E-1,2.6514152E-1,2.959277E-1,4.8648836E-3,6.1623575E-3,6.554709E-1,7.9806006E-1,6.855235E-1,2.4532568E-1,3.97089E-1,4.1477382E-1,7.4339634E-1,5.93209E-1,3.255578E-1,7.775259E-3,2.3881374E-1,6.2674594E-1,5.618172E-1,3.2836965E-1,5.413634E-1,7.159733E-1,6.180382E-3,8.660889E-3,6.855235E-1,7.2047715E-3,7.6131725E-1,5.857895E-1,4.9993968E-1,1.3976774E-1,-3.6234857E-4,-6.106997E-3,2.5254744E-3,1.2318243E-3,-8.8777544E-4,2.4968148E-3,-7.804785E-3,-4.0390494E-4,1.6402961E-3,3.2401085E-4,5.713892E-3,2.8307915E-3,-1.0895025E-3,3.5066195E-4,1.9385577E-3,3.56256E-3,3.0631411E-3,-2.3953915E-4,-3.0212404E-4,-2.4782182E-3,1.1493927E-3,-2.4313567E-4,3.860128E-3,1.8282346E-3,2.8779139E-3,2.5706293E-4,-9.3727116E-4,2.9451945E-3,-1.4873028E-3,2.5620998E-3,1.0382542E-3,2.9504301E-3,-2.6658194E-3,-6.275436E-4,6.136009E-4,2.9476883E-3,-4.911518E-3,-1.2656451E-4,-1.2274504E-3,2.6143077E-3,3.369731E-3,8.085251E-3,2.6831264E-3,3.992033E-3,-2.1122694E-3,1.1063577E-3,3.1967164E-4,3.2646277E-3,3.2097024E-3,9.6123223E-4,7.852364E-3,3.646946E-3],"split_indices":[2,3,4,3,4,0,2,3,7,3,7,6,6,6,6,4,6,1,0,7,6,4,7,1,4,4,0,0,1,4,3,4,5,4,6,3,4,0,0,0,7,0,0,7,5,4,0,3,0,4,6,3,1,1,2,0,0,2,0,5,1,3,0,0,0,0,0,0,0,0,0,0,0,0,0,0,0,0,0,0,0,0,0,0,0,0,0,0,0,0,0,0,0,0,0,0,0,0,0,0,0,0,0,0,0,0,0,0,0,0,0,0,0,0,0],"split_type":[0,0,0,0,0,0,0,0,0,0,0,0,0,0,0,0,0,0,0,0,0,0,0,0,0,0,0,0,0,0,0,0,0,0,0,0,0,0,0,0,0,0,0,0,0,0,0,0,0,0,0,0,0,0,0,0,0,0,0,0,0,0,0,0,0,0,0,0,0,0,0,0,0,0,0,0,0,0,0,0,0,0,0,0,0,0,0,0,0,0,0,0,0,0,0,0,0,0,0,0,0,0,0,0,0,0,0,0,0,0,0,0,0,0,0],"sum_hessian":[1.28E3,1.058E3,2.22E2,1.01E2,9.57E2,1.66E2,5.6E1,8.3E1,1.8E1,7.46E2,2.11E2,1.06E2,6E1,2.3E1,3.3E1,7.3E1,1E1,1.6E1,2E0,7.2E2,2.6E1,1.66E2,4.5E1,1E1,9.6E1,4.5E1,1.5E1,2E0,2.1E1,1.8E1,1.5E1,7E0,6.6E1,3E0,7E0,5E0,1.1E1,1E0,1E0,6.98E2,2.2E1,2.4E1,2E0,1.55E2,1.1E1,3E1,1.5E1,9E0,1E0,1.6E1,8E1,3.9E1,6E0,5E0,1E1,1E0,1E0,2E1,1E0,7E0,1.1E1,1.3E1,2E0,6E0,1E0,2.6E1,4E1,2E0,1E0,5E0,2E0,4E0,1E0,2E0,9E0,5.7E2,1.28E2,1.2E1,1E1,2.2E1,2E0,1E0,1E0,4.9E1,1.06E2,4E0,7E0,2.6E1,4E0,1E1,5E0,1E0,8E0,