{"learner":{"attributes":{"scikit_learn":"{\"_estimator_type\": \"regressor\"}"},"feature_names":[],"feature_types":[],"gradient_booster":{"model":{"gbtree_model_param":{"num_parallel_tree":"1","num_trees":"800"},"iteration_indptr":[0,1,2,3,4,5,6,7,8,9,10,11,12,13,14,15,16,17,18,19,20,21,22,23,24,25,26,27,28,29,30,31,32,33,34,35,36,37,38,39,40,41,42,43,44,45,46,47,48,49,50,51,52,53,54,55,56,57,58,59,60,61,62,63,64,65,66,67,68,69,70,71,72,73,74,75,76,77,78,79,80,81,82,83,84,85,86,87,88,89,90,91,92,93,94,95,96,97,98,99,100,101,102,103,104,105,106,107,108,109,110,111,112,113,114,115,116,117,118,119,120,121,122,123,124,125,126,127,128,129,130,131,132,133,134,135,136,137,138,139,140,141,142,143,144,145,146,147,148,149,150,151,152,153,154,155,156,157,158,159,160,161,162,163,164,165,166,167,168,169,170,171,172,173,174,175,176,177,178,179,180,181,182,183,184,185,186,187,188,189,190,191,192,193,194,195,196,197,198,199,200,201,202,203,204,205,206,207,208,209,210,211,212,213,214,215,216,217,218,219,220,221,222,223,224,225,226,227,228,229,230,231,232,233,234,235,236,237,238,239,240,241,242,243,244,245,246,247,248,249,250,251,252,253,254,255,256,257,258,259,260,261,262,263,264,265,266,267,268,269,270,271,272,273,274,275,276,277,278,279,280,281,282,283,284,285,286,287,288,289,290,291,292,293,294,295,296,297,298,299,300,301,302,303,304,305,306,307,308,309,310,311,312,313,314,315,316,317,318,319,320,321,322,323,324,325,326,327,328,329,330,331,332,333,334,335,336,337,338,339,340,341,342,343,344,345,346,347,348,349,350,351,352,353,354,355,356,357,358,359,360,361,362,363,364,365,366,367,368,369,370,371,372,373,374,375,376,377,378,379,380,381,382,383,384,385,386,387,388,389,390,391,392,393,394,395,396,397,398,399,400,401,402,403,404,405,406,407,408,409,410,411,412,413,414,415,416,417,418,419,420,421,422,423,424,425,426,427,428,429,430,431,432,433,434,435,436,437,438,439,440,441,442,443,444,445,446,447,448,449,450,451,452,453,454,455,456,457,458,459,460,461,462,463,464,465,466,467,468,469,470,471,472,473,474,475,476,477,478,479,480,481,482,483,484,485,486,487,488,489,490,491,492,493,494,495,496,497,498,499,500,501,502,503,504,505,506,507,508,509,510,511,512,513,514,515,516,517,518,519,520,521,522,523,524,525,526,527,528,529,530,531,532,533,534,535,536,537,538,539,540,541,542,543,544,545,546,547,548,549,550,551,552,553,554,555,556,557,558,559,560,561,562,563,564,565,566,567,568,569,570,571,572,573,574,575,576,577,578,579,580,581,582,583,584,585,586,587,588,589,590,591,592,593,594,595,596,597,598,599,600,601,602,603,604,605,606,607,608,609,610,611,612,613,614,615,616,617,618,619,620,621,622,623,624,625,626,627,628,629,630,631,632,633,634,635,636,637,638,639,640,641,642,643,644,645,646,647,648,649,650,651,652,653,654,655,656,657,658,659,660,661,662,663,664,665,666,667,668,669,670,671,672,673,674,675,676,677,678,679,680,681,682,683,684,685,686,687,688,689,690,691,692,693,694,695,696,697,698,699,700,701,702,703,704,705,706,707,708,709,710,711,712,713,714,715,716,717,718,719,720,721,722,723,724,725,726,727,728,729,730,731,732,733,734,735,736,737,738,739,740,741,742,743,744,745,746,747,748,749,750,751,752,753,754,755,756,757,758,759,760,761,762,763,764,765,766,767,768,769,770,771,772,773,774,775,776,777,778,779,780,781,782,783,784,785,786,787,788,789,790,791,792,793,794,795,796,797,798,799,800],"tree_info":[0,0,0,0,0,0,0,0,0,0,0,0,0,0,0,0,0,0,0,0,0,0,0,0,0,0,0,0,0,0,0,0,0,0,0,0,0,0,0,0,0,0,0,0,0,0,0,0,0,0,0,0,0,0,0,0,0,0,0,0,0,0,0,0,0,0,0,0,0,0,0,0,0,0,0,0,0,0,0,0,0,0,0,0,0,0,0,0,0,0,0,0,0,0,0,0,0,0,0,0,0,0,0,0,0,0,0,0,0,0,0,0,0,0,0,0,0,0,0,0,0,0,0,0,0,0,0,0,0,0,0,0,0,0,0,0,0,0,0,0,0,0,0,0,0,0,0,0,0,0,0,0,0,0,0,0,0,0,0,0,0,0,0,0,0,0,0,0,0,0,0,0,0,0,0,0,0,0,0,0,0,0,0,0,0,0,0,0,0,0,0,0,0,0,0,0,0,0,0,0,0,0,0,0,0,0,0,0,0,0,0,0,0,0,0,0,0,0,0,0,0,0,0,0,0,0,0,0,0,0,0,0,0,0,0,0,0,0,0,0,0,0,0,0,0,0,0,0,0,0,0,0,0,0,0,0,0,0,0,0,0,0,0,0,0,0,0,0,0,0,0,0,0,0,0,0,0,0,0,0,0,0,0,0,0,0,0,0,0,0,0,0,0,0,0,0,0,0,0,0,0,0,0,0,0,0,0,0,0,0,0,0,0,0,0,0,0,0,0,0,0,0,0,0,0,0,0,0,0,0,0,0,0,0,0,0,0,0,0,0,0,0,0,0,0,0,0,0,0,0,0,0,0,0,0,0,0,0,0,0,0,0,0,0,0,0,0,0,0,0,0,0,0,0,0,0,0,0,0,0,0,0,0,0,0,0,0,0,0,0,0,0,0,0,0,0,0,0,0,0,0,0,0,0,0,0,0,0,0,0,0,0,0,0,0,0,0,0,0,0,0,0,0,0,0,0,0,0,0,0,0,0,0,0,0,0,0,0,0,0,0,0,0,0,0,0,0,0,0,0,0,0,0,0,0,0,0,0,0,0,0,0,0,0,0,0,0,0,0,0,0,0,0,0,0,0,0,0,0,0,0,0,0,0,0,0,0,0,0,0,0,0,0,0,0,0,0,0,0,0,0,0,0,0,0,0,0,0,0,0,0,0,0,0,0,0,0,0,0,0,0,0,0,0,0,0,0,0,0,0,0,0,0,0,0,0,0,0,0,0,0,0,0,0,0,0,0,0,0,0,0,0,0,0,0,0,0,0,0,0,0,0,0,0,0,0,0,0,0,0,0,0,0,0,0,0,0,0,0,0,0,0,0,0,0,0,0,0,0,0,0,0,0,0,0,0,0,0,0,0,0,0,0,0,0,0,0,0,0,0,0,0,0,0,0,0,0,0,0,0,0,0,0,0,0,0,0,0,0,0,0,0,0,0,0,0,0,0,0,0,0,0,0,0,0,0,0,0,0,0,0,0,0,0,0,0,0,0,0,0,0,0,0,0,0,0,0,0,0,0,0,0,0,0,0,0,0,0,0,0,0,0,0,0,0,0,0,0,0,0,0,0,0,0,0,0,0,0,0,0,0,0,0,0,0,0,0,0,0,0,0,0,0,0,0,0,0,0,0,0,0,0,0,0,0,0,0,0,0,0,0,0,0,0,0,0,0,0,0,0,0,0,0,0,0,0,0,0,0,0,0,0,0,0,0,0,0,0,0,0,0,0,0,0,0,0,0,0,0,0,0,0,0,0,0,0,0,0,0,0,0,0,0,0,0,0,0,0,0,0,0,0,0,0,0,0,0,0,0,0],"trees":[{"base_weights":[1.758337E-7,-6.6966913E-3,9.297761E-2,-1.4126134E-2,9.023569E-2,2.3434535E-1,7.43766E-2,-2.0289533E-2,9.36306E-2,2.2415692E-1,7.43766E-2,3.108972E-1,2.015374E-1,6.439981E-2,1.8105151E-1,-2.6843954E-2,8.969144E-2,2.2415692E-1,7.0596546E-2,1.3611293E-1,2.4931233E-1,6.439981E-2,1.8105151E-1,8.418274E-2,9.781237E-2,1.6006899E-1,2.5682864E-1,5.2364312E-2,1.8105151E-1,1.5332022E-1,2.7348915E-1,-3.1697243E-2,5.8958568E-2,1.9714585E-1,6.7761965E-2,1.3611293E-1,2.4931233E-1,6.430852E-2,2.781016E-1,3.040781E-2,5.125995E-2,2.9610366E-1,2.2331715E-1,5.2364312E-2,1.8105151E-1,1.5332022E-1,2.7348915E-1,6.19463E-2,1.445961E-1,2.7391338E-1,6.679773E-2,4.8783895E-2,2.7435017E-1,1.5332022E-1,2.7348915E-1,1.3862197E-1,8.568135E-2,8.418274E-2,7.777476E-2,-1.1842073E-2,9.484037E-3,1.2611062E-2,3.70706E-2,4.083388E-2,6.3721225E-2,1.0783467E-2,3.416902E-2,3.040781E-2,5.125995E-2,8.88311E-2,6.6995144E-2,1.7288245E-2,8.3430484E-2,6.679773E-2,9.174686E-2,8.2843594E-2,9.781237E-2,8.2843594E-2,5.9070922E-2,1.4635169E-2,8.230505E-2,4.599607E-2,8.204675E-2,4.1586593E-2,8.568135E-2,8.418274E-2,7.777476E-2,3.040781E-2,4.986434E-2,7.866669E-2,8.568135E-2,1.3525826E-2,8.230505E-2,9.781237E-2,6.679773E-2,4.1586593E-2,8.568135E-2,8.418274E-2,7.777476E-2,3.0694772E-2,5.030005E-2],"categories":[],"categories_nodes":[],"categories_segments":[],"categories_sizes":[],"default_left":[0,0,0,0,0,0,0,0,0,0,0,0,0,0,0,0,0,0,0,0,0,0,0,0,0,0,0,0,0,0,0,0,0,0,0,0,0,0,0,0,0,0,0,0,0,0,0,0,0,0,0,0,0,0,0,0,0,0,0,0,0,0,0,0,0,0,0,0,0,0,0,0,0,0,0,0,0,0,0,0,0,0,0,0,0,0,0,0,0,0,0,0,0,0,0,0,0,0,0,0,0],"id":0,"left_children":[1,3,5,7,9,11,13,15,17,19,21,23,25,27,29,31,33,35,37,39,41,43,45,-1,-1,47,49,51,53,55,57,59,61,63,65,67,69,71,73,-1,-1,75,77,79,81,83,85,-1,87,89,-1,91,93,95,97,99,-1,-1,-1,-1,-1,-1,-1,-1,-1,-1,-1,-1,-1,-1,-1,-1,-1,-1,-1,-1,-1,-1,-1,-1,-1,-1,-1,-1,-1,-1,-1,-1,-1,-1,-1,-1,-1,-1,-1,-1,-1,-1,-1,-1,-1],"loss_changes":[1.5940033E0,1.7197268E0,4.522884E-1,1.4730794E0,3.6105776E-1,5.0230145E-2,1.6176951E-1,1.5123675E0,3.6078608E-1,3.986609E-2,1.6176951E-1,2.7520657E-3,3.2099783E-2,1.951505E-1,3.332442E-2,8.245207E-1,2.7805734E-1,3.986609E-2,1.3308948E-1,4.8312396E-3,1.7028928E-2,1.951505E-1,3.332442E-2,0E0,0E0,5.745858E-3,3.502667E-3,1.0014507E-1,3.332442E-2,1.9443467E-2,3.041625E-4,9.226166E-1,1.1589107E-1,1.862508E-2,1.4385164E-1,4.8312396E-3,1.7028928E-2,1.4140758E-1,4.6108067E-3,0E0,0E0,2.9875338E-3,1.2558639E-2,1.0014507E-1,3.332442E-2,1.9443467E-2,3.041625E-4,0E0,5.608231E-3,5.467534E-4,0E0,1.0342845E-1,5.343929E-3,1.9443467E-2,3.041625E-4,9.490535E-3,0E0,0E0,0E0,0E0,0E0,0E0,0E0,0E0,0E0,0E0,0E0,0E0,0E0,0E0,0E0,0E0,0E0,0E0,0E0,0E0,0E0,0E0,0E0,0E0,0E0,0E0,0E0,0E0,0E0,0E0,0E0,0E0,0E0,0E0,0E0,0E0,0E0,0E0,0E0,0E0,0E0,0E0,0E0,0E0,0E0],"parents":[2147483647,0,0,1,1,2,2,3,3,4,4,5,5,6,6,7,7,8,8,9,9,10,10,11,11,12,12,13,13,14,14,15,15,16,16,17,17,18,18,19,19,20,20,21,21,22,22,25,25,26,26,27,27,28,28,29,29,30,30,31,31,32,32,33,33,34,34,35,35,36,36,37,37,38,38,41,41,42,42,43,43,44,44,45,45,46,46,48,48,49,49,51,51,52,52,53,53,54,54,55,55],"right_children":[2,4,6,8,10,12,14,16,18,20,22,24,26,28,30,32,34,36,38,40,42,44,46,-1,-1,48,50,52,54,56,58,60,62,64,66,68,70,72,74,-1,-1,76,78,80,82,84,86,-1,88,90,-1,92,94,96,98,100,-1,-1,-1,-1,-1,-1,-1,-1,-1,-1,-1,-1,-1,-1,-1,-1,-1,-1,-1,-1,-1,-1,-1,-1,-1,-1,-1,-1,-1,-1,-1,-1,-1,-1,-1,-1,-1,-1,-1,-1,-1,-1,-1,-1,-1],"split_conditions":[6.805266E-1,6.805266E-1,4.739574E-1,6.8329966E-1,4.739574E-1,3.4757918E-1,5.292462E-1,6.8329966E-1,4.739574E-1,6.864914E-1,5.292462E-1,6.894049E-1,7.1781725E-1,5.292462E-1,6.0988235E-1,6.8329966E-1,4.8622307E-1,6.864914E-1,7.3600113E-1,4.1351488E-1,2.1072564E-1,5.292462E-1,6.0988235E-1,8.418274E-2,9.781237E-2,3.7223172E-1,4.3866673E-1,7.3600113E-1,6.0988235E-1,7.122885E-1,7.122885E-1,6.5634644E-1,7.467736E-1,6.864914E-1,7.1781725E-1,4.1351488E-1,2.1072564E-1,7.3600113E-1,5.0150025E-1,3.040781E-2,5.125995E-2,2.745758E-1,2.1072564E-1,7.3600113E-1,6.0988235E-1,7.122885E-1,5.511247E-1,6.19463E-2,4.1351488E-1,7.222982E-1,6.679773E-2,7.3600113E-1,7.222982E-1,7.122885E-1,7.122885E-1,5.926706E-1,8.568135E-2,8.418274E-2,7.777476E-2,-1.1842073E-2,9.484037E-3,1.2611062E-2,3.70706E-2,4.083388E-2,6.3721225E-2,1.0783467E-2,3.416902E-2,3.040781E-2,5.125995E-2,8.88311E-2,6.6995144E-2,1.7288245E-2,8.3430484E-2,6.679773E-2,9.174686E-2,8.2843594E-2,9.781237E-2,8.2843594E-2,5.9070922E-2,1.4635169E-2,8.230505E-2,4.599607E-2,8.204675E-2,4.1586593E-2,8.568135E-2,8.418274E-2,7.777476E-2,3.040781E-2,4.986434E-2,7.866669E-2,8.568135E-2,1.3525826E-2,8.230505E-2,9.781237E-2,6.679773E-2,4.1586593E-2,8.568135E-2,8.418274E-2,7.777476E-2,3.0694772E-2,5.030005E-2],"split_indices":[0,2,4,4,6,4,2,6,0,2,0,0,0,6,1,1,2,4,1,6,7,4,1,0,0,4,4,3,7,3,0,3,1,6,6,0,1,7,3,0,0,0,5,5,3,7,0,0,4,0,0,5,0,5,0,4,0,0,0,0,0,0,0,0,0,0,0,0,0,0,0,0,0,0,0,0,0,0,0,0,0,0,0,0,0,0,0,0,0,0,0,0,0,0,0,0,0,0,0,0,0],"split_type":[0,0,0,0,0,0,0,0,0,0,0,0,0,0,0,0,0,0,0,0,0,0,0,0,0,0,0,0,0,0,0,0,0,0,0,0,0,0,0,0,0,0,0,0,0,0,0,0,0,0,0,0,0,0,0,0,0,0,0,0,0,0,0,0,0,0,0,0,0,0,0,0,0,0,0,0,0,0,0,0,0,0,0,0,0,0,0,0,0,0,0,0,0,0,0,0,0,0,0,0,0],"sum_hessian":[2.56E3,2.388E3,1.72E2,2.218E3,1.7E2,2E1,1.52E2,2.098E3,1.2E2,1.8E1,1.52E2,6E0,1.4E1,1.39E2,1.3E1,1.98E3,1.18E2,1.8E1,1.02E2,4E0,1.4E1,1.39E2,1.3E1,2E0,4E0,8E0,6E0,1.26E2,1.3E1,1E1,3E0,1.874E3,1.06E2,2E1,9.8E1,4E0,1.4E1,9.9E1,3E0,2E0,2E0,5E0,9E0,1.26E2,1.3E1,1E1,3E0,2E0,6E0,4E0,2E0,1.24E2,2E0,1E1,3E0,9E0,1E0,2E0,1E0,1.669E3,2.05E2,8.4E1,2.2E1,4E0,1.6E1,5.8E1,4E1,2E0,2E0,5E0,9E0,9.6E1,3E0,1E0,2E0,3E0,2E0,3E0,6E0,1.24E2,2E0,1E1,3E0,9E0,1E0,2E0,1E0,2E0,4E0,2E0,2E0,1.22E2,2E0,1E0,1E0,9E0,1E0,2E0,1E0,4E0,5E0],"tree_param":{"num_deleted":"0","num_feature":"8","num_nodes":"101","size_leaf_vector":"1"}},{"base_weights":[2.5294722E-7,-5.7410537E-3,7.971095E-2,-1.2126697E-2,7.757281E-2,1.9826174E-1,6.4112164E-2,9.1415845E-2,-1.6303366E-2,6.314063E-2,1.7997251E-1,2.7240634E-1,1.7972559E-1,5.5030398E-2,1.6121724E-1,6.6943966E-2,1.8386514E-1,-2.1727165E-2,5.85752E-2,4.754473E-2,1.6984944E-1,2.0068133E-1,1.137043E-1,3.0163908E-1,7.2952084E-2,1.273154E-1,1.9719565E-1,4.4120915E-2,1.6076848E-1,1.8620518E-1,1.04994416E-1,5.702868E-2,1.918766E-1,1.611421E-1,2.1957281E-1,6.1131764E-2,-2.4751214E-2,1.6101661E-1,4.5770027E-2,3.8587235E-2,9.681094E-2,1.9198774E-1,1.21883154E-1,2.4956875E-1,1.7845978E-1,9.416723E-2,5.7555772E-2,9.342185E-2,8.756161E-2,4.6073485E-2,1.1856111E-1,1.6707933E-1,2.1225381E-1,3.581484E-2,1.10569514E-1,1.8526214E-1,1.056577E-1,1.4236753E-1,2.08124E-1,1.2872195E-1,8.126688E-2,1.5498549E-2,4.9309734E-2,4.558468E-2,6.554852E-2,4.2056285E-2,5.9343733E-2,7.443109E-2,5.945242E-2,9.713147E-3,3.7160728E-2,-8.3806515E-3,1.8564066E-2,3.5706818E-2,6.090315E-2,1.0776308E-2,4.229311E-2,1.1054222E-2,6.846872E-2,3.687578E-2,2.3821618E-2,4.208484E-2,6.224977E-2,5.788851E-2,3.2300234E-2,8.4890485E-2,6.8190716E-2,4.9278405E-2,7.270582E-2,2.5706245E-2,3.588195E-2,3.3960488E-2,3.8784027E-2,5.7157803E-2,4.3089796E-2,5.7208505E-2,7.445555E-2,1.0200139E-2,7.116309E-2,1.664157E-2,3.5925735E-2,4.271026E-2,6.201284E-2,3.8616586E-2,2.4778033E-2,4.499574E-2,3.81393E-2,5.7057347E-2,7.319692E-2,3.588195E-2,4.1351225E-2,2.1464825E-2,2.7295304E-2],"categories":[],"categories_nodes":[],"categories_segments":[],"categories_sizes":[],"default_left":[0,0,0,0,0,0,0,0,0,0,0,0,0,0,0,0,0,0,0,0,0,0,0,0,0,0,0,0,0,0,0,0,0,0,0,0,0,0,0,0,0,0,0,0,0,0,0,0,0,0,0,0,0,0,0,0,0,0,0,0,0,0,0,0,0,0,0,0,0,0,0,0,0,0,0,0,0,0,0,0,0,0,0,0,0,0,0,0,0,0,0,0,0,0,0,0,0,0,0,0,0,0,0,0,0,0,0,0,0,0,0,0,0],"id":1,"left_children":[1,3,5,7,9,11,13,15,17,19,21,23,25,27,29,31,33,35,37,39,41,43,45,47,-1,49,51,53,55,57,59,61,63,65,67,69,71,73,75,77,79,81,83,85,87,89,-1,-1,-1,-1,91,93,95,97,99,101,103,105,107,109,111,-1,-1,-1,-1,-1,-1,-1,-1,-1,-1,-1,-1,-1,-1,-1,-1,-1,-1,-1,-1,-1,-1,-1,-1,-1,-1,-1,-1,-1,-1,-1,-1,-1,-1,-1,-1,-1,-1,-1,-1,-1,-1,-1,-1,-1,-1,-1,-1,-1,-1,-1,-1],"loss_changes":[1.1715677E0,1.270446E0,3.1807077E-1,9.592027E-1,2.5123465E-1,2.74871E-2,1.3404667E-1,1.9456714E-1,8.6586136E-1,2.479688E-1,2.8819025E-2,3.4182072E-3,1.4649689E-2,1.6034314E-1,1.8263578E-2,8.4234506E-2,1.4604986E-2,4.9813193E-1,1.8889636E-1,5.7369202E-2,2.0175993E-2,1.7381668E-2,7.6339394E-3,1.9079447E-4,0E0,9.1965497E-4,5.4419637E-3,6.954281E-2,1.7548233E-2,8.647829E-3,2.2519827E-3,3.6291957E-2,5.314067E-3,8.452505E-3,4.273534E-3,1.2627912E-1,5.2909887E-1,2.8215796E-2,1.200248E-1,3.6293954E-2,9.088591E-3,1.0426253E-2,6.062582E-3,3.7184358E-3,9.97898E-3,8.628741E-4,0E0,0E0,0E0,0E0,1.723431E-4,2.1989867E-3,6.197095E-3,4.0925533E-2,7.083416E-3,8.279771E-3,2.127841E-3,3.4822896E-4,3.8590431E-3,1.661852E-4,1.8885825E-4,0E0,0E0,0E0,0E0,0E0,0E0,0E0,0E0,0E0,0E0,0E0,0E0,0E0,0E0,0E0,0E0,0E0,0E0,0E0,0E0,0E0,0E0,0E0,0E0,0E0,0E0,0E0,0E0,0E0,0E0,0E0,0E0,0E0,0E0,0E0,0E0,0E0,0E0,0E0,0E0,0E0,0E0,0E0,0E0,0E0,0E0,0E0,0E0,0E0,0E0,0E0,0E0],"parents":[2147483647,0,0,1,1,2,2,3,3,4,4,5,5,6,6,7,7,8,8,9,9,10,10,11,11,12,12,13,13,14,14,15,15,16,16,17,17,18,18,19,19,20,20,21,21,22,22,23,23,25,25,26,26,27,27,28,28,29,29,30,30,31,31,32,32,33,33,34,34,35,35,36,36,37,37,38,38,39,39,40,40,41,41,42,42,43,43,44,44,45,45,50,50,51,51,52,52,53,53,54,54,55,55,56,56,57,57,58,58,59,59,60,60],"right_children":[2,4,6,8,10,12,14,16,18,20,22,24,26,28,30,32,34,36,38,40,42,44,46,48,-1,50,52,54,56,58,60,62,64,66,68,70,72,74,76,78,80,82,84,86,88,90,-1,-1,-1,-1,92,94,96,98,100,102,104,106,108,110,112,-1,-1,-1,-1,-1,-1,-1,-1,-1,-1,-1,-1,-1,-1,-1,-1,-1,-1,-1,-1,-1,-1,-1,-1,-1,-1,-1,-1,-1,-1,-1,-1,-1,-1,-1,-1,-1,-1,-1,-1,-1,-1,-1,-1,-1,-1,-1,-1,-1,-1,-1,-1],"split_conditions":[6.805266E-1,6.805266E-1,4.739574E-1,2.4784799E-1,5.292462E-1,3.3368763E-1,5.292462E-1,5.397048E-1,6.805266E-1,5.292462E-1,3.3368763E-1,3.2361645E-1,6.864914E-1,5.292462E-1,2.1072564E-1,6.949946E-1,6.0943615E-1,2.576624E-1,4.8622307E-1,7.467736E-1,2.745758E-1,2.1072564E-1,2.0327906E-1,7.0964503E-1,7.2952084E-2,1.9440451E-1,4.908858E-1,7.601405E-1,2.1072564E-1,5.3670585E-1,5.674439E-1,6.949946E-1,6.0768133E-1,2.0327906E-1,6.184993E-1,4.8945916E-1,6.949946E-1,7.0964503E-1,5.292462E-1,7.3600113E-1,5.3148466E-1,5.3670585E-1,3.7223172E-1,6.064664E-1,6.4337075E-1,5.926706E-1,5.7555772E-2,9.342185E-2,8.756161E-2,4.6073485E-2,6.1413074E-1,4.8622307E-1,5.614865E-1,7.3600113E-1,3.7921885E-1,5.3670585E-1,5.674439E-1,1.5810467E-1,3.1194833E-1,4.37978E-1,5.4597557E-1,1.5498549E-2,4.9309734E-2,4.558468E-2,6.554852E-2,4.2056285E-2,5.9343733E-2,7.443109E-2,5.945242E-2,9.713147E-3,3.7160728E-2,-8.3806515E-3,1.8564066E-2,3.5706818E-2,6.090315E-2,1.0776308E-2,4.229311E-2,1.1054222E-2,6.846872E-2,3.687578E-2,2.3821618E-2,4.208484E-2,6.224977E-2,5.788851E-2,3.2300234E-2,8.4890485E-2,6.8190716E-2,4.9278405E-2,7.270582E-2,2.5706245E-2,3.588195E-2,3.3960488E-2,3.8784027E-2,5.7157803E-2,4.3089796E-2,5.7208505E-2,7.445555E-2,1.0200139E-2,7.116309E-2,1.664157E-2,3.5925735E-2,4.271026E-2,6.201284E-2,3.8616586E-2,2.4778033E-2,4.499574E-2,3.81393E-2,5.7057347E-2,7.319692E-2,3.588195E-2,4.1351225E-2,2.1464825E-2,2.7295304E-2],"split_indices":[7,5,3,6,3,3,5,2,6,7,7,0,7,1,1,3,3,2,2,5,3,0,0,1,0,1,6,7,5,5,5,1,1,6,0,6,3,6,0,0,1,7,1,2,4,1,0,0,0,0,2,0,0,4,6,1,1,1,2,0,0,0,0,0,0,0,0,0,0,0,0,0,0,0,0,0,0,0,0,0,0,0,0,0,0,0,0,0,0,0,0,0,0,0,0,0,0,0,0,0,0,0,0,0,0,0,0,0,0,0,0,0,0],"split_type":[0,0,0,0,0,0,0,0,0,0,0,0,0,0,0,0,0,0,0,0,0,0,0,0,0,0,0,0,0,0,0,0,0,0,0,0,0,0,0,0,0,0,0,0,0,0,0,0,0,0,0,0,0,0,0,0,0,0,0,0,0,0,0,0,0,0,0,0,0,0,0,0,0,0,0,0,0,0,0,0,0,0,0,0,0,0,0,0,0,0,0,0,0,0,0,0,0,0,0,0,0,0,0,0,0,0,0,0,0,0,0,0,0],"sum_hessian":[2.56E3,2.388E3,1.72E2,2.218E3,1.7E2,2E1,1.52E2,8.6E1,2.132E3,1.49E2,2.1E1,4E0,1.6E1,1.39E2,1.3E1,6.8E1,1.8E1,1.988E3,1.44E2,1.3E2,1.9E1,1.6E1,5E0,2E0,2E0,4E0,1.2E1,1.26E2,1.3E1,9E0,4E0,6.3E1,5E0,1.1E1,7E0,7E1,1.918E3,1.6E1,1.28E2,1.1E2,2E1,1.3E1,6E0,5E0,1.1E1,4E0,1E0,1E0,1E0,1E0,3E0,4E0,8E0,1.12E2,1.4E1,9E0,4E0,3E0,6E0,2E0,2E0,6E1,3E0,2E0,3E0,7E0,4E0,3E0,4E0,4.8E1,2.2E1,1.85E3,6.8E1,8E0,8E0,1.16E2,1.2E1,1.09E2,1E0,8E0,1.2E1,3E0,1E1,1E0,5E0,2E0,3E0,9E0,2E0,3E0,1E0,2E0,1E0,2E0,2E0,5E0,3E0,1.11E2,1E0,2E0,1.2E1,3E0,6E0,2E0,2E0,2E0,1E0,4E0,2E0,1E0,1E0,1E0,1E0],"tree_param":{"num_deleted":"0","num_feature":"8","num_nodes":"113","size_leaf_vector":"1"}},{"base_weights":[3.3527613E-8,-4.3021454E-3,5.9730288E-2,8.082941E-2,-7.559353E-3,1.428587E-1,4.6250004E-2,5.904349E-2,1.6555244E-1,-1.243734E-2,5.4344624E-2,1.8181938E-1,1.23378366E-1,3.8659804E-2,1.2507135E-1,5.122451E-2,1.6069022E-1,1.51597E-1,2.0183659E-1,-1.8188259E-2,3.165304E-2,1.23743966E-1,4.388719E-2,1.256311E-1,2.0054881E-1,9.3541816E-2,1.3694043E-1,9.715195E-2,2.4036765E-2,1.4356756E-1,8.345485E-2,3.5071395E-2,7.706949E-2,1.740979E-1,3.2117844E-2,1.3656595E-1,1.6913319E-1,2.1205068E-1,4.829407E-2,5.2610263E-2,-2.124262E-2,1.0798256E-1,2.2632277E-2,8.9120865E-2,1.3143799E-1,9.008183E-2,3.3406053E-2,2.9138662E-2,4.624E-2,2.2235715E-1,1.5693212E-1,1.10636234E-1,2.0370055E-2,1.6893053E-1,1.2983152E-1,1.423709E-1,6.0976792E-2,6.0508355E-2,1.4167982E-2,1.9576955E-1,1.286527E-1,9.581518E-2,7.109451E-2,9.111982E-3,3.7300732E-2,1.848042E-2,2.7404321E-2,4.8940998E-2,6.20945E-2,3.8410116E-2,5.6327824E-2,6.052165E-2,4.584911E-2,5.6005456E-2,7.122496E-2,8.720288E-3,3.3761095E-2,-7.843399E-3,8.173876E-3,2.3810089E-2,4.2410232E-2,3.8883793E-3,2.3834843E-2,3.2251455E-2,2.4897864E-2,4.279039E-2,2.7674926E-2,3.8957562E-2,1.7478144E-2,2.674709E-2,5.113312E-3,6.3143685E-2,7.739754E-2,4.0845253E-2,5.331402E-2,3.5336927E-2,3.2117844E-2,5.2554134E-2,4.880419E-2,2.1974945E-2,4.1071273E-2,5.7327177E-2,3.227134E-2,1.5652074E-2,2.8856898E-2,1.6695904E-2,5.0197795E-2,2.4747623E-3,1.9244624E-2,4.829407E-2,6.9167666E-2,4.794195E-2,3.485736E-2,2.9191447E-2,2.8297665E-2,2.2473479E-2,2.018323E-2],"categories":[],"categories_nodes":[],"categories_segments":[],"categories_sizes":[],"default_left":[0,0,0,0,0,0,0,0,0,0,0,0,0,0,0,0,0,0,0,0,0,0,0,0,0,0,0,0,0,0,0,0,0,0,0,0,0,0,0,0,0,0,0,0,0,0,0,0,0,0,0,0,0,0,0,0,0,0,0,0,0,0,0,0,0,0,0,0,0,0,0,0,0,0,0,0,0,0,0,0,0,0,0,0,0,0,0,0,0,0,0,0,0,0,0,0,0,0,0,0,0,0,0,0,0,0,0,0,0,0,0,0,0,0,0,0,0],"id":2,"left_children":[1,3,5,7,9,11,13,15,17,19,21,23,25,27,29,31,33,35,37,39,41,43,45,47,49,51,53,55,57,59,61,63,65,67,-1,69,71,73,-1,75,77,79,81,83,85,87,89,-1,-1,91,93,95,-1,97,99,101,103,105,107,109,111,113,115,-1,-1,-1,-1,-1,-1,-1,-1,-1,-1,-1,-1,-1,-1,-1,-1,-1,-1,-1,-1,-1,-1,-1,-1,-1,-1,-1,-1,-1,-1,-1,-1,-1,-1,-1,-1,-1,-1,-1,-1,-1,-1,-1,-1,-1,-1,-1,-1,-1,-1,-1,-1,-1,-1],"loss_changes":[6.578439E-1,6.621712E-1,1.9274223E-1,1.6242772E-1,6.9452363E-1,1.821521E-2,8.854395E-2,5.563417E-2,9.114474E-3,5.405903E-1,1.2192419E-1,8.419007E-3,6.474316E-3,1.1546993E-1,1.0006726E-2,2.7135998E-2,3.5953075E-3,3.4266412E-3,2.0865798E-3,4.0783662E-1,1.693834E-1,5.8606267E-3,7.068917E-2,1.6247518E-3,5.707264E-3,2.1916442E-3,2.5015622E-3,4.4166684E-2,3.8872458E-2,7.007256E-3,6.111115E-4,1.6775008E-2,5.5214316E-3,1.4417842E-3,0E0,3.0575544E-3,3.189385E-3,2.5736988E-3,0E0,1.1004494E-1,4.2975163E-1,2.4838507E-2,1.20885566E-1,4.5062602E-4,7.897973E-3,3.4175202E-2,1.0854925E-1,0E0,0E0,1.6930997E-3,8.6372346E-4,7.675961E-5,0E0,7.812306E-5,3.6016703E-3,2.0345211E-2,4.6497956E-3,1.192864E-2,2.5145112E-2,2.4205968E-3,2.717562E-3,4.4386834E-6,2.9140152E-5,0E0,0E0,0E0,0E0,0E0,0E0,0E0,0E0,0E0,0E0,0E0,0E0,0E0,0E0,0E0,0E0,0E0,0E0,0E0,0E0,0E0,0E0,0E0,0E0,0E0,0E0,0E0,0E0,0E0,0E0,0E0,0E0,0E0,0E0,0E0,0E0,0E0,0E0,0E0,0E0,0E0,0E0,0E0,0E0,0E0,0E0,0E0,0E0,0E0,0E0,0E0,0E0,0E0,0E0],"parents":[2147483647,0,0,1,1,2,2,3,3,4,4,5,5,6,6,7,7,8,8,9,9,10,10,11,11,12,12,13,13,14,14,15,15,16,16,17,17,18,18,19,19,20,20,21,21,22,22,23,23,24,24,25,25,26,26,27,27,28,28,29,29,30,30,31,31,32,32,33,33,35,35,36,36,37,37,39,39,40,40,41,41,42,42,43,43,44,44,45,45,46,46,49,49,50,50,51,51,53,53,54,54,55,55,56,56,57,57,58,58,59,59,60,60,61,61,62,62],"right_children":[2,4,6,8,10,12,14,16,18,20,22,24,26,28,30,32,34,36,38,40,42,44,46,48,50,52,54,56,58,60,62,64,66,68,-1,70,72,74,-1,76,78,80,82,84,86,88,90,-1,-1,92,94,96,-1,98,100,102,104,106,108,110,112,114,116,-1,-1,-1,-1,-1,-1,-1,-1,-1,-1,-1,-1,-1,-1,-1,-1,-1,-1,-1,-1,-1,-1,-1,-1,-1,-1,-1,-1,-1,-1,-1,-1,-1,-1,-1,-1,-1,-1,-1,-1,-1,-1,-1,-1,-1,-1,-1,-1,-1,-1,-1,-1,-1,-1],"split_conditions":[6.805266E-1,2.4784799E-1,4.8622307E-1,5.397048E-1,6.805266E-1,2.2238858E-1,5.292462E-1,6.949946E-1,6.4337075E-1,6.5634644E-1,4.8622307E-1,6.894049E-1,5.1252687E-1,2.2238858E-1,2.1072564E-1,4.3662056E-1,2.2238858E-1,5.98962E-1,2.1072564E-1,2.6281065E-1,4.8622307E-1,6.864914E-1,2.2238858E-1,4.3282962E-1,2.1072564E-1,7.0964503E-1,6.064664E-1,3.4757918E-1,2.33352E-1,5.6623924E-1,5.674439E-1,7.467736E-1,4.8945916E-1,7.601405E-1,3.2117844E-2,5.112928E-1,5.98962E-1,1.5810467E-1,4.829407E-2,4.8945916E-1,6.5634644E-1,6.864914E-1,7.3600113E-1,1.9440451E-1,4.739574E-1,3.4757918E-1,2.2238858E-1,2.9138662E-2,4.624E-2,5.614865E-1,3.776133E-1,6.864914E-1,2.0370055E-2,6.184993E-1,6.1413074E-1,6.3806224E-1,4.0390384E-1,7.601405E-1,7.601405E-1,5.614865E-1,2.8918937E-1,3.7359452E-1,3.8415378E-1,9.111982E-3,3.7300732E-2,1.848042E-2,2.7404321E-2,4.8940998E-2,6.20945E-2,3.8410116E-2,5.6327824E-2,6.052165E-2,4.584911E-2,5.6005456E-2,7.122496E-2,8.720288E-3,3.3761095E-2,-7.843399E-3,8.173876E-3,2.3810089E-2,4.2410232E-2,3.8883793E-3,2.3834843E-2,3.2251455E-2,2.4897864E-2,4.279039E-2,2.7674926E-2,3.8957562E-2,1.7478144E-2,2.674709E-2,5.113312E-3,6.3143685E-2,7.739754E-2,4.0845253E-2,5.331402E-2,3.5336927E-2,3.2117844E-2,5.2554134E-2,4.880419E-2,2.1974945E-2,4.1071273E-2,5.7327177E-2,3.227134E-2,1.5652074E-2,2.8856898E-2,1.6695904E-2,5.0197795E-2,2.4747623E-3,1.9244624E-2,4.829407E-2,6.9167666E-2,4.794195E-2,3.485736E-2,2.9191447E-2,2.8297665E-2,2.2473479E-2,2.018323E-2],"split_indices":[1,0,5,4,7,4,7,3,3,0,3,1,4,7,3,4,0,5,0,4,4,7,5,0,4,1,4,6,3,5,7,2,4,3,0,1,2,0,0,0,5,0,0,1,3,4,1,0,0,0,0,1,0,0,4,5,3,6,1,0,4,0,0,0,0,0,0,0,0,0,0,0,0,0,0,0,0,0,0,0,0,0,0,0,0,0,0,0,0,0,0,0,0,0,0,0,0,0,0,0,0,0,0,0,0,0,0,0,0,0,0,0,0,0,0,0,0],"split_type":[0,0,0,0,0,0,0,0,0,0,0,0,0,0,0,0,0,0,0,0,0,0,0,0,0,0,0,0,0,0,0,0,0,0,0,0,0,0,0,0,0,0,0,0,0,0,0,0,0,0,0,0,0,0,0,0,0,0,0,0,0,0,0,0,0,0,0,0,0,0,0,0,0,0,0,0,0,0,0,0,0,0,0,0,0,0,0,0,0,0,0,0,0,0,0,0,0,0,0,0,0,0,0,0,0,0,0,0,0,0,0,0,0,0,0,0,0],"sum_hessian":[2.56E3,2.388E3,1.72E2,8.8E1,2.3E3,2.4E1,1.48E2,7E1,1.8E1,2.132E3,1.68E2,8E0,1.6E1,1.35E2,1.3E1,6.5E1,5E0,1.3E1,5E0,1.886E3,2.46E2,2.2E1,1.46E2,2E0,6E0,5E0,1.1E1,2.7E1,1.08E2,9E0,4E0,4E1,2.5E1,4E0,1E0,7E0,6E0,4E0,1E0,7.8E1,1.808E3,2.6E1,2.2E2,4E0,1.8E1,2.7E1,1.19E2,1E0,1E0,4E0,2E0,3E0,2E0,2E0,9E0,1.2E1,1.5E1,2.3E1,8.5E1,2E0,7E0,2E0,2E0,3.8E1,2E0,1.2E1,1.3E1,3E0,1E0,6E0,1E0,2E0,4E0,2E0,2E0,5.6E1,2.2E1,1.642E3,1.66E2,1.4E1,1.2E1,1.88E2,3.2E1,1E0,3E0,1.4E1,4E0,1.2E1,1.5E1,2.7E1,9.2E1,3E0,1E0,1E0,1E0,1E0,2E0,1E0,1E0,1E0,8E0,5E0,7E0,1.2E1,3E0,2.2E1,1E0,7.6E1,9E0,1E0,1E0,2E0,5E0,1E0,1E0,1E0,1E0],"tree_param":{"num_deleted":"0","num_feature":"8","num_nodes":"117","size_leaf_vector":"1"}},{"base_weights":[6.817281E-8,6.950855E-2,-2.5326295E-3,4.6271842E-2,1.1162509E-1,6.8259604E-2,-5.209647E-3,3.8731664E-2,1.4806426E-1,8.639737E-2,1.2676172E-1,4.124053E-2,1.1723168E-1,5.8201388E-2,-8.282429E-3,3.2703016E-2,7.920974E-2,1.9414163E-1,1.01986885E-1,7.13501E-2,1.0144464E-1,1.0674006E-1,1.401095E-1,3.1931393E-2,1.21919714E-1,9.0920106E-2,1.3769624E-1,3.5182577E-2,1.096552E-1,5.676483E-2,-1.159502E-2,2.6384378E-2,6.3506365E-2,5.384159E-2,9.8235846E-2,6.2700324E-2,5.3784657E-2,2.273555E-2,3.8456585E-2,6.4276695E-2,3.2015134E-2,2.8032733E-2,1.0304508E-1,1.1773499E-1,7.3755264E-2,5.7063535E-2,1.3555475E-1,2.5930574E-2,7.050807E-2,1.6172528E-1,1.02016926E-1,8.139229E-2,4.442611E-2,1.2585248E-1,1.7914939E-1,2.9057365E-2,9.5559664E-2,8.64301E-2,1.3029973E-1,3.30356E-2,1.09806634E-1,-1.4194401E-2,5.264682E-2,2.029996E-2,6.88326E-3,1.5249568E-2,2.5389148E-2,1.5347314E-2,1.7762804E-2,2.4788119E-2,3.415339E-2,2.0655656E-2,1.379242E-2,3.2776024E-2,3.0447902E-2,4.4416524E-2,3.3501294E-2,2.4660446E-2,1.9592715E-2,3.953612E-2,5.1969483E-2,7.058337E-3,2.3277141E-2,1.5143157E-2,2.5659371E-2,4.1789964E-2,5.524521E-2,2.0402241E-2,4.0807918E-2,3.0444898E-2,2.1404082E-2,3.6054183E-2,4.7965124E-2,4.775529E-2,7.17134E-2,7.859844E-3,2.7579261E-2,1.9355508E-2,5.1948883E-2,3.0610697E-2,2.2287736E-2,3.4934606E-2,4.740055E-2,8.146578E-3,2.1553745E-2,2.6163511E-2,3.8967308E-2,-5.323545E-3,1.0936796E-2,1.0879614E-2,2.6757007E-2],"categories":[],"categories_nodes":[],"categories_segments":[],"categories_sizes":[],"default_left":[0,0,0,0,0,0,0,0,0,0,0,0,0,0,0,0,0,0,0,0,0,0,0,0,0,0,0,0,0,0,0,0,0,0,0,0,0,0,0,0,0,0,0,0,0,0,0,0,0,0,0,0,0,0,0,0,0,0,0,0,0,0,0,0,0,0,0,0,0,0,0,0,0,0,0,0,0,0,0,0,0,0,0,0,0,0,0,0,0,0,0,0,0,0,0,0,0,0,0,0,0,0,0,0,0,0,0,0,0,0,0],"id":3,"left_children":[1,3,5,7,9,11,13,15,17,19,21,23,25,27,29,31,33,35,37,39,41,43,45,47,49,51,53,55,57,59,61,63,65,67,69,-1,-1,-1,-1,71,-1,-1,73,75,77,-1,79,81,83,85,87,89,-1,91,93,95,97,99,101,103,105,107,109,-1,-1,-1,-1,-1,-1,-1,-1,-1,-1,-1,-1,-1,-1,-1,-1,-1,-1,-1,-1,-1,-1,-1,-1,-1,-1,-1,-1,-1,-1,-1,-1,-1,-1,-1,-1,-1,-1,-1,-1,-1,-1,-1,-1,-1,-1,-1,-1],"loss_changes":[4.506726E-1,8.807847E-2,4.6809474E-1,4.451692E-2,1.2219608E-2,1.19086236E-1,4.637388E-1,1.3177514E-2,8.492492E-3,2.7170405E-3,5.3448975E-3,4.356111E-2,1.723054E-2,1.302846E-1,4.891283E-1,9.147849E-3,3.3785999E-3,4.4160336E-4,1.37306E-3,1.5009902E-3,7.684529E-5,2.9013306E-3,2.738431E-3,1.2037564E-2,4.753448E-3,7.6254606E-3,8.837283E-3,2.810651E-2,1.630202E-2,1.3845053E-1,3.6069626E-1,5.538704E-3,2.1418966E-3,4.3219887E-5,9.7453594E-4,0E0,0E0,0E0,0E0,4.1870214E-4,0E0,0E0,4.817918E-5,1.1031702E-3,1.4267769E-4,0E0,1.5615076E-3,5.585747E-3,2.1064878E-3,1.0057949E-3,4.626572E-3,2.4218187E-3,0E0,2.7022958E-3,4.783258E-3,1.2398288E-2,1.6862348E-2,3.0306429E-3,6.9066584E-3,1.7344497E-2,1.5429407E-2,3.7336195E-1,5.0284922E-2,0E0,0E0,0E0,0E0,0E0,0E0,0E0,0E0,0E0,0E0,0E0,0E0,0E0,0E0,0E0,0E0,0E0,0E0,0E0,0E0,0E0,0E0,0E0,0E0,0E0,0E0,0E0,0E0,0E0,0E0,0E0,0E0,0E0,0E0,0E0,0E0,0E0,0E0,0E0,0E0,0E0,0E0,0E0,0E0,0E0,0E0,0E0,0E0],"parents":[2147483647,0,0,1,1,2,2,3,3,4,4,5,5,6,6,7,7,8,8,9,9,10,10,11,11,12,12,13,13,14,14,15,15,16,16,17,17,18,18,19,19,20,20,21,21,22,22,23,23,24,24,25,25,26,26,27,27,28,28,29,29,30,30,31,31,32,32,33,33,34,34,39,39,42,42,43,43,44,44,46,46,47,47,48,48,49,49,50,50,51,51,53,53,54,54,55,55,56,56,57,57,58,58,59,59,60,60,61,61,62,62],"right_children":[2,4,6,8,10,12,14,16,18,20,22,24,26,28,30,32,34,36,38,40,42,44,46,48,50,52,54,56,58,60,62,64,66,68,70,-1,-1,-1,-1,72,-1,-1,74,76,78,-1,80,82,84,86,88,90,-1,92,94,96,98,100,102,104,106,108,110,-1,-1,-1,-1,-1,-1,-1,-1,-1,-1,-1,-1,-1,-1,-1,-1,-1,-1,-1,-1,-1,-1,-1,-1,-1,-1,-1,-1,-1,-1,-1,-1,-1,-1,-1,-1,-1,-1,-1,-1,-1,-1,-1,-1,-1,-1,-1,-1],"split_conditions":[2.4784799E-1,4.8945916E-1,2.4784799E-1,6.949946E-1,5.614865E-1,4.8945916E-1,2.6281065E-1,6.8329966E-1,3.2361645E-1,5.3670585E-1,5.614865E-1,6.894049E-1,5.397048E-1,4.8945916E-1,2.6281065E-1,4.3866673E-1,3.6740154E-1,6.064664E-1,2.7254304E-1,7.222982E-1,4.3866673E-1,6.612473E-1,5.7716507E-1,6.8329966E-1,3.3368763E-1,2.2238858E-1,7.467736E-1,6.894049E-1,5.397048E-1,4.8945916E-1,7.010916E-1,1.5810467E-1,5.397048E-1,5.0150025E-1,6.1413074E-1,6.2700324E-2,5.3784657E-2,2.273555E-2,3.8456585E-2,4.695794E-1,3.2015134E-2,2.8032733E-2,3.1194833E-1,6.0943615E-1,4.145389E-1,5.7063535E-2,7.222982E-1,7.467736E-1,3.6740154E-1,6.064664E-1,3.6740154E-1,6.208659E-1,4.442611E-2,2.33352E-1,3.1194833E-1,7.467736E-1,6.612473E-1,6.350662E-1,7.122885E-1,6.8329966E-1,5.397048E-1,6.805266E-1,7.467736E-1,2.029996E-2,6.88326E-3,1.5249568E-2,2.5389148E-2,1.5347314E-2,1.7762804E-2,2.4788119E-2,3.415339E-2,2.0655656E-2,1.379242E-2,3.2776024E-2,3.0447902E-2,4.4416524E-2,3.3501294E-2,2.4660446E-2,1.9592715E-2,3.953612E-2,5.1969483E-2,7.058337E-3,2.3277141E-2,1.5143157E-2,2.5659371E-2,4.1789964E-2,5.524521E-2,2.0402241E-2,4.0807918E-2,3.0444898E-2,2.1404082E-2,3.6054183E-2,4.7965124E-2,4.775529E-2,7.17134E-2,7.859844E-3,2.7579261E-2,1.9355508E-2,5.1948883E-2,3.0610697E-2,2.2287736E-2,3.4934606E-2,4.740055E-2,8.146578E-3,2.1553745E-2,2.6163511E-2,3.8967308E-2,-5.323545E-3,1.0936796E-2,1.0879614E-2,2.6757007E-2],"split_indices":[7,3,1,2,2,5,5,4,3,3,4,6,5,1,3,3,6,1,0,1,5,1,2,4,2,1,3,0,1,7,4,7,2,0,1,0,0,0,0,0,0,0,0,2,0,0,1,3,2,3,0,7,0,1,0,3,2,7,3,0,7,2,4,0,0,0,0,0,0,0,0,0,0,0,0,0,0,0,0,0,0,0,0,0,0,0,0,0,0,0,0,0,0,0,0,0,0,0,0,0,0,0,0,0,0,0,0,0,0,0,0],"split_type":[0,0,0,0,0,0,0,0,0,0,0,0,0,0,0,0,0,0,0,0,0,0,0,0,0,0,0,0,0,0,0,0,0,0,0,0,0,0,0,0,0,0,0,0,0,0,0,0,0,0,0,0,0,0,0,0,0,0,0,0,0,0,0,0,0,0,0,0,0,0,0,0,0,0,0,0,0,0,0,0,0,0,0,0,0,0,0,0,0,0,0,0,0,0,0,0,0,0,0,0,0,0,0,0,0,0,0,0,0,0,0],"sum_hessian":[2.56E3,9E1,2.47E3,5.8E1,3.2E1,9E1,2.38E3,5.4E1,4E0,1.2E1,2E1,5.8E1,3.2E1,1.1E2,2.27E3,4.7E1,7E0,2E0,2E0,6E0,6E0,8E0,1.2E1,5.2E1,6E0,1.4E1,1.8E1,7.6E1,3.4E1,1.1E2,2.16E3,3.9E1,8E0,3E0,4E0,1E0,1E0,1E0,1E0,5E0,1E0,1E0,5E0,6E0,2E0,1E0,1.1E1,4.5E1,7E0,2E0,4E0,1.2E1,2E0,1.4E1,4E0,6.9E1,7E0,1.6E1,1.8E1,7.6E1,3.4E1,2.076E3,8.4E1,3E0,3.6E1,5E0,3E0,2E0,1E0,2E0,2E0,4E0,1E0,1E0,4E0,1E0,5E0,1E0,1E0,1E1,1E0,4.3E1,2E0,3E0,4E0,1E0,1E0,2E0,2E0,4E0,8E0,1.2E1,2E0,3E0,1E0,6.6E1,3E0,5E0,2E0,7E0,9E0,1.2E1,6E0,6.6E1,1E1,1.6E1,1.8E1,1.94E3,1.36E2,5.8E1,2.6E1],"tree_param":{"num_deleted":"0","num_feature":"8","num_nodes":"111","size_leaf_vector":"1"}},{"base_weights":[-4.6379864E-8,-3.7277015E-3,2.8953109E-2,4.8492994E-2,-6.288013E-3,8.6855926E-2,2.0810526E-2,3.1701855E-2,8.40507E-2,-1.074926E-2,2.7525406E-2,1.26558E-1,7.5512476E-2,1.5971418E-2,5.0382853E-2,2.378263E-2,8.0801055E-2,6.960839E-2,9.6888304E-2,-1.6926475E-2,1.737143E-2,8.385175E-2,2.0484613E-2,1.4518373E-1,1.15382574E-1,1.0204738E-1,6.666751E-2,1.2312427E-2,4.3273117E-2,4.506431E-2,8.335781E-2,2.0498235E-2,8.8375725E-2,6.776655E-2,1.329391E-1,5.9211016E-2,1.00800514E-1,1.1804414E-1,9.084378E-2,4.1829053E-2,-1.886432E-2,1.2544101E-2,7.8968145E-2,1.2648678E-1,6.964007E-2,1.5134552E-2,6.506846E-2,4.335916E-2,4.394703E-2,1.1000562E-1,1.1896721E-1,9.545072E-2,4.2488195E-2,5.593494E-2,8.813266E-2,7.5677717E-3,4.29702E-2,3.3780463E-2,6.1203692E-2,3.8346145E-2,7.999878E-2,3.6378622E-2,7.3881745E-2,4.8164665E-3,1.605179E-2,2.2829533E-2,3.387909E-2,2.2298139E-2,6.552744E-3,4.5063116E-2,3.470035E-2,1.4243651E-2,2.128296E-2,4.0228702E-2,2.691064E-2,3.9859056E-2,2.2075796E-2,2.5125647E-2,3.1082613E-2,5.796387E-3,2.1142589E-2,-7.036044E-3,2.323367E-3,1.5827322E-3,1.6382284E-2,1.7268602E-2,3.3323206E-2,5.0199367E-2,3.590381E-2,1.54530825E-2,2.4239061E-2,1.2880841E-2,3.0685172E-3,1.6376961E-2,3.5238434E-2,3.3541776E-2,3.24616E-2,3.503852E-2,3.6015987E-2,3.1707287E-2,2.5563145E-2,1.466629E-2,2.2065962E-2,2.300148E-2,2.9018534E-2,1.7314063E-3,1.6821314E-2,7.6238154E-3,1.5679602E-2,8.206218E-3,1.6399885E-2,2.1469653E-2,1.5874272E-2,8.59869E-3,2.118769E-2,2.0817734E-2,3.672724E-2,2.0241596E-2,2.4087453E-2],"categories":[],"categories_nodes":[],"categories_segments":[],"categories_sizes":[],"default_left":[0,0,0,0,0,0,0,0,0,0,0,0,0,0,0,0,0,0,0,0,0,0,0,0,0,0,0,0,0,0,0,0,0,0,0,0,0,0,0,0,0,0,0,0,0,0,0,0,0,0,0,0,0,0,0,0,0,0,0,0,0,0,0,0,0,0,0,0,0,0,0,0,0,0,0,0,0,0,0,0,0,0,0,0,0,0,0,0,0,0,0,0,0,0,0,0,0,0,0,0,0,0,0,0,0,0,0,0,0,0,0,0,0,0,0,0,0,0,0],"id":4,"left_children":[1,3,5,7,9,11,13,15,17,19,21,23,25,27,29,31,33,35,37,39,41,43,45,47,49,51,53,55,57,59,61,63,65,67,69,71,73,75,77,79,81,83,85,87,89,91,93,-1,-1,95,97,99,-1,101,103,105,107,109,111,113,115,-1,117,-1,-1,-1,-1,-1,-1,-1,-1,-1,-1,-1,-1,-1,-1,-1,-1,-1,-1,-1,-1,-1,-1,-1,-1,-1,-1,-1,-1,-1,-1,-1,-1,-1,-1,-1,-1,-1,-1,-1,-1,-1,-1,-1,-1,-1,-1,-1,-1,-1,-1,-1,-1,-1,-1,-1,-1],"loss_changes":[2.7629408E-1,3.0323443E-1,1.3767171E-1,6.328778E-2,3.2613772E-1,1.621291E-2,3.663455E-2,2.7995594E-2,6.3037723E-3,3.3178133E-1,9.993869E-2,1.6652048E-3,6.571606E-3,2.1977264E-2,6.313637E-3,1.3153255E-2,6.795943E-3,5.1890537E-3,2.3017675E-3,1.7830354E-1,1.02287576E-1,1.6965628E-2,5.342991E-2,2.5629997E-6,9.637326E-5,1.8276647E-3,4.837908E-3,2.8219346E-2,4.425429E-3,7.2755665E-3,1.7959177E-3,8.653227E-3,9.043906E-4,2.4103075E-3,5.9659407E-4,1.6517304E-3,1.4780946E-3,2.6353672E-3,1.2673438E-3,3.223814E-2,1.8512225E-1,9.752831E-2,1.7183363E-2,1.9463077E-3,4.247673E-3,2.727982E-2,1.3176121E-2,0E0,0E0,6.482005E-6,7.0743263E-6,6.2917545E-4,0E0,1.7382577E-3,6.8961456E-4,1.4638197E-2,4.2431764E-3,2.2817533E-3,7.7304244E-4,8.127324E-3,2.2498854E-3,0E0,1.6434118E-4,0E0,0E0,0E0,0E0,0E0,0E0,0E0,0E0,0E0,0E0,0E0,0E0,0E0,0E0,0E0,0E0,0E0,0E0,0E0,0E0,0E0,0E0,0E0,0E0,0E0,0E0,0E0,0E0,0E0,0E0,0E0,0E0,0E0,0E0,0E0,0E0,0E0,0E0,0E0,0E0,0E0,0E0,0E0,0E0,0E0,0E0,0E0,0E0,0E0,0E0,0E0,0E0,0E0,0E0,0E0,0E0],"parents":[2147483647,0,0,1,1,2,2,3,3,4,4,5,5,6,6,7,7,8,8,9,9,10,10,11,11,12,12,13,13,14,14,15,15,16,16,17,17,18,18,19,19,20,20,21,21,22,22,23,23,24,24,25,25,26,26,27,27,28,28,29,29,30,30,31,31,32,32,33,33,34,34,35,35,36,36,37,37,38,38,39,39,40,40,41,41,42,42,43,43,44,44,45,45,46,46,49,49,50,50,51,51,53,53,54,54,55,55,56,56,57,57,58,58,59,59,60,60,62,62],"right_children":[2,4,6,8,10,12,14,16,18,20,22,24,26,28,30,32,34,36,38,40,42,44,46,48,50,52,54,56,58,60,62,64,66,68,70,72,74,76,78,80,82,84,86,88,90,92,94,-1,-1,96,98,100,-1,102,104,106,108,110,112,114,116,-1,118,-1,-1,-1,-1,-1,-1,-1,-1,-1,-1,-1,-1,-1,-1,-1,-1,-1,-1,-1,-1,-1,-1,-1,-1,-1,-1,-1,-1,-1,-1,-1,-1,-1,-1,-1,-1,-1,-1,-1,-1,-1,-1,-1,-1,-1,-1,-1,-1,-1,-1,-1,-1,-1,-1,-1,-1],"split_conditions":[6.5634644E-1,2.6281065E-1,4.739574E-1,4.8945916E-1,6.5634644E-1,3.412782E-1,7.3600113E-1,6.8329966E-1,5.397048E-1,6.3321704E-1,4.739574E-1,3.9822057E-1,3.412782E-1,4.6668354E-1,5.26803E-1,7.467736E-1,6.612473E-1,6.394487E-1,1.5810467E-1,2.6281065E-1,5.4400647E-1,3.412782E-1,7.467736E-1,7.0964503E-1,6.5862894E-1,5.614865E-1,6.261302E-1,4.6668354E-1,6.394487E-1,5.26803E-1,3.9822057E-1,6.8329966E-1,2.2238858E-1,2.4784799E-1,6.064664E-1,5.614865E-1,2.2238858E-1,6.730028E-1,5.98962E-1,4.3866673E-1,6.350662E-1,4.8622307E-1,4.8945916E-1,1.5810467E-1,4.739574E-1,2.33352E-1,5.26803E-1,4.335916E-2,4.394703E-2,4.908858E-1,6.064664E-1,5.3148466E-1,4.2488195E-2,6.261302E-1,6.1413074E-1,7.3600113E-1,4.5295486E-1,5.4400647E-1,6.864914E-1,6.6613436E-1,5.614865E-1,3.6378622E-2,5.112928E-1,4.8164665E-3,1.605179E-2,2.2829533E-2,3.387909E-2,2.2298139E-2,6.552744E-3,4.5063116E-2,3.470035E-2,1.4243651E-2,2.128296E-2,4.0228702E-2,2.691064E-2,3.9859056E-2,2.2075796E-2,2.5125647E-2,3.1082613E-2,5.796387E-3,2.1142589E-2,-7.036044E-3,2.323367E-3,1.5827322E-3,1.6382284E-2,1.7268602E-2,3.3323206E-2,5.0199367E-2,3.590381E-2,1.54530825E-2,2.4239061E-2,1.2880841E-2,3.0685172E-3,1.6376961E-2,3.5238434E-2,3.3541776E-2,3.24616E-2,3.503852E-2,3.6015987E-2,3.1707287E-2,2.5563145E-2,1.466629E-2,2.2065962E-2,2.300148E-2,2.9018534E-2,1.7314063E-3,1.6821314E-2,7.6238154E-3,1.5679602E-2,8.206218E-3,1.6399885E-2,2.1469653E-2,1.5874272E-2,8.59869E-3,2.118769E-2,2.0817734E-2,3.672724E-2,2.0241596E-2,2.4087453E-2],"split_indices":[1,0,5,4,4,5,1,3,4,7,0,3,3,7,3,2,5,3,0,3,5,0,4,1,1,0,3,3,5,7,0,5,0,0,2,5,0,5,3,7,2,1,6,1,5,2,6,0,0,0,0,2,0,7,4,5,2,7,1,5,0,0,0,0,0,0,0,0,0,0,0,0,0,0,0,0,0,0,0,0,0,0,0,0,0,0,0,0,0,0,0,0,0,0,0,0,0,0,0,0,0,0,0,0,0,0,0,0,0,0,0,0,0,0,0,0,0,0,0],"split_type":[0,0,0,0,0,0,0,0,0,0,0,0,0,0,0,0,0,0,0,0,0,0,0,0,0,0,0,0,0,0,0,0,0,0,0,0,0,0,0,0,0,0,0,0,0,0,0,0,0,0,0,0,0,0,0,0,0,0,0,0,0,0,0,0,0,0,0,0,0,0,0,0,0,0,0,0,0,0,0,0,0,0,0,0,0,0,0,0,0,0,0,0,0,0,0,0,0,0,0,0,0,0,0,0,0,0,0,0,0,0,0,0,0,0,0,0,0,0,0],"sum_hessian":[2.56E3,2.268E3,2.92E2,1.06E2,2.162E3,3.6E1,2.56E2,7.2E1,3.4E1,1.91E3,2.52E2,8E0,2.8E1,2.2E2,3.6E1,6.2E1,1E1,1.6E1,1.8E1,1.566E3,3.44E2,2.8E1,2.24E2,3E0,5E0,7E0,2.1E1,1.94E2,2.6E1,3.1E1,5E0,5.9E1,3E0,8E0,2E0,1.2E1,4E0,4E0,1.4E1,5E1,1.516E3,3.19E2,2.5E1,7E0,2.1E1,2E2,2.4E1,2E0,1E0,2E0,3E0,6E0,1E0,1.4E1,7E0,1.68E2,2.6E1,1.7E1,9E0,2.6E1,5E0,1E0,4E0,5.2E1,7E0,2E0,1E0,7E0,1E0,1E0,1E0,6E0,6E0,1E0,3E0,3E0,1E0,9E0,5E0,2.8E1,2.2E1,1.293E3,2.23E2,2.72E2,4.7E1,1.5E1,1E1,1E0,6E0,8E0,1.3E1,3E1,1.7E2,2E1,4E0,1E0,1E0,1E0,2E0,3E0,3E0,1E1,4E0,3E0,4E0,1.62E2,6E0,9E0,1.7E1,1.3E1,4E0,4E0,5E0,2E1,6E0,4E0,1E0,2E0,2E0],"tree_param":{"num_deleted":"0","num_feature":"8","num_nodes":"119","size_leaf_vector":"1"}},{"base_weights":[8.400529E-8,4.230295E-2,-1.8992284E-3,2.7584866E-2,7.52022E-2,-5.0436887E-3,2.1339627E-2,2.1580847E-2,6.721139E-2,9.4794944E-2,6.703856E-2,3.7079837E-2,-7.2196606E-3,1.6480988E-2,6.0816064E-2,6.0224913E-2,1.8413302E-2,2.0902634E-2,7.878858E-2,7.868372E-2,1.323878E-1,5.6364536E-2,7.607042E-2,2.736987E-2,7.88327E-2,3.6527477E-2,-9.460805E-3,5.4673593E-2,1.1499344E-2,9.054812E-2,5.395482E-2,4.392274E-2,8.467817E-2,1.569045E-2,7.105509E-2,1.3142252E-2,-6.006718E-4,8.561917E-2,6.740427E-2,6.937679E-2,8.5663915E-2,1.2568831E-1,4.373603E-2,2.9709006E-2,5.2097987E-2,6.2538244E-2,8.452803E-2,2.1990627E-2,6.054187E-2,8.9585714E-2,5.374233E-2,2.6125265E-2,6.3276015E-2,2.795498E-2,-1.2530393E-2,9.0413965E-2,4.57385E-2,8.648013E-3,5.909465E-2,6.687021E-2,1.1422602E-1,4.716455E-2,9.130132E-2,7.281447E-3,1.6124511E-2,2.7382994E-2,2.342391E-2,5.331246E-3,-3.7183643E-3,1.6126156E-2,3.1697273E-2,2.0485211E-2,2.6985886E-2,2.2308826E-2,1.917751E-2,1.802659E-2,2.220626E-2,2.2750283E-2,2.668214E-2,3.9671805E-2,3.5741188E-2,1.65641E-2,7.217074E-3,1.5335942E-2,2.104516E-2,2.3413934E-2,2.7302885E-2,4.6394295E-3,1.1883138E-2,2.9987384E-2,1.4220953E-2,2.404612E-2,3.7250903E-2,2.513423E-2,1.4320393E-2,6.4652306E-3,1.8816376E-2,2.2103474E-2,1.4159958E-2,6.045846E-3,2.5291182E-2,8.923963E-3,-4.2711226E-3,4.2167474E-2,2.4115534E-2,8.378577E-3,1.4790145E-2,1.4737765E-3,1.015864E-2,1.3717223E-2,2.6753534E-2,1.7125297E-2,2.5932599E-2,3.0706646E-2,4.1390136E-2,8.475298E-3,1.739169E-2,3.1349994E-2,1.5511609E-2],"categories":[],"categories_nodes":[],"categories_segments":[],"categories_sizes":[],"default_left":[0,0,0,0,0,0,0,0,0,0,0,0,0,0,0,0,0,0,0,0,0,0,0,0,0,0,0,0,0,0,0,0,0,0,0,0,0,0,0,0,0,0,0,0,0,0,0,0,0,0,0,0,0,0,0,0,0,0,0,0,0,0,0,0,0,0,0,0,0,0,0,0,0,0,0,0,0,0,0,0,0,0,0,0,0,0,0,0,0,0,0,0,0,0,0,0,0,0,0,0,0,0,0,0,0,0,0,0,0,0,0,0,0,0,0,0,0,0,0],"id":5,"left_children":[1,3,5,7,9,11,13,15,17,19,21,23,25,27,29,31,33,35,37,39,41,43,45,47,49,51,53,55,57,59,61,63,65,67,69,-1,-1,71,73,75,77,79,-1,-1,81,83,85,87,89,91,93,95,97,99,101,103,105,107,109,111,113,115,117,-1,-1,-1,-1,-1,-1,-1,-1,-1,-1,-1,-1,-1,-1,-1,-1,-1,-1,-1,-1,-1,-1,-1,-1,-1,-1,-1,-1,-1,-1,-1,-1,-1,-1,-1,-1,-1,-1,-1,-1,-1,-1,-1,-1,-1,-1,-1,-1,-1,-1,-1,-1,-1,-1,-1,-1],"loss_changes":[2.0568667E-1,5.326353E-2,1.7903048E-1,1.80818E-2,5.4382384E-3,1.9780144E-1,5.6006104E-2,8.078851E-3,5.3612553E-3,6.0566664E-3,2.313748E-3,4.2974398E-2,2.0118554E-1,4.9468108E-2,6.5279603E-3,1.9932073E-3,8.743482E-3,1.0492664E-3,6.2208995E-4,4.5475364E-4,2.692975E-4,2.002377E-3,1.4878511E-3,1.5345864E-2,5.395949E-3,2.7824402E-2,2.2418924E-1,9.580307E-3,3.1213302E-2,3.363859E-3,6.5934137E-3,5.7925796E-4,8.707959E-5,3.3887774E-3,1.7959978E-3,0E0,0E0,3.7563592E-4,7.2631985E-5,1.2940541E-4,1.2882799E-4,8.583069E-5,0E0,0E0,8.736681E-4,4.3460168E-4,3.3608824E-4,8.508857E-3,6.2145106E-3,4.5667365E-3,1.0827687E-3,1.2053397E-2,4.6823844E-3,6.506727E-2,1.3016444E-1,3.0173361E-3,1.5225261E-3,2.043824E-2,5.2290857E-3,5.7458226E-4,8.4545836E-4,4.4970848E-3,2.090454E-3,0E0,0E0,0E0,0E0,0E0,0E0,0E0,0E0,0E0,0E0,0E0,0E0,0E0,0E0,0E0,0E0,0E0,0E0,0E0,0E0,0E0,0E0,0E0,0E0,0E0,0E0,0E0,0E0,0E0,0E0,0E0,0E0,0E0,0E0,0E0,0E0,0E0,0E0,0E0,0E0,0E0,0E0,0E0,0E0,0E0,0E0,0E0,0E0,0E0,0E0,0E0,0E0,0E0,0E0,0E0,0E0],"parents":[2147483647,0,0,1,1,2,2,3,3,4,4,5,5,6,6,7,7,8,8,9,9,10,10,11,11,12,12,13,13,14,14,15,15,16,16,17,17,18,18,19,19,20,20,21,21,22,22,23,23,24,24,25,25,26,26,27,27,28,28,29,29,30,30,31,31,32,32,33,33,34,34,37,37,38,38,39,39,40,40,41,41,44,44,45,45,46,46,47,47,48,48,49,49,50,50,51,51,52,52,53,53,54,54,55,55,56,56,57,57,58,58,59,59,60,60,61,61,62,62],"right_children":[2,4,6,8,10,12,14,16,18,20,22,24,26,28,30,32,34,36,38,40,42,44,46,48,50,52,54,56,58,60,62,64,66,68,70,-1,-1,72,74,76,78,80,-1,-1,82,84,86,88,90,92,94,96,98,100,102,104,106,108,110,112,114,116,118,-1,-1,-1,-1,-1,-1,-1,-1,-1,-1,-1,-1,-1,-1,-1,-1,-1,-1,-1,-1,-1,-1,-1,-1,-1,-1,-1,-1,-1,-1,-1,-1,-1,-1,-1,-1,-1,-1,-1,-1,-1,-1,-1,-1,-1,-1,-1,-1,-1,-1,-1,-1,-1,-1,-1,-1],"split_conditions":[2.6281065E-1,4.8945916E-1,6.5634644E-1,6.8329966E-1,1.841548E-1,2.6281065E-1,7.467736E-1,5.2545255E-1,5.292462E-1,6.4337075E-1,5.614865E-1,5.3670585E-1,2.6281065E-1,4.7049427E-1,2.2238858E-1,3.5976857E-1,7.467736E-1,6.2918544E-1,3.8171363E-1,3.3940068E-1,5.6468815E-1,4.3117005E-1,2.6281065E-1,6.8329966E-1,2.0327906E-1,4.8945916E-1,2.8918937E-1,3.412782E-1,5.2545255E-1,3.1194833E-1,5.614865E-1,5.211069E-1,4.37978E-1,7.222982E-1,7.7089894E-1,1.3142252E-2,-6.006718E-4,1.841548E-1,5.484907E-1,6.184993E-1,5.2995926E-1,5.6623924E-1,4.373603E-2,2.9709006E-2,7.7089894E-1,7.467736E-1,5.3670585E-1,4.3866673E-1,3.7223172E-1,6.4337075E-1,4.2165443E-1,6.864914E-1,6.5234303E-1,5.3670585E-1,2.6281065E-1,1.5810467E-1,1.5810467E-1,4.6668354E-1,6.4337075E-1,5.112928E-1,2.745758E-1,7.601405E-1,5.804536E-1,7.281447E-3,1.6124511E-2,2.7382994E-2,2.342391E-2,5.331246E-3,-3.7183643E-3,1.6126156E-2,3.1697273E-2,2.0485211E-2,2.6985886E-2,2.2308826E-2,1.917751E-2,1.802659E-2,2.220626E-2,2.2750283E-2,2.668214E-2,3.9671805E-2,3.5741188E-2,1.65641E-2,7.217074E-3,1.5335942E-2,2.104516E-2,2.3413934E-2,2.7302885E-2,4.6394295E-3,1.1883138E-2,2.9987384E-2,1.4220953E-2,2.404612E-2,3.7250903E-2,2.513423E-2,1.4320393E-2,6.4652306E-3,1.8816376E-2,2.2103474E-2,1.4159958E-2,6.045846E-3,2.5291182E-2,8.923963E-3,-4.2711226E-3,4.2167474E-2,2.4115534E-2,8.378577E-3,1.4790145E-2,1.4737765E-3,1.015864E-2,1.3717223E-2,2.6753534E-2,1.7125297E-2,2.5932599E-2,3.0706646E-2,4.1390136E-2,8.475298E-3,1.739169E-2,3.1349994E-2,1.5511609E-2],"split_indices":[6,2,6,3,6,2,6,0,1,3,3,6,7,2,4,2,0,0,5,7,2,3,5,5,2,3,5,2,4,3,4,1,0,4,0,0,0,6,0,0,2,0,0,0,4,3,2,6,1,5,0,4,1,1,1,3,3,0,3,5,0,6,2,0,0,0,0,0,0,0,0,0,0,0,0,0,0,0,0,0,0,0,0,0,0,0,0,0,0,0,0,0,0,0,0,0,0,0,0,0,0,0,0,0,0,0,0,0,0,0,0,0,0,0,0,0,0,0,0],"split_type":[0,0,0,0,0,0,0,0,0,0,0,0,0,0,0,0,0,0,0,0,0,0,0,0,0,0,0,0,0,0,0,0,0,0,0,0,0,0,0,0,0,0,0,0,0,0,0,0,0,0,0,0,0,0,0,0,0,0,0,0,0,0,0,0,0,0,0,0,0,0,0,0,0,0,0,0,0,0,0,0,0,0,0,0,0,0,0,0,0,0,0,0,0,0,0,0,0,0,0,0,0,0,0,0,0,0,0,0,0,0,0,0,0,0,0,0,0,0,0],"sum_hessian":[2.56E3,1.1E2,2.45E3,7.6E1,3.4E1,2.158E3,2.92E2,6.6E1,1E1,1E1,2.4E1,1.06E2,2.052E3,2.6E2,3.2E1,5E0,6.1E1,2E0,8E0,7E0,3E0,1.1E1,1.3E1,8.6E1,2E1,1E2,1.952E3,3E1,2.3E2,6E0,2.6E1,3E0,2E0,5.8E1,3E0,1E0,1E0,5E0,3E0,3E0,4E0,2E0,1E0,1E0,1E1,5E0,8E0,7.4E1,1.2E1,1.4E1,6E0,7.2E1,2.8E1,1.48E2,1.804E3,6E0,2.4E1,2.17E2,1.3E1,3E0,3E0,2.2E1,4E0,1E0,2E0,1E0,1E0,5.4E1,4E0,2E0,1E0,1E0,4E0,1E0,2E0,1E0,2E0,1E0,3E0,1E0,1E0,9E0,1E0,2E0,3E0,4E0,4E0,5.4E1,2E1,3E0,9E0,1.1E1,3E0,1E0,5E0,6.4E1,8E0,1.7E1,1.1E1,1.3E2,1.8E1,7E1,1.734E3,1E0,5E0,4E0,2E1,1.89E2,2.8E1,9E0,4E0,2E0,1E0,2E0,1E0,8E0,1.4E1,3E0,1E0],"tree_param":{"num_deleted":"0","num_feature":"8","num_nodes":"119","size_leaf_vector":"1"}},{"base_weights":[-1.4156103E-8,-1.9074727E-3,2.8235082E-2,-5.4544574E-3,1.5547195E-2,1.9767823E-2,6.263332E-2,-8.983657E-3,1.3134878E-2,1.1581682E-2,5.4987986E-2,6.3087724E-2,1.1891478E-2,4.9209025E-2,5.9362456E-2,-1.327267E-2,1.0359228E-2,7.12319E-3,3.331109E-2,7.921278E-3,3.3825673E-2,8.8941574E-2,4.8416324E-2,1.04372025E-1,5.850058E-2,8.573933E-3,4.506693E-2,5.255909E-2,8.770982E-2,-1.6205965E-2,1.1721452E-2,5.66537E-3,5.6627255E-2,4.7908872E-2,4.273535E-3,2.5184454E-2,5.6407854E-2,6.3721915E-3,4.7164798E-2,2.9163094E-2,5.6102436E-2,7.3898636E-2,1.0398451E-1,2.8307294E-2,5.799205E-2,3.0615235E-2,3.200798E-2,6.666664E-2,4.2168457E-2,4.947461E-3,4.121218E-2,4.785188E-2,6.0007097E-3,3.5059452E-2,5.5892356E-2,1.3396883E-2,9.632053E-2,-5.770792E-3,2.8087895E-3,1.1123442E-3,1.2279737E-2,3.3387772E-4,9.308696E-3,1.0409753E-2,2.0104272E-2,1.642355E-2,1.6450882E-5,2.2685602E-4,6.757717E-3,6.2684435E-3,2.0166893E-2,2.0174854E-2,1.3995109E-2,7.6095494E-3,9.7292435E-4,2.1610022E-2,1.2657324E-2,5.949483E-3,1.1183229E-2,2.5375772E-2,1.43892905E-2,2.4411894E-2,1.7684985E-2,3.1632688E-2,3.0320693E-2,6.1190845E-3,1.7984606E-2,1.5584308E-2,2.1930886E-2,2.1857802E-2,1.4426566E-2,1.1202729E-2,1.5546155E-2,7.816215E-4,1.65905E-2,1.702087E-2,9.258843E-3,1.7846132E-2,1.335826E-2,1.2250686E-2,8.784986E-3,1.1585891E-2,1.7986957E-2,2.2095038E-2,3.3430245E-2],"categories":[],"categories_nodes":[],"categories_segments":[],"categories_sizes":[],"default_left":[0,0,0,0,0,0,0,0,0,0,0,0,0,0,0,0,0,0,0,0,0,0,0,0,0,0,0,0,0,0,0,0,0,0,0,0,0,0,0,0,0,0,0,0,0,0,0,0,0,0,0,0,0,0,0,0,0,0,0,0,0,0,0,0,0,0,0,0,0,0,0,0,0,0,0,0,0,0,0,0,0,0,0,0,0,0,0,0,0,0,0,0,0,0,0,0,0,0,0,0,0,0,0,0,0],"id":6,"left_children":[1,3,5,7,9,11,13,15,17,19,21,23,25,-1,27,29,31,33,35,37,39,41,43,45,47,49,51,53,55,57,59,61,63,65,67,69,71,73,75,77,79,81,83,85,87,-1,-1,89,91,93,95,97,-1,99,101,-1,103,-1,-1,-1,-1,-1,-1,-1,-1,-1,-1,-1,-1,-1,-1,-1,-1,-1,-1,-1,-1,-1,-1,-1,-1,-1,-1,-1,-1,-1,-1,-1,-1,-1,-1,-1,-1,-1,-1,-1,-1,-1,-1,-1,-1,-1,-1,-1,-1],"loss_changes":[1.3787462E-1,1.4846365E-1,4.718393E-2,1.307517E-1,6.3343205E-2,4.4356324E-2,1.0612965E-2,1.3896118E-1,3.8571205E-2,2.9963292E-2,8.255869E-3,3.78754E-3,1.2106717E-2,0E0,5.978577E-3,1.0051507E-1,6.602137E-2,2.8475154E-2,1.3702035E-2,1.9210147E-2,5.4010935E-3,1.3577379E-3,5.969323E-3,1.0775402E-5,2.4006478E-3,1.1836167E-2,6.980356E-4,1.4582723E-3,2.2243299E-3,9.5059395E-2,3.370844E-2,3.1868737E-2,6.377466E-3,5.234305E-3,1.4701642E-2,9.737838E-3,2.0099618E-3,1.8067058E-2,1.4842749E-3,3.2559074E-3,2.0862184E-3,3.3519603E-4,1.2751669E-5,2.5029434E-3,1.9180477E-3,0E0,0E0,1.3805814E-3,2.7948618E-4,1.0613914E-2,1.6066395E-3,3.4811534E-4,0E0,1.3345666E-4,1.4741868E-3,0E0,1.7131604E-3,0E0,0E0,0E0,0E0,0E0,0E0,0E0,0E0,0E0,0E0,0E0,0E0,0E0,0E0,0E0,0E0,0E0,0E0,0E0,0E0,0E0,0E0,0E0,0E0,0E0,0E0,0E0,0E0,0E0,0E0,0E0,0E0,0E0,0E0,0E0,0E0,0E0,0E0,0E0,0E0,0E0,0E0,0E0,0E0,0E0,0E0,0E0,0E0],"parents":[2147483647,0,0,1,1,2,2,3,3,4,4,5,5,6,6,7,7,8,8,9,9,10,10,11,11,12,12,14,14,15,15,16,16,17,17,18,18,19,19,20,20,21,21,22,22,23,23,24,24,25,25,26,26,27,27,28,28,29,29,30,30,31,31,32,32,33,33,34,34,35,35,36,36,37,37,38,38,39,39,40,40,41,41,42,42,43,43,44,44,47,47,48,48,49,49,50,50,51,51,53,53,54,54,56,56],"right_children":[2,4,6,8,10,12,14,16,18,20,22,24,26,-1,28,30,32,34,36,38,40,42,44,46,48,50,52,54,56,58,60,62,64,66,68,70,72,74,76,78,80,82,84,86,88,-1,-1,90,92,94,96,98,-1,100,102,-1,104,-1,-1,-1,-1,-1,-1,-1,-1,-1,-1,-1,-1,-1,-1,-1,-1,-1,-1,-1,-1,-1,-1,-1,-1,-1,-1,-1,-1,-1,-1,-1,-1,-1,-1,-1,-1,-1,-1,-1,-1,-1,-1,-1,-1,-1,-1,-1,-1],"split_conditions":[6.8329966E-1,6.3321704E-1,7.467736E-1,6.3321704E-1,5.4400647E-1,5.0150025E-1,1.5810467E-1,6.3321704E-1,7.010916E-1,4.8945916E-1,3.412782E-1,2.4259213E-1,4.8945916E-1,4.9209025E-2,5.26803E-1,6.5862894E-1,7.467736E-1,2.6281065E-1,7.601405E-1,7.3600113E-1,5.886713E-1,6.5862894E-1,3.6740154E-1,5.98962E-1,4.37978E-1,4.8945916E-1,5.6308913E-1,3.7921885E-1,5.2365035E-1,6.4076585E-1,4.6668354E-1,4.6817276E-1,7.601405E-1,6.4812565E-1,4.6164563E-1,6.7422426E-1,6.3806224E-1,2.4784799E-1,6.5012956E-1,5.5646026E-1,6.0943615E-1,6.350662E-1,7.0964503E-1,6.261302E-1,5.614865E-1,3.0615235E-2,3.200798E-2,6.4337075E-1,5.1252687E-1,6.949946E-1,6.0386056E-1,5.484907E-1,6.0007097E-3,3.5976857E-1,3.3940068E-1,1.3396883E-2,5.614865E-1,-5.770792E-3,2.8087895E-3,1.1123442E-3,1.2279737E-2,3.3387772E-4,9.308696E-3,1.0409753E-2,2.0104272E-2,1.642355E-2,1.6450882E-5,2.2685602E-4,6.757717E-3,6.2684435E-3,2.0166893E-2,2.0174854E-2,1.3995109E-2,7.6095494E-3,9.7292435E-4,2.1610022E-2,1.2657324E-2,5.949483E-3,1.1183229E-2,2.5375772E-2,1.43892905E-2,2.4411894E-2,1.7684985E-2,3.1632688E-2,3.0320693E-2,6.1190845E-3,1.7984606E-2,1.5584308E-2,2.1930886E-2,2.1857802E-2,1.4426566E-2,1.1202729E-2,1.5546155E-2,7.816215E-4,1.65905E-2,1.702087E-2,9.258843E-3,1.7846132E-2,1.335826E-2,1.2250686E-2,8.784986E-3,1.1585891E-2,1.7986957E-2,2.2095038E-2,3.3430245E-2],"split_indices":[3,1,3,0,7,7,5,2,0,3,5,5,5,0,5,7,2,5,0,5,2,1,0,0,7,1,2,4,6,5,5,4,2,3,6,7,4,3,1,3,2,2,1,7,0,0,0,1,0,2,7,6,0,1,2,0,5,0,0,0,0,0,0,0,0,0,0,0,0,0,0,0,0,0,0,0,0,0,0,0,0,0,0,0,0,0,0,0,0,0,0,0,0,0,0,0,0,0,0,0,0,0,0,0,0],"split_type":[0,0,0,0,0,0,0,0,0,0,0,0,0,0,0,0,0,0,0,0,0,0,0,0,0,0,0,0,0,0,0,0,0,0,0,0,0,0,0,0,0,0,0,0,0,0,0,0,0,0,0,0,0,0,0,0,0,0,0,0,0,0,0,0,0,0,0,0,0,0,0,0,0,0,0,0,0,0,0,0,0,0,0,0,0,0,0,0,0,0,0,0,0,0,0,0,0,0,0,0,0,0,0,0,0],"sum_hessian":[2.56E3,2.398E3,1.62E2,1.993E3,4.05E2,1.3E2,3.2E1,1.675E3,3.18E2,3.68E2,3.7E1,2E1,1.1E2,1E0,3.1E1,1.371E3,3.04E2,2.45E2,7.3E1,3.16E2,5.2E1,6E0,3.1E1,2E0,1.8E1,1E2,1E1,2.5E1,6E0,1.227E3,1.44E2,2.76E2,2.8E1,1.6E1,2.29E2,5.4E1,1.9E1,3.04E2,1.2E1,4.3E1,9E0,3E0,3E0,1E1,2.1E1,1E0,1E0,1.2E1,6E0,9E1,1E1,9E0,1E0,4E0,2.1E1,1E0,5E0,1.097E3,1.3E2,1.13E2,3.1E1,2.34E2,4.2E1,9E0,1.9E1,1.4E1,2E0,1.92E2,3.7E1,4.9E1,5E0,9E0,1E1,4.3E1,2.61E2,2E0,1E1,2E1,2.3E1,2E0,7E0,2E0,1E0,2E0,1E0,8E0,2E0,1.5E1,6E0,9E0,3E0,4E0,2E0,8.6E1,4E0,4E0,6E0,2E0,7E0,2E0,2E0,4E0,1.7E1,2E0,3E0],"tree_param":{"num_deleted":"0","num_feature":"8","num_nodes":"105","size_leaf_vector":"1"}},{"base_weights":[-2.9802322E-8,2.9077236E-2,-1.3055396E-3,1.6526988E-2,4.7902606E-2,-4.102445E-3,1.2529639E-2,1.44362375E-2,6.043275E-2,3.669536E-2,6.13513E-2,1.9884227E-2,-6.1183465E-3,8.354814E-3,3.6097195E-2,6.3959835E-3,2.8419288E-2,1.5463257E-2,2.3462964E-2,4.5816995E-2,3.0179908E-2,7.240302E-2,3.5563946E-2,7.9400325E-3,3.4899786E-2,-8.311335E-3,1.5940538E-2,4.168374E-3,3.4071513E-2,3.0329091E-2,4.8210215E-2,4.781772E-3,2.0805074E-2,7.1965456E-2,2.4272034E-2,5.3408068E-2,3.4430385E-2,3.9599992E-2,2.4946531E-2,6.642548E-2,1.0826826E-1,2.7671527E-2,2.2507811E-2,3.2853722E-3,5.4486632E-2,2.8493563E-2,4.8877E-2,-1.09754E-2,6.412204E-3,3.7008937E-2,8.1248395E-3,1.9677163E-3,1.8123766E-2,2.8084522E-2,5.2531403E-2,2.1285083E-2,3.71121E-2,2.3247337E-2,5.6531176E-2,-1.2275648E-2,1.7953259E-3,2.1954775E-2,2.1224499E-2,2.4084665E-3,8.8044675E-3,1.4515472E-2,1.9036317E-2,6.5816403E-3,1.1578274E-2,8.275509E-3,1.428299E-2,9.964037E-3,6.243921E-3,2.395838E-2,1.704855E-2,3.4800053E-2,3.0160906E-2,6.6582444E-3,1.4874316E-2,-1.2089049E-3,6.1061503E-3,2.183032E-2,-1.0700226E-4,1.5087087E-2,7.240266E-3,1.61962E-2,9.45056E-3,-4.4297636E-3,1.8549071E-3,1.1088675E-3,1.29686445E-2,2.2467589E-2,9.397945E-3,1.7807705E-3,1.3413416E-2,8.6827045E-3,3.3341366E-4,-7.87046E-3,6.1195707E-3,1.0316372E-3,9.077745E-3,1.0104347E-2,1.8586958E-2,5.883753E-3,1.4915657E-2,8.741177E-3,1.3526082E-2,8.809305E-3,-3.6621094E-4,2.3881424E-2,1.4442236E-2],"categories":[],"categories_nodes":[],"categories_segments":[],"categories_sizes":[],"default_left":[0,0,0,0,0,0,0,0,0,0,0,0,0,0,0,0,0,0,0,0,0,0,0,0,0,0,0,0,0,0,0,0,0,0,0,0,0,0,0,0,0,0,0,0,0,0,0,0,0,0,0,0,0,0,0,0,0,0,0,0,0,0,0,0,0,0,0,0,0,0,0,0,0,0,0,0,0,0,0,0,0,0,0,0,0,0,0,0,0,0,0,0,0,0,0,0,0,0,0,0,0,0,0,0,0,0,0,0,0,0,0],"id":7,"left_children":[1,3,5,7,9,11,13,15,17,19,21,23,25,27,29,31,33,-1,-1,35,37,39,41,43,45,47,49,51,53,55,57,59,-1,61,63,65,67,69,71,73,75,77,-1,79,81,83,85,87,89,91,93,95,97,99,101,103,105,107,109,-1,-1,-1,-1,-1,-1,-1,-1,-1,-1,-1,-1,-1,-1,-1,-1,-1,-1,-1,-1,-1,-1,-1,-1,-1,-1,-1,-1,-1,-1,-1,-1,-1,-1,-1,-1,-1,-1,-1,-1,-1,-1,-1,-1,-1,-1,-1,-1,-1,-1,-1,-1],"loss_changes":[9.7179286E-2,2.5988929E-2,9.480443E-2,6.0585365E-3,6.6318065E-3,9.8547E-2,4.053685E-2,7.0829187E-3,4.740404E-4,1.4263578E-3,5.6998953E-3,2.8337099E-2,9.094476E-2,3.768149E-2,4.331887E-3,4.06486E-3,4.1537303E-3,0E0,0E0,8.643642E-4,6.901836E-4,3.0013993E-3,1.8687085E-3,1.9065958E-2,6.267883E-3,6.7073844E-2,2.7992927E-2,9.244025E-3,5.415447E-3,2.5765114E-3,4.154306E-3,2.1435064E-3,0E0,2.9634684E-6,1.7315913E-3,3.02786E-4,2.080528E-4,4.811976E-4,3.07539E-4,1.5473142E-3,1.19565055E-4,6.0003414E-4,0E0,9.988539E-3,8.020768E-3,4.560929E-3,1.953438E-3,9.417592E-2,2.6198205E-2,9.902351E-3,9.9306265E-3,6.0058404E-3,4.137189E-3,1.9830205E-3,2.131991E-3,8.5603725E-4,1.5263557E-3,7.483561E-4,2.903942E-3,0E0,0E0,0E0,0E0,0E0,0E0,0E0,0E0,0E0,0E0,0E0,0E0,0E0,0E0,0E0,0E0,0E0,0E0,0E0,0E0,0E0,0E0,0E0,0E0,0E0,0E0,0E0,0E0,0E0,0E0,0E0,0E0,0E0,0E0,0E0,0E0,0E0,0E0,0E0,0E0,0E0,0E0,0E0,0E0,0E0,0E0,0E0,0E0,0E0,0E0,0E0,0E0],"parents":[2147483647,0,0,1,1,2,2,3,3,4,4,5,5,6,6,7,7,8,8,9,9,10,10,11,11,12,12,13,13,14,14,15,15,16,16,19,19,20,20,21,21,22,22,23,23,24,24,25,25,26,26,27,27,28,28,29,29,30,30,31,31,33,33,34,34,35,35,36,36,37,37,38,38,39,39,40,40,41,41,43,43,44,44,45,45,46,46,47,47,48,48,49,49,50,50,51,51,52,52,53,53,54,54,55,55,56,56,57,57,58,58],"right_children":[2,4,6,8,10,12,14,16,18,20,22,24,26,28,30,32,34,-1,-1,36,38,40,42,44,46,48,50,52,54,56,58,60,-1,62,64,66,68,70,72,74,76,78,-1,80,82,84,86,88,90,92,94,96,98,100,102,104,106,108,110,-1,-1,-1,-1,-1,-1,-1,-1,-1,-1,-1,-1,-1,-1,-1,-1,-1,-1,-1,-1,-1,-1,-1,-1,-1,-1,-1,-1,-1,-1,-1,-1,-1,-1,-1,-1,-1,-1,-1,-1,-1,-1,-1,-1,-1,-1,-1,-1,-1,-1,-1,-1],"split_conditions":[2.6281065E-1,4.3866673E-1,6.3321704E-1,7.467736E-1,5.3670585E-1,2.8918937E-1,4.8622307E-1,6.153736E-1,2.745758E-1,6.350662E-1,2.0327906E-1,4.0390384E-1,6.5634644E-1,5.0150025E-1,7.010916E-1,7.467736E-1,3.3368763E-1,1.5463257E-2,2.3462964E-2,6.864914E-1,5.112928E-1,1.9440451E-1,5.1007473E-1,6.8329966E-1,5.3670585E-1,6.3321704E-1,5.0555E-1,6.994541E-1,5.614865E-1,4.5295486E-1,5.26803E-1,4.37978E-1,2.0805074E-2,7.0964503E-1,5.696229E-1,4.695794E-1,4.8945916E-1,4.931154E-1,5.112928E-1,6.208659E-1,6.1413074E-1,7.467736E-1,2.2507811E-2,6.0943615E-1,5.926706E-1,4.3282962E-1,6.730028E-1,6.3321704E-1,7.467736E-1,3.3368763E-1,5.26803E-1,4.8622307E-1,6.3670975E-1,3.0046177E-1,5.3670585E-1,6.894049E-1,5.292462E-1,5.112928E-1,3.7359452E-1,-1.2275648E-2,1.7953259E-3,2.1954775E-2,2.1224499E-2,2.4084665E-3,8.8044675E-3,1.4515472E-2,1.9036317E-2,6.5816403E-3,1.1578274E-2,8.275509E-3,1.428299E-2,9.964037E-3,6.243921E-3,2.395838E-2,1.704855E-2,3.4800053E-2,3.0160906E-2,6.6582444E-3,1.4874316E-2,-1.2089049E-3,6.1061503E-3,2.183032E-2,-1.0700226E-4,1.5087087E-2,7.240266E-3,1.61962E-2,9.45056E-3,-4.4297636E-3,1.8549071E-3,1.1088675E-3,1.29686445E-2,2.2467589E-2,9.397945E-3,1.7807705E-3,1.3413416E-2,8.6827045E-3,3.3341366E-4,-7.87046E-3,6.1195707E-3,1.0316372E-3,9.077745E-3,1.0104347E-2,1.8586958E-2,5.883753E-3,1.4915657E-2,8.741177E-3,1.3526082E-2,8.809305E-3,-3.6621094E-4,2.3881424E-2,1.4442236E-2],"split_indices":[4,0,4,2,0,0,2,1,0,6,4,4,0,6,4,6,5,0,0,2,7,4,3,5,4,3,4,0,5,3,2,7,0,1,7,0,0,7,1,2,2,1,0,3,1,4,5,5,3,4,2,0,4,5,6,2,2,2,3,0,0,0,0,0,0,0,0,0,0,0,0,0,0,0,0,0,0,0,0,0,0,0,0,0,0,0,0,0,0,0,0,0,0,0,0,0,0,0,0,0,0,0,0,0,0,0,0,0,0,0,0],"split_type":[0,0,0,0,0,0,0,0,0,0,0,0,0,0,0,0,0,0,0,0,0,0,0,0,0,0,0,0,0,0,0,0,0,0,0,0,0,0,0,0,0,0,0,0,0,0,0,0,0,0,0,0,0,0,0,0,0,0,0,0,0,0,0,0,0,0,0,0,0,0,0,0,0,0,0,0,0,0,0,0,0,0,0,0,0,0,0,0,0,0,0,0,0,0,0,0,0,0,0,0,0,0,0,0,0,0,0,0,0,0,0],"sum_hessian":[2.56E3,1.1E2,2.45E3,6.6E1,4.4E1,2.038E3,4.12E2,6.3E1,3E0,2.4E1,2E1,1.58E2,1.88E3,3.5E2,6.2E1,4E1,2.3E1,2E0,1E0,1E1,1.4E1,1.4E1,6E0,8.8E1,7E1,1.71E3,1.7E2,3.01E2,4.9E1,4.2E1,2E1,3.9E1,1E0,2E0,2.1E1,6E0,4E0,5E0,9E0,1.2E1,2E0,5E0,1E0,8E1,8E0,4.8E1,2.2E1,1.448E3,2.62E2,4.6E1,1.24E2,2.6E2,4.1E1,3.7E1,1.2E1,1.8E1,2.4E1,5E0,1.5E1,1E0,3.8E1,1E0,1E0,5E0,1.6E1,4E0,2E0,1E0,3E0,2E0,3E0,3E0,6E0,5E0,7E0,1E0,1E0,4E0,1E0,5.6E1,2.4E1,6E0,2E0,8E0,4E1,1.7E1,5E0,1.186E3,2.62E2,2.44E2,1.8E1,6E0,4E1,1.17E2,7E0,8E0,2.52E2,2E0,3.9E1,3E0,3.4E1,4E0,8E0,1.7E1,1E0,1.2E1,1.2E1,4E0,1E0,4E0,1.1E1],"tree_param":{"num_deleted":"0","num_feature":"8","num_nodes":"111","size_leaf_vector":"1"}},{"base_weights":[2.3655593E-8,-8.834469E-4,2.3700083E-2,2.0475417E-2,-1.870355E-3,1.9732067E-2,6.536424E-2,1.1637167E-2,3.3531927E-2,1.8624008E-2,-3.0461857E-3,1.4041233E-2,3.920071E-2,1.01528645E-1,5.330944E-2,1.015334E-2,4.2302925E-2,2.5686821E-2,4.294605E-2,6.8925736E-3,2.9644446E-2,1.4769865E-2,-4.515729E-3,1.10595785E-2,4.982109E-2,2.4840832E-2,4.5828342E-2,2.8118135E-2,3.2799054E-2,7.1352325E-2,3.526656E-2,4.409093E-3,1.9893585E-2,1.0824252E-2,1.6424133E-2,3.207197E-2,2.1125998E-2,5.0682273E-2,2.4894873E-2,3.287943E-2,4.1082674E-3,3.9086394E-2,2.2687221E-2,3.339852E-3,2.9597992E-2,2.4409253E-2,-5.368164E-3,7.88205E-3,2.5214022E-2,3.666528E-2,6.9554806E-2,1.663785E-2,1.8717099E-2,3.821645E-2,7.1201324E-2,2.6830817E-2,6.2310457E-2,2.90339E-2,1.4319563E-2,1.1542726E-2,7.702957E-4,3.725052E-3,1.01737445E-2,8.312008E-3,1.2677289E-2,8.315965E-3,5.2388194E-3,1.7632214E-2,1.0835123E-2,5.8110524E-3,1.5755512E-2,6.858063E-3,1.2869597E-2,1.1386371E-2,4.5141167E-4,1.5895415E-2,9.028008E-3,1.681459E-2,6.2501435E-3,-9.808021E-4,5.3640227E-3,2.4865294E-2,8.435345E-3,3.434377E-3,1.1081562E-2,4.0872293E-3,-1.9898897E-3,8.450225E-4,7.0500257E-3,9.2008915E-3,1.991272E-4,7.1014883E-3,1.2948633E-2,2.4090959E-2,1.7641926E-2,1.7912865E-3,8.164358E-3,8.587814E-3,1.5780617E-2,2.475536E-2,1.4570476E-2,1.8152334E-2,1.9233942E-2,6.9012167E-3,1.0519124E-2],"categories":[],"categories_nodes":[],"categories_segments":[],"categories_sizes":[],"default_left":[0,0,0,0,0,0,0,0,0,0,0,0,0,0,0,0,0,0,0,0,0,0,0,0,0,0,0,0,0,0,0,0,0,0,0,0,0,0,0,0,0,0,0,0,0,0,0,0,0,0,0,0,0,0,0,0,0,0,0,0,0,0,0,0,0,0,0,0,0,0,0,0,0,0,0,0,0,0,0,0,0,0,0,0,0,0,0,0,0,0,0,0,0,0,0,0,0,0,0,0,0,0,0,0,0],"id":8,"left_children":[1,3,5,7,9,11,13,15,17,19,21,23,25,27,29,31,33,35,37,39,41,43,45,47,49,51,53,-1,-1,55,57,59,61,-1,-1,63,65,67,69,71,73,75,77,79,81,83,85,87,89,91,93,-1,95,97,99,-1,101,103,-1,-1,-1,-1,-1,-1,-1,-1,-1,-1,-1,-1,-1,-1,-1,-1,-1,-1,-1,-1,-1,-1,-1,-1,-1,-1,-1,-1,-1,-1,-1,-1,-1,-1,-1,-1,-1,-1,-1,-1,-1,-1,-1,-1,-1,-1,-1],"loss_changes":[5.360206E-2,5.202356E-2,1.5209813E-2,1.2578238E-2,5.684695E-2,9.306595E-3,3.4876354E-3,2.9576747E-3,3.2496117E-3,1.6548548E-2,5.841083E-2,6.934409E-3,1.8082708E-3,1.2172945E-4,1.953274E-3,3.4689219E-3,2.3228629E-4,6.9891475E-4,2.7929582E-3,4.4860337E-3,4.3355227E-3,2.8812565E-2,5.0817363E-2,2.6985686E-3,1.2980644E-3,1.1250034E-3,2.5107749E-3,0E0,0E0,4.9053226E-4,2.3307628E-4,2.4465378E-3,2.410761E-3,0E0,0E0,4.4463295E-4,3.381716E-4,1.6500205E-3,9.156687E-4,6.0230866E-4,4.934772E-3,3.4996644E-3,2.3496319E-3,9.225516E-3,5.836606E-3,9.58138E-3,4.8090916E-2,3.8763983E-3,1.4733043E-3,2.5325222E-4,2.3105554E-4,0E0,5.415472E-4,1.379637E-3,7.683849E-4,0E0,6.4997002E-6,7.271813E-5,0E0,0E0,0E0,0E0,0E0,0E0,0E0,0E0,0E0,0E0,0E0,0E0,0E0,0E0,0E0,0E0,0E0,0E0,0E0,0E0,0E0,0E0,0E0,0E0,0E0,0E0,0E0,0E0,0E0,0E0,0E0,0E0,0E0,0E0,0E0,0E0,0E0,0E0,0E0,0E0,0E0,0E0,0E0,0E0,0E0,0E0,0E0],"parents":[2147483647,0,0,1,1,2,2,3,3,4,4,5,5,6,6,7,7,8,8,9,9,10,10,11,11,12,12,13,13,14,14,15,15,16,16,17,17,18,18,19,19,20,20,21,21,22,22,23,23,24,24,25,25,26,26,29,29,30,30,31,31,32,32,35,35,36,36,37,37,38,38,39,39,40,40,41,41,42,42,43,43,44,44,45,45,46,46,47,47,48,48,49,49,50,50,52,52,53,53,54,54,56,56,57,57],"right_children":[2,4,6,8,10,12,14,16,18,20,22,24,26,28,30,32,34,36,38,40,42,44,46,48,50,52,54,-1,-1,56,58,60,62,-1,-1,64,66,68,70,72,74,76,78,80,82,84,86,88,90,92,94,-1,96,98,100,-1,102,104,-1,-1,-1,-1,-1,-1,-1,-1,-1,-1,-1,-1,-1,-1,-1,-1,-1,-1,-1,-1,-1,-1,-1,-1,-1,-1,-1,-1,-1,-1,-1,-1,-1,-1,-1,-1,-1,-1,-1,-1,-1,-1,-1,-1,-1,-1,-1],"split_conditions":[7.0334506E-1,2.6281065E-1,5.614865E-1,4.3866673E-1,2.7254304E-1,7.601405E-1,5.674439E-1,7.467736E-1,5.3670585E-1,4.026486E-1,2.8918937E-1,5.614865E-1,4.275099E-1,5.7716507E-1,2.1072564E-1,6.153736E-1,2.745758E-1,6.350662E-1,2.0327906E-1,3.7223172E-1,2.0327906E-1,4.0390384E-1,2.33352E-1,4.4013608E-1,2.2238858E-1,1.9440451E-1,4.590698E-1,2.8118135E-2,3.2799054E-2,5.98962E-1,7.0964503E-1,5.2545255E-1,6.3670975E-1,1.0824252E-2,1.6424133E-2,6.0988235E-1,5.112928E-1,6.5234303E-1,5.1007473E-1,6.612473E-1,5.0555E-1,6.3806224E-1,4.256958E-1,6.0943615E-1,4.256958E-1,4.3866673E-1,2.838064E-1,4.3866673E-1,7.467736E-1,1.841548E-1,2.4784799E-1,1.663785E-2,5.3148466E-1,4.908858E-1,5.575297E-1,2.6830817E-2,6.064664E-1,5.2365035E-1,1.4319563E-2,1.1542726E-2,7.702957E-4,3.725052E-3,1.01737445E-2,8.312008E-3,1.2677289E-2,8.315965E-3,5.2388194E-3,1.7632214E-2,1.0835123E-2,5.8110524E-3,1.5755512E-2,6.858063E-3,1.2869597E-2,1.1386371E-2,4.5141167E-4,1.5895415E-2,9.028008E-3,1.681459E-2,6.2501435E-3,-9.808021E-4,5.3640227E-3,2.4865294E-2,8.435345E-3,3.434377E-3,1.1081562E-2,4.0872293E-3,-1.9898897E-3,8.450225E-4,7.0500257E-3,9.2008915E-3,1.991272E-4,7.1014883E-3,1.2948633E-2,2.4090959E-2,1.7641926E-2,1.7912865E-3,8.164358E-3,8.587814E-3,1.5780617E-2,2.475536E-2,1.4570476E-2,1.8152334E-2,1.9233942E-2,6.9012167E-3,1.0519124E-2],"split_indices":[5,4,7,0,6,5,7,2,0,2,1,3,2,0,2,1,0,6,4,5,6,5,5,7,0,3,0,0,0,0,0,2,7,0,0,1,7,6,3,3,4,0,2,6,5,1,2,3,0,0,0,0,1,3,0,0,0,0,0,0,0,0,0,0,0,0,0,0,0,0,0,0,0,0,0,0,0,0,0,0,0,0,0,0,0,0,0,0,0,0,0,0,0,0,0,0,0,0,0,0,0,0,0,0,0],"split_type":[0,0,0,0,0,0,0,0,0,0,0,0,0,0,0,0,0,0,0,0,0,0,0,0,0,0,0,0,0,0,0,0,0,0,0,0,0,0,0,0,0,0,0,0,0,0,0,0,0,0,0,0,0,0,0,0,0,0,0,0,0,0,0,0,0,0,0,0,0,0,0,0,0,0,0,0,0,0,0,0,0,0,0,0,0,0,0,0,0,0,0,0,0,0,0,0,0,0,0,0,0,0,0,0,0],"sum_hessian":[2.56E3,2.468E3,9.2E1,1.09E2,2.359E3,8.4E1,8E0,6.5E1,4.4E1,1.28E2,2.231E3,6.5E1,1.9E1,2E0,6E0,6.2E1,3E0,2.4E1,2E1,6.2E1,6.6E1,1.7E2,2.061E3,6E1,5E0,6E0,1.3E1,1E0,1E0,3E0,3E0,3.9E1,2.3E1,2E0,1E0,1E1,1.4E1,1.4E1,6E0,6E0,5.6E1,2.8E1,3.8E1,9.6E1,7.4E1,5.9E1,2.002E3,4.9E1,1.1E1,3E0,2E0,1E0,5E0,1E1,3E0,1E0,2E0,2E0,1E0,2E0,3.7E1,1.5E1,8E0,7E0,3E0,5E0,9E0,9E0,5E0,5E0,1E0,3E0,3E0,4E0,5.2E1,1.1E1,1.7E1,2E0,3.6E1,6.6E1,3E1,2E0,7.2E1,2.9E1,3E1,1.25E2,1.877E3,3.7E1,1.2E1,9E0,2E0,1E0,2E0,1E0,1E0,2E0,3E0,6E0,4E0,2E0,1E0,1E0,1E0,1E0,1E0],"tree_param":{"num_deleted":"0","num_feature":"8","num_nodes":"105","size_leaf_vector":"1"}},{"base_weights":[-2.7939677E-8,-1.815531E-3,9.465265E-3,-3.8887686E-3,8.982082E-3,2.1191485E-2,6.3718446E-3,-5.2660056E-3,1.325475E-2,4.452575E-3,2.1125017E-2,1.9188244E-2,4.7901392E-2,3.8170307E-3,1.9240538E-2,8.622055E-3,-7.3871263E-3,6.580238E-2,1.1218019E-2,2.8710265E-3,3.352873E-2,2.873684E-2,1.3182246E-2,1.7686373E-2,4.772377E-2,3.751111E-2,6.8681955E-2,6.969363E-5,1.7951723E-2,-2.890444E-3,2.4270307E-2,1.2040494E-3,2.004749E-2,8.088928E-3,-9.447369E-3,7.621336E-2,5.018592E-2,6.616546E-3,2.2659522E-2,2.0685104E-4,2.0746784E-2,2.4797976E-2,4.749794E-2,1.5839895E-2,3.3035822E-2,3.6429804E-2,9.695113E-3,1.6394785E-2,4.911502E-2,1.8576194E-2,4.2991478E-2,8.142185E-3,4.096794E-2,2.1014644E-2,2.019453E-2,-3.1355608E-4,2.4625542E-2,-2.8705E-3,2.1351269E-2,4.146894E-3,-1.344645E-2,2.7891371E-2,7.975519E-3,-7.381503E-4,6.276846E-3,4.4605974E-3,1.0897147E-2,-6.0380506E-4,6.086873E-3,-3.7773342E-3,6.181715E-4,2.7231218E-2,2.0680405E-2,1.4024878E-2,1.6086675E-2,4.438165E-3,-5.772686E-4,6.2933355E-3,1.562698E-2,-7.0608333E-3,4.2179716E-4,4.995429E-3,1.2612791E-2,6.2475544E-3,1.5782261E-2,8.384729E-3,1.8159151E-2,-6.026268E-4,6.5368335E-3,1.1987701E-2,7.314554E-3,1.5740061E-2,8.523381E-3,1.9841194E-3,6.606192E-3,6.217228E-3,2.2667348E-3,7.3751453E-3,1.8414188E-2,1.4449454E-2,1.212144E-2,1.1332154E-2,1.4206839E-2,4.271841E-3,-6.4554997E-4,-6.6736224E-3,-3.079687E-5,5.450189E-3,1.3250924E-2,2.3807646E-3,-1.0293246E-3,-4.93393E-3,-1.333952E-3,9.197863E-3,1.7238022E-3,-1.3003349E-3,4.60845E-3],"categories":[],"categories_nodes":[],"categories_segments":[],"categories_sizes":[],"default_left":[0,0,0,0,0,0,0,0,0,0,0,0,0,0,0,0,0,0,0,0,0,0,0,0,0,0,0,0,0,0,0,0,0,0,0,0,0,0,0,0,0,0,0,0,0,0,0,0,0,0,0,0,0,0,0,0,0,0,0,0,0,0,0,0,0,0,0,0,0,0,0,0,0,0,0,0,0,0,0,0,0,0,0,0,0,0,0,0,0,0,0,0,0,0,0,0,0,0,0,0,0,0,0,0,0,0,0,0,0,0,0,0,0,0,0,0,0],"id":9,"left_children":[1,3,5,7,9,11,13,15,17,19,21,23,25,27,29,31,33,35,37,39,41,43,45,47,49,51,53,55,57,59,61,63,65,67,69,71,73,75,77,79,81,83,85,87,89,91,93,95,97,-1,99,-1,101,-1,-1,103,-1,105,107,109,111,113,115,-1,-1,-1,-1,-1,-1,-1,-1,-1,-1,-1,-1,-1,-1,-1,-1,-1,-1,-1,-1,-1,-1,-1,-1,-1,-1,-1,-1,-1,-1,-1,-1,-1,-1,-1,-1,-1,-1,-1,-1,-1,-1,-1,-1,-1,-1,-1,-1,-1,-1,-1,-1,-1,-1],"loss_changes":[4.399173E-2,4.8085168E-2,1.49449445E-2,4.2546462E-2,1.9030524E-2,4.6015494E-3,1.071794E-2,4.913636E-2,1.4341397E-2,1.1588308E-2,5.6831427E-3,3.4285337E-3,1.2954948E-3,1.4407148E-2,6.010942E-3,1.8730618E-2,4.613676E-2,8.1291236E-4,6.791562E-3,1.1382174E-2,1.5855022E-3,2.661299E-3,3.7290966E-3,3.08506E-3,2.68735E-4,1.4339667E-4,3.7373975E-6,6.7579644E-3,4.03481E-3,7.4286177E-4,2.5961958E-3,9.6828975E-3,7.333439E-3,2.0951856E-2,4.6199337E-2,3.178753E-4,2.3616944E-5,6.4253528E-3,1.8312857E-3,5.9219934E-3,2.7036378E-3,8.8385306E-4,1.2738584E-3,1.2742975E-3,2.1568686E-3,7.7156257E-4,1.519186E-3,2.7934723E-3,9.0266997E-4,0E0,4.0146057E-5,0E0,6.1213505E-5,0E0,0E0,5.7250336E-3,0E0,4.2901371E-4,3.5600178E-3,1.7227713E-4,1.0799861E-4,2.2068787E-3,7.2736957E-4,0E0,0E0,0E0,0E0,0E0,0E0,0E0,0E0,0E0,0E0,0E0,0E0,0E0,0E0,0E0,0E0,0E0,0E0,0E0,0E0,0E0,0E0,0E0,0E0,0E0,0E0,0E0,0E0,0E0,0E0,0E0,0E0,0E0,0E0,0E0,0E0,0E0,0E0,0E0,0E0,0E0,0E0,0E0,0E0,0E0,0E0,0E0,0E0,0E0,0E0,0E0,0E0,0E0,0E0],"parents":[2147483647,0,0,1,1,2,2,3,3,4,4,5,5,6,6,7,7,8,8,9,9,10,10,11,11,12,12,13,13,14,14,15,15,16,16,17,17,18,18,19,19,20,20,21,21,22,22,23,23,24,24,25,25,26,26,27,27,28,28,29,29,30,30,31,31,32,32,33,33,34,34,35,35,36,36,37,37,38,38,39,39,40,40,41,41,42,42,43,43,44,44,45,45,46,46,47,47,48,48,50,50,52,52,55,55,57,57,58,58,59,59,60,60,61,61,62,62],"right_children":[2,4,6,8,10,12,14,16,18,20,22,24,26,28,30,32,34,36,38,40,42,44,46,48,50,52,54,56,58,60,62,64,66,68,70,72,74,76,78,80,82,84,86,88,90,92,94,96,98,-1,100,-1,102,-1,-1,104,-1,106,108,110,112,114,116,-1,-1,-1,-1,-1,-1,-1,-1,-1,-1,-1,-1,-1,-1,-1,-1,-1,-1,-1,-1,-1,-1,-1,-1,-1,-1,-1,-1,-1,-1,-1,-1,-1,-1,-1,-1,-1,-1,-1,-1,-1,-1,-1,-1,-1,-1,-1,-1,-1,-1,-1,-1,-1,-1],"split_conditions":[6.3321704E-1,6.3321704E-1,5.292462E-1,6.5634644E-1,4.2884076E-1,7.601405E-1,4.4269916E-1,3.1896788E-1,3.412782E-1,7.3600113E-1,5.552403E-1,7.122885E-1,5.0555E-1,4.2884076E-1,3.6519203E-1,4.026486E-1,3.1896788E-1,3.9822057E-1,4.6668354E-1,4.8622307E-1,2.745758E-1,3.4757918E-1,3.412782E-1,7.222982E-1,3.1896788E-1,3.2361645E-1,3.8415378E-1,7.7089894E-1,3.6519203E-1,6.3150847E-1,3.293387E-1,6.23367E-1,5.3670585E-1,4.026486E-1,6.2467736E-1,5.7716507E-1,3.3368763E-1,5.185782E-1,4.6817276E-1,3.4757918E-1,5.886713E-1,7.7089894E-1,2.6643068E-1,4.6817276E-1,6.922386E-1,5.6623924E-1,4.3282962E-1,4.8622307E-1,6.730028E-1,1.8576194E-2,2.8023914E-1,8.142185E-3,3.3940068E-1,2.1014644E-2,2.019453E-2,2.33352E-1,2.4625542E-2,2.9231092E-1,7.222982E-1,3.4947821E-1,7.0334506E-1,5.8715177E-1,4.6817276E-1,-7.381503E-4,6.276846E-3,4.4605974E-3,1.0897147E-2,-6.0380506E-4,6.086873E-3,-3.7773342E-3,6.181715E-4,2.7231218E-2,2.0680405E-2,1.4024878E-2,1.6086675E-2,4.438165E-3,-5.772686E-4,6.2933355E-3,1.562698E-2,-7.0608333E-3,4.2179716E-4,4.995429E-3,1.2612791E-2,6.2475544E-3,1.5782261E-2,8.384729E-3,1.8159151E-2,-6.026268E-4,6.5368335E-3,1.1987701E-2,7.314554E-3,1.5740061E-2,8.523381E-3,1.9841194E-3,6.606192E-3,6.217228E-3,2.2667348E-3,7.3751453E-3,1.8414188E-2,1.4449454E-2,1.212144E-2,1.1332154E-2,1.4206839E-2,4.271841E-3,-6.4554997E-4,-6.6736224E-3,-3.079687E-5,5.450189E-3,1.3250924E-2,2.3807646E-3,-1.0293246E-3,-4.93393E-3,-1.333952E-3,9.197863E-3,1.7238022E-3,-1.3003349E-3,4.60845E-3],"split_indices":[1,6,5,2,4,1,7,2,6,2,7,2,5,3,0,6,6,4,0,0,4,7,2,0,3,2,0,4,2,2,3,5,6,2,7,0,0,7,4,3,7,2,0,4,6,3,5,5,1,0,0,0,0,0,0,3,0,2,1,0,2,2,7,0,0,0,0,0,0,0,0,0,0,0,0,0,0,0,0,0,0,0,0,0,0,0,0,0,0,0,0,0,0,0,0,0,0,0,0,0,0,0,0,0,0,0,0,0,0,0,0,0,0,0,0,0,0],"split_type":[0,0,0,0,0,0,0,0,0,0,0,0,0,0,0,0,0,0,0,0,0,0,0,0,0,0,0,0,0,0,0,0,0,0,0,0,0,0,0,0,0,0,0,0,0,0,0,0,0,0,0,0,0,0,0,0,0,0,0,0,0,0,0,0,0,0,0,0,0,0,0,0,0,0,0,0,0,0,0,0,0,0,0,0,0,0,0,0,0,0,0,0,0,0,0,0,0,0,0,0,0,0,0,0,0,0,0,0,0,0,0,0,0,0,0,0,0],"sum_hessian":[2.56E3,2.148E3,4.12E2,1.802E3,3.46E2,8.6E1,3.26E2,1.668E3,1.34E2,2.52E2,9.4E1,8E1,6E0,2.72E2,5.4E1,2.21E2,1.447E3,5E0,1.29E2,2.39E2,1.3E1,4.8E1,4.6E1,7.6E1,4E0,4E0,2E0,2.15E2,5.7E1,1E1,4.4E1,1.34E2,8.7E1,1.7E2,1.277E3,3E0,2E0,9.2E1,3.7E1,2.08E2,3.1E1,8E0,5E0,1.2E1,3.6E1,6E0,4E1,7.3E1,3E0,1E0,3E0,1E0,3E0,1E0,1E0,2.14E2,1E0,8E0,4.9E1,6E0,4E0,3.6E1,8E0,1.13E2,2.1E1,6.6E1,2.1E1,9.3E1,7.7E1,1.003E3,2.74E2,1E0,2E0,1E0,1E0,4.7E1,4.5E1,3.5E1,2E0,1E1,1.98E2,2.6E1,5E0,7E0,1E0,2E0,3E0,3E0,9E0,2E1,1.6E1,2E0,4E0,3.2E1,8E0,4.9E1,2.4E1,1E0,2E0,1E0,2E0,2E0,1E0,2.4E1,1.9E2,1E0,7E0,4.3E1,6E0,4E0,2E0,3E0,1E0,3.2E1,4E0,3E0,5E0],"tree_param":{"num_deleted":"0","num_feature":"8","num_nodes":"117","size_leaf_vector":"1"}},{"base_weights":[5.1409007E-8,1.5178421E-2,-6.814264E-4,9.32252E-3,2.1710001E-2,9.197816E-3,-1.8543046E-3,4.223299E-2,7.5274035E-3,3.0813275E-2,5.899053E-3,2.8326844E-3,1.905753E-2,1.2655649E-2,-2.7999922E-3,4.984045E-2,8.105421E-3,5.61661E-3,4.0647823E-2,3.8060553E-2,2.3113042E-2,2.1084854E-2,-2.9593308E-3,-5.023948E-4,1.2349862E-2,1.4576371E-2,3.0900598E-2,4.8788413E-3,2.1161534E-2,7.4094976E-3,-4.277981E-3,1.6199686E-2,1.3704587E-2,7.877716E-3,-5.1864516E-3,3.0700684E-2,1.8162632E-2,4.219709E-2,1.8756708E-2,2.0416165E-2,1.9069863E-2,7.343292E-5,2.9489422E-2,-1.0177559E-2,1.8695354E-2,2.9987812E-2,-2.1505142E-3,-1.2012089E-3,2.1948537E-2,2.194233E-2,1.3774114E-2,3.9794195E-2,1.2125228E-2,3.238222E-3,6.0659885E-2,2.9835507E-2,1.24875605E-2,9.925154E-5,1.873321E-2,-6.330118E-3,3.7675218E-3,1.3561058E-3,4.687643E-3,-1.17068775E-2,1.3443334E-3,7.7709677E-3,1.0649443E-2,1.062609E-2,1.5369845E-2,6.2519074E-3,4.377222E-3,9.107351E-3,5.0403033E-3,-8.172512E-4,8.61311E-4,7.738209E-3,1.0509754E-2,-5.2683083E-3,4.6993736E-3,4.1604997E-3,6.33266E-3,1.1839772E-2,3.3094885E-3,1.7861797E-2,-8.1339927E-4,1.0392953E-2,-1.0324449E-3,5.290611E-3,1.3054312E-2,1.0604048E-2,3.552669E-3,1.8755559E-2,7.9615E-3,3.872037E-4,6.2378603E-3,-1.266258E-3,3.6422992E-3,1.7237807E-2,1.9158125E-2,6.497228E-3,1.5220515E-2,2.6763165E-3,8.382726E-3,-3.8788273E-4,9.0392595E-3,7.426423E-3,4.1360864E-3,1.5268666E-3,-2.4491802E-3,4.2824305E-4,3.4427715E-3],"categories":[],"categories_nodes":[],"categories_segments":[],"categories_sizes":[],"default_left":[0,0,0,0,0,0,0,0,0,0,0,0,0,0,0,0,0,0,0,0,0,0,0,0,0,0,0,0,0,0,0,0,0,0,0,0,0,0,0,0,0,0,0,0,0,0,0,0,0,0,0,0,0,0,0,0,0,0,0,0,0,0,0,0,0,0,0,0,0,0,0,0,0,0,0,0,0,0,0,0,0,0,0,0,0,0,0,0,0,0,0,0,0,0,0,0,0,0,0,0,0,0,0,0,0,0,0,0,0,0,0],"id":10,"left_children":[1,3,5,7,9,11,13,15,17,19,21,23,25,27,29,31,-1,33,35,37,39,41,43,45,47,49,51,53,55,57,59,-1,-1,61,63,65,-1,67,69,71,-1,73,75,77,79,81,83,85,87,-1,89,91,93,95,97,99,101,103,105,107,109,-1,-1,-1,-1,-1,-1,-1,-1,-1,-1,-1,-1,-1,-1,-1,-1,-1,-1,-1,-1,-1,-1,-1,-1,-1,-1,-1,-1,-1,-1,-1,-1,-1,-1,-1,-1,-1,-1,-1,-1,-1,-1,-1,-1,-1,-1,-1,-1,-1,-1],"loss_changes":[2.6479928E-2,4.207311E-3,2.8388513E-2,3.4265318E-3,7.4844323E-3,1.631718E-2,3.0050928E-2,3.4724036E-4,3.4807455E-3,1.8415935E-3,2.5559114E-3,5.0150054E-3,5.413208E-3,8.863917E-3,3.102403E-2,3.458606E-5,0E0,1.270197E-3,5.936739E-4,1.357466E-3,1.7455555E-3,1.2361433E-3,1.8757015E-3,5.879425E-3,5.3329645E-3,3.4768134E-3,4.6754573E-3,6.406081E-3,4.815221E-3,2.1522578E-2,2.9652812E-2,0E0,0E0,1.1185182E-3,2.9440457E-3,4.60312E-5,0E0,8.5726567E-4,2.603291E-5,5.3911004E-4,0E0,1.5653171E-5,1.02419406E-4,1.7172412E-3,3.4950208E-5,1.078011E-3,3.840232E-3,1.365121E-3,2.232409E-3,0E0,3.0423477E-3,5.7233814E-3,8.4518956E-4,4.5156437E-3,2.0486768E-5,5.4693837E-3,1.7638351E-3,6.6059525E-3,3.0379705E-3,2.9967397E-2,6.583857E-3,0E0,0E0,0E0,0E0,0E0,0E0,0E0,0E0,0E0,0E0,0E0,0E0,0E0,0E0,0E0,0E0,0E0,0E0,0E0,0E0,0E0,0E0,0E0,0E0,0E0,0E0,0E0,0E0,0E0,0E0,0E0,0E0,0E0,0E0,0E0,0E0,0E0,0E0,0E0,0E0,0E0,0E0,0E0,0E0,0E0,0E0,0E0,0E0,0E0,0E0],"parents":[2147483647,0,0,1,1,2,2,3,3,4,4,5,5,6,6,7,7,8,8,9,9,10,10,11,11,12,12,13,13,14,14,15,15,17,17,18,18,19,19,20,20,21,21,22,22,23,23,24,24,25,25,26,26,27,27,28,28,29,29,30,30,33,33,34,34,35,35,37,37,38,38,39,39,41,41,42,42,43,43,44,44,45,45,46,46,47,47,48,48,50,50,51,51,52,52,53,53,54,54,55,55,56,56,57,57,58,58,59,59,60,60],"right_children":[2,4,6,8,10,12,14,16,18,20,22,24,26,28,30,32,-1,34,36,38,40,42,44,46,48,50,52,54,56,58,60,-1,-1,62,64,66,-1,68,70,72,-1,74,76,78,80,82,84,86,88,-1,90,92,94,96,98,100,102,104,106,108,110,-1,-1,-1,-1,-1,-1,-1,-1,-1,-1,-1,-1,-1,-1,-1,-1,-1,-1,-1,-1,-1,-1,-1,-1,-1,-1,-1,-1,-1,-1,-1,-1,-1,-1,-1,-1,-1,-1,-1,-1,-1,-1,-1,-1,-1,-1,-1,-1,-1,-1],"split_conditions":[2.6281065E-1,5.960451E-1,3.1896788E-1,5.6623924E-1,4.7049427E-1,4.0390384E-1,2.8918937E-1,2.576624E-1,7.7089894E-1,6.5234303E-1,2.1072564E-1,6.0554755E-1,5.2995926E-1,4.0390384E-1,3.1896788E-1,1.5810467E-1,8.105421E-3,7.222982E-1,2.2238858E-1,7.0964503E-1,5.511247E-1,5.26089E-1,5.614865E-1,5.2784866E-1,5.5646026E-1,4.37978E-1,6.181234E-1,7.1781725E-1,6.5234303E-1,4.0390384E-1,6.2467736E-1,1.6199686E-2,1.3704587E-2,6.153736E-1,7.3600113E-1,1.9440451E-1,1.8162632E-2,4.3282962E-1,4.2165443E-1,3.619082E-1,1.9069863E-2,1.841548E-1,4.590698E-1,6.805266E-1,5.8324444E-1,6.153736E-1,2.838064E-1,4.3662056E-1,2.6643068E-1,2.194233E-2,4.256958E-1,6.208659E-1,5.614865E-1,5.960451E-1,3.3368763E-1,5.3670585E-1,7.601405E-1,6.994541E-1,6.2918544E-1,3.1896788E-1,4.2884076E-1,1.3561058E-3,4.687643E-3,-1.17068775E-2,1.3443334E-3,7.7709677E-3,1.0649443E-2,1.062609E-2,1.5369845E-2,6.2519074E-3,4.377222E-3,9.107351E-3,5.0403033E-3,-8.172512E-4,8.61311E-4,7.738209E-3,1.0509754E-2,-5.2683083E-3,4.6993736E-3,4.1604997E-3,6.33266E-3,1.1839772E-2,3.3094885E-3,1.7861797E-2,-8.1339927E-4,1.0392953E-2,-1.0324449E-3,5.290611E-3,1.3054312E-2,1.0604048E-2,3.552669E-3,1.8755559E-2,7.9615E-3,3.872037E-4,6.2378603E-3,-1.266258E-3,3.6422992E-3,1.7237807E-2,1.9158125E-2,6.497228E-3,1.5220515E-2,2.6763165E-3,8.382726E-3,-3.8788273E-4,9.0392595E-3,7.426423E-3,4.1360864E-3,1.5268666E-3,-2.4491802E-3,4.2824305E-4,3.4427715E-3],"split_indices":[0,5,3,6,1,7,7,0,6,6,0,0,7,3,5,0,0,6,0,5,4,1,3,5,6,1,0,4,1,1,4,0,0,3,6,0,0,4,1,4,0,0,4,1,1,4,4,4,3,0,7,1,7,2,0,3,1,2,7,4,6,0,0,0,0,0,0,0,0,0,0,0,0,0,0,0,0,0,0,0,0,0,0,0,0,0,0,0,0,0,0,0,0,0,0,0,0,0,0,0,0,0,0,0,0,0,0,0,0,0,0],"split_type":[0,0,0,0,0,0,0,0,0,0,0,0,0,0,0,0,0,0,0,0,0,0,0,0,0,0,0,0,0,0,0,0,0,0,0,0,0,0,0,0,0,0,0,0,0,0,0,0,0,0,0,0,0,0,0,0,0,0,0,0,0,0,0,0,0,0,0,0,0,0,0,0,0,0,0,0,0,0,0,0,0,0,0,0,0,0,0,0,0,0,0,0,0,0,0,0,0,0,0,0,0,0,0,0,0,0,0,0,0,0,0],"sum_hessian":[2.56E3,1.1E2,2.45E3,5.8E1,5.2E1,2.6E2,2.19E3,3E0,5.5E1,3.3E1,1.9E1,1.58E2,1.02E2,1.34E2,2.056E3,2E0,1E0,5.2E1,3E0,1.7E1,1.6E1,7E0,1.2E1,1.17E2,4.1E1,7.4E1,2.8E1,7E1,6.4E1,2.6E2,1.796E3,1E0,1E0,4.3E1,9E0,2E0,1E0,1.4E1,3E0,1.5E1,1E0,2E0,5E0,9E0,3E0,6E0,1.11E2,1.7E1,2.4E1,1E0,7.3E1,1.9E1,9E0,6.8E1,2E0,3.2E1,3.2E1,1.58E2,1.02E2,1.431E3,3.65E2,3E1,1.3E1,2E0,7E0,1E0,1E0,8E0,6E0,2E0,1E0,4E0,1.1E1,1E0,1E0,3E0,2E0,7E0,2E0,1E0,2E0,4E0,2E0,1E0,1.1E2,1E0,1.6E1,2E1,4E0,6E0,6.7E1,7E0,1.2E1,4E0,5E0,3.7E1,3.1E1,1E0,1E0,2.3E1,9E0,2.6E1,6E0,1.51E2,7E0,4.6E1,5.6E1,1.98E2,1.233E3,2.8E2,8.5E1],"tree_param":{"num_deleted":"0","num_feature":"8","num_nodes":"111","size_leaf_vector":"1"}},{"base_weights":[-2.4400652E-8,-3.2929002E-4,2.6011959E-2,-6.642702E-4,2.1620726E-2,3.0001804E-2,-1.2556553E-2,-2.049031E-3,5.134416E-3,1.878492E-2,2.1799564E-2,9.423869E-3,3.654933E-2,-3.5245419E-3,-9.186173E-3,7.9514375E-3,-3.228174E-3,1.2534437E-2,2.9344095E-3,-1.4324188E-3,2.4561303E-2,1.5816053E-2,-8.678771E-3,2.3443796E-2,3.4568537E-2,-5.5103307E-4,-1.5636921E-3,2.5371434E-3,1.6366424E-2,-5.40879E-3,2.6420264E-3,1.1782664E-2,3.2456398E-2,1.843458E-3,1.7368536E-2,-1.5833378E-2,1.296854E-2,8.55465E-3,2.804101E-2,2.7226925E-2,4.4051805E-3,2.706392E-2,4.676354E-2,-6.371371E-4,3.9879433E-3,5.672907E-3,1.1495284E-3,1.7343088E-3,-2.1160464E-3,-3.4072596E-5,3.6936444E-3,5.412963E-3,2.8605866E-3,5.849147E-3,1.3624692E-2,7.5020325E-5,2.910156E-3,-8.560753E-3,6.3581704E-3,9.1123587E-4,-1.04112625E-2,5.569649E-3,-1.146698E-3,1.243508E-3,7.857943E-3,8.8857E-3,-2.0024301E-3,6.4341547E-3,1.1635924E-2,2.961731E-3,5.014658E-4,2.9778958E-3,9.661561E-3,1.6646605E-2,9.66649E-3],"categories":[],"categories_nodes":[],"categories_segments":[],"categories_sizes":[],"default_left":[0,0,0,0,0,0,0,0,0,0,0,0,0,0,0,0,0,0,0,0,0,0,0,0,0,0,0,0,0,0,0,0,0,0,0,0,0,0,0,0,0,0,0,0,0,0,0,0,0,0,0,0,0,0,0,0,0,0,0,0,0,0,0,0,0,0,0,0,0,0,0,0,0,0,0],"id":11,"left_children":[1,3,5,7,9,11,13,15,17,19,-1,21,23,25,-1,27,29,31,33,35,37,39,-1,-1,41,-1,-1,43,45,47,49,51,53,55,57,59,61,63,65,67,69,71,73,-1,-1,-1,-1,-1,-1,-1,-1,-1,-1,-1,-1,-1,-1,-1,-1,-1,-1,-1,-1,-1,-1,-1,-1,-1,-1,-1,-1,-1,-1,-1,-1],"loss_changes":[2.192602E-2,1.8587928E-2,4.9242396E-3,1.9994186E-2,5.500583E-3,3.9073024E-3,4.8946333E-4,2.3701884E-2,7.814442E-3,4.204192E-3,0E0,1.7161205E-3,1.812676E-3,5.697104E-6,0E0,9.658977E-3,2.3015577E-2,1.6474463E-3,5.8263643E-3,1.659101E-3,1.5595574E-3,7.81248E-4,0E0,0E0,1.921894E-3,0E0,0E0,6.467157E-3,2.6459545E-3,2.4127472E-2,1.2977092E-2,1.4913986E-3,6.7176763E-4,4.306662E-3,4.5656273E-3,1.424433E-3,3.75911E-4,3.888955E-4,1.2599677E-3,2.0043273E-4,4.483633E-5,1.1454197E-3,1.0150429E-3,0E0,0E0,0E0,0E0,0E0,0E0,0E0,0E0,0E0,0E0,0E0,0E0,0E0,0E0,0E0,0E0,0E0,0E0,0E0,0E0,0E0,0E0,0E0,0E0,0E0,0E0,0E0,0E0,0E0,0E0,0E0,0E0],"parents":[2147483647,0,0,1,1,2,2,3,3,4,4,5,5,6,6,7,7,8,8,9,9,11,11,12,12,13,13,15,15,16,16,17,17,18,18,19,19,20,20,21,21,24,24,27,27,28,28,29,29,30,30,31,31,32,32,33,33,34,34,35,35,36,36,37,37,38,38,39,39,40,40,41,41,42,42],"right_children":[2,4,6,8,10,12,14,16,18,20,-1,22,24,26,-1,28,30,32,34,36,38,40,-1,-1,42,-1,-1,44,46,48,50,52,54,56,58,60,62,64,66,68,70,72,74,-1,-1,-1,-1,-1,-1,-1,-1,-1,-1,-1,-1,-1,-1,-1,-1,-1,-1,-1,-1,-1,-1,-1,-1,-1,-1,-1,-1,-1,-1,-1,-1],"split_conditions":[7.467736E-1,7.3600113E-1,7.222982E-1,6.2467736E-1,6.6613436E-1,2.33352E-1,5.1007473E-1,3.1896788E-1,5.406068E-1,7.467736E-1,2.1799564E-2,5.6468815E-1,2.576624E-1,4.739574E-1,-9.186173E-3,4.026486E-1,6.1413074E-1,7.122885E-1,7.3600113E-1,3.1194833E-1,2.8023914E-1,5.7716507E-1,-8.678771E-3,2.3443796E-2,5.397048E-1,-5.5103307E-4,-1.5636921E-3,5.906897E-1,6.153736E-1,3.1896788E-1,4.4806913E-1,3.412782E-1,6.730028E-1,4.3282962E-1,5.4597557E-1,4.076832E-1,5.94271E-1,5.614865E-1,5.674439E-1,5.375715E-1,4.3117005E-1,2.2238858E-1,2.838064E-1,-6.371371E-4,3.9879433E-3,5.672907E-3,1.1495284E-3,1.7343088E-3,-2.1160464E-3,-3.4072596E-5,3.6936444E-3,5.412963E-3,2.8605866E-3,5.849147E-3,1.3624692E-2,7.5020325E-5,2.910156E-3,-8.560753E-3,6.3581704E-3,9.1123587E-4,-1.04112625E-2,5.569649E-3,-1.146698E-3,1.243508E-3,7.857943E-3,8.8857E-3,-2.0024301E-3,6.4341547E-3,1.1635924E-2,2.961731E-3,5.014658E-4,2.9778958E-3,9.661561E-3,1.6646605E-2,9.66649E-3],"split_indices":[7,3,4,1,7,5,0,0,5,3,0,1,5,0,0,4,0,0,1,1,6,2,0,0,4,0,0,5,7,1,2,3,1,3,5,0,0,1,1,0,0,1,1,0,0,0,0,0,0,0,0,0,0,0,0,0,0,0,0,0,0,0,0,0,0,0,0,0,0,0,0,0,0,0,0],"split_type":[0,0,0,0,0,0,0,0,0,0,0,0,0,0,0,0,0,0,0,0,0,0,0,0,0,0,0,0,0,0,0,0,0,0,0,0,0,0,0,0,0,0,0,0,0,0,0,0,0,0,0,0,0,0,0,0,0,0,0,0,0,0,0,0,0,0,0,0,0,0,0,0,0,0,0],"sum_hessian":[2.56E3,2.528E3,3.2E1,2.49E3,3.8E1,2.9E1,3E0,2.01E3,4.8E2,3.6E1,2E0,7E0,2.2E1,2E0,1E0,2.12E2,1.798E3,1.1E2,3.7E2,8E0,2.8E1,6E0,1E0,1E0,2.1E1,1E0,1E0,1.29E2,8.3E1,1.311E3,4.87E2,1.06E2,4E0,3.44E2,2.6E1,4E0,4E0,5E0,2.3E1,3E0,3E0,1.3E1,8E0,9E1,3.9E1,6.9E1,1.4E1,1.68E2,1.143E3,3.79E2,1.08E2,2.8E1,7.8E1,2E0,2E0,2.86E2,5.8E1,2E0,2.4E1,2E0,2E0,3E0,1E0,4E0,1E0,2.2E1,1E0,2E0,1E0,1E0,2E0,3E0,1E1,5E0,3E0],"tree_param":{"num_deleted":"0","num_feature":"8","num_nodes":"75","size_leaf_vector":"1"}},{"base_weights":[4.2282046E-8,-2.8995468E-4,1.738605E-2,-5.757126E-4,1.835951E-2,8.621984E-3,2.39591E-2,-8.2280557E-4,2.0307902E-2,2.0752907E-2,-9.563446E-3,1.6814062E-2,-2.0050287E-2,3.0621015E-2,1.6085928E-2,-1.1105099E-3,1.7446417E-2,4.328319E-3,2.5392316E-2,3.0630399E-2,1.680191E-2,-1.884985E-3,-1.1203527E-2,6.4855814E-3,3.058537E-2,-2.780819E-2,9.670258E-4,4.979396E-2,2.2099707E-2,2.7977467E-2,1.1626601E-2,1.713656E-2,-1.3868643E-3,2.7101703E-2,8.756662E-3,-4.580021E-3,1.6206106E-2,2.7373338E-2,5.582094E-3,3.9955378E-2,1.6642928E-2,2.4445951E-2,3.212505E-3,-3.1167986E-3,-3.6053183E-3,3.5081592E-3,8.198261E-3,3.3551216E-2,4.7268393E-3,-5.246115E-3,-3.296876E-2,6.536031E-2,3.422761E-2,1.8058956E-2,1.6327716E-2,1.1750937E-2,2.2381306E-2,1.3406209E-2,-2.4919512E-4,1.0947184E-2,1.4461041E-3,1.64271E-3,-6.41928E-4,1.1888681E-2,3.4327984E-3,7.749181E-3,-2.495184E-3,9.6750264E-5,-5.786276E-3,4.1424753E-3,5.2215103E-3,1.0532957E-2,5.8910465E-3,-2.9425623E-4,3.643513E-3,1.0487423E-2,1.9482566E-2,9.551239E-3,3.473425E-3,6.46911E-3,1.3386512E-2,3.3034089E-3,-3.7155629E-3,5.3901672E-3,3.2949448E-4,8.825446E-3,1.1925245E-2,-1.0373783E-2,-9.407473E-3,2.0533849E-2,1.8682338E-2,9.465981E-3,1.1070586E-2,-1.7513753E-3,6.4418386E-3,6.454754E-3,6.97403E-3,6.4134123E-3,3.6232711E-3],"categories":[],"categories_nodes":[],"categories_segments":[],"categories_sizes":[],"default_left":[0,0,0,0,0,0,0,0,0,0,0,0,0,0,0,0,0,0,0,0,0,0,0,0,0,0,0,0,0,0,0,0,0,0,0,0,0,0,0,0,0,0,0,0,0,0,0,0,0,0,0,0,0,0,0,0,0,0,0,0,0,0,0,0,0,0,0,0,0,0,0,0,0,0,0,0,0,0,0,0,0,0,0,0,0,0,0,0,0,0,0,0,0,0,0,0,0,0,0],"id":12,"left_children":[1,3,5,7,9,11,13,15,17,19,21,23,25,27,29,31,33,35,37,39,41,-1,43,45,47,49,-1,51,53,55,57,59,61,63,65,67,69,71,73,75,77,79,81,-1,-1,83,-1,85,-1,-1,87,89,91,93,-1,-1,95,97,-1,-1,-1,-1,-1,-1,-1,-1,-1,-1,-1,-1,-1,-1,-1,-1,-1,-1,-1,-1,-1,-1,-1,-1,-1,-1,-1,-1,-1,-1,-1,-1,-1,-1,-1,-1,-1,-1,-1,-1,-1],"loss_changes":[1.2907238E-2,1.3419008E-2,2.4194792E-3,1.2797283E-2,2.5395658E-3,4.227938E-3,1.25881E-3,1.2882783E-2,2.3561567E-3,1.3659084E-3,1.6139209E-5,1.9913139E-3,7.222205E-4,2.1239212E-3,5.8331084E-4,1.2167936E-2,3.1882795E-3,7.406795E-4,8.6337794E-4,1.3043284E-3,2.5969488E-3,0E0,1.3258541E-6,4.9644243E-4,2.6388746E-4,1.5978911E-4,0E0,9.692451E-4,1.1755922E-3,1.8790201E-4,1.7735199E-4,8.58127E-3,1.2281471E-2,3.5309587E-3,5.83039E-3,2.8841663E-4,8.624513E-6,1.1970736E-3,8.614457E-5,7.4919127E-4,3.078318E-4,9.304257E-4,1.094799E-3,0E0,0E0,2.4390865E-4,0E0,1.2811692E-4,0E0,0E0,5.1874667E-6,1.9044615E-5,1.4304183E-5,6.526408E-4,0E0,0E0,1.4980324E-6,7.414189E-5,0E0,0E0,0E0,0E0,0E0,0E0,0E0,0E0,0E0,0E0,0E0,0E0,0E0,0E0,0E0,0E0,0E0,0E0,0E0,0E0,0E0,0E0,0E0,0E0,0E0,0E0,0E0,0E0,0E0,0E0,0E0,0E0,0E0,0E0,0E0,0E0,0E0,0E0,0E0,0E0,0E0],"parents":[2147483647,0,0,1,1,2,2,3,3,4,4,5,5,6,6,7,7,8,8,9,9,10,10,11,11,12,12,13,13,14,14,15,15,16,16,17,17,18,18,19,19,20,20,22,22,23,23,24,24,25,25,27,27,28,28,29,29,30,30,31,31,32,32,33,33,34,34,35,35,36,36,37,37,38,38,39,39,40,40,41,41,42,42,45,45,47,47,50,50,51,51,52,52,53,53,56,56,57,57],"right_children":[2,4,6,8,10,12,14,16,18,20,22,24,26,28,30,32,34,36,38,40,42,-1,44,46,48,50,-1,52,54,56,58,60,62,64,66,68,70,72,74,76,78,80,82,-1,-1,84,-1,86,-1,-1,88,90,92,94,-1,-1,96,98,-1,-1,-1,-1,-1,-1,-1,-1,-1,-1,-1,-1,-1,-1,-1,-1,-1,-1,-1,-1,-1,-1,-1,-1,-1,-1,-1,-1,-1,-1,-1,-1,-1,-1,-1,-1,-1,-1,-1,-1,-1],"split_conditions":[7.3600113E-1,7.3600113E-1,5.4597557E-1,7.467736E-1,7.467736E-1,5.2545255E-1,4.4915327E-1,7.3600113E-1,2.33352E-1,3.9883694E-1,2.1072564E-1,7.601405E-1,3.1194833E-1,4.4915327E-1,5.804536E-1,2.0327906E-1,4.4915327E-1,3.1194833E-1,5.674439E-1,6.064664E-1,4.4269916E-1,-1.884985E-3,7.601405E-1,5.614865E-1,6.064664E-1,2.2238858E-1,9.670258E-4,7.467736E-1,5.5341077E-1,2.838064E-1,5.5341077E-1,6.3806224E-1,3.1896788E-1,5.7359767E-1,4.2165443E-1,5.614865E-1,7.601405E-1,3.443961E-1,7.7089894E-1,5.2365035E-1,3.2519972E-1,4.026486E-1,5.2365035E-1,-3.1167986E-3,-3.6053183E-3,3.1896788E-1,8.198261E-3,3.3368763E-1,4.7268393E-3,-5.246115E-3,2.8918937E-1,3.293387E-1,2.8023914E-1,3.0046177E-1,1.6327716E-2,1.1750937E-2,3.6740154E-1,1.9440451E-1,-2.4919512E-4,1.0947184E-2,1.4461041E-3,1.64271E-3,-6.41928E-4,1.1888681E-2,3.4327984E-3,7.749181E-3,-2.495184E-3,9.6750264E-5,-5.786276E-3,4.1424753E-3,5.2215103E-3,1.0532957E-2,5.8910465E-3,-2.9425623E-4,3.643513E-3,1.0487423E-2,1.9482566E-2,9.551239E-3,3.473425E-3,6.46911E-3,1.3386512E-2,3.3034089E-3,-3.7155629E-3,5.3901672E-3,3.2949448E-4,8.825446E-3,1.1925245E-2,-1.0373783E-2,-9.407473E-3,2.0533849E-2,1.8682338E-2,9.465981E-3,1.1070586E-2,-1.7513753E-3,6.4418386E-3,6.454754E-3,6.97403E-3,6.4134123E-3,3.6232711E-3],"split_indices":[2,5,6,0,0,6,1,7,6,6,3,2,0,3,6,1,6,5,6,4,4,0,0,1,3,0,0,2,0,0,4,7,7,0,0,2,0,2,0,2,0,7,2,0,0,1,0,0,0,0,0,0,0,1,0,0,0,0,0,0,0,0,0,0,0,0,0,0,0,0,0,0,0,0,0,0,0,0,0,0,0,0,0,0,0,0,0,0,0,0,0,0,0,0,0,0,0,0,0],"split_type":[0,0,0,0,0,0,0,0,0,0,0,0,0,0,0,0,0,0,0,0,0,0,0,0,0,0,0,0,0,0,0,0,0,0,0,0,0,0,0,0,0,0,0,0,0,0,0,0,0,0,0,0,0,0,0,0,0,0,0,0,0,0,0,0,0,0,0,0,0,0,0,0,0,0,0,0,0,0,0,0,0,0,0,0,0,0,0,0,0,0,0,0,0,0,0,0,0,0,0],"sum_hessian":[2.56E3,2.518E3,4.2E1,2.48E3,3.8E1,1.8E1,2.4E1,2.451E3,2.9E1,3.5E1,3E0,1.4E1,4E0,1.3E1,1.1E1,2.413E3,3.8E1,7E0,2.2E1,1E1,2.5E1,1E0,2E0,8E0,6E0,3E0,1E0,4E0,9E0,3E0,8E0,3.6E1,2.377E3,1.8E1,2E1,4E0,3E0,2E1,2E0,6E0,4E0,1.6E1,9E0,1E0,1E0,7E0,1E0,5E0,1E0,1E0,2E0,2E0,2E0,8E0,1E0,1E0,2E0,7E0,1E0,1.4E1,2.2E1,2.35E2,2.142E3,1E1,8E0,1E1,1E1,3E0,1E0,1E0,2E0,1E1,1E1,1E0,1E0,5E0,1E0,1E0,3E0,1.4E1,2E0,6E0,3E0,1E0,6E0,3E0,2E0,1E0,1E0,1E0,1E0,1E0,1E0,1E0,7E0,1E0,1E0,1E0,6E0],"tree_param":{"num_deleted":"0","num_feature":"8","num_nodes":"99","size_leaf_vector":"1"}},{"base_weights":[-5.9232114E-8,-8.8777224E-4,4.6281144E-3,-2.2572395E-3,3.5447641E-3,3.7753263E-3,1.9745719E-2,-4.418116E-3,2.7600185E-3,2.1534754E-2,1.8775885E-3,7.234301E-3,-1.7590332E-3,2.6881257E-2,1.1183071E-2,-6.6951606E-3,4.052865E-3,-7.383646E-4,1.3907408E-2,1.517809E-2,2.7602477E-2,-4.983012E-5,9.998734E-3,4.7281412E-3,1.5468827E-2,-8.8649255E-4,-3.3606768E-2,4.699111E-2,2.2859287E-2,7.2443485E-3,2.6937962E-2,-8.665638E-3,5.0367573E-3,2.6319665E-3,2.0804506E-2,-3.704345E-3,1.2695782E-2,8.2808733E-4,1.5959067E-2,2.2724325E-2,6.8772314E-3,1.2121201E-2,3.2155793E-2,-2.2575823E-3,7.963493E-3,9.3158084E-4,1.4609151E-2,1.7595624E-3,1.50819635E-2,1.991861E-2,8.59189E-3,6.1804014E-3,-2.6381158E-3,-4.088998E-2,-7.897068E-3,1.4864016E-2,1.33306505E-2,2.5179757E-2,5.925179E-4,-2.251625E-3,1.0409673E-2,6.8754675E-3,9.28731E-3,-3.3387064E-3,-3.595531E-4,2.6272974E-4,5.8585466E-3,7.303008E-6,3.5119487E-3,1.325903E-2,4.9255374E-3,4.950846E-3,-1.3784491E-3,5.1392503E-3,-5.1544013E-4,-9.156806E-4,8.397174E-3,3.8181639E-3,1.1425452E-2,1.1425353E-2,5.7932856E-3,-3.9829733E-3,2.734963E-3,9.4815735E-3,2.175057E-3,1.407755E-2,7.8005674E-3,4.4265417E-3,-9.133943E-4,-4.420195E-3,2.8370242E-3,-5.95764E-4,5.968523E-3,4.8077703E-3,-3.551054E-3,8.9695177E-4,-6.642887E-3,3.1277079E-3,6.3094934E-3,2.3257434E-3,7.0986105E-3,1.8753102E-3,7.025195E-3,1.3922352E-3,1.4786911E-2,4.9499783E-4,-3.2678174E-3,-1.1731482E-2,-1.2802506E-2,9.547148E-3,5.0624013E-3,-3.034115E-4,-1.0475636E-3,2.0951987E-3,3.6367537E-3],"categories":[],"categories_nodes":[],"categories_segments":[],"categories_sizes":[],"default_left":[0,0,0,0,0,0,0,0,0,0,0,0,0,0,0,0,0,0,0,0,0,0,0,0,0,0,0,0,0,0,0,0,0,0,0,0,0,0,0,0,0,0,0,0,0,0,0,0,0,0,0,0,0,0,0,0,0,0,0,0,0,0,0,0,0,0,0,0,0,0,0,0,0,0,0,0,0,0,0,0,0,0,0,0,0,0,0,0,0,0,0,0,0,0,0,0,0,0,0,0,0,0,0,0,0,0,0,0,0,0,0,0,0,0,0],"id":13,"left_children":[1,3,5,7,9,11,13,15,17,19,21,23,25,27,29,31,33,35,37,39,41,43,45,47,49,51,53,55,57,59,61,63,65,67,69,71,73,75,77,79,81,83,85,87,89,91,93,95,97,99,101,103,105,107,-1,-1,-1,109,-1,111,113,-1,-1,-1,-1,-1,-1,-1,-1,-1,-1,-1,-1,-1,-1,-1,-1,-1,-1,-1,-1,-1,-1,-1,-1,-1,-1,-1,-1,-1,-1,-1,-1,-1,-1,-1,-1,-1,-1,-1,-1,-1,-1,-1,-1,-1,-1,-1,-1,-1,-1,-1,-1,-1,-1],"loss_changes":[1.0517734E-2,1.303882E-2,5.3115487E-3,1.779119E-2,1.5206184E-2,7.465852E-3,1.3441797E-3,2.2124255E-2,1.9264933E-2,1.658529E-3,7.262921E-3,4.952889E-3,4.168267E-3,9.70575E-4,6.205415E-4,2.0898204E-2,5.783977E-3,1.4981876E-2,3.1664446E-3,1.3154452E-3,1.5508067E-3,6.6342857E-3,3.7204986E-3,5.6554493E-3,1.7136494E-3,1.8072664E-3,2.1218043E-4,1.3062265E-5,4.846123E-4,2.4046272E-4,3.2316544E-5,1.4237255E-2,7.838996E-3,5.300501E-3,1.9493923E-3,5.542208E-3,4.3469993E-3,1.6864022E-3,7.2937403E-3,5.7673035E-4,4.5130664E-4,4.7453487E-4,1.54512E-3,3.936696E-3,2.745343E-3,1.6597578E-3,2.2105742E-3,4.2051594E-3,1.1358364E-3,1.5484616E-3,7.634924E-4,1.9247838E-3,4.141409E-3,6.3725747E-6,0E0,0E0,0E0,4.9661566E-4,0E0,3.0764568E-6,3.5205798E-5,0E0,0E0,0E0,0E0,0E0,0E0,0E0,0E0,0E0,0E0,0E0,0E0,0E0,0E0,0E0,0E0,0E0,0E0,0E0,0E0,0E0,0E0,0E0,0E0,0E0,0E0,0E0,0E0,0E0,0E0,0E0,0E0,0E0,0E0,0E0,0E0,0E0,0E0,0E0,0E0,0E0,0E0,0E0,0E0,0E0,0E0,0E0,0E0,0E0,0E0,0E0,0E0,0E0,0E0],"parents":[2147483647,0,0,1,1,2,2,3,3,4,4,5,5,6,6,7,7,8,8,9,9,10,10,11,11,12,12,13,13,14,14,15,15,16,16,17,17,18,18,19,19,20,20,21,21,22,22,23,23,24,24,25,25,26,26,27,27,28,28,29,29,30,30,31,31,32,32,33,33,34,34,35,35,36,36,37,37,38,38,39,39,40,40,41,41,42,42,43,43,44,44,45,45,46,46,47,47,48,48,49,49,50,50,51,51,52,52,53,53,57,57,59,59,60,60],"right_children":[2,4,6,8,10,12,14,16,18,20,22,24,26,28,30,32,34,36,38,40,42,44,46,48,50,52,54,56,58,60,62,64,66,68,70,72,74,76,78,80,82,84,86,88,90,92,94,96,98,100,102,104,106,108,-1,-1,-1,110,-1,112,114,-1,-1,-1,-1,-1,-1,-1,-1,-1,-1,-1,-1,-1,-1,-1,-1,-1,-1,-1,-1,-1,-1,-1,-1,-1,-1,-1,-1,-1,-1,-1,-1,-1,-1,-1,-1,-1,-1,-1,-1,-1,-1,-1,-1,-1,-1,-1,-1,-1,-1,-1,-1,-1,-1],"split_conditions":[6.3321704E-1,6.1413074E-1,7.601405E-1,6.1413074E-1,4.7049427E-1,6.805266E-1,6.3806224E-1,6.3150847E-1,4.4269916E-1,6.5862894E-1,4.4269916E-1,4.3282962E-1,7.222982E-1,7.7089894E-1,7.7089894E-1,6.3321704E-1,7.601405E-1,4.3282962E-1,3.4757918E-1,6.184993E-1,2.4259213E-1,4.235036E-1,5.721547E-1,4.4269916E-1,3.9822057E-1,2.33352E-1,6.894049E-1,2.838064E-1,6.064664E-1,6.4812565E-1,2.8023914E-1,6.1413074E-1,4.6668354E-1,4.3282962E-1,5.2545255E-1,5.2545255E-1,6.184993E-1,5.7138705E-1,5.614865E-1,6.181234E-1,2.745758E-1,1.5810467E-1,5.6623924E-1,5.2784866E-1,5.1007473E-1,5.6570923E-1,6.764018E-1,6.864914E-1,6.5979964E-1,4.1351488E-1,6.4076585E-1,5.614865E-1,5.3148466E-1,2.4259213E-1,-7.897068E-3,1.4864016E-2,1.33306505E-2,5.2545255E-1,5.925179E-4,1.9440451E-1,2.2238858E-1,6.8754675E-3,9.28731E-3,-3.3387064E-3,-3.595531E-4,2.6272974E-4,5.8585466E-3,7.303008E-6,3.5119487E-3,1.325903E-2,4.9255374E-3,4.950846E-3,-1.3784491E-3,5.1392503E-3,-5.1544013E-4,-9.156806E-4,8.397174E-3,3.8181639E-3,1.1425452E-2,1.1425353E-2,5.7932856E-3,-3.9829733E-3,2.734963E-3,9.4815735E-3,2.175057E-3,1.407755E-2,7.8005674E-3,4.4265417E-3,-9.133943E-4,-4.420195E-3,2.8370242E-3,-5.95764E-4,5.968523E-3,4.8077703E-3,-3.551054E-3,8.9695177E-4,-6.642887E-3,3.1277079E-3,6.3094934E-3,2.3257434E-3,7.0986105E-3,1.8753102E-3,7.025195E-3,1.3922352E-3,1.4786911E-2,4.9499783E-4,-3.2678174E-3,-1.1731482E-2,-1.2802506E-2,9.547148E-3,5.0624013E-3,-3.034115E-4,-1.0475636E-3,2.0951987E-3,3.6367537E-3],"split_indices":[6,5,6,3,1,6,2,4,1,5,7,0,2,6,6,2,4,5,4,0,0,3,1,4,4,4,6,0,7,2,0,0,0,2,0,7,2,1,2,5,1,0,0,1,1,7,4,7,6,7,5,0,1,0,0,0,0,2,0,0,0,0,0,0,0,0,0,0,0,0,0,0,0,0,0,0,0,0,0,0,0,0,0,0,0,0,0,0,0,0,0,0,0,0,0,0,0,0,0,0,0,0,0,0,0,0,0,0,0,0,0,0,0,0,0],"split_type":[0,0,0,0,0,0,0,0,0,0,0,0,0,0,0,0,0,0,0,0,0,0,0,0,0,0,0,0,0,0,0,0,0,0,0,0,0,0,0,0,0,0,0,0,0,0,0,0,0,0,0,0,0,0,0,0,0,0,0,0,0,0,0,0,0,0,0,0,0,0,0,0,0,0,0,0,0,0,0,0,0,0,0,0,0,0,0,0,0,0,0,0,0,0,0,0,0,0,0,0,0,0,0,0,0,0,0,0,0,0,0,0,0,0,0],"sum_hessian":[2.56E3,2.148E3,4.12E2,1.641E3,5.07E2,3.9E2,2.2E1,1.147E3,4.94E2,4.3E1,4.64E2,2.4E2,1.5E2,1.2E1,1E1,9.04E2,2.43E2,3.76E2,1.18E2,2.1E1,2.2E1,3.75E2,8.9E1,1.84E2,5.6E1,1.46E2,4E0,2E0,1E1,8E0,2E0,7.74E2,1.3E2,2.24E2,1.9E1,3.08E2,6.8E1,1.6E1,1.02E2,1.1E1,1E1,5E0,1.7E1,2.94E2,8.1E1,3E1,5.9E1,1.43E2,4.1E1,3.4E1,2.2E1,2.9E1,1.17E2,2E0,2E0,1E0,1E0,9E0,1E0,2E0,6E0,1E0,1E0,5.82E2,1.92E2,1.01E2,2.9E1,1.74E2,5E1,3E0,1.6E1,1.3E1,2.95E2,5.2E1,1.6E1,1.4E1,2E0,8.9E1,1.3E1,2E0,9E0,1E0,9E0,1E0,4E0,5E0,1.2E1,1.3E1,2.81E2,5E0,7.6E1,2.6E1,4E0,5.6E1,3E0,1.36E2,7E0,2.3E1,1.8E1,8E0,2.6E1,1.9E1,3E0,2.8E1,1E0,7.7E1,4E1,1E0,1E0,5E0,4E0,1E0,1E0,2E0,4E0],"tree_param":{"num_deleted":"0","num_feature":"8","num_nodes":"115","size_leaf_vector":"1"}},{"base_weights":[1.7881394E-8,5.487053E-3,-6.2025565E-4,2.5883445E-3,1.1779373E-2,-1.6874569E-3,2.7998604E-3,1.840682E-2,1.6467685E-3,7.737058E-3,1.7207623E-2,-2.9837512E-3,2.9185975E-3,8.767564E-4,9.945187E-3,1.1623908E-2,1.3321936E-2,1.6561747E-2,7.0278253E-4,3.1148195E-2,6.696563E-3,2.2829404E-2,9.669198E-4,-5.1668608E-3,1.7144614E-3,8.622589E-4,1.2336033E-2,-1.9144493E-3,6.866643E-3,2.0932509E-2,7.2278925E-3,2.6643753E-2,5.328846E-3,3.313732E-2,1.2417853E-2,1.8498821E-4,2.7455488E-2,1.6383648E-2,2.3052692E-3,2.4378414E-3,1.0422945E-2,9.707178E-3,2.7663909E-2,-3.6365986E-3,1.0173957E-2,1.7521229E-2,-5.790846E-3,-7.030821E-4,9.789057E-3,-2.261083E-3,9.215383E-3,4.959917E-2,1.1223701E-2,1.9727273E-2,-2.755647E-3,-4.354587E-3,8.043062E-3,2.8394027E-2,-2.084573E-4,3.8448262E-3,1.1912138E-2,6.727052E-3,1.0525275E-2,3.2994748E-4,6.6734795E-3,1.1259556E-2,8.622837E-3,3.0808724E-3,8.236743E-3,4.3318397E-4,-2.819125E-3,6.431866E-3,9.139038E-3,2.065117E-3,-1.9361769E-3,5.233874E-3,2.2592994E-3,7.267618E-3,-3.54445E-4,1.1868525E-2,6.217051E-3,-2.1740915E-3,-5.4942374E-4,1.739359E-3,3.7086012E-3,3.2566867E-3,1.0398408E-2,-1.8692878E-3,8.132291E-3,-9.125262E-4,1.7503707E-3,6.3907923E-3,2.278798E-3,-9.5481705E-4,5.404501E-3,2.4348614E-3,9.5245605E-3,1.5849067E-2,1.3910437E-2,8.089317E-4,4.3797228E-3,4.537092E-3,8.33509E-3,-3.2973883E-3,-5.44607E-4,-4.1108327E-3,4.4640902E-4,5.072049E-3,1.7074352E-3,6.7466046E-3,1.1766149E-2,2.6405335E-3,-2.765608E-3,-1.4560076E-3,3.5765138E-3,5.708226E-3,1.7439979E-3],"categories":[],"categories_nodes":[],"categories_segments":[],"categories_sizes":[],"default_left":[0,0,0,0,0,0,0,0,0,0,0,0,0,0,0,0,0,0,0,0,0,0,0,0,0,0,0,0,0,0,0,0,0,0,0,0,0,0,0,0,0,0,0,0,0,0,0,0,0,0,0,0,0,0,0,0,0,0,0,0,0,0,0,0,0,0,0,0,0,0,0,0,0,0,0,0,0,0,0,0,0,0,0,0,0,0,0,0,0,0,0,0,0,0,0,0,0,0,0,0,0,0,0,0,0,0,0,0,0,0,0,0,0,0,0,0,0],"id":14,"left_children":[1,3,5,7,9,11,13,15,17,19,21,23,25,27,29,-1,31,33,35,37,39,41,43,45,47,49,51,53,55,57,59,61,63,65,67,69,71,-1,-1,73,75,77,79,81,83,85,87,89,91,93,95,97,99,101,103,105,107,109,111,113,115,-1,-1,-1,-1,-1,-1,-1,-1,-1,-1,-1,-1,-1,-1,-1,-1,-1,-1,-1,-1,-1,-1,-1,-1,-1,-1,-1,-1,-1,-1,-1,-1,-1,-1,-1,-1,-1,-1,-1,-1,-1,-1,-1,-1,-1,-1,-1,-1,-1,-1,-1,-1,-1,-1,-1,-1],"loss_changes":[8.712865E-3,4.7422964E-3,8.3948895E-3,2.6511843E-3,1.7993003E-3,1.0466819E-2,7.5164405E-3,1.0342421E-3,2.365361E-3,1.1448811E-3,3.1955587E-3,1.4031185E-2,7.4556926E-3,7.2058914E-3,3.463271E-3,0E0,8.518597E-4,6.8687415E-4,2.188679E-3,1.1011153E-3,7.14133E-4,1.6494272E-3,3.8146286E-4,1.3222659E-2,8.471977E-3,8.244334E-3,2.8599817E-3,5.3522605E-3,1.8085199E-3,3.6281059E-3,1.4737817E-3,1.0686298E-4,3.576924E-4,3.862381E-5,2.5844586E-4,1.8698312E-3,5.428726E-5,0E0,0E0,8.301665E-4,4.8746448E-4,1.1065876E-3,1.5689395E-3,3.9104365E-5,2.8725277E-5,2.856235E-3,1.3161469E-2,5.106666E-3,2.5250027E-3,4.298069E-3,2.1300423E-3,2.087932E-5,1.9284412E-3,4.079733E-4,2.1915238E-3,7.100324E-4,2.5846735E-3,1.0868777E-3,4.8710607E-4,3.7937297E-3,1.6923952E-3,0E0,0E0,0E0,0E0,0E0,0E0,0E0,0E0,0E0,0E0,0E0,0E0,0E0,0E0,0E0,0E0,0E0,0E0,0E0,0E0,0E0,0E0,0E0,0E0,0E0,0E0,0E0,0E0,0E0,0E0,0E0,0E0,0E0,0E0,0E0,0E0,0E0,0E0,0E0,0E0,0E0,0E0,0E0,0E0,0E0,0E0,0E0,0E0,0E0,0E0,0E0,0E0,0E0,0E0,0E0,0E0],"parents":[2147483647,0,0,1,1,2,2,3,3,4,4,5,5,6,6,7,7,8,8,9,9,10,10,11,11,12,12,13,13,14,14,16,16,17,17,18,18,19,19,20,20,21,21,22,22,23,23,24,24,25,25,26,26,27,27,28,28,29,29,30,30,31,31,32,32,33,33,34,34,35,35,36,36,39,39,40,40,41,41,42,42,43,43,44,44,45,45,46,46,47,47,48,48,49,49,50,50,51,51,52,52,53,53,54,54,55,55,56,56,57,57,58,58,59,59,60,60],"right_children":[2,4,6,8,10,12,14,16,18,20,22,24,26,28,30,-1,32,34,36,38,40,42,44,46,48,50,52,54,56,58,60,62,64,66,68,70,72,-1,-1,74,76,78,80,82,84,86,88,90,92,94,96,98,100,102,104,106,108,110,112,114,116,-1,-1,-1,-1,-1,-1,-1,-1,-1,-1,-1,-1,-1,-1,-1,-1,-1,-1,-1,-1,-1,-1,-1,-1,-1,-1,-1,-1,-1,-1,-1,-1,-1,-1,-1,-1,-1,-1,-1,-1,-1,-1,-1,-1,-1,-1,-1,-1,-1,-1,-1,-1,-1,-1,-1,-1],"split_conditions":[3.1896788E-1,4.3866673E-1,6.1413074E-1,5.2784866E-1,5.7138705E-1,6.2467736E-1,4.37978E-1,5.960451E-1,5.2784866E-1,1.841548E-1,6.922386E-1,6.1413074E-1,4.4806913E-1,3.966594E-1,5.107292E-1,1.1623908E-2,5.5646026E-1,5.960451E-1,7.601405E-1,4.8460642E-1,6.5634644E-1,3.4757918E-1,6.4812565E-1,2.7254304E-1,4.1069022E-1,4.2884076E-1,4.4915327E-1,5.2545255E-1,3.0474165E-1,6.1958754E-1,5.419797E-1,3.9199877E-1,6.5234303E-1,6.064664E-1,7.1781725E-1,6.350662E-1,5.5341077E-1,1.6383648E-2,2.3052692E-3,6.3150847E-1,4.8158318E-1,5.6623924E-1,2.0327906E-1,5.0150025E-1,6.994541E-1,4.3866673E-1,7.467736E-1,4.1069022E-1,6.2183493E-1,7.467736E-1,5.94271E-1,4.4915327E-1,3.5976857E-1,5.87931E-1,3.9102295E-1,6.208659E-1,4.8460642E-1,4.908858E-1,4.7614893E-1,4.1351488E-1,3.7359452E-1,6.727052E-3,1.0525275E-2,3.2994748E-4,6.6734795E-3,1.1259556E-2,8.622837E-3,3.0808724E-3,8.236743E-3,4.3318397E-4,-2.819125E-3,6.431866E-3,9.139038E-3,2.065117E-3,-1.9361769E-3,5.233874E-3,2.2592994E-3,7.267618E-3,-3.54445E-4,1.1868525E-2,6.217051E-3,-2.1740915E-3,-5.4942374E-4,1.739359E-3,3.7086012E-3,3.2566867E-3,1.0398408E-2,-1.8692878E-3,8.132291E-3,-9.125262E-4,1.7503707E-3,6.3907923E-3,2.278798E-3,-9.5481705E-4,5.404501E-3,2.4348614E-3,9.5245605E-3,1.5849067E-2,1.3910437E-2,8.089317E-4,4.3797228E-3,4.537092E-3,8.33509E-3,-3.2973883E-3,-5.44607E-4,-4.1108327E-3,4.4640902E-4,5.072049E-3,1.7074352E-3,6.7466046E-3,1.1766149E-2,2.6405335E-3,-2.765608E-3,-1.4560076E-3,3.5765138E-3,5.708226E-3,1.7439979E-3],"split_indices":[3,7,2,5,0,3,0,1,1,3,0,4,5,4,7,0,0,5,6,0,1,4,4,2,6,1,5,6,1,5,0,0,0,0,5,2,0,0,0,1,7,5,3,6,0,6,7,2,4,3,2,0,2,3,5,3,5,3,0,1,1,0,0,0,0,0,0,0,0,0,0,0,0,0,0,0,0,0,0,0,0,0,0,0,0,0,0,0,0,0,0,0,0,0,0,0,0,0,0,0,0,0,0,0,0,0,0,0,0,0,0,0,0,0,0,0,0],"split_type":[0,0,0,0,0,0,0,0,0,0,0,0,0,0,0,0,0,0,0,0,0,0,0,0,0,0,0,0,0,0,0,0,0,0,0,0,0,0,0,0,0,0,0,0,0,0,0,0,0,0,0,0,0,0,0,0,0,0,0,0,0,0,0,0,0,0,0,0,0,0,0,0,0,0,0,0,0,0,0,0,0,0,0,0,0,0,0,0,0,0,0,0,0,0,0,0,0,0,0,0,0,0,0,0,0,0,0,0,0,0,0,0,0,0,0,0,0],"sum_hessian":[2.56E3,2.6E2,2.3E3,1.78E2,8.2E1,1.753E3,5.47E2,1E1,1.68E2,4.7E1,3.5E1,1.368E3,3.85E2,4.31E2,1.16E2,2E0,8E0,1E1,1.58E2,2E0,4.5E1,2.6E1,9E0,9.34E2,4.34E2,3.16E2,6.9E1,2.94E2,1.37E2,2.3E1,9.3E1,3E0,5E0,2E0,8E0,1.55E2,3E0,1E0,1E0,2.1E1,2.4E1,7E0,1.9E1,6E0,3E0,2.5E1,9.09E2,3.34E2,1E2,2.3E2,8.6E1,2E0,6.7E1,1.1E1,2.83E2,1.3E1,1.24E2,1.7E1,6E0,5.4E1,3.9E1,2E0,1E0,4E0,1E0,1E0,1E0,7E0,1E0,1.37E2,1.8E1,1E0,2E0,1.4E1,7E0,7E0,1.7E1,3E0,4E0,7E0,1.2E1,2E0,4E0,1E0,2E0,1.8E1,7E0,8.97E2,1.2E1,2.46E2,8.8E1,1.6E1,8.4E1,2.2E2,1E1,8.2E1,4E0,1E0,1E0,1.9E1,4.8E1,7E0,4E0,2.9E1,2.54E2,5E0,8E0,2.6E1,9.8E1,1.1E1,6E0,3E0,3E0,2.6E1,2.8E1,1.8E1,2.1E1],"tree_param":{"num_deleted":"0","num_feature":"8","num_nodes":"117","size_leaf_vector":"1"}},{"base_weights":[-1.8067658E-8,-8.736476E-4,2.9042098E-3,-2.1117204E-3,2.1183614E-3,1.2629185E-3,8.355213E-3,-3.3940405E-3,3.8916315E-3,1.1057367E-2,3.9718658E-4,-7.771052E-4,5.537254E-3,1.8961864E-2,6.3261157E-3,-5.169489E-3,2.077627E-3,2.907848E-3,1.2950639E-2,1.65658E-2,7.417866E-3,-1.1903694E-3,8.276168E-3,8.507367E-3,-1.7421579E-3,3.7390947E-2,5.097892E-3,2.8307745E-2,2.6065707E-3,8.991438E-3,3.096975E-3,8.134201E-3,-6.2850676E-3,1.2936824E-3,1.702857E-2,6.290057E-3,-2.0151457E-3,1.5893528E-2,-7.6495805E-3,4.41401E-2,1.4990126E-2,8.837764E-3,-1.1040807E-2,-3.1677054E-3,8.187853E-3,7.046174E-3,4.0256023E-2,1.7317425E-3,1.2648026E-2,-1.1028958E-3,-1.7316906E-2,1.0878611E-2,1.1555959E-2,5.482787E-3,-2.2422075E-2,1.24566555E-2,3.464818E-2,1.3995647E-2,-8.782506E-3,6.952124E-3,2.5305953E-2,-1.2095118E-2,3.9482303E-3,5.4640305E-4,5.426728E-3,2.3203255E-3,-2.2025155E-3,1.443619E-4,4.482985E-3,8.48474E-3,6.0701376E-4,1.5913172E-3,7.1251327E-3,-3.9867475E-3,7.6947664E-4,7.51675E-3,2.7065398E-3,2.1487714E-3,-4.516697E-3,1.5572405E-2,1.0911656E-2,4.9918992E-3,6.618619E-4,2.9807917E-3,-2.729893E-3,-1.8019677E-3,-7.843066E-3,-1.3099262E-3,9.860736E-4,3.3560153E-3,-1.4883042E-3,3.0010655E-3,-1.3240994E-3,1.3508321E-2,9.213782E-3,-6.818771E-5,3.16422E-3,4.901207E-3,1.5808106E-3,3.3190202E-3,-6.093744E-4,-3.3595564E-3,-1.0089779E-2,1.8116668E-3,-4.1525248E-3,-5.2107815E-3,-8.242465E-3,2.6663304E-3,6.948996E-3,1.3486553E-2,5.756307E-3,5.4038046E-3,5.833626E-4,-4.312563E-3,-9.569407E-4,2.594579E-3,3.6022882E-6,1.4516116E-2,6.437731E-3,9.708882E-4,6.417203E-3],"categories":[],"categories_nodes":[],"categories_segments":[],"categories_sizes":[],"default_left":[0,0,0,0,0,0,0,0,0,0,0,0,0,0,0,0,0,0,0,0,0,0,0,0,0,0,0,0,0,0,0,0,0,0,0,0,0,0,0,0,0,0,0,0,0,0,0,0,0,0,0,0,0,0,0,0,0,0,0,0,0,0,0,0,0,0,0,0,0,0,0,0,0,0,0,0,0,0,0,0,0,0,0,0,0,0,0,0,0,0,0,0,0,0,0,0,0,0,0,0,0,0,0,0,0,0,0,0,0,0,0,0,0,0,0,0,0,0,0,0,0],"id":15,"left_children":[1,3,5,7,9,11,13,15,17,19,